0 0 0.0111376
0 2 7.55439e-06
0 290 0.490548
0 300 0.000809991
0 302 0.000888099
0 599 3.01045e-05
0 614 7.71766e-06
0 873 0.000654354
0 1066 5.63764e-07
0 2116 1.55089e-07
0 2953 3.45592e-06
0 2979 2.59844e-05
0 3003 0.000288535
0 3326 0.000698047
0 3327 0.00120273
0 3328 0.000267889
0 3329 0.000379253
0 3344 0.000799055
0 3346 1.29883e-06
0 3347 7.70896e-06
0 3474 0.00967333
0 3478 0.000147812
0 3479 7.71436e-06
0 3480 7.36167e-06
0 3481 1.12704e-06
0 3483 1.01753e-06
0 3486 1.75082e-05
0 3498 0.00249729
0 3499 0.000743115
0 3500 0.000453027
0 3501 0.0023667
0 3522 8.87386e-05
0 3546 0.0663145
0 3612 7.11367e-06
0 3621 0.00139602
0 3672 0.00126159
0 3811 0.00275374
0 4005 3.45455e-06
0 4131 9.20313e-06
0 4330 1.03056e-07
0 4407 1.03384e-07
0 4471 9.18022e-07
0 4475 7.549e-06
0 4523 1.02722e-06
0 4783 6.16079e-05
0 4785 5.56325e-07
0 4832 6.75017e-06
0 4845 6.95762e-06
0 4888 0.000320633
0 4899 1.34074e-07
0 5310 2.5201e-06
0 5311 7.84885e-06
0 5341 8.58246e-06
0 5348 1.28821e-07
0 5353 7.73178e-06
0 5562 0.000109587
0 5685 1.44388e-07
0 5709 2.11692e-05
0 5738 7.15682e-07
0 5747 2.8085e-05
0 5778 5.3295e-07
0 5781 4.52753e-07
0 5782 1.1278e-06
0 5956 1.3252e-07
0 5994 1.65629e-05
0 6011 0.00100564
0 6012 3.98885e-07
0 6056 9.14506e-06
0 6071 1.09475e-07
0 6077 1.26504e-07
0 6108 0.00054298
0 6266 2.31581e-05
0 6398 4.78977e-07
0 6667 3.40478e-07
0 6697 3.39856e-07
0 6767 6.78079e-06
0 7117 1.62785e-07
0 7147 4.29918e-07
0 7357 1.46444e-07
0 7359 9.05441e-07
0 7683 3.62552e-05
0 7705 2.16975e-06
0 7712 2.60814e-07
0 7758 1.26213e-05
0 8007 1.38141e-07
0 8417 1.17169e-05
0 8458 2.83818e-05
0 8490 1.07893e-06
0 8810 5.6432e-07
0 8814 1.06174e-06
0 8842 7.1802e-07
0 8843 5.07722e-06
0 8844 3.69371e-05
0 8845 2.66916e-05
0 8846 1.46402e-05
0 8849 2.99323e-05
0 8850 7.79932e-05
0 8852 9.84155e-05
0 8856 5.43767e-05
0 8860 7.05127e-07
0 8863 3.443e-07
0 8891 1.70357e-07
0 8934 1.70641e-07
0 9322 1.11571e-07
0 9369 2.83833e-07
0 9370 0.00139763
0 9390 4.87959e-07
0 9397 0.000554634
0 9444 3.28528e-05
0 9447 5.36242e-07
0 9484 2.22459e-05
0 9675 5.92808e-06
0 9786 2.45524e-05
0 9822 8.71718e-07
0 9850 4.16238e-07
0 10040 1.24542e-07
0 10273 7.01188e-06
0 10459 6.93986e-06
0 10560 0.0013124
0 10633 1.78873e-07
0 10642 2.15599e-05
0 10651 0.000109695
0 10660 5.46478e-05
0 10670 0.00118641
0 10681 5.90309e-05
0 10682 0.00094745
0 10684 0.000505332
0 10685 2.46642e-05
0 10804 0.00268948
0 11163 0.00455225
0 11348 1.7485e-07
0 11472 1.40337e-06
0 11817 3.40672e-07
0 11932 1.4682e-06
0 11943 3.2974e-06
0 12033 3.28368e-06
0 12321 1.51048e-07
0 12341 1.19336e-07
0 12373 1.38996e-07
0 12432 3.55643e-06
0 12433 3.44686e-06
0 12456 8.12617e-07
0 12468 1.0954e-07
0 13066 2.2844e-05
0 13207 2.01914e-07
0 13249 8.15814e-06
0 13373 3.61623e-06
0 13389 4.74446e-06
0 13575 4.32196e-05
0 13578 8.82815e-06
0 13579 8.61447e-06
0 13647 6.44586e-06
0 13661 9.72378e-06
0 13666 4.49321e-05
0 13677 1.56121e-05
0 13767 0.00891653
0 13909 1.09339e-05
0 13920 0.00123543
0 13921 0.000113523
0 13992 7.63263e-06
0 13994 6.38068e-06
0 14003 1.1863e-05
0 14143 1.13208e-07
0 14222 5.63281e-06
0 14340 2.51382e-05
0 14364 4.28576e-05
0 14365 5.34526e-05
0 14366 3.67352e-05
0 14583 1.009e-07
0 14604 3.0395e-06
0 15099 1.69331e-07
0 15128 1.655e-06
0 15163 0.0021424
0 15197 3.02266e-07
0 15229 0.00726508
0 15236 2.71065e-06
0 15244 4.87909e-06
0 15267 1.04698e-07
0 15272 4.26711e-07
0 15697 2.48946e-07
0 16031 2.41858e-07
0 16089 7.84428e-05
0 16130 0.000614724
0 16132 3.4172e-06
0 16135 5.15142e-05
0 16147 0.000165904
0 16162 1.28679e-05
0 16480 1.57172e-05
0 16514 1.35968e-05
0 16680 2.27191e-07
0 16987 3.76877e-05
0 16988 1.30375e-07
0 16989 3.93925e-06
0 16990 0.000202099
0 16991 1.71446e-05
0 16993 0.000556026
0 16994 0.000130104
0 16995 0.000364615
0 16996 7.45432e-06
0 16998 2.41797e-05
0 17463 9.24836e-06
0 17599 1.30949e-07
0 17615 1.72254e-07
0 17752 3.70617e-07
0 18003 1.03623e-05
0 18078 0.00235008
0 18216 3.18091e-06
0 18328 4.92821e-07
0 18457 1.61442e-05
0 18542 3.70158e-06
0 18544 1.43275e-07
0 19087 2.0321e-05
0 19156 7.18081e-06
0 19172 0.00129912
0 19234 7.16175e-07
0 19235 2.92929e-05
0 19255 1.36396e-07
0 19614 0.00135476
0 19652 1.9976e-05
0 19663 3.43799e-05
0 19673 3.92204e-06
0 19675 3.29369e-06
0 19710 3.15566e-06
0 19711 9.65222e-07
0 19712 3.18918e-07
0 19713 1.26289e-06
0 19725 3.12331e-07
0 19730 1.48985e-07
0 20174 0.000431248
0 20189 5.64573e-06
0 20195 7.6128e-06
0 20308 0.0405122
0 20333 3.56461e-07
0 20398 3.70429e-07
0 20505 6.18833e-05
0 20575 5.38475e-05
0 20663 1.72986e-07
0 20899 0.000116156
0 21298 0.000101959
0 21308 3.26554e-06
0 21354 1.3882e-07
0 21453 7.72061e-06
0 21472 5.19363e-07
0 21555 7.02745e-07
0 21560 5.32129e-05
0 21564 4.62791e-07
0 21565 2.21653e-06
0 21567 2.4648e-07
0 21569 5.70399e-06
0 21579 1.76849e-05
0 21584 2.22258e-05
0 21666 1.04448e-07
0 21701 4.72304e-06
0 21712 0.0432794
0 21926 3.62027e-05
0 22216 2.20166e-05
0 22591 5.27504e-07
0 22654 7.734e-06
0 22787 6.90014e-06
0 22837 1.18351e-06
0 22868 0.000365749
0 22935 6.20232e-06
0 22986 7.82073e-06
0 23016 0.0016484
0 23018 7.96493e-06
0 23046 1.70461e-05
0 23061 1.13664e-05
0 23070 1.83943e-07
0 23095 3.13372e-06
0 23097 0.000456426
0 23148 1.36234e-07
0 23342 3.1008e-05
0 23368 2.51738e-07
0 23429 1.44802e-06
0 23432 0.00165189
0 23433 0.00164386
0 23505 7.3702e-06
0 23907 1.33151e-06
0 23936 2.19639e-07
0 23939 6.02588e-07
0 23976 2.91076e-05
0 23995 1.4859e-07
0 23998 3.32431e-07
0 24160 2.18211e-07
0 24575 8.39089e-06
0 24614 2.8684e-07
0 24617 2.7857e-07
0 24639 1.74511e-07
0 24641 6.60868e-07
0 24653 1.1357e-07
0 24802 2.17966e-05
0 24822 1.21367e-07
0 24983 0.0016752
0 24985 0.000691191
0 24990 6.66191e-05
0 24994 5.80594e-07
0 25187 1.4471e-07
0 25606 2.58024e-06
0 25676 9.93147e-07
0 25724 7.35808e-06
0 25877 0.00221512
0 25973 2.14465e-05
0 26465 4.17211e-07
0 26469 3.37887e-07
0 26470 1.29008e-05
0 26473 5.57681e-06
0 26477 1.56665e-07
0 26789 5.96013e-07
0 26825 5.76574e-06
0 26850 7.59711e-06
0 27021 0.000456956
0 27024 2.24498e-07
0 27104 2.40189e-07
0 27144 5.73435e-07
0 27649 4.48811e-07
0 27709 3.7336e-07
0 28413 1.78421e-07
0 28457 6.74165e-06
0 28553 7.71518e-06
0 28604 6.21979e-06
0 28910 0.00191002
0 28924 2.59138e-06
0 28935 5.96663e-06
0 29224 0.00012483
0 29414 7.57579e-06
0 29474 8.79443e-07
0 29694 2.52711e-07
0 29973 1.54279e-06
0 30001 1.47076e-06
0 30120 1.10524e-05
0 30272 4.43362e-07
0 30277 9.69954e-07
0 30354 6.93159e-07
0 30464 5.42311e-06
0 30465 1.61171e-06
0 30558 1.57863e-05
0 30559 2.95318e-06
0 30613 1.51465e-07
0 30675 8.45419e-07
0 30682 5.80876e-07
0 30710 3.48306e-07
0 30711 5.16792e-06
0 31220 5.58798e-07
0 31224 7.22663e-06
0 31240 8.06366e-05
0 31486 2.19158e-05
0 31489 9.51411e-06
0 31593 6.29592e-06
0 31598 9.17425e-06
0 31601 7.77368e-06
0 31611 1.13253e-05
0 31674 1.2376e-07
0 31849 6.51706e-07
0 32431 2.2797e-05
0 32434 3.02313e-06
0 32436 1.54638e-05
0 32441 9.8032e-05
0 32615 1.07425e-05
0 32767 1.70288e-06
0 32820 4.18887e-05
0 32886 8.45895e-06
0 32926 8.12386e-06
0 32940 1.10656e-07
0 32999 1.06701e-07
0 33065 1.76577e-05
0 33549 6.10592e-06
0 33561 5.95526e-07
0 33831 3.85767e-05
0 34210 2.44427e-07
0 34220 1.02303e-07
0 34262 1.67716e-07
0 34519 1.13087e-07
0 34554 8.22484e-06
0 34569 1.00624e-06
0 34655 5.67967e-06
0 34788 7.79965e-06
0 34883 7.05182e-07
0 34959 3.33136e-07
0 35036 3.88627e-06
0 35044 1.18571e-05
0 35085 5.73599e-07
0 35150 1.32842e-06
0 35151 2.02934e-06
0 35157 6.83122e-06
0 35165 4.86861e-06
0 35212 5.74694e-06
0 35443 1.24122e-07
0 36124 1.3561e-07
0 36354 7.62975e-06
0 36361 2.77233e-07
0 36452 4.44799e-06
0 36612 7.69706e-06
0 36933 9.80591e-07
0 36985 3.68332e-07
0 37030 8.19923e-05
0 37120 2.61508e-05
0 37256 2.09104e-07
0 37841 3.42427e-06
0 38104 6.2784e-06
0 38938 6.39686e-06
0 38939 1.10717e-07
0 38980 2.67841e-06
0 39073 7.70321e-06
0 39192 1.84715e-05
0 39203 6.1615e-06
0 39341 8.11095e-07
0 39346 0.0239718
0 39414 5.80474e-06
0 39415 1.43754e-05
0 39438 3.07788e-07
0 39643 7.76358e-06
0 39662 6.55949e-06
0 39788 1.22128e-07
0 39885 2.07919e-07
0 39893 2.78796e-05
0 39894 1.12659e-06
0 39895 2.02179e-06
0 40044 2.275e-05
0 40045 1.40813e-05
0 40046 4.04e-05
0 40049 0.00030851
0 40050 2.12867e-05
0 40051 1.02352e-05
0 40065 0.000731416
0 40069 2.07497e-06
0 40101 0.00025254
0 40103 0.00068049
0 40121 8.3968e-06
0 40161 0.000297068
0 40162 1.51261e-06
0 40481 4.77288e-06
0 40482 6.73315e-06
0 40635 5.87994e-06
0 40640 1.08135e-05
0 40787 1.99946e-07
0 40956 1.1374e-07
0 41154 1.50937e-07
0 41156 1.16134e-05
0 41274 1.84622e-06
0 41479 3.10498e-07
0 41498 3.47553e-07
0 41527 1.30972e-07
0 41746 0.000711776
0 41835 3.54113e-05
0 41906 6.58258e-06
0 41938 1.73727e-07
0 42007 0.000204675
0 42149 1.71747e-07
0 42338 3.49311e-06
0 42499 8.68481e-06
0 42501 1.11612e-07
0 42511 1.53231e-06
0 42513 7.0805e-06
0 42720 2.78279e-07
0 43013 4.99992e-06
0 43015 1.34011e-06
0 43025 1.8283e-06
0 43041 1.22123e-06
0 43292 0.000257655
0 43294 7.95236e-05
0 43604 2.75086e-07
0 43608 2.62841e-06
0 43989 6.16681e-07
0 44100 2.58996e-07
0 44373 5.86085e-06
0 44391 4.95805e-06
0 44425 3.66764e-07
0 44535 2.92694e-05
0 44593 0.00972311
0 44597 0.000148124
0 44598 2.88969e-07
0 44600 1.09403e-06
0 44601 5.93213e-05
0 44609 9.27001e-05
0 44610 0.000297205
0 44611 0.000703915
0 44631 4.55773e-05
0 44655 0.00028825
0 44751 3.33656e-06
0 44783 0.00170096
0 44785 5.10767e-06
0 44786 0.00206841
0 44889 9.86762e-05
0 44890 9.72388e-07
0 44926 1.9146e-07
0 44961 8.29121e-06
0 45101 7.52489e-06
0 45161 0.0029076
0 45163 1.79871e-07
0 45177 4.57831e-06
0 45178 0.00143656
0 45180 3.71198e-06
0 45216 6.01766e-06
0 45245 0.000230176
0 45248 0.00237889
0 45264 0.000791912
0 45266 7.71314e-06
0 45387 0.000168912
0 45403 0.000165376
0 45741 1.21593e-06
0 45847 4.89033e-06
0 45940 0.000217661
0 45975 0.000632756
0 46117 0.0425537
0 46371 1.26023e-06
0 46494 2.32478e-07
0 46605 1.04955e-06
0 46618 1.08752e-06
0 46729 4.39115e-06
0 46787 0.000326329
0 46817 0.00292048
0 46867 1.55323e-07
0 47057 2.75218e-07
0 47542 7.55754e-06
0 48133 1.0874e-06
0 48156 1.00688e-07
0 48204 7.32895e-06
0 48819 3.35321e-06
0 48847 7.81009e-06
0 48967 1.31997e-06
0 48978 8.86665e-06
0 48979 1.62e-06
0 48996 8.55776e-06
0 49237 1.34724e-07
0 49389 5.79784e-06
0 49401 5.16057e-06
0 49404 7.28664e-06
0 49447 0.000718663
0 49459 1.59749e-05
0 49482 7.97369e-05
0 49485 1.60244e-05
0 49524 9.24288e-05
0 49801 0.111055
0 49804 5.09458e-05
0 49807 6.70642e-05
0 49808 0.0237397
0 49827 1.5465e-07
0 49833 6.09323e-07
0 49880 3.10007e-07
0 49912 5.44442e-05
0 50139 5.71199e-07
0 50770 9.83939e-07
0 50777 9.96901e-05
0 50784 0.0194817
0 50787 0.00674932
0 50790 0.000740568
0 50792 3.29013e-06
0 50793 5.29307e-07
0 50875 0.00071382
0 50912 4.54785e-06
0 51114 2.44543e-05
0 51115 0.000438747
1 1 0.498194
1 2 0.284677
1 302 0.00350021
1 753 0.0355852
1 869 0.0355852
1 16514 0.0355845
1 45403 0.0355846
1 46787 0.0711653
1 46817 0.000123908
2 174 0.265459
2 762 0.26546
2 867 0.265459
2 14886 0.203622
3 718 1
4 216 0.666667
4 722 0.333333
5 131 0.999982
5 43249 1.82273e-05
6 34 0.250086
6 300 0.249751
6 3273 0.250086
6 46410 0.250076
7 23 1
8 38 0.780279
8 588 0.219721
9 726 0.499952
9 31759 8.57991e-05
9 41135 0.499962
10 78 1
11 206 1
12 40 0.315793
12 67 0.105264
12 116 0.0526321
12 178 0.0526321
12 181 0.0526321
12 186 0.0526217
12 193 0.105264
12 196 0.052632
12 212 0.0526321
12 744 0.0526321
12 858 0.105264
13 5 0.999984
13 709 1.6383e-05
14 24 1
15 729 0.50001
15 31599 0.499983
15 51115 6.79167e-06
16 214 0.342205
16 13874 0.315616
16 48998 0.342178
17 7 0.33332
17 15643 0.33334
17 34510 0.33334
18 15 0.250143
18 8446 0.250106
18 16134 0.250142
18 50784 0.24961
19 300 0.124994
19 5630 0.125002
19 9397 0.124997
19 16660 0.125003
19 23120 0.250005
19 46341 0.125002
19 51115 0.124998
20 19 0.331906
20 9397 0.330439
20 9439 0.337655
21 30 0.077473
21 100 0.0774733
21 103 0.0774731
21 104 0.387366
21 214 0.077476
21 18078 0.0710922
21 19673 0.0774381
21 42995 0.0774646
21 51115 0.0767435
22 781 1
23 588 0.25
23 751 0.25
23 22339 0.25
23 24029 0.25
24 238 0.494054
24 11912 0.494046
24 50954 0.0118995
25 264 0.500052
25 7683 0.499948
26 240 0.250095
26 15720 0.250095
26 39346 0.249714
26 44777 0.250095
27 850 1
28 40 0.166667
28 133 0.166667
28 193 0.166667
28 744 0.166667
28 822 0.166665
28 858 0.166667
29 40 0.117672
29 64 0.0882539
29 65 0.0588358
29 126 0.029418
29 193 0.176508
29 194 0.0882542
29 200 0.117672
29 764 0.0294178
29 774 0.0588328
29 858 0.0882542
29 859 0.0294181
29 10288 0.0588347
29 10560 1.2727e-06
29 10684 1.33936e-06
29 45161 0.0586249
30 63 1
31 231 0.766489
31 25877 0.233511
32 132 0.2
32 133 0.2
32 194 0.4
32 854 0.2
33 117 0.48347
33 300 0.033106
33 2653 0.161156
33 19615 0.161111
33 49805 0.161157
34 51 0.573227
34 300 0.426773
35 38 0.500222
35 34086 0.499778
36 39 1
37 736 1
38 234 0.528835
38 3546 8.5664e-05
38 45248 0.47108
40 838 0.500005
40 51114 0.499995
41 129 0.500052
41 49912 0.499948
42 252 0.334289
42 23889 0.332967
42 28961 0.332744
43 220 1
44 763 0.5
44 44926 0.5
45 784 1
46 225 0.333354
46 15643 0.333293
46 25488 0.333353
47 155 0.248549
47 195 0.248549
47 588 0.254427
47 5291 0.248475
48 16 1
49 52 0.5
49 53 0.5
50 269 1
51 146 0.250002
51 263 0.250002
51 45830 0.249993
51 48564 0.250002
52 229 0.742986
52 3327 0.0102069
52 38971 0.246807
53 226 0.5
53 41151 0.5
54 159 0.206828
54 9383 0.206828
54 14013 0.206827
54 27516 0.172689
54 39009 0.206828
55 91 1
56 40 0.0999981
56 139 0.199996
56 193 0.399993
56 858 0.299994
56 30377 1.84801e-05
57 31 0.167074
57 185 0.167072
57 746 0.167075
57 780 0.167075
57 806 0.167075
57 48161 0.164629
58 257 1
59 766 0.142852
59 870 0.142852
59 40787 0.142852
59 45646 0.142852
59 50849 0.142851
59 51115 0.28574
60 136 0.512367
60 588 0.358314
60 43037 0.129319
61 30579 1
62 826 1
63 190 0.5
63 6210 0.5
64 36 0.366678
64 300 0.266238
64 30414 0.367083
66 281 1
67 18 0.137875
67 50 0.0275749
67 76 0.248174
67 112 0.0275749
67 138 0.0275749
67 165 0.248175
67 166 0.0275749
67 193 0.0275749
67 777 0.0275749
67 824 0.0275679
67 838 0.0551499
67 858 0.0275749
67 8841 0.000181584
67 11022 0.0264289
67 15229 0.00010085
67 26332 0.00653578
67 30466 0.0275673
67 32967 0.00399283
67 51115 0.0252269
68 714 0.251282
68 719 0.2513
68 777 0.251297
68 30464 0.246121
69 43 5.57597e-07
69 55 0.00889087
69 66 0.00889071
69 75 0.0088908
69 98 0.0355635
69 113 0.0622361
69 114 0.00889037
69 115 0.00889087
69 117 0.0355634
69 122 0.00889086
69 127 0.00889087
69 142 0.00889069
69 152 0.00889087
69 176 0.00889019
69 194 0.0266726
69 199 0.0266726
69 214 0.3201
69 284 0.0533452
69 300 0.0200308
69 588 7.22803e-05
69 752 0.00889082
69 765 0.0177815
69 790 0.00888899
69 795 0.0110366
69 798 0.00889085
69 859 0.0533452
69 871 0.0889102
69 3474 1.40234e-07
69 6387 0.00888554
69 10671 0.00888477
69 11694 0.000210151
69 13340 0.00888825
69 13667 0.00133782
69 19172 2.10394e-07
69 19674 0.00888544
69 20394 0.0088906
69 23097 8.25467e-07
69 44786 1.38288e-05
69 47669 8.60263e-07
69 51114 0.0355563
69 51115 0.0515371
70 214 0.977242
70 3474 0.0100115
70 45180 0.0127466
71 214 0.530657
71 599 0.204023
71 5169 0.26532
72 27 0.0963028
72 98 0.144454
72 208 0.0923062
72 214 0.385211
72 721 0.0481506
72 871 0.144454
72 4020 8.11947e-07
72 44784 7.02095e-07
72 51115 0.0891195
73 859 1
74 767 0.111111
74 792 0.111111
74 24780 0.111111
74 30117 0.111111
74 31785 0.111107
74 31792 0.111111
74 39885 0.111111
74 41746 0.111117
74 46381 0.111111
75 204 0.509248
75 19507 0.453248
75 34229 0.0375044
76 40 0.0832419
76 132 0.083242
76 133 0.166484
76 210 0.083242
76 212 0.0832419
76 213 0.083242
76 588 0.0010963
76 791 0.083242
76 794 0.083242
76 806 0.083242
76 807 0.0832419
76 866 0.083242
77 18 0.33074
77 20688 0.00866331
77 21712 1.80499e-05
77 37120 0.33071
77 44786 0.164644
77 45975 0.165225
78 46 0.0840732
78 106 0.0840732
78 148 0.0840733
78 300 0.00936661
78 730 0.0840733
78 739 0.0840733
78 743 0.0840733
78 23098 0.083945
78 44596 0.0840731
78 44656 0.0840713
78 51114 0.168134
78 51115 0.06597
79 112 0.999325
79 18004 0.000674745
80 54 0.0828867
80 58 0.0414431
80 74 0.0414434
80 112 0.0828867
80 117 0.0414433
80 131 0.00733886
80 132 0.0414434
80 133 0.0414434
80 148 0.0414434
80 149 0.0414431
80 162 1.64029e-05
80 212 0.0414431
80 300 0.220902
80 821 0.0414434
80 839 0.0828864
80 40654 0.0817255
80 45635 9.05128e-07
80 50876 0.0414129
80 51115 0.0269543
81 646 1
82 775 0.25
82 13991 0.25
82 29445 0.25
82 35588 0.25
83 300 0.214267
83 710 0.314338
83 10805 0.157166
83 13767 4.98056e-06
83 24620 0.157168
83 45161 0.157056
84 672 0.249692
84 720 0.249692
84 46117 0.00130718
84 50628 0.249692
84 51115 0.249616
85 9 0.25
85 13372 0.25
85 29445 0.25
85 49417 0.25
86 10 0.290989
86 11 0.291038
86 661 0.291038
86 714 0.126934
87 156 1
88 159 0.225332
88 13767 0.221955
88 20728 0.225332
88 30448 0.225332
88 37918 0.102048
89 255 1
90 84 1
91 137 0.584834
91 588 0.415166
92 48 0.111568
92 49 0.111568
92 145 0.111568
92 163 0.111568
92 588 0.107792
92 755 0.111568
92 22324 0.111233
92 26137 0.111568
92 44306 0.111568
93 168 0.5
93 840 0.5
94 246 0.707681
94 3327 0.0564335
94 41156 0.235886
95 95 0.125041
95 785 0.125041
95 3373 0.125041
95 14359 0.125029
95 20308 0.249854
95 21646 0.12504
95 33033 0.124956
96 219 1
97 117 0.142985
97 588 0.142985
97 10592 0.142534
97 10969 0.142599
97 40652 0.142984
97 48801 0.142928
97 49460 0.142985
98 99 1
99 110 0.333334
99 209 0.333333
99 40535 0.333333
100 100 0.125005
100 104 0.625026
100 214 0.125005
100 19673 0.124964
101 103 0.333343
101 3522 0.333337
101 27092 0.333321
102 214 0.122337
102 790 0.122731
102 871 0.122692
102 28977 9.52039e-05
102 42741 0.0111475
102 42848 0.0112722
102 45181 0.00377026
102 45182 0.245365
102 51115 0.36059
103 2928 1
104 105 0.0838489
104 194 0.0838489
104 793 0.167698
104 11421 0.0832194
104 16421 0.0838488
104 19172 0.0838419
104 36783 0.0838452
104 36932 0.0838488
104 51115 0.246
105 21491 1
106 214 0.271544
106 300 0.253252
106 25606 0.0678864
106 40526 0.0678867
106 45181 0.271545
106 45182 0.067886
107 46 0.0403704
107 117 0.0403704
107 118 0.504632
107 119 0.161482
107 120 0.020185
107 254 0.0403705
107 300 0.0512933
107 799 0.0807411
107 800 0.0201849
107 4918 0.0201851
107 46736 0.0201852
108 254 0.333516
108 22563 0.166761
108 41135 0.166766
108 41151 0.166256
108 44783 0.166701
109 123 0.407303
109 13577 0.403528
109 21712 0.189169
110 117 0.449451
110 734 0.149817
110 22870 0.149816
110 27022 0.000399363
110 32136 3.88925e-06
110 51115 0.250514
111 124 0.8
111 802 0.2
113 265 0.333334
113 830 0.333334
113 6514 0.333332
114 811 0.338471
114 8419 0.338471
114 49801 0.323058
115 738 0.200462
115 22870 0.200462
115 26280 0.200453
115 50875 0.199987
115 51115 0.198637
116 112 1
117 259 0.505333
117 13650 0.494667
118 185 1
119 140 0.33404
119 588 0.33404
119 11163 0.33192
120 141 1
121 260 0.858684
121 3546 0.0017562
121 15643 0.13956
122 32 0.167053
122 3327 0.166855
122 9375 0.167052
122 10373 0.167052
122 40125 0.164928
122 44593 8.27253e-06
122 45180 0.167052
123 143 0.333334
123 817 0.333333
123 39363 0.333333
124 153 1
126 268 0.995394
126 20308 0.00460612
127 30 0.166861
127 179 0.166861
127 300 0.332568
127 45180 0.333711
128 90 0.251532
128 214 0.251532
128 7680 0.251523
128 7691 0.245414
129 258 1
130 172 1
131 164 0.83206
131 300 0.163419
131 50784 0.00452134
132 71 1
133 50784 1
134 161 0.557177
134 588 0.442823
135 868 1
137 74 0.0472938
137 98 0.0472943
137 214 0.189168
137 300 0.192575
137 871 0.0472922
137 15546 0.00577517
137 42010 0.0471544
137 45181 0.283765
137 45182 0.0472885
137 51114 0.0472526
137 51115 0.0451405
138 797 0.510721
138 40066 0.0106293
138 51115 0.47865
139 86 0.25
139 87 0.75
140 829 0.333568
140 34647 0.333568
140 51115 0.332865
141 177 0.666667
141 275 0.333333
142 170 0.0924893
142 171 0.184979
142 272 0.265994
142 843 0.0924893
142 3327 0.364049
143 170 0.142187
143 171 0.142187
143 798 0.142187
143 843 0.284373
143 3621 0.00474287
143 31488 0.142175
143 51115 0.14215
144 272 0.65563
144 3327 0.34437
145 588 0.00974057
145 828 0.141124
145 869 0.282247
145 1361 0.141102
145 13640 0.141123
145 27659 0.141076
145 51115 0.143587
146 10 1.38845e-06
146 29 0.123711
146 96 0.123711
146 180 0.123711
146 714 1.34525e-06
146 841 0.123711
146 13344 0.012726
146 13767 0.122495
146 16824 0.123711
146 41207 0.122867
146 45161 0.123355
147 17 0.999972
147 50912 2.84961e-05
148 851 0.338112
148 22870 0.324317
148 51115 0.337571
149 112 0.166613
149 169 0.166613
149 10971 0.166612
149 19652 0.166413
149 20073 0.166611
149 28452 0.166613
149 44594 0.000526
150 45 0.773065
150 588 0.226935
151 101 0.127837
151 102 0.127837
151 112 0.127837
151 134 0.255674
151 19726 0.125345
151 40410 4.57719e-06
151 43633 3.40781e-05
151 51115 0.235431
152 794 0.200317
152 808 0.200317
152 10597 0.200304
152 43634 0.200285
152 46817 0.198698
152 51115 7.8929e-05
153 1 0.166731
153 129 0.166735
153 30237 0.166733
153 30413 0.166735
153 41060 0.166725
153 49912 0.166341
154 192 0.323754
154 9370 0.00595878
154 16417 0.323691
154 19632 0.323699
154 50789 0.0228969
155 57 0.226057
155 212 0.226057
155 300 0.000850618
155 588 0.0232608
155 745 0.226056
155 776 0.226057
155 11163 0.0715289
155 50784 0.000133454
156 37 0.33351
156 300 0.332998
156 8941 0.333493
157 602 0.363917
157 18025 0.272165
157 48017 0.363918
158 184 0.999153
158 1332 0.000846737
159 186 0.285714
159 187 0.238095
159 189 0.0952381
159 193 0.047619
159 854 0.238095
159 855 0.047619
159 859 0.0476191
160 167 0.252723
160 22856 0.241831
160 41277 0.252723
160 45251 0.252723
161 815 0.500023
161 19617 0.499977
162 41954 1
163 33 1
164 734 0.99733
164 3498 3.30019e-05
164 3502 0.000586283
164 16410 0.00205025
165 221 0.994192
165 15809 0.00580809
166 194 0.333312
166 796 0.333312
166 859 0.333312
166 21298 6.53876e-05
167 60 0.250145
167 4006 0.249566
167 9851 0.250144
167 30409 0.250145
168 77 0.0256144
168 79 0.0256146
168 81 0.051229
168 82 0.0256146
168 88 0.0512292
168 129 0.0256144
168 159 0.0256146
168 165 0.128073
168 205 0.204917
168 774 0.0256144
168 778 0.0255848
168 836 0.0256145
168 866 0.102458
168 10804 0.0305311
168 15268 0.0256145
168 40121 0.0511193
168 40161 6.57585e-05
168 44783 7.1386e-06
168 49912 0.0252234
168 51115 0.124647
169 165 0.199993
169 205 0.699977
169 777 0.0999966
169 43954 3.33707e-05
170 85 0.5
170 779 0.5
171 42 0.410883
171 588 0.0412741
171 748 0.365229
171 858 0.091307
171 7357 0.0913069
172 42 0.818182
172 748 0.181818
173 90 0.754223
173 782 0.125704
173 10804 0.120053
173 48994 2.06564e-05
174 74 0.163726
174 90 0.163726
174 588 0.0183537
174 10895 0.163627
174 13977 0.163726
174 17463 0.163726
174 44335 0.163115
175 203 0.143375
175 207 0.716875
175 300 0.13975
176 72 0.0915242
176 154 0.640687
176 193 0.0457631
176 769 0.0457634
176 824 0.13729
176 23263 7.88966e-06
176 46372 0.000309112
176 46374 0.0011741
176 49447 0.0373906
176 51115 9.02417e-05
177 28 0.0780892
177 62 0.0780892
177 68 0.0780893
177 132 0.0780892
177 193 0.0780893
177 732 0.0780893
177 760 0.0780892
177 795 0.0592429
177 820 0.0780893
177 858 0.0780892
177 861 0.0780892
177 6108 2.04135e-05
177 22870 0.0777987
177 51115 0.0820456
178 744 0.221012
178 768 0.221012
178 858 0.221012
178 3474 0.336964
179 20 0.111645
179 46 0.111645
179 300 0.223084
179 825 0.111645
179 10560 0.111584
179 13667 0.107566
179 18849 0.111182
179 31772 0.111645
179 45181 2.62411e-06
180 46 0.248541
180 47 0.186406
180 61 0.0310676
180 228 0.0310675
180 753 0.186405
180 754 0.0932027
180 8423 0.0302104
180 10672 0.0620732
180 13802 0.000351432
180 17571 0.0310528
180 17573 0.000426364
180 18538 0.0309672
180 24984 3.35931e-07
180 51114 0.0310618
180 51115 0.0371676
181 40 0.203585
181 193 0.475032
181 300 0.00432783
181 858 0.135723
181 51115 0.181332
182 144 0.0466546
182 193 0.167288
182 817 0.117008
182 51115 0.669049
183 193 0.200033
183 858 0.200033
183 6054 0.199874
183 8757 0.200033
183 50794 0.200026
184 121 0.200091
184 20308 0.199669
184 25962 0.200058
184 40788 0.200091
184 51114 0.200091
185 3005 0.100332
185 23902 0.100452
185 24575 0.100455
185 39438 0.0963418
185 45987 0.602419
186 314 0.133239
186 9036 0.0666187
186 9062 0.399717
186 9807 0.267006
186 15480 0.0666184
186 18268 0.000182328
186 38345 0.0666179
187 316 0.199988
187 9807 0.400041
187 33241 0.0999887
187 43593 0.299982
188 8601 1
189 8595 0.39145
189 9807 3.46925e-05
189 42489 0.391036
189 45986 0.217479
190 8591 0.300002
190 9807 0.300002
190 16994 0.0999951
190 20740 0.100001
190 40101 0.2
191 457 0.250001
191 8616 0.250001
191 9807 0.499999
192 45622 0.760383
192 45986 0.239617
193 500 0.0368908
193 9807 0.483509
193 11163 1.98021e-05
193 45634 0.479581
194 286 0.027757
194 497 0.0555139
194 498 0.027757
194 9807 0.444861
194 45647 0.388597
194 45826 0.0555137
195 9807 0.333334
195 42401 0.333334
195 45503 0.333333
196 9807 0.307896
196 11163 0.153316
196 21926 0.0769571
196 23015 0.0769625
196 36875 0.307896
196 43602 0.0769728
197 9807 0.500001
197 36833 0.499999
198 9807 0.5
198 36878 0.5
199 555 1
200 287 1
201 1485 0.5
201 38910 0.5
202 46571 1
203 737 1
204 5189 1
205 816 0.925073
205 24619 0.0749271
206 0 9.43281e-07
206 290 0.91418
206 300 0.00559945
206 302 0.00182803
206 588 0.00538334
206 598 0.000123945
206 599 0.000421055
206 873 0.016976
206 2979 5.27479e-07
206 3811 0.0015944
206 3989 0.000741829
206 4221 8.50426e-07
206 5562 0.000102886
206 5738 0.000107354
206 5747 1.32575e-05
206 5872 5.89911e-07
206 5930 1.99418e-05
206 6011 2.06229e-07
206 6447 4.512e-06
206 8417 0.00958168
206 8846 4.75849e-07
206 9444 5.23953e-05
206 9484 1.70203e-05
206 10660 0.000250842
206 10804 6.59074e-06
206 12452 4.19668e-06
206 13456 1.41489e-07
206 13767 0.00709752
206 14332 0.00147877
206 16680 0.00102818
206 16988 3.35462e-06
206 17753 0.000630952
206 18333 4.24492e-05
206 18543 2.2905e-07
206 19172 1.46153e-07
206 19713 8.25845e-07
206 20505 5.54699e-07
206 21557 0.000419719
206 21655 7.16198e-07
206 22654 2.21434e-06
206 22868 0.000450417
206 23069 0.000374797
206 23120 0.00455041
206 23342 9.28946e-05
206 23368 7.87114e-05
206 23963 8.40572e-07
206 25684 3.65301e-07
206 25685 1.7228e-05
206 28848 1.22272e-07
206 29414 2.53872e-06
206 29474 1.74573e-07
206 30219 1.56513e-07
206 30614 1.34695e-07
206 30747 0.00010531
206 30951 1.14251e-07
206 31849 0.000211771
206 32655 1.21871e-07
206 32940 0.000105647
206 33023 0.000437595
206 33065 0.00486869
206 34259 7.89297e-07
206 36900 1.11587e-07
206 36933 9.56899e-05
206 40046 6.14755e-07
206 40065 7.93732e-07
206 40121 7.22273e-06
206 40635 2.95173e-05
206 40949 4.10495e-07
206 40953 3.15716e-07
206 40955 3.35277e-07
206 40956 2.02148e-06
206 43607 1.63393e-07
206 43987 3.18285e-07
206 44593 0.00460576
206 44610 8.0198e-05
206 45161 0.0120258
206 45177 0.000512191
206 45245 7.63132e-05
206 49733 4.54126e-07
206 51114 0.000216893
206 51115 0.00332316
207 10 3.7471e-07
207 290 0.000283783
207 300 0.486498
207 303 0.028626
207 726 5.54287e-07
207 4898 0.0286042
207 9397 0.0286226
207 19174 1.29656e-06
207 21612 0.028627
207 25963 3.47269e-07
207 37250 0.028626
207 47537 0.028627
207 47669 0.0284086
207 51115 0.313074
208 312 0.115041
208 318 0.00760441
208 458 0.031372
208 499 0.000116645
208 521 5.74562e-05
208 538 3.50422e-05
208 9807 0.176665
208 19431 0.0104583
208 45982 0.470623
208 45984 0.0104415
208 45986 0.165373
208 45987 0.000529446
208 49459 0.0116836
209 483 1
210 505 0.499992
210 872 0.500008
211 504 0.333342
211 548 0.333342
211 21309 7.86542e-06
211 49459 0.333308
212 520 0.2
212 5406 0.2
212 45982 0.2
212 49627 0.2
212 50128 0.2
213 340 0.28563
213 7740 2.03988e-05
213 31106 0.285629
213 39346 0.000276378
213 45982 0.142815
213 45986 0.285629
214 345 0.704006
214 5747 0.0613515
214 6973 0.234643
215 559 0.250067
215 18266 0.250067
215 39346 0.249801
215 41996 0.250066
216 513 0.333419
216 6976 0.333412
216 14343 0.333169
217 365 0.250007
217 18078 0.249992
217 28910 0.249994
217 44412 0.250007
218 573 0.250691
218 5405 0.25069
218 5407 0.25069
218 40264 0.247929
219 45248 1
220 214 0.200921
220 300 0.200734
220 771 0.200922
220 4226 0.198481
220 51115 0.198942
221 0 0.0055127
221 290 2.83325e-05
221 300 4.18187e-06
221 302 0.993752
221 354 3.45149e-07
221 588 1.41611e-05
221 598 2.21112e-05
221 599 0.000454956
221 873 9.74274e-05
221 3003 4.39558e-06
221 4215 2.79589e-06
221 6108 1.26807e-06
221 7690 7.54918e-06
221 7949 1.10902e-07
221 10177 4.35938e-06
221 10682 1.75129e-06
221 13767 8.12796e-06
221 15133 1.61238e-07
221 15229 3.71265e-06
221 19614 2.82363e-07
221 23016 4.00511e-06
221 23120 8.83719e-06
221 24990 1.29887e-05
221 30396 4.31569e-06
221 32326 4.4179e-06
221 32902 4.06003e-06
221 35565 1.0393e-07
221 36452 4.00661e-06
221 39894 2.86954e-07
221 42094 4.40998e-06
221 44593 6.8343e-06
221 46799 4.41723e-06
221 49393 4.45601e-06
221 50777 3.19069e-06
221 51115 1.20595e-05
222 1 0.011415
222 2 0.011415
222 300 0.0588582
222 302 0.837457
222 303 0.0205469
222 309 0.00228236
222 600 5.19679e-07
222 3345 0.00228262
222 3475 0.00220518
222 3502 1.4159e-05
222 6387 1.08527e-06
222 7691 0.00233803
222 10671 3.29803e-07
222 10791 2.44085e-07
222 11694 0.0020363
222 13340 5.32492e-07
222 13802 3.38114e-07
222 15229 3.27421e-05
222 15546 7.33852e-07
222 17573 3.58687e-07
222 19507 1.62349e-06
222 19674 1.29571e-06
222 19726 0.00232279
222 20234 0.00228299
222 20763 0.0022825
222 22869 0.0203263
222 22870 9.82339e-05
222 23087 6.56964e-07
222 23263 0.00227876
222 24984 0.000503319
222 27011 1.45043e-05
222 30611 0.00228294
222 31449 0.00221322
222 32861 2.82103e-06
222 39221 0.00228297
222 41517 0.00228291
222 42010 5.40805e-06
222 44784 0.000106111
222 45180 0.0022525
222 46372 0.00221266
222 46374 0.00222399
222 50785 0.00228159
222 51115 0.000851856
223 9807 1
224 291 0.259682
224 24867 0.231331
224 37565 0.259683
224 41746 0.249304
225 473 1
226 292 1
227 31169 1
228 552 0.333333
228 9807 0.333333
228 49269 0.333333
229 293 1
230 294 0.5
230 19613 0.5
231 295 0.249978
231 5405 0.249978
231 8775 0.249972
231 13767 9.47036e-05
231 45634 0.249978
232 296 1
233 18401 0.600165
233 18402 0.399835
234 16305 1
235 307 1
236 18241 0.499449
236 46734 0.500551
237 10670 0.499985
237 48353 0.500015
238 302 0.498603
238 48182 0.501397
239 8414 1
240 590 0.095391
240 4179 0.0117545
240 9390 0.0261822
240 23214 8.53524e-07
240 23301 0.0301529
240 47922 0.564241
240 49390 0.0522913
240 49393 0.219987
241 305 0.00768378
241 636 0.503117
241 24996 0.489199
242 308 0.176293
242 1764 0.176293
242 24179 0.176293
242 27633 0.176271
242 33316 0.118558
242 37956 0.176292
243 305 0.496153
243 306 0.503847
244 842 1
245 1315 0.0790815
245 13429 0.0790813
245 13650 0.158163
245 17395 0.000939855
245 24779 0.157895
245 42486 0.0790271
245 44398 0.366812
245 47855 0.0790009
246 94 0.0910338
246 492 0.182022
246 589 0.182068
246 23378 0.0910338
246 28973 0.0910337
246 41746 0.180742
246 44394 0.182068
247 313 0.254695
247 318 0.0648323
247 442 0.0509311
247 492 0.000182825
247 592 0.101865
247 5747 0.0365919
247 6973 5.59462e-06
247 10046 0.0507503
247 15356 0.0945565
247 20308 0.0444449
247 21565 9.89348e-07
247 24867 0.0015623
247 27592 4.09962e-06
247 31170 0.0509335
247 33878 0.0473192
247 37430 0.0509035
247 42484 0.0509012
247 44394 0.0509294
247 45984 9.55449e-07
247 45986 7.70475e-05
247 45987 0.0485129
248 314 0.301173
248 9036 0.29079
248 9048 0.00388573
248 9062 0.332332
248 9063 0.0103854
248 15358 0.00987698
248 19653 0.0103847
248 28721 7.62281e-07
248 30929 0.0103853
248 37774 0.0104672
248 41740 0.00950367
248 47535 1.28531e-07
248 49393 0.0108153
249 288 0.127561
249 314 0.127561
249 315 0.251916
249 9046 0.127561
249 16993 0.111272
249 41746 0.126569
249 50684 0.127561
250 316 0.32558
250 43249 0.27907
250 43593 0.372095
250 43599 0.0232559
251 317 0.0526517
251 5778 0.0526517
251 20308 0.315527
251 36301 0.263259
251 43593 0.31591
252 32072 0.279189
252 45987 0.720811
253 316 0.145961
253 872 0.145964
253 8094 0.145965
253 28910 0.145928
253 33831 0.124253
253 43249 0.145965
253 49229 0.145965
254 319 0.166745
254 9397 0.166732
254 9690 0.166287
254 18003 0.166745
254 43249 0.166745
254 45811 0.166745
255 320 0.667459
255 23215 0.332541
256 7724 0.25
256 45983 0.25
256 50126 0.25
256 50129 0.25
257 314 0.855021
257 428 0.00246795
257 15141 0.142511
258 321 0.364776
258 24589 0.0911941
258 24595 0.455971
258 36961 0.088059
259 322 0.500888
259 28910 0.248668
259 44872 0.250444
260 323 1
261 24592 1
262 324 0.499609
262 8597 0.111024
262 8601 0.277561
262 9390 0.000169199
262 9397 0.00887234
262 21463 0.0474246
262 47555 0.0553397
263 325 0.628647
263 3003 0.167416
263 40827 0.203937
264 326 0.250145
264 647 0.250166
264 11764 0.250166
264 18078 0.249523
265 9397 1
266 327 0.250051
266 328 0.250037
266 6100 0.250051
266 41746 0.249861
267 329 0.5
267 7724 0.5
268 324 0.2
268 695 0.2
268 8600 0.2
268 15051 0.2
268 39901 0.2
269 330 0.165421
269 3327 0.00733895
269 18003 0.124201
269 45639 0.0413551
269 45645 0.661684
270 10670 0.235887
270 18003 0.218317
270 45639 0.218319
270 45640 0.109159
270 45641 0.218319
271 332 0.175754
271 8775 0.175754
271 9397 0.121229
271 36877 0.175754
271 43593 0.175754
271 45634 0.175754
272 3546 0.248881
272 43249 0.250373
272 45628 0.250373
272 45811 0.250373
273 331 0.75
273 49686 0.25
274 333 0.169625
274 5150 0.169617
274 7705 0.000566091
274 18003 0.169641
274 48285 0.151151
274 49630 0.1697
274 49632 0.1697
275 334 0.33433
275 11163 0.331351
275 24575 0.334319
276 335 0.5
276 7724 0.5
277 48285 0.0972552
277 49631 0.902745
278 336 0.456687
278 3327 0.0366773
278 23218 6.77352e-07
278 36852 0.0507429
278 36855 0.0507418
278 36856 0.202972
278 36857 0.050743
278 36961 0.0505532
278 36977 0.050737
278 39338 0.0501447
279 337 0.333363
279 17627 0.333304
279 47373 0.333333
280 36854 1
281 339 0.500021
281 35581 0.124963
281 36877 0.125005
281 42513 0.125005
281 43593 0.125005
282 341 0.627327
282 20308 0.372673
284 208 0.000490566
284 343 0.27263
284 9397 0.0531596
284 14368 0.0288609
284 18003 0.13875
284 18004 0.00506562
284 19598 0.0454382
284 21268 0.0454381
284 36961 0.00133066
284 50118 0.0454383
284 50121 0.27263
284 50122 0.0454382
284 50912 0.0453305
285 344 1
286 346 0.5
286 7724 0.5
287 347 0.12508
287 7724 0.250161
287 9058 0.12508
287 15052 0.125075
287 15163 0.124442
287 45983 0.12508
287 50131 0.12508
288 348 0.5
288 7724 0.5
289 349 0.500003
289 7705 0.499997
290 350 0.2
290 22683 0.2
290 31097 0.2
290 41931 0.2
290 45532 0.2
291 351 0.981713
291 7724 0.0182866
292 352 0.5
292 7724 0.5
293 50120 1
294 353 0.104261
294 354 0.0961068
294 10075 0.104256
294 18003 0.105094
294 19713 0.0195184
294 40258 0.104261
294 40260 0.104255
294 40263 0.208511
294 45180 0.153736
295 356 0.250006
295 24867 0.250006
295 43604 0.249982
295 49804 0.250006
296 357 1
297 699 0.333333
297 3857 0.333333
297 39149 0.333333
298 358 0.5
298 7724 0.5
299 700 0.250641
299 3853 0.250641
299 40341 0.250641
299 46117 0.248076
300 359 0.400003
300 7724 0.400003
300 35674 0.199994
301 360 0.25
301 5976 0.25
301 7724 0.25
301 9794 0.25
302 361 0.5
302 7724 0.5
303 355 0.333321
303 698 0.666642
303 1318 3.66273e-05
304 362 0.429039
304 3005 0.000160693
304 3501 0.0360377
304 5150 0.035746
304 5404 0.250273
304 10642 0.0357532
304 10670 0.0339272
304 16130 0.0356585
304 18003 0.143405
305 363 0.999924
305 31229 7.61985e-05
306 364 0.247027
306 4113 0.24006
306 5406 0.0823423
306 5546 0.0823422
306 24867 0.164454
306 34519 0.0190907
306 43249 0.0823423
306 43593 0.0823423
307 367 0.333334
307 33630 0.333332
307 44253 0.333334
308 368 0.487069
308 7705 0.487027
308 21613 0.0259041
309 369 0.5
309 7724 0.5
311 371 1
312 372 0.50001
312 7724 0.499989
313 5407 0.2
313 7724 0.2
313 42401 0.2
313 45611 0.2
313 45983 0.2
314 373 0.136727
314 22095 0.296365
314 24990 0.270437
314 35274 0.296472
315 374 0.500004
315 7724 0.499996
316 375 0.5
316 7724 0.5
317 376 0.333335
317 7724 0.333335
317 33029 0.333331
318 377 0.5
318 7724 0.5
319 378 0.333334
319 379 0.166667
319 7724 0.499999
320 380 1
321 381 0.199564
321 5406 0.399129
321 40264 0.00217821
321 43593 0.199564
321 45982 0.199564
322 382 0.5
322 7724 0.5
323 383 0.200081
323 384 0.200081
323 2260 0.199676
323 7724 0.400162
324 385 0.5
324 7724 0.5
325 386 1
326 7705 1
327 388 0.142858
327 920 0.142858
327 3501 0.142854
327 7705 0.142858
327 9383 0.142858
327 41917 0.142858
327 44974 0.142858
328 362 0.333333
328 700 0.333333
328 5403 0.333333
329 389 0.444498
329 8771 0.333283
329 18003 0.111126
329 35115 0.111093
330 391 1
331 392 0.200276
331 7705 0.200275
331 7724 0.200276
331 24551 0.200208
331 28991 0.198965
332 393 0.5
332 7724 0.5
333 394 0.429295
333 5872 0.141412
333 7724 0.429293
334 395 0.5
334 7724 0.5
335 396 0.333333
335 5484 0.333333
335 7724 0.333333
336 7724 0.2
336 8590 0.2
336 8776 0.2
336 24613 0.2
336 45983 0.2
337 397 0.5
337 7724 0.5
338 398 0.337123
338 3546 1.76734e-05
338 7724 0.337123
338 20308 0.325737
339 399 0.5
339 7724 0.5
340 2611 0.200036
340 19627 0.199858
340 23447 0.200036
340 33831 0.200034
340 42520 0.200036
341 7705 0.171522
341 8776 0.171522
341 16662 0.142388
341 27569 0.171522
341 45634 0.171522
341 45983 0.171522
342 401 0.333313
342 7705 0.333313
342 7724 0.333313
342 45606 5.62935e-06
342 45983 5.65398e-05
343 402 0.200004
343 7705 0.199999
343 7923 0.199988
343 12481 0.200004
343 48508 0.200004
344 403 0.352941
344 404 0.0588235
344 7724 0.352941
344 8773 0.0588235
344 8776 0.0588235
344 45634 0.0588235
344 45983 0.0588235
345 405 0.499999
345 7705 0.499991
345 19006 9.69749e-06
346 406 0.499996
346 7715 0.500004
347 519 1
348 407 0.178279
348 7705 0.178348
348 7724 0.0891711
348 8776 0.0891748
348 21613 0.019149
348 27579 0.0891758
348 42092 0.0891756
348 42401 0.0891758
348 45983 0.0891749
348 50326 0.0891765
349 408 0.500005
349 7724 0.499995
350 7705 0.333333
350 8776 0.166667
350 42401 0.166667
350 45983 0.166667
350 49617 0.166667
351 410 0.416667
351 7724 0.25
351 8776 0.0833334
351 36870 0.0833333
351 42401 0.0833334
351 45983 0.0833334
352 411 0.458507
352 918 0.0864691
352 7705 0.149354
352 7724 0.30567
353 412 0.5
353 7724 0.5
354 413 0.229884
354 7705 0.236995
354 7724 0.177629
354 8776 0.118498
354 36834 0.118498
354 45983 0.118497
355 536 1
356 535 0.333333
356 536 0.333333
356 36835 0.333333
357 414 0.33334
357 7705 0.166655
357 7724 0.166666
357 21616 0.16667
357 27965 0.16667
358 415 0.500004
358 7705 0.16666
358 7724 0.333336
359 416 0.5
359 7724 0.5
360 417 0.666667
360 7724 0.333333
361 418 1
362 7705 0.2
362 8776 0.2
362 36877 0.2
362 40141 0.2
362 45983 0.2
363 420 0.333334
363 7724 0.333334
363 20789 0.333332
364 421 0.231027
364 7705 0.0296849
364 7724 0.184822
364 8776 0.138617
364 24613 0.0462056
364 33031 0.0462056
364 39741 0.0462046
364 45983 0.138617
364 50107 0.138617
365 7708 0.999902
365 51007 9.79353e-05
366 546 0.333333
366 7725 0.333333
366 50108 0.333334
367 423 1
368 424 0.5
368 7724 0.5
369 425 0.5
369 7724 0.5
370 426 0.5
370 7724 0.5
371 427 0.75
371 7724 0.25
372 40252 1
373 428 0.332895
373 6042 0.0668111
373 7705 0.33305
373 7724 0.0668111
373 8776 0.0668111
373 40265 0.0668111
373 45983 0.0668111
374 429 0.500005
374 7707 0.499995
375 430 0.5
375 7724 0.5
376 431 0.666682
376 7705 0.333309
376 7724 8.83773e-06
377 432 0.500006
377 7705 0.499994
378 7724 0.166732
378 8776 0.166732
378 28910 0.166342
378 40144 0.166732
378 40265 0.166732
378 45983 0.166732
379 434 0.500002
379 7724 0.499998
380 435 0.500001
380 7724 0.499999
381 436 0.333333
381 5551 0.111111
381 7724 0.222222
381 8776 0.111111
381 35639 0.111111
381 45983 0.111111
382 437 0.5
382 7708 0.5
383 438 0.3
383 5406 0.1
383 6042 0.1
383 7724 0.3
383 8776 0.1
383 45983 0.1
384 439 0.17143
384 5406 0.0857151
384 7724 0.17143
384 8417 0.0857058
384 13767 0.148345
384 44593 0.170973
384 45611 0.0857151
384 46782 0.0806872
385 440 0.600022
385 7705 0.399978
386 441 0.500008
386 7705 0.499992
387 442 6.35002e-06
387 5406 0.142856
387 7705 0.285713
387 8776 0.142856
387 27593 0.142856
387 40141 0.142856
387 45983 0.142856
388 443 0.500006
388 7705 0.249991
388 7724 0.250003
389 444 0.666684
389 7705 0.333316
390 445 0.500005
390 7705 0.499995
391 446 0.2
391 577 0.2
391 7708 0.199999
391 7715 0.2
391 8766 0.2
392 447 0.236751
392 7705 0.236493
392 13845 0.236568
392 24969 0.236751
392 34587 0.0534367
393 7724 0.181818
393 8764 0.181818
393 8776 0.181818
393 27113 0.0909085
393 45983 0.181818
393 49619 0.181818
394 448 0.50002
394 7356 0.0833369
394 7705 0.166632
394 7724 0.250011
395 449 0.500001
395 7724 0.499999
396 450 0.5
396 7724 0.5
397 451 0.5
397 7724 0.5
398 452 0.250008
398 918 0.250003
398 7705 0.250008
398 8512 0.24998
399 390 1
400 313 0.132135
400 3522 0.108254
400 15163 0.108498
400 25122 0.108519
400 27569 0.108518
400 27580 0.108519
400 40289 0.108519
400 40507 0.108519
400 49695 0.108519
401 333 0.00811226
401 453 0.167653
401 458 7.30137e-07
401 593 0.00269026
401 8577 0.0594899
401 8595 0.0189286
401 8695 0.00811226
401 8701 0.0108163
401 30930 0.00270408
401 31103 0.0324491
401 31104 0.308262
401 31107 0.0135204
401 31108 0.151429
401 31171 0.199607
401 31172 0.00540816
401 33033 0.00270407
401 37774 0.00270421
401 45635 0.00540811
402 454 0.166675
402 5159 0.166675
402 20308 0.166632
402 28910 0.166672
402 33559 0.166672
402 43133 0.166675
403 455 0.221102
403 459 0.0243649
403 3005 5.29523e-06
403 3327 3.23405e-07
403 8579 0.121824
403 8583 0.0243171
403 8591 0.341107
403 18003 0.0242149
403 24941 0.242464
403 28910 1.18718e-05
403 43720 0.000587
404 288 0.157004
404 455 0.157004
404 456 0.222102
404 9009 0.157004
404 34182 0.154284
404 41669 0.152602
405 457 0.343043
405 6746 0.000246681
405 8616 0.245031
405 8708 0.24503
405 18268 0.0490062
405 24814 0.0490061
405 41835 0.0490059
405 47286 0.0196311
406 460 0.431114
406 7724 0.28741
406 25641 0.143701
406 44655 0.137775
407 461 0.317075
407 7705 0.0487755
407 7724 0.268294
407 8595 0.121952
407 45606 0.0243904
407 45611 0.0975614
407 45986 0.121952
408 462 0.500002
408 7705 0.499998
409 463 0.500007
409 7705 0.499993
410 464 0.333949
410 7703 0.333949
410 28910 0.332102
411 465 0.600001
411 7705 0.399999
412 466 0.431263
412 7724 0.430512
412 41305 0.138225
413 467 0.333545
413 34462 0.333537
413 38610 0.332918
414 468 0.29853
414 469 0.0746325
414 470 0.0746325
414 484 0.0746323
414 7233 0.0746325
414 7705 0.0271871
414 7724 0.0764677
414 8595 0.0746325
414 9058 0.0746325
414 19006 0.0746213
414 21655 0.000766837
414 45986 0.0746325
415 8595 0.500001
415 45986 0.499999
416 471 1
417 472 0.233641
417 7705 0.116326
417 7724 0.165025
417 8595 0.161132
417 32417 0.00399545
417 45642 0.0443113
417 45643 0.112792
417 45644 0.00164388
417 45986 0.161132
418 292 0.200001
418 473 0.199995
418 492 0.200001
418 7705 0.200001
418 42472 0.200001
419 474 0.502217
419 7705 0.497783
420 475 1
421 8028 0.032285
421 8587 0.0322571
421 8591 0.0646537
421 8841 0.0323268
421 24941 0.741497
421 27570 0.0646537
421 41322 0.0323268
422 7703 0.142797
422 8591 0.428691
422 20308 1.85617e-06
422 24575 0.142878
422 27572 0.285633
423 477 1
424 476 0.721732
424 918 0.278268
425 478 0.162824
425 6036 0.0237427
425 7705 0.163597
425 8577 0.244236
425 8591 0.325612
425 42484 0.0799893
426 480 1
427 481 0.319703
427 8156 0.00456305
427 8579 0.213135
427 11747 0.036347
427 18024 0.106555
427 34458 0.106565
427 45811 0.213132
428 481 0.147288
428 8591 0.147288
428 19006 0.294268
428 34232 0.263867
428 45606 0.147288
429 482 0.592979
429 3672 0.000182615
429 8591 0.161721
429 10670 0.0703408
429 44211 0.0130548
429 49625 0.161721
430 8830 1
431 484 0.333359
431 486 0.0837486
431 7706 0.0837487
431 8579 0.0418744
431 8591 0.125623
431 9397 0.000164116
431 15163 0.00486185
431 18003 0.0029944
431 30474 0.0418718
431 30483 0.0418733
431 36831 0.0418744
431 36875 0.125622
431 46817 0.0305103
431 47675 0.0418742
432 485 0.26087
432 8616 0.26087
432 21926 0.21739
432 36877 0.26087
434 484 0.963468
434 8830 0.0365317
435 488 0.63624
435 8591 0.0908911
435 18003 0.181977
435 50128 0.0908914
436 489 0.5
436 24590 0.5
437 8577 0.166667
437 8591 0.166667
437 8616 0.166666
437 15762 0.166667
437 40265 0.166666
437 43593 0.166667
438 489 0.931485
438 18868 0.0685145
439 490 0.5
439 5405 0.25
439 8591 0.25
440 387 0.499179
440 490 0.500821
442 6036 0.499194
442 6037 0.499194
442 9397 0.00136961
442 23324 0.000242489
443 151 0.0194106
443 191 0.00719829
443 413 0.0217391
443 492 0.252279
443 499 0.0968364
443 28910 1.3272e-06
443 36958 0.000124388
443 41746 5.66673e-07
443 45565 0.0193707
443 45606 0.0194676
443 45622 0.388215
443 45659 0.0388214
443 45810 0.0194107
443 45811 0.0777782
443 48285 0.000193925
443 49388 0.0197427
443 49618 0.0194106
444 2336 0.166667
444 16380 0.166667
444 36297 0.333334
444 45622 0.333333
445 14977 0.166678
445 38482 0.166678
445 45007 0.166611
445 45821 0.500034
446 494 0.337482
446 10670 0.0101694
446 17063 0.0116364
446 18003 0.00958491
446 20308 0.0144531
446 31210 0.0232745
446 39346 0.013281
446 40733 0.0110481
446 41274 0.0116373
446 43758 1.68837e-05
446 45628 0.0465491
446 45632 2.14938e-05
446 45634 0.453847
446 45645 0.0232745
446 49482 3.18181e-06
446 49524 0.0337215
447 495 0.284089
447 25877 0.283862
447 28287 0.142045
447 34519 0.00614221
447 42489 0.142044
447 45178 0.141818
448 497 0.267629
448 21689 0.024328
448 34554 0.0242969
448 36831 0.0243297
448 42484 0.00366394
448 43249 0.0486595
448 45628 0.0475058
448 45647 0.218969
448 45826 0.340618
449 501 1
450 502 0.330771
450 2583 0.00649261
450 5405 0.33077
450 9397 0.00119676
450 45647 0.33077
451 503 0.250973
451 3500 0.0836572
451 4828 0.0836578
451 6108 0.0836546
451 9397 0.0836566
451 9796 0.0836578
451 15006 0.0783516
451 16604 0.0834889
451 19006 0.0852449
451 47609 0.0836577
452 506 0.322551
452 8701 0.32255
452 33831 0.0323528
452 45628 0.322546
453 507 0.335035
453 23221 0.335005
453 28910 0.32996
454 18003 0.199884
454 20057 0.200463
454 45628 0.199884
454 45631 0.199884
454 45811 0.199884
455 508 0.166667
455 18046 0.166667
455 23215 0.166667
455 45622 0.166667
455 45634 0.166667
455 45647 0.166667
456 509 0.331683
456 2928 0.00495166
456 45628 0.331683
456 49635 0.331683
457 510 0.142914
457 36875 0.285828
457 42484 0.142815
457 45634 0.285828
457 50162 0.142615
458 511 0.333342
458 7175 0.166671
458 20308 1.89962e-05
458 23381 0.166671
458 45634 0.166671
458 50125 0.166626
459 512 0.250013
459 4888 0.125005
459 5733 0.125007
459 17593 0.125007
459 43600 0.125007
459 43601 0.124954
459 44251 0.125007
460 11163 0.249701
460 36875 0.2501
460 45647 0.2501
460 50130 0.2501
461 514 0.433494
461 13767 0.276428
461 23120 0.00677719
461 44920 0.283301
462 515 0.5
462 15101 0.5
463 343 0.0575107
463 516 0.517596
463 707 0.0224676
463 31166 0.0575106
463 36867 5.88614e-06
463 36961 0.0571818
463 42475 0.0575092
463 49621 0.000175472
463 49625 0.115021
463 49635 0.0575107
463 50121 0.0575107
464 288 0.499999
464 516 0.500001
465 288 0.0870296
465 517 0.391633
465 521 0.0427097
465 35488 0.0870295
465 42401 0.0435143
465 42402 0.261088
465 48047 0.0869954
466 518 0.25
466 6780 0.25
466 7271 0.25
466 27347 0.25
467 19156 0.333343
467 40103 0.333314
467 49638 0.333343
468 300 0.0225808
468 523 0.977419
469 524 0.666691
469 18003 0.333309
470 525 0.333335
470 36831 0.166667
470 36875 0.166667
470 42401 0.166666
470 42402 0.166665
471 28910 0.249944
471 36875 0.250019
471 42401 0.250019
471 49269 0.250019
472 526 0.124415
472 3003 0.124863
472 17405 0.124415
472 36833 0.124414
472 36877 0.124415
472 39464 0.124414
472 49627 0.00430986
472 49638 0.124414
472 50954 0.124341
473 527 0.333335
473 5628 0.333331
473 25629 0.333334
474 528 0.200987
474 7724 0.196045
474 11163 1.39732e-05
474 42401 0.200987
474 49569 0.20098
474 50128 0.200987
475 529 0.991124
475 2009 0.00887622
476 530 0.999974
476 2928 2.63877e-05
477 37944 0.200337
477 37952 0.198609
477 49619 0.601054
478 531 0.262784
478 538 0.0492169
478 603 0.00218777
478 7139 0.016424
478 10804 0.012888
478 13920 0.0164093
478 28720 0.0107106
478 30570 0.016424
478 31252 0.016424
478 33325 0.0164239
478 36831 0.0984449
478 36837 0.0164237
478 36875 0.377752
478 36879 0.016424
478 36961 1.57091e-06
478 42078 0.0164239
478 42484 0.0164128
478 42527 0.016424
478 51114 0.00536157
478 51120 1.55673e-05
478 51121 0.016424
479 288 0.110967
479 531 0.110967
479 532 0.443867
479 9397 0.00130136
479 9435 0.110964
479 36847 0.110967
479 47515 0.110967
480 534 0.399955
480 539 0.0399956
480 18704 0.0798552
480 23215 0.0398038
480 33241 0.000438896
480 36833 0.159982
480 36877 0.279969
481 537 0.292867
481 11163 2.09532e-05
481 24867 0.036875
481 28910 0.025582
481 36848 0.109825
481 36878 0.512517
481 40833 0.0223071
481 50019 6.79836e-06
482 3546 0.197714
482 16936 0.20057
482 29088 0.200572
482 36878 0.200572
482 49632 0.200572
483 540 0.336732
483 5150 0.112224
483 9397 0.101897
483 18003 0.112415
483 36833 0.112244
483 36958 0.112244
483 49635 0.112244
484 541 1
485 5405 0.5
485 36877 0.5
486 542 1
487 531 0.0723586
487 6038 3.87197e-06
487 9390 0.144969
487 18868 0.0626987
487 19006 0.0678384
487 31104 0.144735
487 36867 0.217456
487 36873 0.0724853
487 49686 0.217456
488 362 1.49068e-05
488 543 0.162159
488 545 0.0135132
488 547 0.0135132
488 13183 3.44569e-07
488 31108 8.94298e-06
488 31167 0.21621
488 40141 0.175671
488 50103 0.0540529
488 50115 0.0270264
488 50116 0.0135132
488 50128 0.324317
489 544 0.111105
489 2175 0.111105
489 9397 0.111105
489 9820 0.111105
489 23023 5.80575e-05
489 28269 0.111105
489 33831 0.111103
489 47375 0.111105
489 47517 0.111105
489 50109 0.111105
490 5150 1.88457e-06
490 31234 0.166665
490 50104 0.5
490 50129 0.333333
491 26429 0.333352
491 39903 0.333297
491 50105 0.333352
492 21309 1
493 549 0.333775
493 7724 0.332451
493 12449 0.333775
494 550 0.5
494 7724 0.5
495 15675 0.333318
495 19417 2.03952e-05
495 42401 0.333331
495 50131 0.333331
496 551 0.99895
496 42484 0.00104956
497 552 0.275886
497 5150 0.103357
497 14862 0.0344857
497 18003 0.275914
497 26737 0.0344836
497 36831 0.0344857
497 36875 0.103457
497 50104 0.0344739
497 50129 0.103457
498 553 0.166689
498 4392 0.166682
498 11077 0.166689
498 13986 0.166563
498 14368 0.166686
498 44398 0.166689
499 554 0.993571
499 42484 0.00642919
500 304 8.12359e-07
500 453 0.0309449
500 555 0.309448
500 5559 0.0618857
500 30958 0.0618897
500 40248 0.0309449
500 40257 0.0618897
500 40264 0.371338
500 40270 0.0309449
500 49393 0.00976814
500 51122 0.0309448
501 556 0.53706
501 20308 0.46294
502 557 0.338938
502 18003 0.11631
502 24867 0.0704002
502 40249 0.2032
502 40265 0.271152
503 557 0.0873076
503 558 0.0873099
503 2738 0.0873072
503 5496 0.0871625
503 13489 0.0873076
503 13920 0.08724
503 29156 0.0868287
503 32316 0.086971
503 34519 0.040643
503 36301 0.0873076
503 41588 0.0873076
503 42499 0.0873074
504 40269 1
505 40250 1
506 17237 0.047619
506 36301 0.238095
506 36831 0.238095
506 40249 0.238095
506 48301 0.0476191
506 48873 0.190476
507 50128 1
508 560 0.499995
508 7723 0.500005
509 561 1
510 555 0.333333
510 40143 0.333334
510 40144 0.333334
511 562 0.269805
511 563 0.0207542
511 2048 2.17336e-07
511 3003 0.0208467
511 5405 0.311232
511 5408 0.0207542
511 5545 0.103771
511 7359 0.02074
511 8591 0.020754
511 9397 0.0449608
511 21926 0.0414971
511 30962 0.0207541
511 33831 0.0207495
511 36958 0.041375
511 47605 0.0207542
511 49390 0.000588198
511 49482 0.0206635
512 564 0.203561
512 3003 0.188571
512 4113 0.200746
512 5546 0.305341
512 5550 0.10178
513 565 0.591099
513 12786 0.113388
513 39884 0.295513
514 566 0.283701
514 2928 0.148908
514 5556 0.141851
514 5557 0.141851
514 21465 0.141851
514 23255 0.141838
515 5552 1
516 567 0.333348
516 7703 0.333306
516 14854 0.333345
517 5549 1
518 568 0.999971
518 50713 2.94712e-05
519 569 0.500482
519 23215 0.499518
520 570 0.500006
520 50417 0.499994
521 571 0.500033
521 18003 0.166657
521 44211 0.33331
522 5545 0.250319
522 5546 0.250319
522 9397 0.250289
522 9690 0.249073
523 572 0.5
523 5547 0.5
524 5559 0.501512
524 19006 0.498488
525 574 0.610911
525 593 0.000283927
525 8767 0.166612
525 8775 0.222149
525 9397 4.39083e-05
526 3327 0.111113
526 9397 0.111114
526 13348 0.222229
526 13920 0.111099
526 17463 0.11111
526 25877 0.111112
526 27469 0.111114
526 45081 0.111109
527 575 0.350415
527 8763 0.233614
527 9397 0.18251
527 37276 0.116806
527 39893 0.116655
528 576 0.50113
528 1658 5.32375e-06
528 5787 0.498864
529 578 0.352279
529 3546 0.245504
529 8775 0.0234851
529 20367 0.00297246
529 24575 0.0469669
529 41255 0.164397
529 42717 0.164397
530 579 0.0859249
530 8763 0.17185
530 9397 0.140757
530 18003 0.257769
530 22032 0.0859248
530 40299 0.0859249
530 45811 0.17185
531 581 0.250821
531 25315 0.249108
531 39658 0.250821
531 46117 0.249249
532 582 1
533 584 0.0993586
533 8763 0.149038
533 8764 0.0993576
533 9397 0.0729328
533 18003 0.248591
533 33151 0.0496792
533 39904 0.0326445
533 40248 0.149039
533 40264 0.099359
534 585 0.537498
534 5787 0.462502
535 586 1
536 587 1
537 8772 1
538 588 0.65652
538 5782 0.34348
539 590 0.35317
539 23214 4.44628e-07
539 38939 0.0398648
539 47922 0.0520544
539 49388 0.199743
539 49393 0.355167
540 362 0.499573
540 591 0.500125
540 13183 0.000302276
541 9062 0.400519
541 19506 0.300389
541 49388 0.0988324
541 49617 0.20026
542 191 0.0949072
542 8591 0.150849
542 8592 0.150849
542 19506 0.150849
542 21450 0.150847
542 30932 0.150848
542 49632 0.150849
543 302 0.00300758
543 304 0.00307168
543 594 0.24267
543 11838 0.00613965
543 19506 0.00307176
543 23301 0.00921529
543 30567 0.00314853
543 31104 0.0460767
543 31106 0.00614349
543 31108 0.0011039
543 31171 0.00670642
543 31251 0.00307174
543 45606 0.57442
543 45628 0.0122871
543 45634 0.0706506
543 49388 0.00921529
543 51115 2.78976e-07
544 595 1
545 596 0.399983
545 2048 0.199915
545 8579 0.199991
545 8775 0.199991
545 9397 0.000119513
546 597 0.125
546 2048 0.125
546 36852 0.125
546 36875 0.25
546 42401 0.25
546 49385 0.125
547 302 0.250071
547 588 0.250077
547 873 0.249794
547 44311 0.250058
548 0 0.000193899
548 302 0.00168383
548 599 0.998077
548 16036 2.16371e-05
548 29488 2.16367e-05
548 39346 5.11115e-07
548 40635 1.61017e-06
549 300 0.330893
549 302 1.6778e-06
549 599 0.00700093
549 600 0.418777
549 601 0.137611
549 5738 1.17869e-07
549 10804 1.69279e-06
549 13526 1.98447e-05
549 15229 1.37833e-06
549 17002 1.69934e-07
549 26332 0.00355638
549 32967 0.00171896
549 37030 0.00200762
549 40323 0.000233022
549 51115 0.0981761
550 4 0.333374
550 599 0.333369
550 41151 0.333258
551 300 0.0805726
551 603 0.000125168
551 723 0.00134862
551 2048 0.000759123
551 2575 3.80172e-07
551 3327 0.000156215
551 3478 1.5467e-06
551 3486 4.63615e-07
551 3498 0.00398715
551 3499 0.0225936
551 3501 0.00046909
551 3546 0.00791166
551 3621 7.89265e-06
551 3672 2.35412e-07
551 4475 4.61617e-06
551 4690 8.00486e-06
551 4850 6.80397e-06
551 4888 0.0104181
551 5106 2.928e-05
551 5110 1.28072e-07
551 5333 3.78851e-07
551 5352 3.85765e-05
551 5562 1.53303e-07
551 5590 1.0627e-06
551 5781 1.04013e-07
551 5782 1.08311e-06
551 7758 0.00161337
551 8445 2.30075e-07
551 8458 1.90023e-07
551 9016 2.2819e-07
551 9370 5.88217e-05
551 9397 9.80897e-07
551 9406 0.000842783
551 10022 9.11114e-05
551 10389 1.88766e-07
551 10642 1.66916e-05
551 10670 0.294162
551 10681 1.19512e-07
551 10682 0.0226656
551 11163 0.00212475
551 11697 5.52821e-06
551 12373 1.77591e-07
551 12467 0.0026363
551 13314 3.85472e-06
551 13389 2.54913e-07
551 13599 6.20927e-05
551 13767 4.40342e-07
551 13920 0.00102611
551 13994 2.92978e-07
551 14350 3.96152e-07
551 14365 0.00796384
551 14977 1.24004e-07
551 14986 8.0624e-07
551 15163 0.000151117
551 15197 0.00173588
551 15199 0.0010937
551 15238 0.00763029
551 15265 5.29697e-06
551 15270 0.0125348
551 15271 0.0203404
551 15282 0.00784047
551 16089 2.80885e-06
551 16134 3.09012e-07
551 16153 0.00046455
551 16425 6.34805e-06
551 17463 1.32548e-06
551 17488 2.54375e-07
551 17580 0.00165326
551 18078 3.94402e-06
551 18268 0.0254454
551 19172 0.000495947
551 19614 0.00118722
551 20004 2.21972e-06
551 20046 1.11982e-07
551 20308 0.0934787
551 20682 0.00134975
551 21298 0.00121467
551 21463 3.17462e-05
551 21565 2.00576e-07
551 21926 0.0138832
551 22868 0.00126644
551 23016 0.0105443
551 23052 1.94807e-07
551 23064 0.00017127
551 23104 1.84319e-07
551 23320 1.40537e-05
551 23432 0.000402473
551 23629 1.31715e-07
551 23682 1.3704e-07
551 23684 4.8854e-07
551 24575 0.0684609
551 24613 0.0244148
551 24617 2.7207e-05
551 24620 4.84189e-07
551 24623 0.0205642
551 24627 0.0108389
551 24653 0.0188231
551 24780 0.00142446
551 24816 2.45764e-05
551 25682 1.59181e-06
551 25877 4.70775e-06
551 26060 5.57958e-06
551 26118 1.46336e-07
551 26895 2.80695e-07
551 27021 0.0472218
551 27030 9.89457e-07
551 27395 2.09872e-06
551 28910 0.000724284
551 29355 1.10365e-06
551 29888 1.24551e-07
551 31204 0.00139369
551 31264 3.05669e-06
551 31513 1.88064e-07
551 32646 0.0013205
551 32665 3.93274e-06
551 32823 1.60682e-06
551 32926 0.000313181
551 33028 0.00162404
551 33043 0.00115623
551 33509 0.000342681
551 33696 0.000300077
551 33697 0.0003405
551 33831 4.65985e-07
551 33872 2.6805e-07
551 34397 9.60316e-07
551 34655 4.63884e-06
551 34800 2.87421e-07
551 35037 0.00134342
551 35044 0.00127858
551 35443 1.46867e-06
551 35557 0.00108991
551 35727 3.58041e-05
551 36943 0.00127641
551 38939 4.8932e-06
551 39346 1.98727e-07
551 39416 0.00394857
551 39884 0.00291678
551 39885 0.00171075
551 39887 2.87064e-07
551 39894 0.00126143
551 39903 0.00159714
551 40101 0.0388364
551 40161 5.00748e-05
551 40820 1.95137e-06
551 41746 5.12383e-06
551 41835 1.01882e-06
551 42166 0.00119864
551 42878 7.6963e-07
551 43292 8.84623e-05
551 43303 1.19955e-06
551 43469 4.50567e-05
551 43957 5.03752e-06
551 43963 8.39194e-05
551 44341 1.6318e-05
551 44426 1.36574e-07
551 44597 0.00581323
551 44600 2.87689e-07
551 44611 0.00652469
551 44612 0.00159396
551 44613 0.000226744
551 44631 1.79907e-06
551 44783 1.75243e-05
551 44786 2.26411e-06
551 45101 0.00928311
551 45245 6.30863e-06
551 45363 1.03076e-07
551 45387 4.31255e-07
551 45940 1.40704e-05
551 46053 4.53013e-07
551 46117 1.74411e-05
551 48091 0.000619569
551 48095 0.000280811
551 48963 1.90494e-07
551 49223 0.000941271
551 49449 7.64164e-06
551 49524 0.00898576
551 50784 0.01144
551 50789 1.11931e-06
551 50792 8.30279e-07
551 51115 0.0333946
552 215 0.444455
552 723 0.111114
552 3500 0.111106
552 24616 0.111114
552 36827 0.111114
552 45251 0.111099
553 1698 0.333333
553 20113 0.333333
553 45713 0.333333
554 25091 0.5
554 27057 0.5
555 3266 0.0374774
555 3272 0.0749706
555 3274 0.0374788
555 3294 0.0374874
555 25650 0.0374874
555 25651 0.0374873
555 25658 0.0374874
555 25877 0.186212
555 26202 0.187422
555 30783 0.14995
555 30785 0.074975
555 31850 5.8095e-05
555 39884 0.066206
555 50787 0.0352999
556 3272 0.219314
556 3274 0.0156653
556 3276 0.0783264
556 3288 0.0156653
556 3289 0.0156653
556 3291 0.0156653
556 3292 0.0313306
556 11327 0.0156653
556 11328 0.0156653
556 25644 0.0939918
556 25646 0.0313306
556 25877 0.13841
556 26195 0.0313305
556 26199 0.0939915
556 30778 0.0469958
556 30780 0.0939918
556 30781 0.0156653
556 30782 0.0156653
556 48160 0.0156652
557 25499 0.142857
557 25506 0.142857
557 43579 0.142857
557 43584 0.142857
557 47879 0.142857
557 47880 0.285714
558 875 0.265854
558 11163 0.245831
558 42186 0.265855
558 50784 0.22246
559 32781 0.4
559 32791 0.4
559 32794 0.2
560 34176 0.995984
560 39885 0.0040155
561 42955 0.161482
561 42956 0.484447
561 42960 0.161482
561 44749 0.0311053
561 47160 0.161482
562 5080 0.0288766
562 6725 0.0577717
562 8543 0.0577735
562 9443 0.0288866
562 9512 0.0288961
562 15163 0.0343501
562 19712 0.0288868
562 20086 0.0288867
562 20547 0.0288865
562 23682 0.0283779
562 23687 0.0288847
562 24811 0.0288731
562 32441 1.11675e-06
562 38761 0.057545
562 39903 0.0288867
562 42951 0.0577732
562 42955 0.0577735
562 42956 0.0866603
562 42957 0.0288868
562 42958 0.0288861
562 42959 0.0577647
562 42960 0.0577734
562 42961 0.0288867
562 45177 0.0288864
562 45245 0.00067424
562 47147 0.0288389
562 47159 0.000122498
562 50794 0.0412902
563 3474 1.94517e-05
563 5079 0.00340683
563 5080 0.00851707
563 6011 1.01031e-07
563 9511 0.00170341
563 12780 0.000521145
563 13670 0.00170342
563 13767 0.00167137
563 14351 2.36833e-06
563 14365 0.00181753
563 19614 1.92805e-07
563 19663 0.0596806
563 19670 0.00851706
563 19671 0.0137308
563 19673 0.0204318
563 19675 0.00511019
563 19709 0.00510896
563 19710 0.0391736
563 19711 0.00340682
563 19712 0.00511025
563 19713 0.00167531
563 20398 0.00170188
563 22810 0.00340683
563 31234 0.00172402
563 31239 0.00681352
563 31241 0.0017034
563 40065 1.60919e-07
563 40502 0.00170341
563 41497 0.12946
563 41498 0.0221444
563 41499 0.0408819
563 41501 0.144786
563 41502 0.00851707
563 41503 0.0630264
563 41504 0.14479
563 41505 0.0272547
563 41506 0.0408766
563 42513 0.0681366
563 42951 0.0119239
563 42961 0.00170341
563 42963 0.00340672
563 42995 0.00170339
563 42996 0.00340682
563 42997 0.00416784
563 42998 0.00170339
563 44146 0.00511025
563 44148 0.00340683
563 44150 0.00681366
563 46559 0.0238386
563 46589 0.00681366
563 47147 0.0101261
563 47149 0.00168539
563 47150 0.00170341
563 47190 0.0102205
563 47192 0.00681351
563 47193 2.00273e-05
563 47260 0.00170341
563 47667 0.00170341
563 48967 3.69217e-05
563 51115 0.00375346
564 300 0.00392298
564 14365 0.167609
564 22379 0.520269
564 33120 0.104024
564 40326 0.100321
564 43709 0.103854
565 1399 1
566 3060 0.254677
566 3063 0.148559
566 4374 0.0205323
566 8145 0.021223
566 11163 0.0200243
566 11226 0.000711734
566 19236 0.0212229
566 20308 0.406076
566 28910 0.0209339
566 29839 0.00120073
566 29849 0.0212058
566 29854 0.0212116
566 29879 0.0211998
566 32030 0.0212229
567 26407 0.999036
567 43403 0.000964257
568 26396 0.222221
568 26397 0.222223
568 26400 0.111111
568 26402 0.111111
568 26407 0.111111
568 47332 0.222223
569 7027 0.250079
569 11163 0.249763
569 19563 0.250079
569 33742 0.250079
570 881 1
571 131 0.000135852
571 2149 7.60393e-06
571 2409 0.000877265
571 3003 0.000189903
571 3501 1.34763e-05
571 3546 0.0164549
571 3621 0.000189622
571 4475 0.000395064
571 4888 0.000595306
571 5209 1.02628e-06
571 5310 6.34803e-07
571 5341 7.55478e-07
571 5563 0.00511458
571 7359 0.00151041
571 7672 0.000197817
571 8041 0.000598681
571 8042 0.000395693
571 8066 0.000197847
571 8446 0.000563791
571 8891 0.000463827
571 9790 0.000196323
571 10682 4.35079e-06
571 10792 0.00019783
571 10804 6.09457e-07
571 11163 0.022957
571 11336 0.000197818
571 11337 0.000197818
571 13419 1.77805e-05
571 13643 0.000197851
571 13650 0.000395701
571 13920 3.60673e-07
571 13921 0.00472507
571 14343 5.38807e-05
571 15163 0.00159236
571 15203 0.000197716
571 15229 0.00247371
571 15278 0.000197793
571 15559 0.000790801
571 16147 1.24851e-05
571 16162 9.19648e-05
571 16990 1.5566e-05
571 16991 4.09226e-07
571 18078 2.61212e-06
571 18578 3.64621e-07
571 20308 0.0154283
571 20505 0.00970593
571 20919 0.000197847
571 21320 3.4569e-06
571 21463 0.00477729
571 21466 0.0279049
571 21712 1.96367e-06
571 23429 4.29852e-06
571 23432 0.429094
571 23433 0.273494
571 23852 0.0253109
571 24867 0.0287169
571 25877 0.00119707
571 26467 0.00118723
571 26469 0.000197922
571 26476 0.000197401
571 28604 1.60095e-06
571 28910 0.00308159
571 29224 0.00467599
571 29693 0.000988768
571 29694 0.00551766
571 32012 0.000211049
571 32434 1.12654e-07
571 32940 0.00493897
571 33426 3.4389e-05
571 33434 0.000391446
571 33831 0.00074761
571 33878 0.00298267
571 34519 0.0318109
571 35085 0.0306533
571 36354 0.000197301
571 37069 0.000196938
571 39346 0.000199298
571 39931 0.000395676
571 40065 2.29686e-07
571 40161 0.00412991
571 40820 0.00276971
571 41786 0.000796218
571 41790 0.00120068
571 41795 0.000989244
571 41797 0.00295077
571 41798 0.000197828
571 41799 0.00969478
571 41806 0.00217638
571 41808 0.000197847
571 43292 1.08027e-06
571 44391 0.00233489
571 44610 4.56298e-07
571 44926 0.00202063
571 45161 5.36618e-07
571 45248 0.000264174
571 46373 1.06264e-07
571 46817 0.000535722
571 47379 0.000395688
571 48109 3.08236e-07
571 48978 0.000493791
571 48979 0.000190348
571 49393 0.000134968
571 49482 0.000195943
571 49912 0.00102546
571 50777 5.41049e-05
571 50790 3.42245e-06
571 50794 0.000373151
571 50875 8.37358e-07
572 3003 0.0612255
572 7175 0.296277
572 7178 0.015595
572 7500 4.69317e-07
572 7681 6.29671e-07
572 7855 1.64835e-07
572 9961 0.03119
572 11163 0.0309477
572 20505 0.389873
572 20575 0.0311886
572 29836 1.09656e-05
572 30029 0.0033077
572 33561 0.12476
572 39438 0.015595
572 43715 2.25605e-05
572 45245 5.33452e-06
573 939 0.5
573 940 0.5
574 25877 0.932332
574 26732 0.0676685
575 42191 0.670753
575 51114 0.329247
576 8144 0.214157
576 8145 0.234692
576 8146 0.0264029
576 11163 0.45983
576 11632 0.00293365
576 11633 0.00293365
576 13921 0.0273193
576 16132 0.00290594
576 29089 0.00293365
576 30371 0.00536418
576 35330 1.84287e-07
576 37030 0.00292538
576 39148 0.00293365
576 39150 0.0117346
576 48986 0.00293359
577 5352 0.250028
577 11691 0.249985
577 22455 0.250028
577 24757 0.24996
578 25727 0.0154753
578 29145 0.368013
578 38584 0.616511
579 4783 0.33282
579 40918 0.66718
580 11934 0.0313979
580 13921 0.0314269
580 22195 0.0314031
580 26775 0.345434
580 26777 0.0314031
580 26779 0.345414
580 26780 0.0903346
580 30711 0.0306582
580 32618 0.0314008
580 35677 0.0311281
581 26776 1
582 3327 5.41985e-06
582 3501 0.221283
582 3546 0.100774
582 12033 0.00743228
582 12457 0.00760067
582 21712 0.209109
582 22868 0.0589131
582 23007 0.00774581
582 26779 0.0077458
582 26780 0.116156
582 26781 0.023237
582 26782 0.0542164
582 26783 0.00774313
582 26785 0.100695
582 26787 0.0154915
582 35351 0.00774576
582 35912 0.0232374
582 35914 0.00774574
582 35922 0.0154911
582 48133 0.00763115
583 3486 8.93415e-06
583 3487 0.0971938
583 8863 1.17991e-05
583 38060 0.169272
583 38061 0.0564241
583 38062 0.169272
583 38066 0.0564239
583 38067 0.0564241
583 38068 0.282121
583 38070 0.0564239
583 38071 0.0564241
584 35922 1
585 35321 1
586 18986 0.334679
586 28910 0.330643
586 38065 0.334678
587 885 0.197221
587 887 0.0657403
587 888 0.197221
587 24122 0.0657403
587 31082 0.0657403
587 31097 0.197221
587 39346 0.0147837
587 41905 0.0657403
587 42007 0.0649488
587 42655 6.91836e-06
587 47140 0.0656374
588 885 0.0176178
588 886 0.528531
588 887 0.00880892
588 3327 7.69761e-06
588 3546 1.49644e-07
588 5310 0.00880891
588 18712 0.0176187
588 22620 0.00880423
588 22868 0.000279502
588 23052 0.0152794
588 24369 0.0175571
588 31072 0.00880881
588 31083 0.00830708
588 31086 0.0174822
588 31091 0.0262805
588 36050 0.00880892
588 39438 0.0088085
588 41906 0.246622
588 42007 0.0262426
588 42009 0.00943779
588 50790 0.0152165
588 50792 0.000671235
589 5472 0.25
589 5622 0.25
589 29373 0.5
590 3498 0.083616
590 4138 0.083363
590 8898 0.0827132
590 12451 0.0833687
590 29374 0.166737
590 29376 0.250106
590 34653 0.0833687
590 39894 0.0833589
590 48160 0.0833681
591 7449 0.978216
591 27161 0.0217844
592 3024 8.12048e-05
592 5622 0.714228
592 12416 0.142846
592 29372 0.142846
593 5042 0.460685
593 5043 0.230343
593 26202 0.230343
593 34954 0.0786297
594 890 0.154244
594 891 0.0771217
594 893 0.154244
594 9747 8.90089e-07
594 10560 0.0747653
594 10684 0.0771121
594 14124 0.0771217
594 17156 0.0771219
594 19671 0.0771219
594 20215 0.0771215
594 34504 0.0769033
594 36404 0.0771217
595 886 6.61533e-07
595 894 0.27097
595 895 0.07742
595 896 0.0332109
595 897 0.03871
595 898 0.0387097
595 2476 0.03871
595 7597 0.03871
595 7598 0.03871
595 7599 0.07742
595 22271 0.15484
595 22274 0.07742
595 41471 0.07742
595 46787 0.0377486
597 2816 0.333334
597 2817 0.333334
597 30991 0.333332
598 9796 0.00766147
598 10957 0.110511
598 10996 0.129305
598 13551 0.221023
598 24029 0.110511
598 24039 0.110511
598 28847 0.110511
598 31089 0.000147759
598 39346 0.199818
599 13550 0.416678
599 13555 0.250007
599 21316 0.0833355
599 29578 0.0833355
599 41746 0.0833094
599 43709 0.0833355
600 13553 0.826718
600 39894 0.173282
601 13553 0.406958
601 13554 0.203479
601 13556 0.203479
601 39895 0.186083
603 21538 1
604 9401 0.222278
604 33832 0.11114
604 40827 0.333162
604 40832 0.11114
604 46329 0.11114
604 47601 0.11114
605 1191 0.281879
605 1192 0.0256254
605 1195 0.358755
605 1196 0.150799
605 27132 0.0250486
605 35662 0.0256254
605 35663 0.0256254
605 40522 0.025625
605 44108 0.00289955
605 46571 0.0781181
606 2338 0.00662443
606 3144 0.00662443
606 4423 0.00662443
606 8863 0.00662314
606 10560 1.53801e-07
606 10651 5.00067e-07
606 30830 0.00662443
606 31231 0.00662443
606 34323 0.00662443
606 34497 0.0331221
606 34533 0.0397425
606 34539 0.00662443
606 34542 0.0662443
606 34543 0.0331221
606 34544 0.00662443
606 34577 0.0397406
606 34579 0.0331221
606 34581 0.00662443
606 34589 0.0728687
606 34591 0.11924
606 34640 0.0794932
606 34641 0.0198733
606 34643 0.00662443
606 34655 0.271599
606 39464 0.00662436
606 41491 0.0198733
606 42009 0.0132489
606 42014 0.0132489
606 42017 0.0132489
606 42020 0.00662443
606 42021 0.0132489
606 42031 0.00662443
606 42952 0.00662392
606 44602 2.77932e-06
606 45387 0.0129725
606 48204 0.00662269
607 9370 0.00438209
607 9924 0.0953289
607 9926 0.0476647
607 10827 0.0476647
607 16989 0.00347732
607 18078 0.0865134
607 22007 0.0953291
607 22633 0.238323
607 34253 0.0953286
607 34254 0.142994
607 34255 0.0476647
607 34256 0.0476647
607 47810 0.0476647
608 689 9.73147e-07
608 2137 0.0125439
608 16458 1.61617e-06
608 20003 0.0129045
608 20736 0.0122519
608 23432 9.82883e-07
608 24660 0.012544
608 26240 0.012544
608 31219 0.0125439
608 33313 0.000780016
608 34078 0.0136367
608 34293 0.00725145
608 34344 0.012544
608 34594 0.0250882
608 34640 0.439041
608 34641 0.137984
608 34643 0.0878081
608 34647 0.012544
608 34652 0.012544
608 34653 0.0501761
608 34654 0.012544
608 36375 0.0123708
608 41489 0.012544
608 42014 0.0376321
608 42017 0.037632
608 47866 0.012544
609 3685 0.0932126
609 24983 0.0519111
609 31234 0.142312
609 34533 0.14245
609 34640 0.14245
609 34643 0.14245
609 34655 0.284895
609 49801 0.00032047
610 8940 0.0236583
610 20870 0.000106155
610 20871 0.196297
610 34578 0.19629
610 34580 0.191659
610 34593 0.195706
610 38381 0.196283
611 10103 0.374535
611 10104 0.0941247
611 10670 0.000283652
611 14368 0.00722366
611 14626 0.092357
611 15163 0.369054
611 23370 0.0312103
611 28718 0.0312108
612 9450 0.500002
612 19713 0.499998
613 42573 1
614 904 0.216766
614 910 0.0939317
614 911 0.0721877
614 958 0.00346834
614 979 0.0216391
614 999 2.28856e-07
614 5747 0.00686206
614 5919 1.05521e-07
614 5922 0.00240817
614 9939 1.37797e-06
614 10341 0.0326266
614 15599 0.00481701
614 15604 0.00240851
614 16993 6.03001e-06
614 19652 1.34962e-07
614 22848 0.0289326
614 22851 0.0144505
614 22855 0.0939317
614 22856 0.0121288
614 30361 9.12339e-07
614 31665 0.00481654
614 31666 0.00472396
614 31668 2.33507e-06
614 31669 0.00764421
614 31672 0.00481278
614 31711 4.94889e-06
614 33831 2.44613e-06
614 34259 0.000242829
614 35002 0.00247523
614 35673 0.0216719
614 35674 0.0337777
614 35708 0.00104413
614 35709 0.0144497
614 35710 0.0240851
614 35712 0.0024085
614 35713 0.0313561
614 36856 3.60298e-05
614 38597 0.0113805
614 39203 0.00240658
614 41274 0.0144506
614 41276 0.0120425
614 41281 0.0987464
614 41284 0.0310808
614 41287 0.00712458
614 41294 0.0361384
614 41303 0.00779024
614 41308 0.0024085
614 42007 5.15108e-07
614 44341 9.31718e-06
614 45184 0.0014766
614 49803 0.00240776
614 50762 1.42664e-05
614 50789 0.000261633
614 50793 0.0121384
615 904 0.5
615 6381 0.5
616 41282 0.5
616 41289 0.5
617 22987 0.09375
617 41284 0.90625
618 904 0.198596
618 905 0.198594
618 978 0.079438
618 1001 0.000207843
618 3546 0.00027124
618 9968 0.0459892
618 22854 0.0794384
618 29351 0.0397191
618 35677 0.000172142
618 35711 0.278034
618 35714 4.70877e-05
618 39338 0.0397219
618 41275 0.0397703
619 4784 0.699647
619 34655 0.199899
619 34826 0.0999495
619 42951 0.000504498
620 33350 0.333333
620 36632 0.333333
620 36703 0.333333
621 5741 0.25
621 24807 0.25
621 37451 0.25
621 45737 0.25
622 23217 0.5
622 37943 0.5
623 1119 0.214286
623 1120 0.0714286
623 4168 0.0714285
623 30387 0.0714286
623 42365 0.214286
623 42366 0.214286
623 42367 0.0714286
623 42370 0.0714286
624 42363 0.5
624 42364 0.5
625 1121 0.0624134
625 3672 6.59015e-07
625 16427 0.0623543
625 30675 0.0624073
625 35271 0.124827
625 39346 2.92826e-05
625 41746 0.124825
625 42362 0.0624134
625 42365 0.124827
625 42366 0.124827
625 42367 0.124827
625 42371 0.0624134
625 42472 0.0624128
625 49808 0.00142264
626 42327 0.666667
626 42328 0.333333
627 46226 1
628 5781 0.1113
628 6716 0.111357
628 9443 0.111357
628 9545 0.111357
628 10061 0.111357
628 10077 0.111357
628 11163 0.109262
628 36985 0.111356
628 39896 9.12499e-05
628 45161 0.111205
629 6704 0.0663584
629 6706 0.199075
629 9433 0.0663581
629 9435 0.0663581
629 9620 0.0663532
629 10061 0.132717
629 10063 0.0663581
629 10064 0.0663581
629 11421 0.0663584
629 12110 0.0663573
629 39901 0.0711608
629 40065 0.0661872
630 6697 0.333333
630 10073 0.333333
630 10074 0.333333
631 3546 0.0114635
631 3691 6.53807e-06
631 3973 0.0457404
631 8817 0.0114326
631 10660 0.0457167
631 19622 0.0228479
631 19627 0.000240928
631 24262 0.00638134
631 28589 0.0114215
631 28910 0.296019
631 40068 0.0113432
631 40161 6.29197e-07
631 40642 0.0114891
631 41136 0.091468
631 42026 0.308757
631 42311 0.0457417
631 42313 0.0227531
631 42336 0.0228708
631 44108 0.0228709
631 44990 2.11238e-07
631 47864 0.0114354
632 1122 0.15382
632 1123 0.461455
632 20308 0.384134
632 22531 0.000325239
632 39897 0.000265329
633 632 0.0146607
633 1116 0.0647881
633 1849 0.0147342
633 4847 0.0586422
633 5836 0.0293213
633 13921 0.172041
633 19172 0.000118544
633 19781 0.000125967
633 20308 0.00360903
633 24295 0.0146516
633 24300 0.0146606
633 34993 0.0146607
633 38381 0.0145286
633 39931 0.0293213
633 41505 0.0146604
633 44359 0.0146607
633 44360 0.0146606
633 44366 0.0879639
633 44391 0.219816
633 44392 0.0731917
633 44393 0.0586426
633 44743 0.0153469
633 48075 0.0293213
633 48124 0.00737748
633 48294 0.0184948
634 22826 0.000283692
634 25979 0.999716
635 3463 0.4
635 3464 0.2
635 3466 0.4
636 1118 0.236039
636 1848 5.91193e-05
636 1851 0.114556
636 13035 1.21529e-05
636 16998 0.0591589
636 29203 0.0591803
636 42121 1.0564e-05
636 42122 1.0564e-05
636 44360 0.118361
636 44362 0.0591803
636 44364 0.118361
636 44743 0.235072
637 20640 1
638 24497 0.148584
638 34473 0.0407978
638 36746 1.25528e-05
638 40801 0.202652
638 40802 0.202651
638 41794 0.202652
638 41842 0.202652
639 45406 1
640 6011 0.0441335
640 10081 0.0453523
640 13904 0.0453357
640 21805 0.045352
640 33094 0.0907044
640 41906 0.00370238
640 45401 0.0453523
640 45402 0.0907046
640 45403 0.226544
640 45405 0.0907047
640 45410 0.226761
640 45412 0.0453524
641 45403 1
642 6304 0.110257
642 23458 0.445776
642 23461 0.111435
642 23484 0.111346
642 29887 0.111289
642 31871 0.000250945
642 49912 0.109645
643 23461 1
644 4888 6.28774e-05
644 23475 0.1666
644 23482 0.833001
644 41385 0.000335651
645 3546 0.280259
645 4888 6.04719e-05
645 10560 4.15882e-05
645 13288 9.25587e-05
645 15275 0.00570675
645 19172 0.000572942
645 21298 8.61818e-05
645 22813 1.98698e-06
645 23456 0.00694508
645 23457 0.0138902
645 23463 0.13184
645 23464 0.0763962
645 23465 0.194438
645 23470 0.0277805
645 23473 0.0069447
645 23479 0.0208354
645 23480 4.73472e-07
645 23484 0.0555608
645 23485 0.0678508
645 27086 1.98698e-06
645 41896 1.12626e-07
645 45248 0.110695
646 3546 8.20996e-05
646 3672 0.115957
646 4531 0.0322201
646 4571 0.03222
646 23016 0.0952077
646 23467 0.0644388
646 23471 0.0644346
646 23472 0.19332
646 23474 0.161099
646 23477 0.06444
646 23478 0.06444
646 23483 0.0966601
646 44786 0.0154178
646 49912 6.27529e-05
648 6108 3.22658e-07
648 15163 0.294708
648 19631 5.55882e-05
648 23313 2.92043e-05
648 25458 0.0115826
648 30786 0.00986685
648 33175 0.011583
648 34022 0.428568
648 34028 0.0926514
648 34029 0.0347489
648 34031 0.0231657
648 34032 0.0231657
648 34034 0.0115827
648 34038 0.0231556
648 34044 0.0115622
648 39181 8.50052e-06
648 44613 0.0231172
648 47407 1.95506e-05
648 47410 6.47313e-06
648 50792 0.000422203
649 3319 0.243272
649 45618 0.243272
649 45849 0.270184
649 49515 0.243272
650 45850 1
651 2945 0.0742397
651 2954 0.297344
651 2979 0.14848
651 4888 0.0742201
651 6013 0.0742189
651 19172 0.0905487
651 28963 0.0742249
651 42813 0.0924846
651 44813 0.0742396
652 2945 0.253474
652 2946 0.506964
652 7741 0.237669
652 21926 0.00189286
653 2954 0.594157
653 7741 0.212109
653 19172 0.193734
654 10079 1
655 302 0.0393551
655 9397 0.040023
655 9443 0.120825
655 9501 0.0402694
655 9545 0.040275
655 10064 0.0402243
655 10066 0.040275
655 10080 0.201375
655 16660 0.040275
655 23016 0.0805465
655 25734 0.0401239
655 25750 0.0402743
655 27709 0.0805501
655 36702 0.040275
655 47591 2.11131e-06
655 49447 0.0347815
655 49482 0.0805496
656 9433 0.0551127
656 9434 0.0551127
656 9435 0.192894
656 9496 0.0275563
656 10061 0.248004
656 10063 0.110103
656 10064 0.13778
656 10080 0.0550776
656 19633 0.0614067
656 25849 0.0275564
656 43671 0.0275557
656 47576 0.00184142
657 10073 0.2
657 10074 0.8
658 10077 1
659 8913 0.0989662
659 10073 0.225258
659 20308 3.74904e-06
659 21588 0.225257
659 23379 0.225258
659 39123 0.225257
660 2947 0.00031293
660 3026 0.337974
660 19172 0.323645
660 22060 0.337974
660 39194 9.34049e-05
661 9658 0.0897386
661 9672 0.0709194
661 15833 0.21277
661 15834 0.141847
661 15835 0.0709234
661 15836 0.0709235
661 23095 0.130115
661 29684 0.0709233
661 37745 0.0709156
661 41135 0.0709235
662 300 0.162664
662 15838 0.837336
663 5040 0.320182
663 15833 0.679818
664 3685 0.00063281
664 31082 0.135311
664 34293 0.142387
664 34306 0.14277
664 34323 0.42831
664 34325 0.15059
665 30200 0.166667
665 34306 0.333333
665 34307 0.5
666 29006 0.16247
666 34330 0.628216
666 40103 0.209314
667 4475 0.328079
667 29446 0.32808
667 46871 0.32808
667 49801 0.0157613
668 1188 0.5
668 1189 0.5
669 1187 1
670 15163 2.57525e-05
670 24774 0.166662
670 24776 0.66665
670 34824 0.166662
671 3623 0.127432
671 13587 0.128861
671 13598 0.0644304
671 13599 0.193277
671 14366 0.0644302
671 23077 0.064432
671 24575 0.0349841
671 30614 0.257719
671 36050 0.0644302
671 39346 5.1935e-06
672 8896 0.093221
672 13602 0.725423
672 27388 0.181356
673 13585 0.289636
673 13598 0.0789917
673 13606 0.0263304
673 22031 0.0263226
673 23077 0.0262441
673 24774 0.0263306
673 24775 0.0263305
673 30606 0.0263306
673 30607 0.0526582
673 30608 0.0263247
673 30610 0.368165
673 30612 0.0263305
673 50777 4.5453e-06
674 10054 0.6
674 34664 0.4
675 2813 0.0995428
675 3347 0.0497705
675 4406 0.0497711
675 7101 0.0497718
675 8465 0.0497718
675 11557 0.0497718
675 16987 0.0497356
675 24380 0.0995436
675 24614 5.25486e-07
675 25457 0.0497718
675 31228 0.0497718
675 31231 0.0497718
675 34668 0.0497718
675 34669 0.0497718
675 34670 0.0497718
675 35877 0.0497716
675 41700 0.0496802
675 45048 0.0497716
675 46817 0.00470707
675 47929 0.0497592
676 3510 0.250194
676 5721 0.250211
676 27985 0.125105
676 34041 0.249385
676 46950 0.125105
677 34664 0.99953
677 49808 0.000470096
678 21855 0.496227
678 25190 0.496227
678 34309 0.00754631
679 1140 1
680 1139 1
681 2310 0.0145554
681 3703 2.17866e-05
681 5291 0.00729225
681 5787 0.00466049
681 5948 0.00729217
681 6953 0.00724369
681 9224 0.00729225
681 9839 0.00729206
681 9866 0.00733308
681 9956 0.0240514
681 10289 0.0291689
681 11163 0.00715448
681 13570 3.81245e-06
681 13921 3.46492e-06
681 16987 0.00727806
681 17437 0.000361017
681 20308 0.0300342
681 21111 1.74915e-06
681 21139 0.0729204
681 21476 0.0291684
681 21565 4.35101e-06
681 23695 0.000350325
681 27596 0.00729213
681 27880 0.0291665
681 27887 0.00729212
681 28050 0.00726723
681 28051 0.00729188
681 28052 0.0145799
681 28055 0.138383
681 28229 0.00729199
681 28231 0.0289306
681 28240 0.00729199
681 28868 1.51841e-07
681 28910 0.0470177
681 31667 0.00729217
681 31683 0.00461583
681 33980 0.00729214
681 36182 0.00729216
681 37951 0.00711758
681 41586 0.00720933
681 43299 0.0072922
681 43700 0.0510456
681 45184 0.00745818
681 49524 0.328096
682 1138 0.999919
682 17115 8.06462e-05
683 1141 0.0266828
683 1142 0.00887973
683 3326 0.00116336
683 3328 0.0175812
683 3343 0.0268229
683 3344 0.00924721
683 3795 0.0355189
683 3797 0.0177594
683 4132 0.0532783
683 5040 0.00469753
683 5786 2.68443e-07
683 7230 0.0266274
683 8817 0.0266381
683 8819 0.221993
683 8820 0.00887759
683 8822 0.00887972
683 8856 0.0177593
683 13920 0.00885353
683 14226 0.00887949
683 15229 9.65955e-07
683 22299 0.00891599
683 23976 0.00760409
683 26831 0.00888395
683 29894 0.00887541
683 30063 0.000270125
683 31238 3.25868e-07
683 32426 0.0177594
683 32427 0.0177594
683 32431 0.0355167
683 32434 0.00887854
683 32440 0.00887506
683 32441 0.0177569
683 32442 0.00887506
683 32450 0.00887973
683 32817 1.19643e-05
683 33774 0.00887973
683 34378 0.00887949
683 34914 0.0177594
683 40068 0.00807138
683 40103 0.13939
683 42339 0.00887968
683 43917 0.0177594
683 44593 0.101377
684 3474 3.1837e-07
684 3498 0.013762
684 3861 0.0275737
684 7027 0.00785508
684 7230 0.179229
684 8817 0.22059
684 8819 0.0137869
684 11948 0.000239485
684 13807 0.0275737
684 13808 0.0137869
684 14867 0.0137869
684 21615 0.000196988
684 29335 0.0551474
684 32434 0.110293
684 33042 0.0137869
684 36904 0.0137868
684 40103 0.261743
684 42026 0.0137863
684 44593 0.0130758
685 3546 6.65191e-07
685 3793 0.0108516
685 3794 0.0108516
685 3818 0.119367
685 3819 0.0488314
685 3821 0.0596837
685 3861 0.0108515
685 3865 0.00542576
685 4132 0.189903
685 4888 0.00541107
685 7230 0.0108516
685 8817 0.00542562
685 8820 0.0162764
685 8822 0.00542562
685 8827 0.0054258
685 25877 0.00115061
685 32423 0.0162737
685 40103 0.469675
685 43608 0.00472373
685 44593 0.00359435
686 1162 1
687 2865 0.0380819
687 2867 0.0380819
687 3108 0.038082
687 3117 0.0357738
687 8806 0.0761636
687 8807 0.114246
687 8813 0.19041
687 8819 0.0761639
687 9277 0.038082
687 14353 0.0372633
687 15250 0.0133157
687 19230 0.0761639
687 32450 0.038082
687 33432 0.0380819
687 47013 0.0380819
687 48014 0.037964
687 49950 0.0380818
687 50784 0.0378808
688 873 0.0904964
688 8807 0.0454169
688 8813 0.317918
688 8841 0.0907387
688 9139 0.0908338
688 21712 0.0465531
688 28910 0.0908127
688 32443 0.0908338
688 32446 0.0454168
688 39893 0.000146045
688 41136 0.0454167
688 44109 0.0454169
689 1147 0.266904
689 1148 0.029656
689 1149 0.0593119
689 1150 0.029656
689 1151 0.029656
689 1152 0.029656
689 1155 0.118624
689 1156 0.059312
689 1157 0.207592
689 1158 0.029656
689 1159 0.0230037
689 8825 4.29751e-06
689 8826 0.0280004
689 9137 0.029656
689 9142 0.029656
689 23957 0.0296557
690 3348 0.0709388
690 4888 0.0713694
690 5738 0.0713728
690 9139 0.0713746
690 19220 0.142749
690 19630 0.0713737
690 37189 0.0713746
690 43670 0.0713746
690 45509 0.0713746
690 45959 0.0713315
690 47261 0.0713746
690 48018 0.0713743
690 50213 0.0726169
691 1153 0.204271
691 5782 0.0992977
691 9140 0.102136
691 12418 0.0980871
691 12432 0.103043
691 12453 0.0916499
691 15263 0.0920082
691 18543 0.102116
691 31032 0.00525652
691 45140 0.102135
692 1143 0.157777
692 1145 0.0350615
692 1171 0.525922
692 1172 0.0350615
692 1175 0.0525922
692 1177 0.105184
692 1179 0.0175307
692 15163 4.6921e-07
692 15780 0.0175307
692 24765 0.0174088
692 34959 1.37319e-06
692 41685 0.0175307
692 43469 0.0183858
692 45264 1.3155e-05
693 1171 0.992696
693 40513 0.00730377
694 1144 0.2
694 1173 0.2
694 1174 0.2
694 1176 0.2
694 1180 0.2
695 1165 0.407622
695 1166 0.156778
695 1167 0.250844
695 1168 0.0313555
695 1169 0.0313555
695 18003 0.0313542
695 39896 0.0311046
695 50762 0.0595858
696 1169 1
697 1163 0.110725
697 3343 4.61701e-07
697 3793 0.0221451
697 3818 0.199306
697 8820 0.0221451
697 9134 0.0221451
697 13920 0.0868406
697 19172 0.0437263
697 25049 0.0212537
697 32423 0.0221451
697 36831 2.64697e-05
697 36832 9.96319e-07
697 40103 0.176876
697 42499 0.0884864
697 44593 0.162749
697 45619 0.0214213
697 45811 7.11631e-06
698 8812 0.20611
698 28910 0.17556
698 38461 0.20611
698 48210 0.20611
698 48217 0.206109
699 3546 0.0153398
699 5310 0.053701
699 5311 0.198061
699 5634 0.00335705
699 7692 0.0067142
699 8809 0.0537151
699 8810 0.0100702
699 8863 0.214848
699 10642 0.000158918
699 13767 0.00453749
699 19710 0.00329894
699 19712 0.000204463
699 20308 0.176367
699 21712 3.56042e-07
699 22935 0.00136139
699 28910 0.00628595
699 30711 2.356e-06
699 33065 0.00335718
699 33066 0.00335718
699 39464 0.214856
699 41863 0.00671112
699 42007 0.000582689
699 44209 0.00671432
699 44593 1.88889e-07
699 44609 1.73874e-07
699 44961 0.00335709
699 46817 0.00633013
699 48211 0.00671125
700 13777 0.504783
700 15080 0.252392
700 44386 0.242819
700 49801 6.16242e-06
701 25816 0.5
701 32302 0.5
702 38616 1
703 10670 0.000469883
703 15190 0.99953
704 1046 0.666661
704 1047 0.333331
704 28992 7.84522e-06
705 3510 0.147424
705 15163 0.229422
705 27951 2.0931e-05
705 34816 0.124629
705 34817 0.124629
705 34818 0.124629
705 34823 0.124616
705 34824 0.124629
706 17876 0.5
706 34817 0.5
707 1048 1
708 1049 0.112105
708 15163 0.200148
708 27750 0.112104
708 27951 0.0151224
708 29445 0.112102
708 30182 0.112105
708 34820 0.224209
708 34822 0.112105
709 28235 1
710 4824 0.0115844
710 4829 0.0115844
710 9401 0.0115844
710 9403 0.0115844
710 9406 0.312783
710 9410 0.0463372
710 9413 0.0231688
710 9414 0.0115837
710 9419 0.115844
710 9420 0.185351
710 9780 0.0231688
710 9781 0.0115844
710 15901 0.0231393
710 22988 0.0153488
710 28153 0.0115839
710 29792 0.0115844
710 30188 0.0115844
710 31121 0.0231688
710 31131 0.0115844
710 33835 0.0115844
710 33836 0.0231681
710 33842 0.0115844
710 40101 3.81629e-06
710 40747 0.0347533
710 41170 0.0115844
710 41176 0.0231688
710 50792 3.19646e-07
711 4826 0.0870385
711 4887 0.0870385
711 5619 0.0290128
711 9401 0.377167
711 9402 0.116051
711 9403 0.0290128
711 9405 0.0290128
711 9800 0.0580257
711 29302 0.0135466
711 29517 0.0290128
711 29538 0.0580257
711 29759 0.0290128
711 29796 0.0290128
711 39878 1.70604e-05
711 41172 0.0290128
712 11468 0.157794
712 11470 0.0526367
712 21217 0.0526366
712 21218 0.0526366
712 21220 0.0526366
712 21222 0.31582
712 21224 0.105273
712 21230 0.210455
712 25877 0.000112021
713 7418 0.000286359
713 11468 0.0927757
713 14618 0.0926843
713 19172 0.0906372
713 20308 4.61457e-05
713 21219 0.0926843
713 21926 0.091431
713 31376 0.0926843
713 34848 0.0926844
713 40481 0.0926844
713 45251 0.0926831
713 46388 0.0926841
713 51115 0.0760348
714 11469 0.252377
714 14617 0.252378
714 21223 0.252378
714 21233 0.242867
715 6422 0.5
715 34026 0.5
716 9401 0.350219
716 9406 0.349822
716 9409 0.17511
716 49801 0.000916387
716 49889 0.123932
717 2001 0.0615973
717 5810 0.0616308
717 9416 0.0616388
717 9528 0.0616387
717 9894 0.184916
717 9899 0.0616387
717 10682 0.049721
717 15163 0.0791306
717 19729 0.00883693
717 21943 0.0616297
717 31404 0.123277
717 33840 0.0616387
717 41167 0.0616387
717 45178 0.0610669
718 9417 0.144217
718 9898 0.144217
718 9900 0.134714
718 9903 0.288435
718 15255 0.144203
718 31220 0.144214
719 3546 0.194141
719 13657 0.195272
719 21685 0.0247987
719 23352 0.195246
719 28286 0.195272
719 31715 0.195271
720 1066 0.846496
720 1067 0.0793588
720 1068 0.0052906
720 1074 0.0052906
720 1075 0.0370336
720 5562 1.03601e-05
720 10975 0.0052906
720 16995 6.69544e-05
720 24029 0.0105808
720 38767 0.0052906
720 51093 0.0052906
721 1066 0.0268217
721 1069 0.0336739
721 1070 0.0336739
721 1071 0.0336739
721 1072 0.134692
721 1073 0.101022
721 7034 0.0673478
721 15163 0.131452
721 23992 0.101022
721 26558 0.134696
721 27709 0.0673478
721 38768 0.0336739
721 39887 3.62551e-07
721 50174 0.100904
722 705 0.499514
722 1067 0.499522
722 3546 5.81196e-05
722 44799 0.000906058
723 15163 0.16203
723 16089 0.335042
723 24026 0.167619
723 24027 0.167619
723 24034 0.167677
723 49404 1.28974e-05
724 9411 0.547909
724 15163 0.452091
725 1060 1
726 13637 0.250399
726 16475 0.250399
726 24169 0.250399
726 51115 0.248804
727 1059 0.17631
727 9370 0.101169
727 10046 0.17631
727 13921 0.00250992
727 20569 0.17631
727 22025 2.27198e-05
727 30273 0.17631
727 35183 0.00888974
727 48719 0.17631
727 50789 0.00585868
728 3546 3.54498e-05
728 19196 0.333319
728 23048 7.06289e-06
728 31083 0.333319
728 41502 0.333319
729 15163 0.333348
729 28692 0.33277
729 34837 0.333882
730 34175 0.491275
730 47407 0.508725
731 34447 0.666667
731 34448 0.333333
732 10273 0.25004
732 10293 0.250041
732 15163 0.249879
732 34546 0.250041
733 15163 0.494576
733 34545 0.505424
734 12168 0.198952
734 26376 0.198952
734 26378 0.397905
734 44064 0.00524178
734 44373 0.198949
735 1050 0.0416697
735 9444 0.125009
735 20390 0.0416698
735 21441 0.0416697
735 21442 0.0416697
735 26674 0.0833394
735 26675 0.0833395
735 31744 0.0416696
735 31745 0.0416696
735 34034 0.0416698
735 34824 0.0416696
735 40842 0.0416697
735 44274 0.0416697
735 44275 0.0416696
735 44593 0.124937
735 44821 0.125009
736 11879 0.156727
736 26673 0.210818
736 31719 0.632455
737 4409 0.295738
737 14494 0.295919
737 15163 0.112422
737 34819 0.295921
738 1065 0.143126
738 3500 0.0714921
738 4709 0.0715073
738 7934 0.0715075
738 11495 0.0715074
738 21973 0.0715075
738 28269 0.0702353
738 33114 0.0715075
738 33203 0.0715075
738 34499 0.0715075
738 34578 7.2061e-05
738 35198 0.0715072
738 41663 0.0715075
738 47431 0.0715075
739 1061 0.250081
739 1062 0.250081
739 28910 0.249757
739 36919 0.250081
740 1063 1
741 5530 0.5
741 10093 0.5
742 5530 1
743 5500 0.0217392
743 5517 0.0652174
743 5518 0.0652164
743 5519 0.0217391
743 5520 0.0217392
743 5523 0.0217392
743 5524 0.0217392
743 5525 0.608696
743 5526 0.0434783
743 5532 0.0652175
743 23875 0.0217392
743 31301 0.0217392
744 3498 0.0269929
744 3623 0.0123941
744 5499 0.0287406
744 5507 0.0287406
744 5521 0.0862218
744 5522 0.143699
744 5523 0.373627
744 5527 0.0287405
744 10683 0.00234009
744 14340 0.0586397
744 18547 0.114962
744 18548 0.0574812
744 19652 0.0287317
744 45163 0.00406098
744 49008 0.00462678
745 30793 0.450825
745 30794 0.112706
745 30796 0.338119
745 33031 0.00216321
745 44583 0.0961871
746 5520 0.242835
746 5526 0.242834
746 14340 0.240928
746 15502 0.0305678
746 21037 0.242835
747 5521 0.25
747 5524 0.499999
747 18548 0.25
748 5529 0.409062
748 5533 0.204531
748 39346 0.386407
749 5985 0.05626
749 5988 0.05626
749 6070 0.618856
749 10179 0.0562599
749 11163 0.0998441
749 28697 0.0562598
749 34312 0.05626
750 6625 0.0104362
750 8041 7.42849e-05
750 9917 0.0104362
750 10560 0.00909913
750 22604 5.09421e-06
750 34290 0.0104362
750 34291 0.0104362
750 34293 0.114798
750 34295 0.0104362
750 34296 0.0626171
750 34297 0.0313086
750 34298 0.0104362
750 34299 0.0208724
750 34300 0.0208724
750 34306 0.0208724
750 34310 0.0104362
750 34323 0.323522
750 34324 0.0417448
750 34325 0.177415
750 34326 0.0104362
750 34327 0.0208724
750 34330 0.0104362
750 34331 0.0104362
750 34332 0.0104362
750 34544 0.0104331
750 36636 0.0104362
750 39901 0.0202586
751 34330 1
752 5654 0.0181726
752 6070 0.0363452
752 22604 2.08911e-07
752 32434 0.0181797
752 34306 0.508833
752 34307 0.0181726
752 34308 0.0181726
752 34310 0.199899
752 34643 0.090863
752 34647 0.0363452
752 34653 0.0181726
752 39901 0.0186718
752 42147 0.0181726
753 27084 0.200176
753 34314 0.200177
753 34330 0.200177
753 39346 0.199294
753 39896 0.200177
754 46951 1
755 30093 1
756 5166 0.0625282
756 15128 0.0625284
756 19711 0.0622551
756 34508 0.0625284
756 34533 0.0625284
756 34655 0.0625284
756 34749 0.0625284
756 40101 0.0623473
756 46747 0.125057
756 47837 0.312642
756 47854 0.0625284
757 5470 0.017127
757 10684 3.86954e-07
757 14377 5.64502e-07
757 34640 0.0345828
757 34643 0.0691656
757 34647 0.0172894
757 35080 0.017286
757 35081 0.0172914
757 38482 0.0155391
757 40101 0.016847
757 46745 0.0345828
757 46746 0.103749
757 47562 0.0172913
757 47835 0.0345828
757 47836 0.414994
757 47838 0.0172914
757 47840 0.155623
757 50875 0.016757
758 11815 0.330526
758 23433 0.334463
758 47839 0.335011
759 5509 0.142857
759 26996 0.142857
759 27002 0.142857
759 33652 0.285714
759 33655 0.142857
759 33658 0.142857
760 23872 0.11928
760 23875 0.477122
760 23876 0.357841
760 44786 0.0348231
760 48105 0.0109341
761 23873 1
762 5781 0.333332
762 35916 0.333334
762 38627 0.333334
763 3546 5.73513e-06
763 4377 0.139055
763 4385 0.0231758
763 4386 0.0231758
763 4387 0.0695272
763 4389 0.440335
763 4390 0.0463464
763 4392 0.142127
763 4831 8.61552e-06
763 15163 0.000273867
763 16089 0.0459883
763 34784 2.98017e-07
763 35329 0.0231755
763 41746 0.000264312
763 46817 0.000219452
763 49459 0.0463226
764 1077 0.337959
764 15229 0.324086
764 26972 0.337955
765 4388 0.339074
765 4390 0.0521712
765 4391 0.104342
765 4392 0.208686
765 8860 0.0347725
765 11163 7.66058e-05
765 18586 0.130428
765 20350 2.37343e-05
765 24916 0.0260853
765 29881 0.0260856
765 41900 0.0260839
765 41910 0.0521712
766 899 0.026308
766 5591 0.210464
766 12810 0.63139
766 23433 0.0525728
766 33348 0.026308
766 40642 0.000389583
766 50790 0.0525673
767 899 0.125
767 8465 0.125
767 9995 0.125
767 35429 0.125
767 35436 0.125
767 36361 0.125
767 37174 0.125
767 38393 0.125
768 21541 0.5
768 47682 0.5
769 5441 2.34984e-07
769 5442 0.0419428
769 5443 0.0419428
769 5444 0.122107
769 5445 0.166493
769 10660 0.0184817
769 14578 0.0209715
769 14873 0.0209713
769 16425 4.74708e-07
769 19727 0.0419428
769 21744 1.46587e-05
769 23066 0.01947
769 24620 0.0415603
769 27709 0.0136234
769 28874 0.0209659
769 31115 0.0209558
769 31270 0.0209714
769 31272 0.0209714
769 33599 0.0629144
769 33601 0.230681
769 33602 0.0209715
769 42512 0.0209558
769 44593 4.39983e-07
769 45248 7.79033e-07
769 50598 0.0209712
769 50784 0.000124845
769 50789 0.00997987
769 50794 1.34258e-05
770 2669 0.333645
770 33831 0.333576
770 40051 0.332779
771 3022 0.0662616
771 14343 0.0713885
771 19629 0.000938487
771 28875 0.0662613
771 33598 0.265046
771 33599 0.331308
771 33600 0.0662616
771 39893 0.0662613
771 39897 0.0662609
771 46117 1.19838e-05
772 14719 6.34904e-06
772 15163 3.58648e-06
772 33436 0.099999
772 34389 0.199998
772 34390 0.199998
772 34391 0.199998
772 34392 0.099999
772 34393 0.099999
772 34395 0.099999
773 4888 0.142801
773 5747 0.142876
773 34390 0.142784
773 34391 0.285769
773 34394 0.285769
774 901 0.047619
774 902 0.047619
774 903 0.047619
774 2182 0.047619
774 2183 0.047619
774 2184 0.047619
774 2185 0.047619
774 2186 0.047619
774 5235 0.047619
774 22430 0.047619
774 25894 0.047619
774 25897 0.047619
774 25898 0.047619
774 25899 0.047619
774 25900 0.047619
774 38868 0.047619
774 38869 0.047619
774 38870 0.047619
774 38872 0.047619
774 38876 0.047619
774 41397 0.047619
775 21201 0.5
775 21202 0.5
776 8572 0.0589466
776 23432 0.0589052
776 24272 0.0589466
776 24274 0.17684
776 29718 0.056896
776 30912 0.0589466
776 31382 0.0589466
776 37441 0.0589465
776 37447 0.0589466
776 38618 0.0589466
776 38619 0.117893
776 38624 0.17684
777 6990 0.999948
777 39897 5.16878e-05
778 3009 5.87486e-05
778 3500 0.0725337
778 23432 0.0725419
778 23433 0.0696483
778 24272 0.217967
778 24274 0.0726549
778 35402 0.0726554
778 36779 0.0678226
778 37440 0.0712652
778 38616 0.0726559
778 38626 0.0726558
778 39884 6.9717e-05
778 50789 0.137471
779 38616 1
780 8471 0.0628776
780 15138 0.0628775
780 17686 0.0628773
780 18007 0.00176296
780 21589 0.0628773
780 23432 0.0602489
780 24272 0.0628776
780 24277 0.0628772
780 25558 0.058089
780 29303 7.32229e-05
780 36899 1.52325e-06
780 38616 0.0628776
780 38617 0.125755
780 38621 0.125295
780 38622 0.0628776
780 38625 0.0628773
780 38628 0.0628775
781 290 2.03026e-07
781 3623 7.97566e-05
781 5695 3.31063e-07
781 9740 1.72926e-05
781 23109 1.0676e-07
781 26811 5.08966e-06
781 32185 0.00270463
781 32228 0.0160212
781 32230 0.00267029
781 32231 0.00534058
781 32232 0.0106812
781 32234 0.00267029
781 32235 0.00267029
781 38632 0.00267029
781 41938 0.336456
781 41939 0.213623
781 41940 0.0240435
781 41941 0.00065175
781 41942 0.00272098
781 41945 0.0320435
781 41946 0.00267025
781 41950 0.048065
781 41956 0.229607
781 41961 0.00534003
781 41964 0.0480652
781 44746 0.000533978
781 45177 0.0053072
781 46908 0.00267029
781 49903 0.00267027
782 3474 0.22965
782 10676 0.000141163
782 22984 0.256736
782 41052 0.256736
782 49187 0.256736
783 3621 0.00968683
783 8563 0.0488264
783 16994 0.0162638
783 19614 0.0141523
783 19671 0.0162758
783 31924 0.0162759
783 31927 0.0162758
783 32161 0.0162661
783 32228 0.11393
783 32230 0.0162759
783 32231 0.0651034
783 32232 0.0325516
783 32235 0.0162759
783 32236 0.0162759
783 35764 0.0162754
783 41938 0.0484601
783 41946 0.0651034
783 41947 0.0325517
783 41956 0.0162757
783 41958 0.0162759
783 41959 0.0488275
783 41960 0.325517
783 44749 0.0162758
783 44783 1.6007e-06
784 14139 1.31955e-07
784 31924 0.0127251
784 32228 0.598079
784 32229 0.311764
784 32230 0.0254502
784 33323 0.00636254
784 38636 0.00636254
784 38637 0.00636235
784 41060 0.00108133
784 41946 0.0318127
785 16385 0.197319
785 16574 0.200672
785 33831 0.200666
785 41944 0.401344
786 41962 1
787 16579 0.200101
787 19239 0.200094
787 40049 0.199604
787 41957 0.2001
787 44765 0.200101
788 3395 0.166801
788 10684 0.333306
788 16574 0.166801
788 49257 0.166801
788 50794 0.166292
789 5052 0.512617
789 20989 0.000944369
789 21691 0.486439
790 1714 0.174277
790 8591 0.174277
790 12432 0.128615
790 14542 0.174277
790 18003 0.174277
790 49485 0.174277
791 33960 1
792 8841 0.0637177
792 8891 0.249417
792 8899 0.191153
792 15163 0.142534
792 26473 0.0335902
792 39073 0.0637178
792 41882 0.0637178
792 44560 0.0634227
792 50784 0.000243219
792 50787 0.00105122
792 50792 0.127435
793 4221 0.0403815
793 8840 0.0403765
793 8841 0.767259
793 8858 0.0308638
793 8891 0.0807639
793 31118 0.0403552
794 4730 0.119718
794 4741 0.0592725
794 13111 0.059872
794 20308 0.342029
794 25504 0.0598731
794 26653 0.0598729
794 29110 0.179618
794 29212 0.119745
795 4292 0.0521582
795 5594 0.0521581
795 5597 0.0521579
795 7586 0.052158
795 13113 0.0521582
795 14143 0.0521582
795 19172 0.100948
795 20308 0.0645227
795 20950 0.0521582
795 23051 0.0521582
795 26652 0.0521582
795 29213 0.0521582
795 30042 0.0521582
795 35628 0.0521581
795 40513 0.0521582
795 40644 0.0521582
795 45675 0.104316
796 7589 8.93414e-06
796 14977 0.0451267
796 15163 0.00654503
796 18537 0.129073
796 27021 0.0448101
796 34051 0.129073
796 34052 0.387218
796 37953 0.129073
796 37955 0.129073
797 17811 0.199998
797 18583 0.399996
797 18584 0.199998
797 22079 0.199998
797 27024 1.05041e-05
798 10560 0.316045
798 13806 0.341822
798 18539 0.000213356
798 49812 0.341919
799 4730 0.181801
799 5712 0.0909007
799 7680 0.0908994
799 8855 0.0908984
799 13108 0.181801
799 15555 0.0908973
799 24915 3.51388e-05
799 31863 0.0909002
799 34912 0.0909007
799 39346 6.4726e-05
799 48162 0.0909005
800 15746 0.0893176
800 47852 0.910682
801 30200 1
802 3546 0.025304
802 10044 0.974696
803 8929 0.00969123
803 10286 0.00322852
803 12609 0.00323183
803 15485 0.0138228
803 17580 0.00287533
803 20972 5.89295e-05
803 22868 0.00443796
803 25119 0.00323183
803 28910 0.029017
803 30540 0.458919
803 40101 0.45531
803 43192 0.00648015
803 47627 0.00323183
803 48714 0.00323154
803 48719 0.00323171
803 49808 1.93918e-07
804 10109 0.33094
804 11062 0.33453
804 17061 0.33453
805 1690 0.499151
805 1691 0.249575
805 1692 0.249575
805 3546 0.00169823
806 2415 0.00226011
806 2886 0.0146907
806 2887 0.0474624
806 2888 0.170639
806 2889 0.058763
806 2896 0.0271214
806 2897 0.0169509
806 3109 0.337887
806 3111 0.00226011
806 3112 0.0259913
806 3113 0.020341
806 3114 0.0937947
806 3115 0.0440722
806 3116 0.0350317
806 3155 1.56508e-07
806 14948 0.00226011
806 14951 0.00226011
806 14953 0.00113006
806 14954 0.00339017
806 14955 0.00339017
806 14957 0.00113006
806 14959 0.00226011
806 14961 0.00113006
806 14963 0.00113005
806 14964 0.00339017
806 14965 0.00113005
806 21172 0.0079104
806 21174 0.00113006
806 21177 0.00113006
806 22869 0.00219382
806 25019 1.01136e-07
806 25020 0.00113006
806 25022 0.00113006
806 29060 0.00113005
806 29061 0.00113005
806 42103 0.00113006
806 43803 0.00113006
806 43815 0.00113006
806 43818 0.00113005
806 43821 0.0553728
