1 0 100 2 6.90293e-05
2 0 100 2 0.999931
1 1 100 2 0.999784
2 1 100 2 0.000215725
1 2 100 2 0.800358
2 2 100 2 0.199642
1 3 100 2 0.362881
2 3 100 2 0.637119
1 4 100 2 0.140944
2 4 100 2 0.859056
1 5 100 2 0.0348274
2 5 100 2 0.965173
1 6 100 2 7.69953e-06
2 6 100 2 0.999992
1 7 100 2 1
2 8 100 2 1
1 0 100 3 0.148277
2 0 100 3 0.0821704
3 0 100 3 0.769552
1 1 100 3 0.987158
2 1 100 3 0.0128406
3 1 100 3 9.98948e-07
1 2 100 3 0.387724
2 2 100 3 0.611333
3 2 100 3 0.000942907
1 3 100 3 0.0602623
2 3 100 3 0.579648
3 3 100 3 0.360089
1 4 100 3 0.0276952
2 4 100 3 0.298065
3 4 100 3 0.67424
1 5 100 3 0.022252
2 5 100 3 0.133715
3 5 100 3 0.844033
1 6 100 3 0.0165013
2 6 100 3 0.0841529
3 6 100 3 0.899346
1 7 100 3 0.0305584
2 7 100 3 0.113124
3 7 100 3 0.856318
1 8 100 3 0.0245813
2 8 100 3 0.114748
3 8 100 3 0.860671
1 9 100 3 0.0829604
2 9 100 3 0.0874834
3 9 100 3 0.829556
2 10 100 3 4.84745e-05
3 10 100 3 0.999952
1 0 100 4 0.218453
2 0 100 4 0.631741
3 0 100 4 0.0432058
4 0 100 4 0.1066
1 1 100 4 0.947841
2 1 100 4 0.0441253
3 1 100 4 0.008024
4 1 100 4 9.51743e-06
1 2 100 4 0.211637
2 2 100 4 0.650782
3 2 100 4 0.13741
4 2 100 4 0.000171105
1 3 100 4 0.0338814
2 3 100 4 0.450001
3 3 100 4 0.496887
4 3 100 4 0.0192299
1 4 100 4 0.0185119
2 4 100 4 0.133512
3 4 100 4 0.454623
4 4 100 4 0.393352
1 5 100 4 0.0120083
2 5 100 4 0.0461788
3 5 100 4 0.218359
4 5 100 4 0.723454
1 6 100 4 0.0112933
2 6 100 4 0.0326981
3 6 100 4 0.150595
4 6 100 4 0.805414
1 7 100 4 0.0185792
2 7 100 4 0.0374618
3 7 100 4 0.120145
4 7 100 4 0.823814
1 8 100 4 0.0157443
2 8 100 4 0.0260904
3 8 100 4 0.10743
4 8 100 4 0.850735
1 9 100 4 0.0316698
2 9 100 4 0.0248692
3 9 100 4 0.102975
4 9 100 4 0.840486
1 10 100 4 0.0209237
2 10 100 4 2.03434e-05
3 10 100 4 0.0740787
4 10 100 4 0.904977
2 11 100 4 0.0590286
3 11 100 4 1.87712e-07
4 11 100 4 0.940971
4 12 100 4 1
1 0 100 5 0.223775
2 0 100 5 0.380642
3 0 100 5 0.362391
4 0 100 5 0.0189283
5 0 100 5 0.0142628
1 1 100 5 0.903835
2 1 100 5 0.0704783
3 1 100 5 0.0177318
4 1 100 5 0.00794699
5 1 100 5 8.09736e-06
1 2 100 5 0.15736
2 2 100 5 0.630477
3 2 100 5 0.152118
4 2 100 5 0.0600435
5 2 100 5 1.42928e-06
1 3 100 5 0.0248994
2 3 100 5 0.298787
3 3 100 5 0.465621
4 3 100 5 0.207235
5 3 100 5 0.00345767
1 4 100 5 0.0208736
2 4 100 5 0.102704
3 4 100 5 0.386694
4 4 100 5 0.406648
5 4 100 5 0.0830812
1 5 100 5 0.0139499
2 5 100 5 0.0406728
3 5 100 5 0.140501
4 5 100 5 0.375688
5 5 100 5 0.429188
1 6 100 5 0.00901431
2 6 100 5 0.0233487
3 6 100 5 0.0647566
4 6 100 5 0.234264
5 6 100 5 0.668617
1 7 100 5 0.00723906
2 7 100 5 0.0267787
3 7 100 5 0.0438689
4 7 100 5 0.169094
5 7 100 5 0.75302
1 8 100 5 0.0094402
2 8 100 5 0.0193103
3 8 100 5 0.0272299
4 8 100 5 0.121056
5 8 100 5 0.822964
1 9 100 5 0.00645676
2 9 100 5 0.0330295
3 9 100 5 0.0312746
4 9 100 5 0.118475
5 9 100 5 0.810764
1 10 100 5 0.0101637
2 10 100 5 0.0312469
3 10 100 5 0.0350359
4 10 100 5 0.0725213
5 10 100 5 0.851032
1 11 100 5 0.0193257
2 11 100 5 0.0577658
3 11 100 5 0.00184971
4 11 100 5 0.11788
5 11 100 5 0.803179
2 12 100 5 0.000214358
3 12 100 5 8.03101e-07
4 12 100 5 0.0101081
5 12 100 5 0.989677
4 13 100 5 0.121613
5 13 100 5 0.878387
4 14 100 5 1.16715e-06
5 14 100 5 0.999999
1 0 100 6 0.125925
2 0 100 6 0.287309
3 0 100 6 0.312654
4 0 100 6 0.257527
5 0 100 6 0.0115213
6 0 100 6 0.00506456
1 1 100 6 0.889842
2 1 100 6 0.0689068
3 1 100 6 0.0259483
4 1 100 6 0.00927968
5 1 100 6 0.00602366
1 2 100 6 0.143187
2 2 100 6 0.599093
3 2 100 6 0.163481
4 2 100 6 0.0678362
5 2 100 6 0.0263783
6 2 100 6 2.481e-05
1 3 100 6 0.0249129
2 3 100 6 0.24559
3 3 100 6 0.433759
4 3 100 6 0.177516
5 3 100 6 0.11741
6 3 100 6 0.000811416
1 4 100 6 0.0164727
2 4 100 6 0.0699548
3 4 100 6 0.305679
4 4 100 6 0.372394
5 4 100 6 0.219671
6 4 100 6 0.0158293
1 5 100 6 0.0158769
2 5 100 6 0.0388996
3 5 100 6 0.121229
4 5 100 6 0.320985
5 5 100 6 0.354103
6 5 100 6 0.148906
1 6 100 6 0.0111732
2 6 100 6 0.0265345
3 6 100 6 0.0496443
4 6 100 6 0.153444
5 6 100 6 0.330566
6 6 100 6 0.428638
1 7 100 6 0.00793557
2 7 100 6 0.0192162
3 7 100 6 0.0305182
4 7 100 6 0.0774726
5 7 100 6 0.239669
6 7 100 6 0.625188
1 8 100 6 0.00602121
2 8 100 6 0.0216241
3 8 100 6 0.0213809
4 8 100 6 0.0460328
5 8 100 6 0.170124
6 8 100 6 0.734817
1 9 100 6 0.00584489
2 9 100 6 0.0252722
3 9 100 6 0.0198114
4 9 100 6 0.034439
5 9 100 6 0.127697
6 9 100 6 0.786936
1 10 100 6 0.00627531
2 10 100 6 0.0247825
3 10 100 6 0.0245956
4 10 100 6 0.021235
5 10 100 6 0.144751
6 10 100 6 0.77836
1 11 100 6 0.000519858
2 11 100 6 0.0266819
3 11 100 6 0.0119585
4 11 100 6 0.0390528
5 11 100 6 0.0604089
6 11 100 6 0.861378
1 12 100 6 0.0197849
2 12 100 6 0.00626592
3 12 100 6 0.0171862
4 12 100 6 0.0138112
5 12 100 6 0.155082
6 12 100 6 0.78787
1 13 100 6 4.12271e-07
2 13 100 6 0.0947104
3 13 100 6 0.0498772
4 13 100 6 0.0518868
5 13 100 6 0.204903
6 13 100 6 0.598622
3 14 100 6 1.59795e-07
4 14 100 6 1.14824e-05
5 14 100 6 1.74268e-07
6 14 100 6 0.999988
1 0 100 7 0.054903
2 0 100 7 0.17077
3 0 100 7 0.36107
4 0 100 7 0.276385
5 0 100 7 0.129215
6 0 100 7 0.00605238
7 0 100 7 0.00160388
1 1 100 7 0.888151
2 1 100 7 0.0610416
3 1 100 7 0.0263641
4 1 100 7 0.0151854
5 1 100 7 0.00473419
6 1 100 7 0.00452342
1 2 100 7 0.143023
2 2 100 7 0.59584
3 2 100 7 0.15806
4 2 100 7 0.0574568
5 2 100 7 0.0325293
6 2 100 7 0.013089
7 2 100 7 1.3257e-06
1 3 100 7 0.0227107
2 3 100 7 0.213987
3 3 100 7 0.370192
4 3 100 7 0.21234
5 3 100 7 0.120511
6 3 100 7 0.0601242
7 3 100 7 0.000134358
1 4 100 7 0.0120714
2 4 100 7 0.0498446
3 4 100 7 0.226283
4 4 100 7 0.31458
5 4 100 7 0.25411
6 4 100 7 0.139125
7 4 100 7 0.00398536
1 5 100 7 0.0121182
2 5 100 7 0.0328114
3 5 100 7 0.0798074
4 5 100 7 0.244633
5 5 100 7 0.299623
6 5 100 7 0.273129
7 5 100 7 0.0578784
1 6 100 7 0.0112139
2 6 100 7 0.0216702
3 6 100 7 0.0460739
4 6 100 7 0.110724
5 6 100 7 0.246893
6 6 100 7 0.31799
7 6 100 7 0.245434
1 7 100 7 0.00749276
2 7 100 7 0.0197972
3 7 100 7 0.0285548
4 7 100 7 0.0545923
5 7 100 7 0.14816
6 7 100 7 0.294419
7 7 100 7 0.446983
1 8 100 7 0.00563369
2 8 100 7 0.013966
3 8 100 7 0.0186306
4 8 100 7 0.0317008
5 8 100 7 0.0761664
6 8 100 7 0.233419
7 8 100 7 0.620483
1 9 100 7 0.00406492
2 9 100 7 0.0147464
3 9 100 7 0.0194553
4 9 100 7 0.0233323
5 9 100 7 0.0476305
6 9 100 7 0.173002
7 9 100 7 0.717768
1 10 100 7 0.00323752
2 10 100 7 0.0118812
3 10 100 7 0.0224739
4 10 100 7 0.0237242
5 10 100 7 0.0341656
6 10 100 7 0.168481
7 10 100 7 0.736036
1 11 100 7 0.00404701
2 11 100 7 0.0159075
3 11 100 7 0.015945
4 11 100 7 0.0158302
5 11 100 7 0.0323796
6 11 100 7 0.124545
7 11 100 7 0.791345
1 12 100 7 1.15974e-05
2 12 100 7 0.00851991
3 12 100 7 0.0359611
4 12 100 7 0.0282036
5 12 100 7 0.0413064
6 12 100 7 0.109094
7 12 100 7 0.776903
1 13 100 7 9.01362e-07
3 13 100 7 4.6434e-06
4 13 100 7 0.00470831
5 13 100 7 0.0364428
6 13 100 7 0.159387
7 13 100 7 0.799457
5 14 100 7 6.35219e-07
6 14 100 7 1.69152e-06
7 14 100 7 0.999998
6 15 100 7 1
7 16 100 7 1
1 0 100 8 0.033475
2 0 100 8 0.0967931
3 0 100 8 0.283462
4 0 100 8 0.331145
5 0 100 8 0.173014
6 0 100 8 0.0764728
7 0 100 8 0.00431663
8 0 100 8 0.00132136
1 1 100 8 0.886118
2 1 100 8 0.0556176
3 1 100 8 0.0242977
4 1 100 8 0.0216803
5 1 100 8 0.00762293
6 1 100 8 0.0020895
7 1 100 8 0.00257387
1 2 100 8 0.144726
2 2 100 8 0.622183
3 2 100 8 0.138131
4 2 100 8 0.0456193
5 2 100 8 0.0246447
6 2 100 8 0.0174216
7 2 100 8 0.00727398
8 2 100 8 3.37818e-07
1 3 100 8 0.0217901
2 3 100 8 0.207007
3 3 100 8 0.368421
4 3 100 8 0.186797
5 3 100 8 0.147378
6 3 100 8 0.0360963
7 3 100 8 0.0325063
8 3 100 8 4.10671e-06
1 4 100 8 0.0100692
2 4 100 8 0.0419333
3 4 100 8 0.195065
4 4 100 8 0.254259
5 4 100 8 0.251055
6 4 100 8 0.17582
7 4 100 8 0.0710172
8 4 100 8 0.0007815
1 5 100 8 0.00832613
2 5 100 8 0.0210938
3 5 100 8 0.057352
4 5 100 8 0.170166
5 5 100 8 0.2508
6 5 100 8 0.283832
7 5 100 8 0.195039
8 5 100 8 0.0133912
1 6 100 8 0.00902047
2 6 100 8 0.0168864
3 6 100 8 0.0315559
4 6 100 8 0.0849485
5 6 100 8 0.174867
6 6 100 8 0.263214
7 6 100 8 0.295372
8 6 100 8 0.124136
1 7 100 8 0.00572757
2 7 100 8 0.0146026
3 7 100 8 0.0204335
4 7 100 8 0.0357304
5 7 100 8 0.0999847
6 7 100 8 0.207444
7 7 100 8 0.29216
8 7 100 8 0.323917
1 8 100 8 0.00579486
2 8 100 8 0.0127381
3 8 100 8 0.0175498
4 8 100 8 0.0256284
5 8 100 8 0.0512808
6 8 100 8 0.14056
7 8 100 8 0.261453
8 8 100 8 0.484995
1 9 100 8 0.00388349
2 9 100 8 0.011862
3 9 100 8 0.015179
4 9 100 8 0.0172474
5 9 100 8 0.0310256
6 9 100 8 0.0865092
7 9 100 8 0.240462
8 9 100 8 0.593832
1 10 100 8 0.0038109
2 10 100 8 0.00975321
3 10 100 8 0.012966
4 10 100 8 0.0159286
5 10 100 8 0.0245842
6 10 100 8 0.0678182
7 10 100 8 0.191767
8 10 100 8 0.673372
1 11 100 8 0.00407129
2 11 100 8 0.0151793
3 11 100 8 0.0150709
4 11 100 8 0.0194077
5 11 100 8 0.0207394
6 11 100 8 0.0452268
7 11 100 8 0.16382
8 11 100 8 0.716484
1 12 100 8 0.00638867
2 12 100 8 0.0132095
3 12 100 8 0.0156837
4 12 100 8 0.0181125
5 12 100 8 0.0147294
6 12 100 8 0.0281438
7 12 100 8 0.166783
8 12 100 8 0.736949
1 13 100 8 0.00970904
2 13 100 8 0.00848815
3 13 100 8 0.0100503
4 13 100 8 0.00259463
5 13 100 8 0.0057623
6 13 100 8 0.0173551
7 13 100 8 0.155576
8 13 100 8 0.790464
1 14 100 8 0.0152792
2 14 100 8 0.030827
3 14 100 8 0.0309071
4 14 100 8 0.0429125
5 14 100 8 0.0189572
6 14 100 8 0.0247371
7 14 100 8 0.108856
8 14 100 8 0.727524
1 15 100 8 1.24395e-05
2 15 100 8 1.08253e-06
3 15 100 8 0.1485
4 15 100 8 2.47829e-07
5 15 100 8 4.57483e-05
6 15 100 8 4.03942e-07
7 15 100 8 0.0774047
8 15 100 8 0.774036
4 16 100 8 5.48105e-06
7 16 100 8 5.70496e-07
8 16 100 8 0.999994
1 0 100 9 0.0247876
2 0 100 9 0.0716675
3 0 100 9 0.228677
4 0 100 9 0.287004
5 0 100 9 0.213222
6 0 100 9 0.107792
7 0 100 9 0.0621189
8 0 100 9 0.00352368
9 0 100 9 0.0012068
1 1 100 9 0.877532
2 1 100 9 0.0592964
3 1 100 9 0.0256679
4 1 100 9 0.0207105
5 1 100 9 0.00916664
6 1 100 9 0.00451299
7 1 100 9 0.0021441
8 1 100 9 0.000969461
1 2 100 9 0.153256
2 2 100 9 0.623421
3 2 100 9 0.135154
4 2 100 9 0.0470993
5 2 100 9 0.0175648
6 2 100 9 0.0117063
7 2 100 9 0.00846249
8 2 100 9 0.00333561
9 2 100 9 1.02428e-07
1 3 100 9 0.0212714
2 3 100 9 0.201305
3 3 100 9 0.371575
4 3 100 9 0.178981
5 3 100 9 0.156136
6 3 100 9 0.0394192
7 3 100 9 0.0171415
8 3 100 9 0.0141054
9 3 100 9 6.64278e-05
1 4 100 9 0.00751987
2 4 100 9 0.0368812
3 4 100 9 0.173341
4 4 100 9 0.250411
5 4 100 9 0.218612
6 4 100 9 0.192287
7 4 100 9 0.0807654
8 4 100 9 0.0399824
9 4 100 9 0.000198759
1 5 100 9 0.00725964
2 5 100 9 0.0147992
3 5 100 9 0.0510948
4 5 100 9 0.139717
5 5 100 9 0.206815
6 5 100 9 0.267942
7 5 100 9 0.187937
8 5 100 9 0.120252
9 5 100 9 0.00418399
1 6 100 9 0.00743356
2 6 100 9 0.0126278
3 6 100 9 0.021603
4 6 100 9 0.0604573
5 6 100 9 0.134516
6 6 100 9 0.221455
7 6 100 9 0.274818
8 6 100 9 0.217514
9 6 100 9 0.0495757
1 7 100 9 0.0064607
2 7 100 9 0.0113395
3 7 100 9 0.0151114
4 7 100 9 0.0270644
5 7 100 9 0.0683591
6 7 100 9 0.152433
7 7 100 9 0.241819
8 7 100 9 0.28903
9 7 100 9 0.188384
1 8 100 9 0.00406517
2 8 100 9 0.010021
3 8 100 9 0.0119682
4 8 100 9 0.015743
5 8 100 9 0.0345226
6 8 100 9 0.092924
7 8 100 9 0.189415
8 8 100 9 0.275351
9 8 100 9 0.36599
1 9 100 9 0.00328424
2 9 100 9 0.00915533
3 9 100 9 0.0115179
4 9 100 9 0.0109919
5 9 100 9 0.0201346
6 9 100 9 0.0546873
7 9 100 9 0.138337
8 9 100 9 0.255765
9 9 100 9 0.496126
1 10 100 9 0.00185235
2 10 100 9 0.00718534
3 10 100 9 0.0111555
4 10 100 9 0.010933
5 10 100 9 0.0129948
6 10 100 9 0.0389111
7 10 100 9 0.093436
8 10 100 9 0.230152
9 10 100 9 0.59338
1 11 100 9 0.0039179
2 11 100 9 0.00588337
3 11 100 9 0.0098364
4 11 100 9 0.0112252
5 11 100 9 0.0153499
6 11 100 9 0.0236703
7 11 100 9 0.0739445
8 11 100 9 0.195699
9 11 100 9 0.660473
1 12 100 9 0.00510109
2 12 100 9 0.00852835
3 12 100 9 0.00762897
4 12 100 9 0.0157535
5 12 100 9 0.0246059
6 12 100 9 0.0266677
7 12 100 9 0.0331406
8 12 100 9 0.221221
9 12 100 9 0.657353
1 13 100 9 0.000976279
2 13 100 9 0.00797327
3 13 100 9 0.00842605
4 13 100 9 0.00324461
5 13 100 9 0.0194271
6 13 100 9 0.018268
7 13 100 9 0.0439267
8 13 100 9 0.132313
9 13 100 9 0.765445
1 14 100 9 0.0011266
2 14 100 9 6.48868e-06
3 14 100 9 1.56592e-06
4 14 100 9 8.06557e-07
5 14 100 9 0.00252386
6 14 100 9 2.38302e-05
7 14 100 9 0.0767877
8 14 100 9 0.16102
9 14 100 9 0.758509
1 15 100 9 1.19951e-05
2 15 100 9 1.27597e-05
3 15 100 9 1.62293e-05
4 15 100 9 4.47202e-06
5 15 100 9 0.00769367
6 15 100 9 0.015374
7 15 100 9 0.0485436
8 15 100 9 0.109261
9 15 100 9 0.819083
2 16 100 9 1.64295e-06
3 16 100 9 0.11047
4 16 100 9 3.42583e-07
6 16 100 9 9.18662e-06
7 16 100 9 0.000105653
8 16 100 9 0.322236
9 16 100 9 0.567177
3 17 100 9 1.16226e-06
6 17 100 9 5.71916e-06
7 17 100 9 0.070022
8 17 100 9 0.0164659
9 17 100 9 0.913505
9 18 100 9 1
1 0 100 10 0.0199136
2 0 100 10 0.0633087
3 0 100 10 0.159984
4 0 100 10 0.246634
5 0 100 10 0.213595
6 0 100 10 0.147728
7 0 100 10 0.088035
8 0 100 10 0.0559195
9 0 100 10 0.00408418
10 0 100 10 0.000798571
1 1 100 10 0.874662
2 1 100 10 0.0589145
3 1 100 10 0.0255841
4 1 100 10 0.01974
5 1 100 10 0.00985057
6 1 100 10 0.00756037
7 1 100 10 0.00186099
8 1 100 10 0.00140302
9 1 100 10 0.000424524
1 2 100 10 0.14752
2 2 100 10 0.616064
3 2 100 10 0.147741
4 2 100 10 0.0436792
5 2 100 10 0.0161029
6 2 100 10 0.0111031
7 2 100 10 0.00846895
8 2 100 10 0.00678824
9 2 100 10 0.00243744
10 2 100 10 9.5984e-05
1 3 100 10 0.0226124
2 3 100 10 0.192648
3 3 100 10 0.400358
4 3 100 10 0.179591
5 3 100 10 0.125877
6 3 100 10 0.0399566
7 3 100 10 0.015694
8 3 100 10 0.0097055
9 3 100 10 0.0135506
10 3 100 10 6.62966e-06
1 4 100 10 0.0104857
2 4 100 10 0.041419
3 4 100 10 0.183802
4 4 100 10 0.242781
5 4 100 10 0.216378
6 4 100 10 0.175014
7 4 100 10 0.079555
8 4 100 10 0.0337923
9 4 100 10 0.0166607
10 4 100 10 0.000111943
1 5 100 10 0.00671332
2 5 100 10 0.0164079
3 5 100 10 0.0522986
4 5 100 10 0.142288
5 5 100 10 0.188539
6 5 100 10 0.241501
7 5 100 10 0.194658
8 5 100 10 0.0956686
9 5 100 10 0.0614051
10 5 100 10 0.000521942
1 6 100 10 0.00750901
2 6 100 10 0.010017
3 6 100 10 0.0198571
4 6 100 10 0.0583789
5 6 100 10 0.130028
6 6 100 10 0.186394
7 6 100 10 0.234162
8 6 100 10 0.200938
9 6 100 10 0.141728
10 6 100 10 0.0109884
1 7 100 10 0.00584143
2 7 100 10 0.0097267
3 7 100 10 0.0116317
4 7 100 10 0.0243644
5 7 100 10 0.0599139
6 7 100 10 0.124713
7 7 100 10 0.21084
8 7 100 10 0.249115
9 7 100 10 0.224949
10 7 100 10 0.0789047
1 8 100 10 0.00413879
2 8 100 10 0.00889406
3 8 100 10 0.0101934
4 8 100 10 0.0124034
5 8 100 10 0.0271212
6 8 100 10 0.0674014
7 8 100 10 0.144534
8 8 100 10 0.22742
9 8 100 10 0.266126
10 8 100 10 0.231768
1 9 100 10 0.00507932
2 9 100 10 0.00717354
3 9 100 10 0.00820558
4 9 100 10 0.00814994
5 9 100 10 0.0126
6 9 100 10 0.0363259
7 9 100 10 0.0941328
8 9 100 10 0.181943
9 9 100 10 0.263498
10 9 100 10 0.382892
1 10 100 10 0.00187461
2 10 100 10 0.00722606
3 10 100 10 0.00853537
4 10 100 10 0.0100341
5 10 100 10 0.0121654
6 10 100 10 0.0266127
7 10 100 10 0.0610855
8 10 100 10 0.136836
9 10 100 10 0.2482
10 10 100 10 0.487431
1 11 100 10 0.00240927
2 11 100 10 0.00541594
3 11 100 10 0.00774491
4 11 100 10 0.00666791
5 11 100 10 0.0104206
6 11 100 10 0.0190878
7 11 100 10 0.0483508
8 11 100 10 0.110157
9 11 100 10 0.236598
10 11 100 10 0.553148
1 12 100 10 0.000304861
2 12 100 10 0.00422945
3 12 100 10 0.00909288
4 12 100 10 0.00781284
5 12 100 10 0.00745477
6 12 100 10 0.0217415
7 12 100 10 0.0346568
8 12 100 10 0.0765743
9 12 100 10 0.219581
10 12 100 10 0.618552
1 13 100 10 0.000691554
2 13 100 10 0.00603042
3 13 100 10 0.0131899
4 13 100 10 0.00847179
5 13 100 10 0.0125231
6 13 100 10 0.00768418
7 13 100 10 0.0212688
8 13 100 10 0.0656015
9 13 100 10 0.194223
10 13 100 10 0.670316
1 14 100 10 9.05752e-07
2 14 100 10 5.16338e-06
3 14 100 10 0.00769069
4 14 100 10 0.0180404
5 14 100 10 0.00391348
6 14 100 10 0.00468474
7 14 100 10 0.0264858
8 14 100 10 0.0543622
9 14 100 10 0.160688
10 14 100 10 0.724128
1 15 100 10 7.05293e-07
2 15 100 10 0.00603641
3 15 100 10 0.000152699
4 15 100 10 0.0166776
5 15 100 10 0.000580875
6 15 100 10 0.0226852
7 15 100 10 0.0365922
8 15 100 10 0.0735859
9 15 100 10 0.188777
10 15 100 10 0.654912
2 16 100 10 2.7022e-06
3 16 100 10 0.00266008
4 16 100 10 0.000384492
5 16 100 10 0.0111768
6 16 100 10 0.000670125
7 16 100 10 0.0114793
8 16 100 10 0.0122015
9 16 100 10 0.27473
10 16 100 10 0.686695
5 17 100 10 1.76423e-07
8 17 100 10 1.95318e-05
9 17 100 10 0.142857
10 17 100 10 0.857124
5 18 100 10 0.0144573
10 18 100 10 0.985543
2 19 100 10 1
10 20 100 10 1
1 0 100 11 0.0206343
2 0 100 11 0.0661566
3 0 100 11 0.130508
4 0 100 11 0.177205
5 0 100 11 0.17454
6 0 100 11 0.14475
7 0 100 11 0.137134
8 0 100 11 0.0869922
9 0 100 11 0.0570129
10 0 100 11 0.00442746
11 0 100 11 0.00063902
1 1 100 11 0.869314
2 1 100 11 0.0625996
3 1 100 11 0.0283331
4 1 100 11 0.0153781
5 1 100 11 0.0105011
6 1 100 11 0.00427014
7 1 100 11 0.00543162
8 1 100 11 0.00275156
9 1 100 11 0.000865185
10 1 100 11 0.000555256
1 2 100 11 0.131104
2 2 100 11 0.602934
3 2 100 11 0.161907
4 2 100 11 0.0556438
5 2 100 11 0.018448
6 2 100 11 0.0106153
7 2 100 11 0.00687796
8 2 100 11 0.00718507
9 2 100 11 0.00352569
10 2 100 11 0.00175917
1 3 100 11 0.0198925
2 3 100 11 0.16201
3 3 100 11 0.401612
4 3 100 11 0.208726
5 3 100 11 0.127362
6 3 100 11 0.04113
7 3 100 11 0.0131189
8 3 100 11 0.010791
9 3 100 11 0.0095607
10 3 100 11 0.00579564
11 3 100 11 5.95676e-07
1 4 100 11 0.0087988
2 4 100 11 0.0419318
3 4 100 11 0.16718
4 4 100 11 0.256003
5 4 100 11 0.223956
6 4 100 11 0.162817
7 4 100 11 0.0736671
8 4 100 11 0.0333726
9 4 100 11 0.0191306
10 4 100 11 0.0131426
11 4 100 11 2.83599e-07
1 5 100 11 0.00621939
2 5 100 11 0.0163923
3 5 100 11 0.0526688
4 5 100 11 0.152281
5 5 100 11 0.187766
6 5 100 11 0.242071
7 5 100 11 0.166405
8 5 100 11 0.0917229
9 5 100 11 0.0542883
10 5 100 11 0.0291391
11 5 100 11 0.00104658
1 6 100 11 0.00634275
2 6 100 11 0.00907598
3 6 100 11 0.0197156
4 6 100 11 0.0561792
5 6 100 11 0.13715
6 6 100 11 0.176058
7 6 100 11 0.21708
8 6 100 11 0.190099
9 6 100 11 0.108991
10 6 100 11 0.0759244
11 6 100 11 0.00338307
1 7 100 11 0.0057378
2 7 100 11 0.00843072
3 7 100 11 0.00946654
4 7 100 11 0.0255286
5 7 100 11 0.0507287
6 7 100 11 0.120638
7 7 100 11 0.168343
8 7 100 11 0.218381
9 7 100 11 0.205161
10 7 100 11 0.15484
11 7 100 11 0.0327436
1 8 100 11 0.00424267
2 8 100 11 0.00771269
3 8 100 11 0.00851541
4 8 100 11 0.0101777
5 8 100 11 0.0255622
6 8 100 11 0.0589472
7 8 100 11 0.124859
8 8 100 11 0.191117
9 8 100 11 0.226088
10 8 100 11 0.226771
11 8 100 11 0.116008
1 9 100 11 0.0037365
2 9 100 11 0.00590268
3 9 100 11 0.00844252
4 9 100 11 0.00917361
5 9 100 11 0.0145474
6 9 100 11 0.0267521
7 9 100 11 0.0697422
8 9 100 11 0.136675
9 9 100 11 0.212057
10 9 100 11 0.268774
11 9 100 11 0.244197
1 10 100 11 0.00136535
2 10 100 11 0.00256119
3 10 100 11 0.00961111
4 10 100 11 0.00430284
5 10 100 11 0.00942925
6 10 100 11 0.0187709
7 10 100 11 0.0403707
8 10 100 11 0.0961302
9 10 100 11 0.172035
10 10 100 11 0.255355
11 10 100 11 0.390068
1 11 100 11 0.00174317
2 11 100 11 0.00295919
3 11 100 11 0.00411671
4 11 100 11 0.0104623
5 11 100 11 0.00352222
6 11 100 11 0.0116284
7 11 100 11 0.0221824
8 11 100 11 0.064151
9 11 100 11 0.142129
10 11 100 11 0.251863
11 11 100 11 0.485243
1 12 100 11 0.00212046
2 12 100 11 0.00491731
3 12 100 11 0.00426837
4 12 100 11 0.00551832
5 12 100 11 0.0118335
6 12 100 11 0.00702134
7 12 100 11 0.0165854
8 12 100 11 0.0419778
9 12 100 11 0.109639
10 12 100 11 0.23812
11 12 100 11 0.557999
1 13 100 11 0.000576987
2 13 100 11 0.0025869
3 13 100 11 0.00788149
4 13 100 11 0.00453016
5 13 100 11 0.0086587
6 13 100 11 0.00721493
7 13 100 11 0.0171432
8 13 100 11 0.0489214
9 13 100 11 0.0830648
10 13 100 11 0.187011
11 13 100 11 0.632411
1 14 100 11 0.00252963
2 14 100 11 0.000291007
3 14 100 11 0.00248721
4 14 100 11 0.0124534
5 14 100 11 2.22297e-05
6 14 100 11 0.00563779
7 14 100 11 0.00638953
8 14 100 11 0.0210194
9 14 100 11 0.0538468
10 14 100 11 0.230249
11 14 100 11 0.665074
1 15 100 11 0.000446862
2 15 100 11 0.00760082
3 15 100 11 0.0145094
4 15 100 11 0.00138004
5 15 100 11 0.0114402
6 15 100 11 0.000104768
7 15 100 11 0.00976924
8 15 100 11 0.00978009
9 15 100 11 0.0456952
10 15 100 11 0.186672
11 15 100 11 0.712602
2 16 100 11 1.5862e-05
4 16 100 11 0.00602119
5 16 100 11 0.0159336
6 16 100 11 0.0159313
7 16 100 11 8.88492e-05
8 16 100 11 0.0412798
9 16 100 11 0.0594402
10 16 100 11 0.146975
11 16 100 11 0.714314
1 17 100 11 2.23423e-06
2 17 100 11 0.0274033
3 17 100 11 2.43362e-05
7 17 100 11 0.00176817
8 17 100 11 0.0450803
9 17 100 11 0.0481458
10 17 100 11 0.0843099
11 17 100 11 0.793266
1 18 100 11 5.30171e-06
3 18 100 11 2.04991e-05
4 18 100 11 1.58403e-06
7 18 100 11 0.158585
8 18 100 11 3.13895e-06
9 18 100 11 0.194319
10 18 100 11 7.17566e-07
11 18 100 11 0.647064
10 19 100 11 1
9 20 100 11 4.98228e-05
10 20 100 11 0.0307817
11 20 100 11 0.969169
10 21 100 11 1
11 22 100 11 1
1 0 100 12 0.0183699
2 0 100 12 0.0557681
3 0 100 12 0.118347
4 0 100 12 0.149875
5 0 100 12 0.139562
6 0 100 12 0.128826
7 0 100 12 0.129332
8 0 100 12 0.121338
9 0 100 12 0.0828841
10 0 100 12 0.0511347
11 0 100 12 0.00427876
12 0 100 12 0.000284462
1 1 100 12 0.868466
2 1 100 12 0.0748119
3 1 100 12 0.02693
4 1 100 12 0.0118576
5 1 100 12 0.0060813
6 1 100 12 0.00446136
7 1 100 12 0.00520802
8 1 100 12 0.00102048
9 1 100 12 0.0008389
10 1 100 12 0.000319503
11 1 100 12 4.84451e-06
1 2 100 12 0.129543
2 2 100 12 0.59652
3 2 100 12 0.167004
4 2 100 12 0.0584437
5 2 100 12 0.0186519
6 2 100 12 0.00859582
7 2 100 12 0.00561965
8 2 100 12 0.00713693
9 2 100 12 0.00453848
10 2 100 12 0.00313714
11 2 100 12 0.000808407
1 3 100 12 0.0198053
2 3 100 12 0.160367
3 3 100 12 0.385564
4 3 100 12 0.215564
5 3 100 12 0.133165
6 3 100 12 0.0478081
7 3 100 12 0.0131913
8 3 100 12 0.00844028
9 3 100 12 0.00764903
10 3 100 12 0.00395343
11 3 100 12 0.0044915
1 4 100 12 0.0101404
2 4 100 12 0.0347422
3 4 100 12 0.175181
4 4 100 12 0.254564
5 4 100 12 0.223416
6 4 100 12 0.152473
7 4 100 12 0.0789607
8 4 100 12 0.0359871
9 4 100 12 0.0137401
10 4 100 12 0.0134774
11 4 100 12 0.007318
1 5 100 12 0.0058737
2 5 100 12 0.0161803
3 5 100 12 0.0486949
4 5 100 12 0.150924
5 5 100 12 0.205109
6 5 100 12 0.212663
7 5 100 12 0.158334
8 5 100 12 0.091353
9 5 100 12 0.0556601
10 5 100 12 0.0315839
11 5 100 12 0.0233373
12 5 100 12 0.000287027
1 6 100 12 0.00519401
2 6 100 12 0.00927264
3 6 100 12 0.0184635
4 6 100 12 0.0628332
5 6 100 12 0.129446
6 6 100 12 0.189672
7 6 100 12 0.202837
8 6 100 12 0.164323
9 6 100 12 0.111295
10 6 100 12 0.0651248
11 6 100 12 0.0392705
12 6 100 12 0.00226818
1 7 100 12 0.00615774
2 7 100 12 0.00674626
3 7 100 12 0.0102219
4 7 100 12 0.0167031
5 7 100 12 0.0552802
6 7 100 12 0.124843
7 7 100 12 0.175042
8 7 100 12 0.189217
9 7 100 12 0.169534
10 7 100 12 0.132005
11 7 100 12 0.0997992
12 7 100 12 0.0144505
1 8 100 12 0.00302815
2 8 100 12 0.00546735
3 8 100 12 0.0076695
4 8 100 12 0.0104063
5 8 100 12 0.0258352
6 8 100 12 0.0521346
7 8 100 12 0.113362
8 8 100 12 0.164112
9 8 100 12 0.212262
10 8 100 12 0.182958
11 8 100 12 0.164641
12 8 100 12 0.0581228
1 9 100 12 0.00321394
2 9 100 12 0.00534638
3 9 100 12 0.00548674
4 9 100 12 0.00732359
5 9 100 12 0.0129886
6 9 100 12 0.0238171
7 9 100 12 0.0560244
8 9 100 12 0.106249
9 9 100 12 0.173108
10 9 100 12 0.241947
11 9 100 12 0.220972
12 9 100 12 0.143524
1 10 100 12 0.00271014
2 10 100 12 0.00438748
3 10 100 12 0.00462583
4 10 100 12 0.00408876
5 10 100 12 0.00587568
6 10 100 12 0.01498
7 10 100 12 0.0267698
8 10 100 12 0.0792847
9 10 100 12 0.13304
10 10 100 12 0.202193
11 10 100 12 0.25539
12 10 100 12 0.266654
1 11 100 12 0.000472697
2 11 100 12 0.00264323
3 11 100 12 0.0050488
4 11 100 12 0.00429623
5 11 100 12 0.00359109
6 11 100 12 0.0117818
7 11 100 12 0.0228069
8 11 100 12 0.0457332
9 11 100 12 0.0996889
10 11 100 12 0.171317
11 11 100 12 0.256125
12 11 100 12 0.376494
1 12 100 12 0.00111144
2 12 100 12 0.00310275
3 12 100 12 0.00817849
4 12 100 12 0.00457611
5 12 100 12 0.00301229
6 12 100 12 0.00753891
7 12 100 12 0.00874457
8 12 100 12 0.032761
9 12 100 12 0.0797998
10 12 100 12 0.141086
11 12 100 12 0.25041
12 12 100 12 0.459679
1 13 100 12 0.00124268
2 13 100 12 0.00742351
3 13 100 12 0.00363299
4 13 100 12 0.00607746
5 13 100 12 0.00387174
6 13 100 12 0.0134643
7 13 100 12 0.0140793
8 13 100 12 0.0240554
9 13 100 12 0.0550357
10 13 100 12 0.106767
11 13 100 12 0.236215
12 13 100 12 0.528135
1 14 100 12 0.00413
2 14 100 12 0.00427565
3 14 100 12 0.00479552
4 14 100 12 0.0105944
5 14 100 12 0.0103891
6 14 100 12 0.00271822
7 14 100 12 0.00748763
8 14 100 12 0.0278639
9 14 100 12 0.0509354
10 14 100 12 0.0987032
11 14 100 12 0.230408
12 14 100 12 0.547699
1 15 100 12 4.0136e-06
2 15 100 12 0.000272848
3 15 100 12 0.00278719
4 15 100 12 0.0109903
5 15 100 12 0.0123223
6 15 100 12 0.0173154
7 15 100 12 0.0148321
8 15 100 12 0.00118792
9 15 100 12 0.0438042
10 15 100 12 0.0789906
11 15 100 12 0.197764
12 15 100 12 0.619729
1 16 100 12 2.66738e-07
2 16 100 12 9.70516e-06
3 16 100 12 0.00949538
4 16 100 12 0.00113011
5 16 100 12 0.0108217
6 16 100 12 0.0101192
7 16 100 12 0.00129632
8 16 100 12 0.0169681
9 16 100 12 0.0282331
10 16 100 12 0.0578522
11 16 100 12 0.206443
12 16 100 12 0.657631
1 17 100 12 0.0199553
2 17 100 12 0.00266404
3 17 100 12 0.027432
4 17 100 12 0.0201595
5 17 100 12 0.0200012
6 17 100 12 0.0199778
7 17 100 12 0.0214209
8 17 100 12 2.10805e-05
9 17 100 12 1.58852e-07
10 17 100 12 0.0367377
11 17 100 12 0.133529
12 17 100 12 0.698101
3 18 100 12 0.0536205
4 18 100 12 0.0540298
5 18 100 12 0.0200663
6 18 100 12 2.7835e-06
8 18 100 12 4.83606e-05
11 18 100 12 0.195378
12 18 100 12 0.676854
2 19 100 12 4.15603e-07
4 19 100 12 1.65221e-06
5 19 100 12 8.58765e-07
6 19 100 12 5.63825e-05
7 19 100 12 0.000125145
10 19 100 12 7.28704e-07
11 19 100 12 0.249988
12 19 100 12 0.749827
6 20 100 12 0.27512
7 20 100 12 3.60817e-06
8 20 100 12 0.26876
10 20 100 12 0.237811
11 20 100 12 0.0285891
12 20 100 12 0.189716
5 21 100 12 0.998349
7 21 100 12 0.00067779
8 21 100 12 0.000862172
11 21 100 12 0.000110897
9 22 100 12 0.99998
11 22 100 12 2.02838e-05
10 23 100 12 1.21092e-05
11 23 100 12 4.35001e-06
12 23 100 12 0.999983
1 0 100 13 0.0169049
2 0 100 13 0.0558381
3 0 100 13 0.110304
4 0 100 13 0.136415
5 0 100 13 0.114588
6 0 100 13 0.106649
7 0 100 13 0.122187
8 0 100 13 0.119877
9 0 100 13 0.0947879
10 0 100 13 0.0724516
11 0 100 13 0.0460805
12 0 100 13 0.00342203
13 0 100 13 0.00049564
1 1 100 13 0.864617
2 1 100 13 0.0824251
3 1 100 13 0.0249214
4 1 100 13 0.00963462
5 1 100 13 0.00550956
6 1 100 13 0.00305702
7 1 100 13 0.003069
8 1 100 13 0.00351573
9 1 100 13 0.00213301
10 1 100 13 9.15633e-05
11 1 100 13 0.00100369
12 1 100 13 2.23159e-05
1 2 100 13 0.125616
2 2 100 13 0.60244
3 2 100 13 0.163599
4 2 100 13 0.0547452
5 2 100 13 0.0173431
6 2 100 13 0.00701849
7 2 100 13 0.0054937
8 2 100 13 0.00507347
9 2 100 13 0.00732766
10 2 100 13 0.00369905
11 2 100 13 0.00492322
12 2 100 13 0.00272096
1 3 100 13 0.0204962
2 3 100 13 0.14304
3 3 100 13 0.401093
4 3 100 13 0.234399
5 3 100 13 0.135255
6 3 100 13 0.0353944
7 3 100 13 0.00776868
8 3 100 13 0.0073317
9 3 100 13 0.00418731
10 3 100 13 0.00394846
11 3 100 13 0.00224341
12 3 100 13 0.00484246
1 4 100 13 0.00293122
2 4 100 13 0.0358141
3 4 100 13 0.185178
4 4 100 13 0.258942
5 4 100 13 0.245363
6 4 100 13 0.160311
7 4 100 13 0.0528016
8 4 100 13 0.0263933
9 4 100 13 0.0109911
10 4 100 13 0.0101733
11 4 100 13 0.00483337
12 4 100 13 0.0062667
13 4 100 13 8.21535e-07
1 5 100 13 0.00762497
2 5 100 13 0.0188824
3 5 100 13 0.0533821
4 5 100 13 0.156407
5 5 100 13 0.204819
6 5 100 13 0.242412
7 5 100 13 0.147982
8 5 100 13 0.0878007
9 5 100 13 0.0406736
10 5 100 13 0.0209649
11 5 100 13 0.0109967
12 5 100 13 0.00805441
13 5 100 13 1.64405e-07
1 6 100 13 0.00665062
2 6 100 13 0.0107359
3 6 100 13 0.0193516
4 6 100 13 0.070963
5 6 100 13 0.14101
6 6 100 13 0.182835
7 6 100 13 0.213847
8 6 100 13 0.142664
9 6 100 13 0.115043
10 6 100 13 0.0485911
11 6 100 13 0.0326524
12 6 100 13 0.0154323
13 6 100 13 0.000223212
1 7 100 13 0.00443463
2 7 100 13 0.0081917
3 7 100 13 0.00921092
4 7 100 13 0.0215278
5 7 100 13 0.0680232
6 7 100 13 0.119291
7 7 100 13 0.179182
8 7 100 13 0.178173
9 7 100 13 0.154315
10 7 100 13 0.140694
11 7 100 13 0.0670973
12 7 100 13 0.0483804
13 7 100 13 0.0014791
1 8 100 13 0.00217875
2 8 100 13 0.00531584
3 8 100 13 0.00802311
4 8 100 13 0.00838101
5 8 100 13 0.0247359
6 8 100 13 0.0724028
7 8 100 13 0.113931
8 8 100 13 0.171583
9 8 100 13 0.174499
10 8 100 13 0.153934
11 8 100 13 0.146574
12 8 100 13 0.096858
13 8 100 13 0.0215822
1 9 100 13 0.00227867
2 9 100 13 0.00340508
3 9 100 13 0.00530649
4 9 100 13 0.00525853
5 9 100 13 0.0125668
6 9 100 13 0.0261336
7 9 100 13 0.0643824
8 9 100 13 0.10633
9 9 100 13 0.164153
10 9 100 13 0.1941
11 9 100 13 0.194712
12 9 100 13 0.160768
13 9 100 13 0.0606055
1 10 100 13 0.00168117
2 10 100 13 0.00551824
3 10 100 13 0.00420026
4 10 100 13 0.00399972
5 10 100 13 0.00754208
6 10 100 13 0.0159652
7 10 100 13 0.0312571
8 10 100 13 0.0675364
9 10 100 13 0.11455
10 10 100 13 0.163269
11 10 100 13 0.199492
12 10 100 13 0.222594
13 10 100 13 0.162395
1 11 100 13 0.00211569
2 11 100 13 0.00332719
3 11 100 13 0.00408599
4 11 100 13 0.00226964
5 11 100 13 0.00486864
6 11 100 13 0.00561211
7 11 100 13 0.0135917
8 11 100 13 0.0379925
9 11 100 13 0.0881931
10 11 100 13 0.136174
11 11 100 13 0.185222
12 11 100 13 0.247512
13 11 100 13 0.269035
1 12 100 13 0.000959147
2 12 100 13 0.00103496
3 12 100 13 0.00286368
4 12 100 13 0.00364312
5 12 100 13 0.00586165
6 12 100 13 0.00733557
7 12 100 13 0.00817576
8 12 100 13 0.0216427
9 12 100 13 0.0604288
10 12 100 13 0.104725
11 12 100 13 0.170158
12 12 100 13 0.256478
13 12 100 13 0.356694
1 13 100 13 0.00156424
3 13 100 13 0.00358355
4 13 100 13 0.00267208
5 13 100 13 0.0015082
6 13 100 13 0.00599778
7 13 100 13 0.00594281
8 13 100 13 0.02041
9 13 100 13 0.0340522
10 13 100 13 0.102081
11 13 100 13 0.172005
12 13 100 13 0.218081
13 13 100 13 0.432101
1 14 100 13 3.53244e-07
2 14 100 13 0.00398899
3 14 100 13 1.49851e-05
4 14 100 13 0.00199993
5 14 100 13 0.00200401
6 14 100 13 0.00200461
7 14 100 13 0.00730943
8 14 100 13 0.00921407
9 14 100 13 0.026286
10 14 100 13 0.0597211
11 14 100 13 0.139846
12 14 100 13 0.263896
13 14 100 13 0.483715
1 15 100 13 0.000332579
2 15 100 13 0.00497893
3 15 100 13 0.00933801
4 15 100 13 0.00421523
5 15 100 13 0.00872694
6 15 100 13 0.00661921
7 15 100 13 0.0167079
8 15 100 13 0.00757957
9 15 100 13 0.0192321
10 15 100 13 0.0585185
11 15 100 13 0.102905
12 15 100 13 0.264333
13 15 100 13 0.496513
2 16 100 13 0.00596114
3 16 100 13 3.42026e-05
4 16 100 13 0.0059045
5 16 100 13 5.83171e-05
6 16 100 13 1.1689e-05
7 16 100 13 0.0107959
8 16 100 13 0.0193889
9 16 100 13 0.0158545
10 16 100 13 0.0328251
11 16 100 13 0.067891
12 16 100 13 0.214056
13 16 100 13 0.627219
1 17 100 13 1.42363e-05
2 17 100 13 0.000101583
3 17 100 13 1.21718e-06
4 17 100 13 1.43829e-07
5 17 100 13 0.0141199
6 17 100 13 1.95818e-05
7 17 100 13 0.00021357
8 17 100 13 0.0326794
9 17 100 13 0.0139852
10 17 100 13 0.0033919
11 17 100 13 0.0870539
12 17 100 13 0.135278
13 17 100 13 0.713141
4 18 100 13 8.46231e-07
5 18 100 13 0.00020221
6 18 100 13 1.85877e-06
7 18 100 13 0.0132321
8 18 100 13 0.000863349
9 18 100 13 4.41091e-05
10 18 100 13 7.01955e-07
11 18 100 13 0.0388652
12 18 100 13 0.287265
13 18 100 13 0.659524
3 19 100 13 0.00100339
6 19 100 13 0.0719112
7 19 100 13 1.28373e-05
8 19 100 13 0.0718458
9 19 100 13 0.0718746
10 19 100 13 0.0725761
11 19 100 13 0.0718276
12 19 100 13 0.14375
13 19 100 13 0.495199
2 20 100 13 5.31477e-07
7 20 100 13 2.5922e-07
10 20 100 13 0.000110762
11 20 100 13 3.50633e-06
12 20 100 13 0.000337745
13 20 100 13 0.999547
13 21 100 13 1
1 0 100 14 0.015873
2 0 100 14 0.0483811
3 0 100 14 0.109277
4 0 100 14 0.119617
5 0 100 14 0.104181
6 0 100 14 0.0957595
7 0 100 14 0.101027
8 0 100 14 0.0985489
9 0 100 14 0.0973741
10 0 100 14 0.0963897
11 0 100 14 0.0665361
12 0 100 14 0.0430386
13 0 100 14 0.00358832
14 0 100 14 0.00040891
1 1 100 14 0.849804
2 1 100 14 0.0863536
3 1 100 14 0.0256219
4 1 100 14 0.00987912
5 1 100 14 0.00795737
6 1 100 14 0.00141183
7 1 100 14 0.00438891
8 1 100 14 0.00291329
9 1 100 14 0.00338729
10 1 100 14 0.00347519
11 1 100 14 0.00216545
12 1 100 14 0.000883453
13 1 100 14 0.00175827
1 2 100 14 0.119826
2 2 100 14 0.581424
3 2 100 14 0.177935
4 2 100 14 0.0552707
5 2 100 14 0.027006
6 2 100 14 0.0104262
7 2 100 14 0.00737397
8 2 100 14 0.00475454
9 2 100 14 0.00222981
10 2 100 14 0.00255147
11 2 100 14 0.00314532
12 2 100 14 0.00481273
13 2 100 14 0.00324425
1 3 100 14 0.0194434
2 3 100 14 0.15704
3 3 100 14 0.358465
4 3 100 14 0.225774
5 3 100 14 0.155758
6 3 100 14 0.0436228
7 3 100 14 0.00878792
8 3 100 14 0.00638928
9 3 100 14 0.00346411
10 3 100 14 0.00328091
11 3 100 14 0.0015046
12 3 100 14 0.00651252
13 3 100 14 0.0099578
1 4 100 14 0.0199468
2 4 100 14 0.0442587
3 4 100 14 0.148017
4 4 100 14 0.267745
5 4 100 14 0.231295
6 4 100 14 0.15064
7 4 100 14 0.0652774
8 4 100 14 0.0307637
9 4 100 14 0.0133054
10 4 100 14 0.00915431
11 4 100 14 0.0073617
12 4 100 14 0.00657527
13 4 100 14 0.00558144
14 4 100 14 7.79692e-05
1 5 100 14 0.00309319
2 5 100 14 0.0238503
3 5 100 14 0.0707952
4 5 100 14 0.145426
5 5 100 14 0.198624
6 5 100 14 0.255306
7 5 100 14 0.150106
8 5 100 14 0.0667204
9 5 100 14 0.0425596
10 5 100 14 0.0194966
11 5 100 14 0.0133533
12 5 100 14 0.00685132
13 5 100 14 0.00381677
14 5 100 14 1.44301e-06
1 6 100 14 0.00658404
2 6 100 14 0.0101089
3 6 100 14 0.0203401
4 6 100 14 0.0629023
5 6 100 14 0.124781
6 6 100 14 0.180515
7 6 100 14 0.224817
8 6 100 14 0.177589
9 6 100 14 0.0908019
10 6 100 14 0.0439402
11 6 100 14 0.0263301
12 6 100 14 0.0204248
13 6 100 14 0.0108657
14 6 100 14 8.94878e-07
1 7 100 14 0.00467635
2 7 100 14 0.0101333
3 7 100 14 0.00788628
4 7 100 14 0.0287045
5 7 100 14 0.0664849
6 7 100 14 0.120539
7 7 100 14 0.171655
8 7 100 14 0.205935
9 7 100 14 0.150714
10 7 100 14 0.102291
11 7 100 14 0.0697006
12 7 100 14 0.0353181
13 7 100 14 0.0250688
14 7 100 14 0.000894608
1 8 100 14 0.00263256
2 8 100 14 0.00351198
3 8 100 14 0.0108153
4 8 100 14 0.00969207
5 8 100 14 0.0269389
6 8 100 14 0.0615213
7 8 100 14 0.100375
8 8 100 14 0.141625
9 8 100 14 0.182663
10 8 100 14 0.159196
11 8 100 14 0.133437
12 8 100 14 0.0927484
13 8 100 14 0.0644459
14 8 100 14 0.010398
1 9 100 14 0.0045906
2 9 100 14 0.00576396
3 9 100 14 0.00738452
4 9 100 14 0.0106007
5 9 100 14 0.00942411
6 9 100 14 0.0229523
7 9 100 14 0.0677283
8 9 100 14 0.0954023
9 9 100 14 0.145786
10 9 100 14 0.165679
11 9 100 14 0.168754
12 9 100 14 0.161143
13 9 100 14 0.109153
14 9 100 14 0.0256379
1 10 100 14 0.00191276
2 10 100 14 0.00353697
3 10 100 14 0.00748825
4 10 100 14 0.00657922
5 10 100 14 0.00668941
6 10 100 14 0.0133812
7 10 100 14 0.0321935
8 10 100 14 0.0765575
9 10 100 14 0.103236
10 10 100 14 0.149311
11 10 100 14 0.168219
12 10 100 14 0.164907
13 10 100 14 0.186505
14 10 100 14 0.0794829
1 11 100 14 0.00108671
2 11 100 14 0.00104251
3 11 100 14 0.00160554
4 11 100 14 0.00340277
5 11 100 14 0.00592599
6 11 100 14 0.0083802
7 11 100 14 0.0154159
8 11 100 14 0.0371207
9 11 100 14 0.0782391
10 11 100 14 0.111129
11 11 100 14 0.153088
12 11 100 14 0.200933
13 11 100 14 0.198644
14 11 100 14 0.183987
1 12 100 14 3.44381e-05
2 12 100 14 0.00129063
3 12 100 14 1.30883e-05
4 12 100 14 0.00379283
5 12 100 14 0.00324478
6 12 100 14 0.00981692
7 12 100 14 0.0113844
8 12 100 14 0.0217988
9 12 100 14 0.046901
10 12 100 14 0.0821718
11 12 100 14 0.143103
12 12 100 14 0.172229
13 12 100 14 0.247766
14 12 100 14 0.256454
1 13 100 14 0.0012864
2 13 100 14 0.00130017
3 13 100 14 0.00478105
4 13 100 14 0.00162241
5 13 100 14 0.00183859
6 13 100 14 0.00648771
7 13 100 14 0.0119607
8 13 100 14 0.0113307
9 13 100 14 0.0361509
10 13 100 14 0.0581291
11 13 100 14 0.115417
12 13 100 14 0.159526
13 13 100 14 0.201789
14 13 100 14 0.388379
2 14 100 14 1.74939e-06
3 14 100 14 0.00760606
4 14 100 14 0.00767328
5 14 100 14 0.00754401
6 14 100 14 0.00708832
7 14 100 14 0.0075349
8 14 100 14 0.0197843
9 14 100 14 0.0244504
10 14 100 14 0.0577138
11 14 100 14 0.0984632
12 14 100 14 0.160889
13 14 100 14 0.249325
14 14 100 14 0.351925
1 15 100 14 0.000325939
2 15 100 14 5.2002e-05
3 15 100 14 7.0621e-07
4 15 100 14 1.81742e-05
5 15 100 14 1.99551e-05
6 15 100 14 0.00327699
7 15 100 14 0.012807
8 15 100 14 0.00317743
9 15 100 14 0.0186119
10 15 100 14 0.0470586
11 15 100 14 0.0822163
12 15 100 14 0.15188
13 15 100 14 0.25142
14 15 100 14 0.429135
1 16 100 14 5.78902e-05
2 16 100 14 4.14266e-05
3 16 100 14 2.62643e-06
4 16 100 14 6.36867e-06
5 16 100 14 0.00555993
6 16 100 14 0.0054656
7 16 100 14 0.0107072
8 16 100 14 0.0217715
9 16 100 14 0.0343496
10 16 100 14 0.0266721
11 16 100 14 0.0463115
12 16 100 14 0.102538
13 16 100 14 0.191492
14 16 100 14 0.555024
1 17 100 14 0.000187791
2 17 100 14 3.36925e-05
3 17 100 14 0.00578201
4 17 100 14 0.00584105
5 17 100 14 0.00607314
6 17 100 14 3.5343e-06
8 17 100 14 7.78778e-07
9 17 100 14 0.000919748
10 17 100 14 0.0329249
11 17 100 14 0.03358
12 17 100 14 0.129721
13 17 100 14 0.277469
14 17 100 14 0.507463
2 18 100 14 2.77611e-05
3 18 100 14 3.13197e-06
4 18 100 14 0.020256
5 18 100 14 8.09769e-06
6 18 100 14 2.01454e-07
7 18 100 14 2.38959e-06
9 18 100 14 5.21931e-07
10 18 100 14 0.01918
11 18 100 14 0.0386467
12 18 100 14 0.0551574
13 18 100 14 0.195461
14 18 100 14 0.671257
1 19 100 14 3.26497e-06
2 19 100 14 2.69497e-07
4 19 100 14 2.81618e-07
5 19 100 14 1.14687e-06
6 19 100 14 0.0239236
7 19 100 14 1.41336e-06
8 19 100 14 7.84294e-07
9 19 100 14 2.45618e-06
11 19 100 14 0.00225243
12 19 100 14 3.2152e-06
13 19 100 14 0.277696
14 19 100 14 0.696115
3 20 100 14 0.000262899
4 20 100 14 6.21045e-06
5 20 100 14 0.077735
6 20 100 14 0.11154
7 20 100 14 8.76408e-06
9 20 100 14 2.11588e-06
10 20 100 14 1.11832e-06
11 20 100 14 0.000242526
12 20 100 14 0.0910915
13 20 100 14 0.107243
14 20 100 14 0.611867
6 21 100 14 2.29217e-07
10 21 100 14 0.152638
11 21 100 14 6.79579e-05
13 21 100 14 2.83592e-07
14 21 100 14 0.847293
5 22 100 14 4.08877e-06
7 22 100 14 0.00901649
11 22 100 14 0.990979
4 23 100 14 7.12441e-06
5 23 100 14 0.166657
6 23 100 14 0.166668
8 23 100 14 0.166668
9 23 100 14 0.166668
12 23 100 14 0.166668
13 23 100 14 0.166663
7 24 100 14 0.00138242
10 24 100 14 0.000244987
11 24 100 14 0.998291
13 24 100 14 8.2134e-05
10 25 100 14 0.999907
13 25 100 14 9.28114e-05
14 26 100 14 1
1 0 100 15 0.0160136
2 0 100 15 0.0360744
3 0 100 15 0.0833305
4 0 100 15 0.113448
5 0 100 15 0.0982717
6 0 100 15 0.0771391
7 0 100 15 0.0869292
8 0 100 15 0.0829261
9 0 100 15 0.106826
10 0 100 15 0.0883361
11 0 100 15 0.0858536
12 0 100 15 0.0778394
13 0 100 15 0.0419594
14 0 100 15 0.00434935
15 0 100 15 0.000703041
1 1 100 15 0.819681
2 1 100 15 0.0898656
3 1 100 15 0.0331381
4 1 100 15 0.0225427
5 1 100 15 0.010579
6 1 100 15 0.00303953
7 1 100 15 0.00307144
8 1 100 15 0.0039039
9 1 100 15 1.56637e-06
10 1 100 15 0.00880702
11 1 100 15 0.00132655
12 1 100 15 5.03833e-05
13 1 100 15 0.00267051
14 1 100 15 0.0013226
1 2 100 15 0.108505
2 2 100 15 0.610048
3 2 100 15 0.168716
4 2 100 15 0.0576222
5 2 100 15 0.0180794
6 2 100 15 0.0122248
7 2 100 15 0.00257628
8 2 100 15 0.00425563
9 2 100 15 0.00262477
10 2 100 15 0.00521473
11 2 100 15 0.00516794
12 2 100 15 0.00189152
13 2 100 15 0.00128982
14 2 100 15 0.00178418
1 3 100 15 0.0220087
2 3 100 15 0.163306
3 3 100 15 0.378192
4 3 100 15 0.199848
5 3 100 15 0.12155
6 3 100 15 0.0511224
7 3 100 15 0.0184855
8 3 100 15 0.0030364
9 3 100 15 0.00312457
10 3 100 15 0.00713745
11 3 100 15 0.012237
12 3 100 15 0.0106115
13 3 100 15 0.00625648
14 3 100 15 0.00308353
1 4 100 15 0.0122093
2 4 100 15 0.035647
3 4 100 15 0.217324
4 4 100 15 0.244334
5 4 100 15 0.232516
6 4 100 15 0.138321
7 4 100 15 0.0636546
8 4 100 15 0.0188049
9 4 100 15 0.00459224
10 4 100 15 0.00754775
11 4 100 15 0.00361892
12 4 100 15 0.0106251
13 4 100 15 0.00613271
14 4 100 15 0.00456475
15 4 100 15 0.000106532
1 5 100 15 0.00806974
2 5 100 15 0.0212329
3 5 100 15 0.0513129
4 5 100 15 0.184094
5 5 100 15 0.227015
6 5 100 15 0.232839
7 5 100 15 0.140212
8 5 100 15 0.0655473
9 5 100 15 0.0304384
10 5 100 15 0.0114132
11 5 100 15 0.0044196
12 5 100 15 0.00710417
13 5 100 15 0.00896493
14 5 100 15 0.00732535
15 5 100 15 1.08986e-05
1 6 100 15 0.00462695
2 6 100 15 0.0109835
3 6 100 15 0.0257357
4 6 100 15 0.0748097
5 6 100 15 0.159645
6 6 100 15 0.196492
7 6 100 15 0.204559
8 6 100 15 0.164345
9 6 100 15 0.0619802
10 6 100 15 0.0532909
11 6 100 15 0.0214677
12 6 100 15 0.0121344
13 6 100 15 0.00424832
14 6 100 15 0.00567407
15 6 100 15 7.66955e-06
1 7 100 15 0.00574186
2 7 100 15 0.00430846
3 7 100 15 0.0228686
4 7 100 15 0.033454
5 7 100 15 0.0584918
6 7 100 15 0.145803
7 7 100 15 0.185204
8 7 100 15 0.183882
9 7 100 15 0.158146
10 7 100 15 0.0798323
11 7 100 15 0.0668277
12 7 100 15 0.0276605
13 7 100 15 0.0160093
14 7 100 15 0.0117709
1 8 100 15 0.00553875
2 8 100 15 0.00416259
3 8 100 15 0.00972925
4 8 100 15 0.0112159
5 8 100 15 0.0372251
6 8 100 15 0.0706064
7 8 100 15 0.112503
8 8 100 15 0.1907
9 8 100 15 0.176901
10 8 100 15 0.143505
11 8 100 15 0.109655
12 8 100 15 0.0602877
13 8 100 15 0.0385267
14 8 100 15 0.0225099
15 8 100 15 0.0069327
1 9 100 15 0.0014754
2 9 100 15 0.00578605
3 9 100 15 0.00180934
4 9 100 15 0.0173952
5 9 100 15 0.00736188
6 9 100 15 0.0372888
7 9 100 15 0.0796949
8 9 100 15 0.10502
9 9 100 15 0.153021
10 9 100 15 0.182467
11 9 100 15 0.14012
12 9 100 15 0.128429
13 9 100 15 0.0818102
14 9 100 15 0.052537
15 9 100 15 0.00578529
1 10 100 15 0.000278323
2 10 100 15 0.00156246
3 10 100 15 0.00595032
4 10 100 15 0.00157647
5 10 100 15 0.00976651
6 10 100 15 0.00909939
7 10 100 15 0.0396035
8 10 100 15 0.0794526
9 10 100 15 0.0991038
10 10 100 15 0.14196
11 10 100 15 0.179847
12 10 100 15 0.156865
13 10 100 15 0.147154
14 10 100 15 0.101986
15 10 100 15 0.025794
1 11 100 15 0.00165322
2 11 100 15 0.00299996
3 11 100 15 0.00595492
4 11 100 15 0.00453102
5 11 100 15 0.00338097
6 11 100 15 0.0126228
7 11 100 15 0.0248678
8 11 100 15 0.0417569
9 11 100 15 0.0807272
10 11 100 15 0.11706
11 11 100 15 0.128206
12 11 100 15 0.143472
13 11 100 15 0.187967
14 11 100 15 0.174998
15 11 100 15 0.0698029
1 12 100 15 2.50296e-06
2 12 100 15 0.0032654
3 12 100 15 0.00164177
4 12 100 15 0.00489808
5 12 100 15 0.00652946
6 12 100 15 0.01149
7 12 100 15 0.0163025
8 12 100 15 0.0207996
9 12 100 15 0.0453089
10 12 100 15 0.0699223
11 12 100 15 0.117489
12 12 100 15 0.147849
13 12 100 15 0.175075
14 12 100 15 0.193591
15 12 100 15 0.185836
1 13 100 15 0.00206273
2 13 100 15 2.1858e-05
3 13 100 15 5.85738e-07
4 13 100 15 7.46474e-06
5 13 100 15 9.54054e-07
6 13 100 15 0.009798
7 13 100 15 0.0134405
8 13 100 15 0.0172238
9 13 100 15 0.0309877
10 13 100 15 0.0519874
11 13 100 15 0.0961596
12 13 100 15 0.135208
13 13 100 15 0.16816
14 13 100 15 0.229499
15 13 100 15 0.245442
1 14 100 15 0.00261471
2 14 100 15 0.00522737
3 14 100 15 2.26537e-06
4 14 100 15 0.00254574
5 14 100 15 0.00261345
6 14 100 15 0.00319779
7 14 100 15 0.00466928
8 14 100 15 0.0112127
9 14 100 15 0.0157239
10 14 100 15 0.0318986
11 14 100 15 0.0593337
12 14 100 15 0.108772
13 14 100 15 0.197576
14 14 100 15 0.238461
15 14 100 15 0.316152
1 15 100 15 0.00698448
2 15 100 15 0.0100148
3 15 100 15 0.00334122
4 15 100 15 1.37639e-06
5 15 100 15 0.00336194
6 15 100 15 0.010885
7 15 100 15 0.0101106
8 15 100 15 0.0100493
9 15 100 15 0.013346
10 15 100 15 0.029815
11 15 100 15 0.0343611
12 15 100 15 0.120233
13 15 100 15 0.141475
14 15 100 15 0.22542
15 15 100 15 0.380601
1 16 100 15 1.15389e-06
2 16 100 15 0.00930002
3 16 100 15 0.0139989
4 16 100 15 1.59235e-06
5 16 100 15 3.11011e-06
6 16 100 15 0.00467158
7 16 100 15 0.00465015
8 16 100 15 0.00930048
9 16 100 15 0.00935074
10 16 100 15 0.0362868
11 16 100 15 0.0373885
12 16 100 15 0.0715661
13 16 100 15 0.140035
14 16 100 15 0.296173
15 16 100 15 0.367272
1 17 100 15 3.83694e-07
2 17 100 15 1.09941e-05
3 17 100 15 2.72757e-05
4 17 100 15 0.00729695
5 17 100 15 0.00142589
6 17 100 15 0.00727609
7 17 100 15 0.000780441
8 17 100 15 0.0207802
9 17 100 15 0.0181408
10 17 100 15 0.0309249
11 17 100 15 0.0430881
12 17 100 15 0.0410781
13 17 100 15 0.107859
14 17 100 15 0.165482
15 17 100 15 0.555828
1 18 100 15 0.0143772
2 18 100 15 0.0143927
3 18 100 15 0.0145981
4 18 100 15 0.0159206
5 18 100 15 0.0144246
6 18 100 15 0.0144011
7 18 100 15 3.95779e-07
8 18 100 15 0.000117212
9 18 100 15 0.0177648
10 18 100 15 1.24055e-05
11 18 100 15 0.00594111
12 18 100 15 0.0784189
13 18 100 15 0.0780566
14 18 100 15 0.228884
15 18 100 15 0.50269
3 19 100 15 1.00133e-06
4 19 100 15 1.16622e-05
5 19 100 15 2.46795e-06
6 19 100 15 0.000182156
7 19 100 15 4.44194e-05
8 19 100 15 0.0521632
9 19 100 15 0.0228635
10 19 100 15 0.0442378
11 19 100 15 0.0623558
12 19 100 15 0.0587328
13 19 100 15 0.132018
14 19 100 15 0.0785593
15 19 100 15 0.548828
4 20 100 15 8.41795e-06
6 20 100 15 2.59953e-06
8 20 100 15 2.46866e-06
9 20 100 15 0.0604882
10 20 100 15 3.97955e-06
11 20 100 15 5.46736e-05
12 20 100 15 3.71421e-05
13 20 100 15 0.0059535
14 20 100 15 0.524962
15 20 100 15 0.408487
3 21 100 15 1.24379e-06
5 21 100 15 0.00160273
7 21 100 15 1.19504e-07
10 21 100 15 0.0812893
12 21 100 15 0.0831686
13 21 100 15 0.0830876
15 21 100 15 0.75085
7 22 100 15 1.1072e-05
11 22 100 15 8.20487e-07
12 22 100 15 0.000571824
14 22 100 15 0.49971
15 22 100 15 0.499706
13 23 100 15 0.5
15 23 100 15 0.5
2 24 100 15 1
2 25 100 15 0.922029
3 25 100 15 0.0777887
12 25 100 15 0.000182566
2 26 100 15 2.10593e-05
3 26 100 15 2.11331e-06
4 26 100 15 1.21498e-06
14 26 100 15 0.999976
15 27 100 15 1
1 0 100 16 0.0146472
2 0 100 16 0.0331711
3 0 100 16 0.0931244
4 0 100 16 0.102073
5 0 100 16 0.0924772
6 0 100 16 0.0672204
7 0 100 16 0.0823434
8 0 100 16 0.0750304
9 0 100 16 0.0793374
10 0 100 16 0.0822463
11 0 100 16 0.0938833
12 0 100 16 0.0725329
13 0 100 16 0.0609266
14 0 100 16 0.0439559
15 0 100 16 0.00455298
16 0 100 16 0.00247744
1 1 100 16 0.808689
2 1 100 16 0.0873433
3 1 100 16 0.0338009
4 1 100 16 0.0178246
5 1 100 16 0.0133385
6 1 100 16 0.00445713
7 1 100 16 0.00202089
8 1 100 16 6.02789e-07
9 1 100 16 0.0124784
10 1 100 16 0.00669837
11 1 100 16 0.00446935
12 1 100 16 1.1385e-05
13 1 100 16 0.00222454
14 1 100 16 0.00443178
15 1 100 16 0.00221114
1 2 100 16 0.126578
2 2 100 16 0.621301
3 2 100 16 0.158903
4 2 100 16 0.0417168
5 2 100 16 0.0187696
6 2 100 16 0.00198914
7 2 100 16 0.00418096
8 2 100 16 0.0041435
9 2 100 16 0.00278158
10 2 100 16 0.00925646
11 2 100 16 0.00206722
12 2 100 16 0.00321707
13 2 100 16 0.00208597
14 2 100 16 0.0030074
15 2 100 16 1.78985e-06
16 2 100 16 1.13437e-07
1 3 100 16 0.0271121
2 3 100 16 0.145699
3 3 100 16 0.394852
4 3 100 16 0.212155
5 3 100 16 0.0922559
6 3 100 16 0.051517
7 3 100 16 0.012987
8 3 100 16 0.00972954
9 3 100 16 0.00246935
10 3 100 16 0.010006
11 3 100 16 0.0173318
12 3 100 16 0.00738966
13 3 100 16 0.00482376
14 3 100 16 0.00426982
15 3 100 16 0.00740186
1 4 100 16 0.0211858
2 4 100 16 0.0433208
3 4 100 16 0.166978
4 4 100 16 0.251415
5 4 100 16 0.217581
6 4 100 16 0.150277
7 4 100 16 0.0544123
8 4 100 16 0.0217333
9 4 100 16 0.0143226
10 4 100 16 0.0065473
11 4 100 16 0.0119987
12 4 100 16 0.0149328
13 4 100 16 0.00477724
14 4 100 16 0.0116336
15 4 100 16 0.00888366
16 4 100 16 1.1399e-06
1 5 100 16 0.00547258
2 5 100 16 0.0102631
3 5 100 16 0.0641708
4 5 100 16 0.172212
5 5 100 16 0.241626
6 5 100 16 0.214513
7 5 100 16 0.1536
8 5 100 16 0.0781495
9 5 100 16 0.0292122
10 5 100 16 0.000622869
11 5 100 16 0.000218313
12 5 100 16 0.0105379
13 5 100 16 0.00466148
14 5 100 16 0.00982284
15 5 100 16 0.00491678
16 5 100 16 2.63933e-07
1 6 100 16 0.00213626
2 6 100 16 0.0165697
3 6 100 16 0.0211549
4 6 100 16 0.0986262
5 6 100 16 0.137197
6 6 100 16 0.204552
7 6 100 16 0.192429
8 6 100 16 0.159021
9 6 100 16 0.0831369
10 6 100 16 0.0340955
11 6 100 16 0.0106112
12 6 100 16 0.0147986
13 6 100 16 0.0102105
14 6 100 16 0.000150655
15 6 100 16 0.0153098
16 6 100 16 5.27087e-07
1 7 100 16 0.0219439
2 7 100 16 0.0198476
3 7 100 16 0.0292848
4 7 100 16 0.0333244
5 7 100 16 0.0804696
6 7 100 16 0.13553
7 7 100 16 0.166585
8 7 100 16 0.177541
9 7 100 16 0.14612
10 7 100 16 0.0860802
11 7 100 16 0.0516738
12 7 100 16 0.0202744
13 7 100 16 0.0115619
14 7 100 16 0.0154022
15 7 100 16 0.00436078
1 8 100 16 0.00421839
2 8 100 16 0.00673893
3 8 100 16 0.00183082
4 8 100 16 0.0138427
5 8 100 16 0.0396801
6 8 100 16 0.0978652
7 8 100 16 0.133999
8 8 100 16 0.188096
9 8 100 16 0.165178
10 8 100 16 0.14461
11 8 100 16 0.0928926
12 8 100 16 0.0514105
13 8 100 16 0.024401
14 8 100 16 0.020068
15 8 100 16 0.0151688
1 9 100 16 0.00476923
2 9 100 16 0.00241029
3 9 100 16 0.00240724
4 9 100 16 0.00477872
5 9 100 16 0.00987235
6 9 100 16 0.0370459
7 9 100 16 0.0710052
8 9 100 16 0.125077
9 9 100 16 0.189558
10 9 100 16 0.172795
11 9 100 16 0.14802
12 9 100 16 0.107957
13 9 100 16 0.060916
14 9 100 16 0.0319455
15 9 100 16 0.029042
16 9 100 16 0.002401
1 10 100 16 0.00218144
2 10 100 16 0.00218814
3 10 100 16 0.00221776
4 10 100 16 0.00219625
5 10 100 16 0.0044074
6 10 100 16 0.00824303
7 10 100 16 0.0351954
8 10 100 16 0.0550294
9 10 100 16 0.122632
10 10 100 16 0.165495
11 10 100 16 0.147979
12 10 100 16 0.167584
13 10 100 16 0.10607
14 10 100 16 0.102443
15 10 100 16 0.0564409
16 10 100 16 0.0196973
1 11 100 16 1.36079e-05
2 11 100 16 0.000103841
3 11 100 16 6.05421e-05
4 11 100 16 0.00232816
5 11 100 16 0.0023327
6 11 100 16 0.00496314
7 11 100 16 0.027156
8 11 100 16 0.043454
9 11 100 16 0.0487175
10 11 100 16 0.119835
11 11 100 16 0.161465
12 11 100 16 0.155685
13 11 100 16 0.156344
14 11 100 16 0.144749
15 11 100 16 0.107201
16 11 100 16 0.0255928
1 12 100 16 0.00507283
2 12 100 16 0.00519034
3 12 100 16 1.78096e-05
4 12 100 16 2.92907e-06
5 12 100 16 0.00464067
6 12 100 16 0.00788009
7 12 100 16 0.00814205
8 12 100 16 0.0129735
9 12 100 16 0.0236428
10 12 100 16 0.0616918
11 12 100 16 0.122544
12 12 100 16 0.166868
13 12 100 16 0.165273
14 12 100 16 0.146672
15 12 100 16 0.167938
16 12 100 16 0.10145
1 13 100 16 6.81936e-05
2 13 100 16 2.59109e-06
3 13 100 16 3.74863e-07
4 13 100 16 0.00558281
5 13 100 16 0.00573708
6 13 100 16 2.48399e-06
7 13 100 16 0.00571852
8 13 100 16 0.0111238
9 13 100 16 0.0299565
10 13 100 16 0.0366858
11 13 100 16 0.0383907
12 13 100 16 0.131995
13 13 100 16 0.208622
14 13 100 16 0.174875
15 13 100 16 0.186572
16 13 100 16 0.164667
1 14 100 16 2.42313e-06
2 14 100 16 2.08813e-06
3 14 100 16 0.00133887
4 14 100 16 3.33029e-05
5 14 100 16 0.00355585
6 14 100 16 0.0102228
7 14 100 16 0.00356542
8 14 100 16 0.00677553
9 14 100 16 0.00500102
10 14 100 16 0.018012
11 14 100 16 0.0301584
12 14 100 16 0.0475718
13 14 100 16 0.160868
14 14 100 16 0.218475
15 14 100 16 0.252659
16 14 100 16 0.241759
1 15 100 16 6.1174e-05
2 15 100 16 9.12766e-05
3 15 100 16 5.66657e-07
4 15 100 16 6.27774e-06
5 15 100 16 0.0082503
6 15 100 16 0.00412367
7 15 100 16 0.0177126
8 15 100 16 0.00411652
9 15 100 16 0.0123639
10 15 100 16 0.0281703
11 15 100 16 0.0375749
12 15 100 16 0.0668302
13 15 100 16 0.118498
14 15 100 16 0.184494
15 15 100 16 0.22557
16 15 100 16 0.292137
1 16 100 16 5.23141e-06
3 16 100 16 2.0149e-07
4 16 100 16 1.07857e-06
5 16 100 16 4.78966e-06
6 16 100 16 0.00556376
7 16 100 16 0.00551488
8 16 100 16 0.0111291
9 16 100 16 0.017794
10 16 100 16 0.0111556
11 16 100 16 0.0437433
12 16 100 16 0.0200455
13 16 100 16 0.0568935
14 16 100 16 0.137581
15 16 100 16 0.295572
16 16 100 16 0.394995
1 17 100 16 1.88196e-06
2 17 100 16 0.00739284
3 17 100 16 4.79361e-07
4 17 100 16 0.00739564
5 17 100 16 0.00739214
6 17 100 16 0.00739807
8 17 100 16 0.00739528
9 17 100 16 0.0166879
10 17 100 16 0.0203674
11 17 100 16 0.0174468
12 17 100 16 0.0664418
13 17 100 16 0.0880977
14 17 100 16 0.0805858
15 17 100 16 0.207496
16 17 100 16 0.4659
1 18 100 16 6.9129e-07
2 18 100 16 2.18063e-05
3 18 100 16 5.09477e-05
4 18 100 16 0.00762201
5 18 100 16 0.000111822
6 18 100 16 4.67828e-06
7 18 100 16 0.00669238
8 18 100 16 0.000490728
9 18 100 16 0.0143813
10 18 100 16 8.06338e-05
11 18 100 16 0.017767
12 18 100 16 0.0141295
13 18 100 16 0.0458218
14 18 100 16 0.139032
15 18 100 16 0.170108
16 18 100 16 0.583685
3 19 100 16 3.97181e-07
4 19 100 16 0.000590042
5 19 100 16 0.0139994
7 19 100 16 2.8369e-05
8 19 100 16 1.51856e-06
9 19 100 16 3.51648e-07
10 19 100 16 0.0270339
11 19 100 16 0.009134
12 19 100 16 0.0270578
13 19 100 16 2.66746e-05
14 19 100 16 0.0866405
15 19 100 16 0.242538
16 19 100 16 0.592949
6 20 100 16 7.39025e-05
7 20 100 16 3.44898e-05
8 20 100 16 0.000160758
9 20 100 16 1.43848e-06
11 20 100 16 5.07325e-05
13 20 100 16 0.117046
15 20 100 16 0.196127
16 20 100 16 0.686505
8 21 100 16 4.03197e-06
11 21 100 16 4.58719e-07
13 21 100 16 7.14387e-07
14 21 100 16 0.358364
15 21 100 16 0.0433977
16 21 100 16 0.598233
4 22 100 16 1.12603e-05
5 22 100 16 0.000370443
10 22 100 16 6.60691e-06
11 22 100 16 2.77823e-06
13 22 100 16 0.122599
14 22 100 16 1.62741e-06
15 22 100 16 0.569086
16 22 100 16 0.307923
6 23 100 16 9.72024e-06
16 23 100 16 0.99999
1 0 100 17 0.00519737
2 0 100 17 0.0492187
3 0 100 17 0.0896769
4 0 100 17 0.0973501
5 0 100 17 0.081217
6 0 100 17 0.0729837
7 0 100 17 0.0592023
8 0 100 17 0.0646273
9 0 100 17 0.0641696
10 0 100 17 0.0784924
11 0 100 17 0.0996
12 0 100 17 0.0853502
13 0 100 17 0.0703716
14 0 100 17 0.0428685
15 0 100 17 0.034505
16 0 100 17 0.00354115
17 0 100 17 0.0016284
1 1 100 17 0.820188
2 1 100 17 0.0773838
3 1 100 17 0.042609
4 1 100 17 0.0268745
5 1 100 17 0.00306626
6 1 100 17 0.00674975
7 1 100 17 0.00190687
8 1 100 17 4.0575e-05
9 1 100 17 0.00342897
10 1 100 17 0.00339235
11 1 100 17 6.97258e-05
12 1 100 17 0.00375802
13 1 100 17 0.00283597
14 1 100 17 0.00341357
15 1 100 17 0.000636474
16 1 100 17 0.00364645
1 2 100 17 0.12419
2 2 100 17 0.580523
3 2 100 17 0.165744
4 2 100 17 0.0577941
5 2 100 17 0.0276552
6 2 100 17 0.0150641
7 2 100 17 0.0130057
8 2 100 17 0.00655022
9 2 100 17 6.08182e-06
10 2 100 17 0.00326315
11 2 100 17 0.00327818
12 2 100 17 0.0027049
13 2 100 17 0.000117739
14 2 100 17 9.39156e-05
15 2 100 17 7.07412e-07
17 2 100 17 8.30548e-06
1 3 100 17 0.0341659
2 3 100 17 0.132612
3 3 100 17 0.381815
4 3 100 17 0.191607
5 3 100 17 0.116
6 3 100 17 0.0628209
7 3 100 17 0.018993
8 3 100 17 0.0149739
9 3 100 17 0.00748951
10 3 100 17 1.86445e-06
11 3 100 17 1.54021e-05
12 3 100 17 0.00765866
13 3 100 17 0.011761
14 3 100 17 0.00653787
15 3 100 17 0.00637142
16 3 100 17 0.00717773
1 4 100 17 1.78408e-05
2 4 100 17 0.0350487
3 4 100 17 0.147913
4 4 100 17 0.244101
5 4 100 17 0.258127
6 4 100 17 0.13402
7 4 100 17 0.104634
8 4 100 17 0.0189954
9 4 100 17 0.00935087
10 4 100 17 0.00378814
11 4 100 17 0.0143087
12 4 100 17 3.0403e-05
13 4 100 17 0.0116641
14 4 100 17 0.0109205
15 4 100 17 0.00348701
16 4 100 17 0.00357913
17 4 100 17 1.42007e-05
1 5 100 17 0.00830876
2 5 100 17 0.0350752
3 5 100 17 0.0398041
4 5 100 17 0.195183
5 5 100 17 0.193163
6 5 100 17 0.222069
7 5 100 17 0.152772
8 5 100 17 0.0942659
9 5 100 17 0.0229772
10 5 100 17 0.00411795
11 5 100 17 0.00448647
12 5 100 17 0.00396729
13 5 100 17 0.00396865
14 5 100 17 0.00794438
15 5 100 17 0.00396674
16 5 100 17 0.00793045
1 6 100 17 0.00396861
2 6 100 17 0.00795943
3 6 100 17 0.0119086
4 6 100 17 0.0677757
5 6 100 17 0.165358
6 6 100 17 0.208279
7 6 100 17 0.214861
8 6 100 17 0.159568
9 6 100 17 0.0917347
10 6 100 17 0.0305781
11 6 100 17 0.0189683
12 6 100 17 0.00805573
13 6 100 17 0.000499091
14 6 100 17 0.00252107
15 6 100 17 0.00397431
16 6 100 17 0.00397037
17 6 100 17 2.02215e-05
1 7 100 17 0.00972756
2 7 100 17 0.0104444
3 7 100 17 0.0236746
4 7 100 17 0.0154265
5 7 100 17 0.0846737
6 7 100 17 0.143838
7 7 100 17 0.193359
8 7 100 17 0.176462
9 7 100 17 0.158167
10 7 100 17 0.0951695
11 7 100 17 0.0248721
12 7 100 17 0.0278943
13 7 100 17 0.00814299
14 7 100 17 0.0104402
15 7 100 17 0.0107417
16 7 100 17 0.00696269
17 7 100 17 3.02578e-06
1 8 100 17 0.0112534
2 8 100 17 0.00753323
3 8 100 17 0.00804652
4 8 100 17 0.0134663
5 8 100 17 0.00863186
6 8 100 17 0.0792324
7 8 100 17 0.131625
8 8 100 17 0.196748
9 8 100 17 0.177065
10 8 100 17 0.152938
11 8 100 17 0.111771
12 8 100 17 0.0408565
13 8 100 17 0.0321503
14 8 100 17 0.020922
15 8 100 17 0.00377618
16 8 100 17 0.00376742
17 8 100 17 0.000216076
1 9 100 17 3.77941e-07
2 9 100 17 0.00364318
3 9 100 17 0.00732803
4 9 100 17 0.00648174
5 9 100 17 0.0125047
6 9 100 17 0.0103441
7 9 100 17 0.049681
8 9 100 17 0.145331
9 9 100 17 0.170344
10 9 100 17 0.167363
11 9 100 17 0.134503
12 9 100 17 0.13384
13 9 100 17 0.056777
14 9 100 17 0.0432407
15 9 100 17 0.0374484
16 9 100 17 0.0211693
17 9 100 17 2.08432e-07
2 10 100 17 8.61655e-05
3 10 100 17 0.00329106
4 10 100 17 0.013269
5 10 100 17 0.000173302
6 10 100 17 0.0205006
7 10 100 17 0.0329793
8 10 100 17 0.0590541
9 10 100 17 0.142217
10 10 100 17 0.142209
11 10 100 17 0.143872
12 10 100 17 0.135417
13 10 100 17 0.112916
14 10 100 17 0.0720797
15 10 100 17 0.0671746
16 10 100 17 0.0547615
17 10 100 17 3.51787e-07
2 11 100 17 7.02024e-06
3 11 100 17 8.66284e-06
4 11 100 17 5.94976e-06
5 11 100 17 0.00471939
6 11 100 17 0.00751753
7 11 100 17 0.0173933
8 11 100 17 0.0292518
9 11 100 17 0.0757174
10 11 100 17 0.111682
11 11 100 17 0.140976
12 11 100 17 0.167045
13 11 100 17 0.13957
14 11 100 17 0.118202
15 11 100 17 0.0917292
16 11 100 17 0.0799408
17 11 100 17 0.0162336
1 12 100 17 1.91376e-06
2 12 100 17 1.76009e-06
3 12 100 17 2.36494e-06
4 12 100 17 0.00308827
5 12 100 17 0.00378575
6 12 100 17 2.638e-06
7 12 100 17 0.000503242
8 12 100 17 0.00762077
9 12 100 17 0.0242191
10 12 100 17 0.0876541
11 12 100 17 0.109736
12 12 100 17 0.134995
13 12 100 17 0.186211
14 12 100 17 0.164019
15 12 100 17 0.129871
16 12 100 17 0.0874352
17 12 100 17 0.0608519
1 13 100 17 4.52219e-06
2 13 100 17 1.07541e-07
3 13 100 17 3.03199e-06
4 13 100 17 4.89493e-07
5 13 100 17 0.0132107
6 13 100 17 0.00417186
7 13 100 17 0.00831143
8 13 100 17 0.0127501
9 13 100 17 0.0130381
10 13 100 17 0.0226386
11 13 100 17 0.0581633
12 13 100 17 0.103795
13 13 100 17 0.160442
14 13 100 17 0.188153
15 13 100 17 0.157615
16 13 100 17 0.141356
17 13 100 17 0.116347
1 14 100 17 0.00501475
2 14 100 17 1.57014e-05
3 14 100 17 0.000174956
5 14 100 17 4.57867e-05
6 14 100 17 0.0050074
7 14 100 17 5.88091e-06
8 14 100 17 2.03029e-05
9 14 100 17 0.017441
10 14 100 17 0.0288174
11 14 100 17 0.0242136
12 14 100 17 0.0689685
13 14 100 17 0.112311
14 14 100 17 0.20183
15 14 100 17 0.192665
16 14 100 17 0.184961
17 14 100 17 0.158509
1 15 100 17 0.000248392
2 15 100 17 0.00550208
3 15 100 17 2.09592e-07
5 15 100 17 1.51273e-06
6 15 100 17 1.14655e-06
7 15 100 17 0.0117775
8 15 100 17 0.000330966
9 15 100 17 0.00218342
10 15 100 17 0.0220317
11 15 100 17 0.027484
12 15 100 17 0.0111741
13 15 100 17 0.0810314
14 15 100 17 0.134189
15 15 100 17 0.248339
16 15 100 17 0.202701
17 15 100 17 0.253005
2 16 100 17 1.15585e-06
3 16 100 17 0.00703956
6 16 100 17 3.41111e-05
8 16 100 17 0.0133663
9 16 100 17 0.00704103
10 16 100 17 0.0279294
11 16 100 17 0.0140967
12 16 100 17 0.0281919
13 16 100 17 0.0346459
14 16 100 17 0.113187
15 16 100 17 0.14765
16 16 100 17 0.346373
17 16 100 17 0.260443
1 17 100 17 5.32548e-07
2 17 100 17 1.18656e-07
3 17 100 17 3.85092e-07
4 17 100 17 0.0182468
5 17 100 17 0.00912269
7 17 100 17 0.00703656
8 17 100 17 4.28367e-05
9 17 100 17 0.00912602
10 17 100 17 1.36118e-06
11 17 100 17 0.0270922
12 17 100 17 0.0270603
13 17 100 17 0.0293288
14 17 100 17 0.0552477
15 17 100 17 0.123512
16 17 100 17 0.219796
17 17 100 17 0.474385
2 18 100 17 0.0144688
3 18 100 17 1.7011e-05
5 18 100 17 0.0148588
6 18 100 17 0.014859
7 18 100 17 0.0148602
9 18 100 17 0.00157129
10 18 100 17 0.014971
11 18 100 17 1.78781e-06
12 18 100 17 0.015249
13 18 100 17 0.0752348
14 18 100 17 0.058259
15 18 100 17 0.107001
16 18 100 17 0.252608
17 18 100 17 0.41604
2 19 100 17 0.0129428
3 19 100 17 0.00187904
6 19 100 17 3.20078e-07
7 19 100 17 0.0180194
8 19 100 17 0.0184477
9 19 100 17 0.0139334
10 19 100 17 0.000121747
11 19 100 17 0.0315137
12 19 100 17 0.0175627
13 19 100 17 0.0477973
14 19 100 17 0.103756
15 19 100 17 0.0860994
16 19 100 17 0.203972
17 19 100 17 0.443954
2 20 100 17 1.82652e-07
3 20 100 17 0.0241735
4 20 100 17 8.37572e-05
5 20 100 17 1.15837e-06
6 20 100 17 2.25066e-07
7 20 100 17 7.93319e-07
8 20 100 17 8.19717e-07
9 20 100 17 9.78939e-05
10 20 100 17 0.0037962
11 20 100 17 0.0136877
12 20 100 17 0.0522508
13 20 100 17 2.32233e-06
14 20 100 17 0.0036094
15 20 100 17 0.144143
16 20 100 17 0.241698
17 20 100 17 0.516454
3 21 100 17 3.46795e-05
4 21 100 17 0.00833073
6 21 100 17 6.10394e-05
8 21 100 17 7.1056e-05
9 21 100 17 4.27543e-05
10 21 100 17 4.55033e-05
11 21 100 17 4.94692e-05
12 21 100 17 0.0711557
13 21 100 17 0.00842197
14 21 100 17 9.86104e-07
15 21 100 17 0.0656907
16 21 100 17 0.226443
17 21 100 17 0.619652
5 22 100 17 1.3808e-06
6 22 100 17 0.0876181
7 22 100 17 1.59869e-07
8 22 100 17 0.0817276
9 22 100 17 5.95253e-06
11 22 100 17 4.27494e-05
13 22 100 17 0.176407
14 22 100 17 0.0620826
15 22 100 17 4.83581e-05
16 22 100 17 0.239233
17 22 100 17 0.352833
3 23 100 17 2.67085e-06
5 23 100 17 7.44486e-07
6 23 100 17 2.40062e-05
8 23 100 17 7.94281e-06
9 23 100 17 0.0397216
10 23 100 17 3.51537e-06
12 23 100 17 0.000307528
14 23 100 17 0.00381058
17 23 100 17 0.956121
10 24 100 17 3.77598e-05
14 24 100 17 0.00076168
15 24 100 17 0.999201
7 25 100 17 9.74639e-07
14 25 100 17 3.66269e-05
15 25 100 17 0.474902
16 25 100 17 1.86895e-06
17 25 100 17 0.525059
9 26 100 17 9.44276e-07
11 26 100 17 6.42033e-07
13 26 100 17 5.60923e-05
14 26 100 17 0.419606
15 26 100 17 0.0506001
16 26 100 17 0.529737
17 27 100 17 1
1 0 100 18 0.0125471
2 0 100 18 0.0263994
3 0 100 18 0.0964797
4 0 100 18 0.0955593
5 0 100 18 0.0681334
6 0 100 18 0.0568338
7 0 100 18 0.0762303
8 0 100 18 0.0601305
9 0 100 18 0.0692411
10 0 100 18 0.0657976
11 0 100 18 0.0640951
12 0 100 18 0.0611439
13 0 100 18 0.0809403
14 0 100 18 0.073599
15 0 100 18 0.0594604
16 0 100 18 0.0324621
17 0 100 18 0.00094517
18 0 100 18 1.86349e-06
1 1 100 18 0.854496
2 1 100 18 0.0870586
3 1 100 18 0.0228477
4 1 100 18 0.0241723
5 1 100 18 0.010288
6 1 100 18 2.40994e-06
8 1 100 18 3.60814e-05
9 1 100 18 4.46087e-07
10 1 100 18 1.79704e-07
11 1 100 18 0.00108179
12 1 100 18 1.20071e-05
13 1 100 18 1.69883e-06
15 1 100 18 1.30232e-06
16 1 100 18 8.57411e-07
1 2 100 18 0.10502
2 2 100 18 0.627647
3 2 100 18 0.154112
4 2 100 18 0.0547691
5 2 100 18 0.0146085
6 2 100 18 0.00973746
7 2 100 18 5.53724e-05
8 2 100 18 0.00485251
9 2 100 18 0.00485376
10 2 100 18 1.00223e-05
11 2 100 18 1.53551e-06
12 2 100 18 0.00488578
13 2 100 18 4.61854e-07
14 2 100 18 0.00485292
15 2 100 18 0.00485226
16 2 100 18 0.00486313
17 2 100 18 0.00487785
1 3 100 18 0.0309357
2 3 100 18 0.135076
3 3 100 18 0.369993
4 3 100 18 0.223591
5 3 100 18 0.12433
6 3 100 18 0.0284438
7 3 100 18 0.0245669
8 3 100 18 0.00977687
9 3 100 18 0.00510425
10 3 100 18 0.0112326
11 3 100 18 0.00536014
12 3 100 18 0.00857083
13 3 100 18 0.00189467
14 3 100 18 1.24138e-05
15 3 100 18 0.000710456
16 3 100 18 0.0152944
17 3 100 18 0.0051074
1 4 100 18 4.85443e-06
2 4 100 18 0.0443747
3 4 100 18 0.1227
4 4 100 18 0.238244
5 4 100 18 0.282008
6 4 100 18 0.182526
7 4 100 18 0.0371166
8 4 100 18 0.0385981
9 4 100 18 0.018884
10 4 100 18 0.0177013
11 4 100 18 0.00501481
12 4 100 18 0.00631827
13 4 100 18 0.000142266
14 4 100 18 7.37305e-06
15 4 100 18 4.28484e-05
16 4 100 18 1.06925e-06
17 4 100 18 0.00631544
1 5 100 18 0.0171587
2 5 100 18 0.0170068
3 5 100 18 0.0628474
4 5 100 18 0.171642
5 5 100 18 0.193547
6 5 100 18 0.255662
7 5 100 18 0.157854
8 5 100 18 0.0449278
9 5 100 18 0.0226461
10 5 100 18 0.00567299
11 5 100 18 0.00565111
12 5 100 18 0.000198628
13 5 100 18 0.0169454
14 5 100 18 0.00565105
15 5 100 18 0.0112926
16 5 100 18 0.00565292
17 5 100 18 0.00564276
2 6 100 18 0.00535494
3 6 100 18 0.0267139
4 6 100 18 0.0747693
5 6 100 18 0.14617
6 6 100 18 0.179759
7 6 100 18 0.186485
8 6 100 18 0.170019
9 6 100 18 0.0832688
10 6 100 18 0.0479273
11 6 100 18 0.0207435
12 6 100 18 0.0181183
13 6 100 18 0.00533685
14 6 100 18 0.0160688
15 6 100 18 0.013908
16 6 100 18 0.00535519
17 6 100 18 1.64399e-06
1 7 100 18 0.0163096
2 7 100 18 0.0158233
3 7 100 18 0.00551671
4 7 100 18 0.0182087
5 7 100 18 0.0730805
6 7 100 18 0.162801
7 7 100 18 0.162412
8 7 100 18 0.217413
9 7 100 18 0.150257
10 7 100 18 0.088945
11 7 100 18 0.0385128
12 7 100 18 0.0243532
13 7 100 18 0.0107038
14 7 100 18 4.24011e-06
15 7 100 18 5.39556e-05
16 7 100 18 0.015604
17 7 100 18 7.91612e-07
18 7 100 18 2.16769e-07
1 8 100 18 2.59122e-07
2 8 100 18 0.0135166
3 8 100 18 0.0080273
4 8 100 18 0.000233108
5 8 100 18 0.0278773
6 8 100 18 0.0621493
7 8 100 18 0.117232
8 8 100 18 0.181075
9 8 100 18 0.211574
10 8 100 18 0.166888
11 8 100 18 0.0929574
12 8 100 18 0.0512376
13 8 100 18 0.0170083
14 8 100 18 0.0277235
15 8 100 18 2.7598e-05
16 8 100 18 0.00571118
17 8 100 18 0.016761
1 9 100 18 0.000428448
2 9 100 18 6.23008e-06
3 9 100 18 0.0105801
4 9 100 18 0.0161047
5 9 100 18 0.0208784
6 9 100 18 0.022687
7 9 100 18 0.0939486
8 9 100 18 0.0802243
9 9 100 18 0.132393
10 9 100 18 0.191791
11 9 100 18 0.141815
12 9 100 18 0.126366
13 9 100 18 0.0703065
14 9 100 18 0.0520146
15 9 100 18 0.0233552
16 9 100 18 0.0110527
17 9 100 18 0.00604733
18 9 100 18 2.91472e-07
1 10 100 18 0.00451109
2 10 100 18 0.00444519
3 10 100 18 6.43321e-06
4 10 100 18 0.00458218
5 10 100 18 0.00902904
6 10 100 18 0.0250376
7 10 100 18 0.0525958
8 10 100 18 0.0842127
9 10 100 18 0.100388
10 10 100 18 0.110696
11 10 100 18 0.181245
12 10 100 18 0.0867298
13 10 100 18 0.11881
14 10 100 18 0.058238
15 10 100 18 0.0622635
16 10 100 18 0.058954
17 10 100 18 0.0292259
18 10 100 18 0.0090292
1 11 100 18 0.00454839
2 11 100 18 0.00994879
3 11 100 18 6.37538e-06
4 11 100 18 0.000190675
5 11 100 18 0.0348591
6 11 100 18 0.0199453
7 11 100 18 0.0160478
8 11 100 18 0.0446733
9 11 100 18 0.0693643
10 11 100 18 0.112671
11 11 100 18 0.134604
12 11 100 18 0.187441
13 11 100 18 0.0737642
14 11 100 18 0.120914
15 11 100 18 0.0377194
16 11 100 18 0.0737892
17 11 100 18 0.0595133
2 12 100 18 2.63486e-06
3 12 100 18 0.0152401
4 12 100 18 0.00681621
5 12 100 18 0.00598921
6 12 100 18 0.0157614
7 12 100 18 0.0163682
8 12 100 18 0.0102131
9 12 100 18 0.0502938
10 12 100 18 0.0490116
11 12 100 18 0.12078
12 12 100 18 0.136717
13 12 100 18 0.17284
14 12 100 18 0.124122
15 12 100 18 0.128288
16 12 100 18 0.0516285
17 12 100 18 0.0654555
18 12 100 18 0.0304722
1 13 100 18 0.00607209
2 13 100 18 0.0061485
3 13 100 18 0.00346112
4 13 100 18 0.00612056
5 13 100 18 2.69196e-06
6 13 100 18 0.00615478
7 13 100 18 0.0063926
8 13 100 18 0.0122439
9 13 100 18 0.0124426
10 13 100 18 0.0327242
11 13 100 18 0.034749
12 13 100 18 0.133746
13 13 100 18 0.11646
14 13 100 18 0.159072
15 13 100 18 0.158574
16 13 100 18 0.150573
17 13 100 18 0.0816536
18 13 100 18 0.07341
1 14 100 18 3.27297e-05
2 14 100 18 9.47037e-07
3 14 100 18 0.00549901
4 14 100 18 0.00624258
5 14 100 18 0.018745
6 14 100 18 0.0124196
7 14 100 18 0.0125418
8 14 100 18 0.012128
9 14 100 18 0.0191617
10 14 100 18 0.0312598
11 14 100 18 0.0448169
12 14 100 18 0.0373834
13 14 100 18 0.128803
14 14 100 18 0.0764066
15 14 100 18 0.232553
16 14 100 18 0.127247
17 14 100 18 0.128638
18 14 100 18 0.10612
1 15 100 18 0.00703643
2 15 100 18 0.0140826
3 15 100 18 1.66734e-06
4 15 100 18 0.00704768
5 15 100 18 4.75274e-07
6 15 100 18 0.00458316
7 15 100 18 0.00703664
8 15 100 18 0.0205516
9 15 100 18 7.05925e-05
10 15 100 18 0.0190995
11 15 100 18 0.0219121
12 15 100 18 0.0536496
13 15 100 18 0.048882
14 15 100 18 0.135265
15 15 100 18 0.113459
16 15 100 18 0.229213
17 15 100 18 0.183156
18 15 100 18 0.134952
4 16 100 18 1.20707e-06
5 16 100 18 8.49542e-06
7 16 100 18 1.63484e-07
8 16 100 18 0.00692048
9 16 100 18 0.0143392
10 16 100 18 0.0207379
11 16 100 18 0.0137762
12 16 100 18 0.0231151
13 16 100 18 0.0679324
14 16 100 18 0.0873875
15 16 100 18 0.110001
16 16 100 18 0.199601
17 16 100 18 0.262788
18 16 100 18 0.193391
2 17 100 18 4.04606e-07
3 17 100 18 2.18585e-06
5 17 100 18 4.0253e-07
6 17 100 18 0.00838532
7 17 100 18 0.0167692
8 17 100 18 0.00923968
9 17 100 18 0.016766
10 17 100 18 0.00838189
11 17 100 18 0.0251483
12 17 100 18 0.0239174
13 17 100 18 0.024536
14 17 100 18 0.0478404
15 17 100 18 0.0719045
16 17 100 18 0.151966
17 17 100 18 0.268212
18 17 100 18 0.32693
2 18 100 18 0.0129913
3 18 100 18 0.0129913
4 18 100 18 0.0129913
8 18 100 18 0.0129919
10 18 100 18 0.0124232
11 18 100 18 0.0255398
12 18 100 18 0.0394298
13 18 100 18 1.77375e-06
14 18 100 18 0.0567997
15 18 100 18 0.0875711
16 18 100 18 0.0517787
17 18 100 18 0.219796
18 18 100 18 0.454694
3 19 100 18 1.85015e-05
4 19 100 18 1.18123e-06
6 19 100 18 2.25307e-06
7 19 100 18 2.21251e-06
8 19 100 18 0.000111611
11 19 100 18 6.34943e-05
12 19 100 18 2.93278e-07
13 19 100 18 0.0512484
14 19 100 18 0.0559214
15 19 100 18 0.0512463
16 19 100 18 0.127944
17 19 100 18 0.231179
18 19 100 18 0.482262
2 20 100 18 6.66817e-05
3 20 100 18 3.32812e-06
4 20 100 18 1.31957e-06
5 20 100 18 6.74712e-06
6 20 100 18 1.26334e-06
7 20 100 18 5.45805e-05
8 20 100 18 2.82473e-05
9 20 100 18 1.4292e-05
11 20 100 18 0.0121373
12 20 100 18 0.0396648
13 20 100 18 7.14749e-06
14 20 100 18 0.00131745
15 20 100 18 0.00638416
16 20 100 18 0.187269
17 20 100 18 0.277341
18 20 100 18 0.475702
2 21 100 18 3.7221e-06
6 21 100 18 3.41832e-06
7 21 100 18 7.20016e-06
8 21 100 18 6.21787e-05
11 21 100 18 0.049714
12 21 100 18 0.0496778
13 21 100 18 0.0711365
14 21 100 18 0.0501404
15 21 100 18 0.0805971
16 21 100 18 0.000682287
17 21 100 18 0.199054
18 21 100 18 0.498922
4 22 100 18 1.05427e-06
11 22 100 18 4.23924e-07
12 22 100 18 0.0233813
13 22 100 18 0.155251
14 22 100 18 0.182354
15 22 100 18 0.182692
16 22 100 18 0.182694
17 22 100 18 2.35798e-05
18 22 100 18 0.273602
7 23 100 18 1.59107e-06
9 23 100 18 5.21467e-07
11 23 100 18 0.000304147
12 23 100 18 6.30997e-06
13 23 100 18 0.149857
14 23 100 18 5.46967e-05
15 23 100 18 0.0955105
16 23 100 18 0.0954615
17 23 100 18 0.277255
18 23 100 18 0.381549
4 24 100 18 1.19207e-05
7 24 100 18 6.96019e-05
9 24 100 18 5.64613e-05
10 24 100 18 0.0015479
12 24 100 18 2.27156e-05
13 24 100 18 5.84465e-07
14 24 100 18 0.000167639
15 24 100 18 1.48853e-05
16 24 100 18 0.351593
17 24 100 18 6.25869e-07
18 24 100 18 0.646514
1 25 100 18 1.76496e-06
9 25 100 18 1.36646e-05
14 25 100 18 0.912535
15 25 100 18 1.14055e-05
16 25 100 18 0.000219177
17 25 100 18 0.0872195
17 26 100 18 0.333334
18 26 100 18 0.666666
14 27 100 18 1.38065e-06
15 27 100 18 0.499999
18 27 100 18 0.499999
16 28 100 18 1
16 29 100 18 1
16 30 100 18 0.0200614
17 30 100 18 0.979939
18 31 100 18 1
1 0 100 19 0.0152382
2 0 100 19 0.0259869
3 0 100 19 0.0700578
4 0 100 19 0.0841326
5 0 100 19 0.0529582
6 0 100 19 0.0645866
7 0 100 19 0.0622433
8 0 100 19 0.0640054
9 0 100 19 0.0699165
10 0 100 19 0.0511483
11 0 100 19 0.0770743
12 0 100 19 0.0705721
13 0 100 19 0.0731692
14 0 100 19 0.0581767
15 0 100 19 0.0703699
16 0 100 19 0.0525654
17 0 100 19 0.03483
18 0 100 19 0.00296721
19 0 100 19 1.43009e-06
1 1 100 19 0.805055
2 1 100 19 0.0975497
3 1 100 19 0.0331035
4 1 100 19 0.0176939
5 1 100 19 0.013291
6 1 100 19 2.18994e-07
7 1 100 19 0.00664684
8 1 100 19 4.55875e-06
9 1 100 19 0.00664821
10 1 100 19 1.49097e-05
11 1 100 19 3.41843e-07
12 1 100 19 1.42989e-05
13 1 100 19 3.18344e-06
15 1 100 19 0.00663525
16 1 100 19 4.35157e-05
17 1 100 19 0.00664866
18 1 100 19 0.00664686
1 2 100 19 0.100895
2 2 100 19 0.588346
3 2 100 19 0.19599
4 2 100 19 0.0348427
5 2 100 19 0.0153883
6 2 100 19 0.0192183
7 2 100 19 0.01919
8 2 100 19 0.000175461
10 2 100 19 0.012798
12 2 100 19 0.00639745
13 2 100 19 8.1192e-05
14 2 100 19 0.0063921
15 2 100 19 2.26428e-05
16 2 100 19 5.5629e-07
17 2 100 19 0.000262158
1 3 100 19 0.0404568
2 3 100 19 0.165858
3 3 100 19 0.36512
4 3 100 19 0.179989
5 3 100 19 0.141353
6 3 100 19 0.0399469
7 3 100 19 0.00734156
8 3 100 19 0.0133203
9 3 100 19 0.000134182
10 3 100 19 0.00646226
11 3 100 19 0.0133208
12 3 100 19 0.0133971
14 3 100 19 2.67535e-06
15 3 100 19 6.77392e-07
16 3 100 19 0.00666188
17 3 100 19 2.35575e-06
18 3 100 19 0.00663168
1 4 100 19 0.00840839
2 4 100 19 0.0587116
3 4 100 19 0.115463
4 4 100 19 0.295294
5 4 100 19 0.225426
6 4 100 19 0.122439
7 4 100 19 0.123557
8 4 100 19 0.0249198
9 4 100 19 0.0083509
10 4 100 19 0.0083904
11 4 100 19 0.00838494
12 4 100 19 7.71191e-06
13 4 100 19 0.000282661
14 4 100 19 7.90629e-06
15 4 100 19 4.45152e-05
16 4 100 19 1.12197e-05
17 4 100 19 0.000301226
1 5 100 19 0.0149899
2 5 100 19 0.0128028
3 5 100 19 0.0655265
4 5 100 19 0.200614
5 5 100 19 0.217808
6 5 100 19 0.177796
7 5 100 19 0.0806113
8 5 100 19 0.126897
9 5 100 19 0.0366111
10 5 100 19 0.0150108
11 5 100 19 0.006245
12 5 100 19 0.0150024
13 5 100 19 0.00754775
14 5 100 19 0.0075093
15 5 100 19 2.18248e-06
16 5 100 19 0.00752663
17 5 100 19 1.0693e-06
18 5 100 19 0.00749934
1 6 100 19 0.0157491
2 6 100 19 4.08746e-06
3 6 100 19 0.0204129
4 6 100 19 0.0316402
5 6 100 19 0.179193
6 6 100 19 0.276684
7 6 100 19 0.164935
8 6 100 19 0.105205
9 6 100 19 0.118719
10 6 100 19 0.0550153
11 6 100 19 0.0156597
12 6 100 19 0.0085871
13 6 100 19 0.0078953
14 6 100 19 1.24195e-05
15 6 100 19 8.42617e-05
16 6 100 19 0.000180399
17 6 100 19 2.22256e-05
18 6 100 19 1.59199e-06
1 7 100 19 0.00677213
2 7 100 19 0.0138872
3 7 100 19 0.00639109
4 7 100 19 0.014392
5 7 100 19 0.0635904
6 7 100 19 0.195574
7 7 100 19 0.248009
8 7 100 19 0.148734
9 7 100 19 0.114366
10 7 100 19 0.0869925
11 7 100 19 0.0216955
12 7 100 19 0.0197508
13 7 100 19 0.00857218
14 7 100 19 0.00775765
15 7 100 19 0.00707447
16 7 100 19 0.00874107
17 7 100 19 0.0141416
18 7 100 19 0.0135159
19 7 100 19 4.38059e-05
1 8 100 19 0.00723036
2 8 100 19 0.00712663
3 8 100 19 0.014476
4 8 100 19 0.0137886
5 8 100 19 0.00727789
6 8 100 19 0.0350224
7 8 100 19 0.141453
8 8 100 19 0.217486
9 8 100 19 0.185239
10 8 100 19 0.151078
11 8 100 19 0.0684702
12 8 100 19 0.0822129
13 8 100 19 0.0207679
14 8 100 19 0.0137787
15 8 100 19 0.0137834
16 8 100 19 0.0136785
17 8 100 19 0.00708133
18 8 100 19 4.93574e-05
1 9 100 19 1.75798e-05
3 9 100 19 9.70634e-06
4 9 100 19 0.00665234
5 9 100 19 0.032007
6 9 100 19 0.0193273
7 9 100 19 0.0579422
8 9 100 19 0.134824
9 9 100 19 0.164298
10 9 100 19 0.174944
11 9 100 19 0.161408
12 9 100 19 0.0445783
13 9 100 19 0.101231
14 9 100 19 0.0438979
15 9 100 19 0.021215
16 9 100 19 0.0103049
17 9 100 19 0.0198103
18 9 100 19 0.00753279
2 10 100 19 0.00669864
3 10 100 19 0.013185
4 10 100 19 0.00950545
5 10 100 19 0.0200999
6 10 100 19 0.0347343
7 10 100 19 0.0249409
8 10 100 19 0.0547692
9 10 100 19 0.125929
10 10 100 19 0.163736
11 10 100 19 0.145173
12 10 100 19 0.150736
13 10 100 19 0.0471185
14 10 100 19 0.0663249
15 10 100 19 0.0474162
16 10 100 19 0.0498712
17 10 100 19 0.0263569
18 10 100 19 0.00670281
19 10 100 19 0.00670161
1 11 100 19 0.00737242
2 11 100 19 5.14576e-07
3 11 100 19 0.0023247
4 11 100 19 0.0155737
5 11 100 19 0.0077489
6 11 100 19 0.00770346
7 11 100 19 0.00782735
8 11 100 19 0.0171251
9 11 100 19 0.0506682
10 11 100 19 0.101138
11 11 100 19 0.144244
12 11 100 19 0.181046
13 11 100 19 0.109777
14 11 100 19 0.11318
15 11 100 19 0.0452367
16 11 100 19 0.0510517
17 11 100 19 0.0929706
18 11 100 19 0.0450094
19 11 100 19 2.41055e-06
1 12 100 19 0.000197979
2 12 100 19 4.72544e-06
3 12 100 19 0.00638035
4 12 100 19 2.66477e-05
5 12 100 19 0.0125416
6 12 100 19 0.0127485
7 12 100 19 0.0256697
8 12 100 19 0.0190805
9 12 100 19 0.0241967
10 12 100 19 0.10518
11 12 100 19 0.103739
12 12 100 19 0.0941534
13 12 100 19 0.170385
14 12 100 19 0.0882608
15 12 100 19 0.082008
16 12 100 19 0.0662507
17 12 100 19 0.0573392
18 12 100 19 0.112713
19 12 100 19 0.0191233
1 13 100 19 0.000115819
2 13 100 19 0.00752098
4 13 100 19 0.0150388
5 13 100 19 0.0150283
6 13 100 19 0.00751928
7 13 100 19 0.0150414
8 13 100 19 0.00754353
9 13 100 19 0.0132218
10 13 100 19 0.0173568
11 13 100 19 0.0806133
12 13 100 19 0.155805
13 13 100 19 0.142402
14 13 100 19 0.156058
15 13 100 19 0.114026
16 13 100 19 0.0572102
17 13 100 19 0.0827619
18 13 100 19 0.0676283
19 13 100 19 0.0451079
1 14 100 19 1.20652e-06
2 14 100 19 0.0012193
3 14 100 19 1.49098e-07
4 14 100 19 4.6837e-06
5 14 100 19 1.16418e-07
6 14 100 19 7.51647e-07
7 14 100 19 4.54806e-07
8 14 100 19 0.00762608
9 14 100 19 0.00766318
10 14 100 19 0.00762051
11 14 100 19 0.0373082
12 14 100 19 0.0515801
13 14 100 19 0.172293
14 14 100 19 0.150055
15 14 100 19 0.172354
16 14 100 19 0.140386
17 14 100 19 0.0846902
18 14 100 19 0.106346
19 14 100 19 0.0608507
1 15 100 19 0.00110749
2 15 100 19 0.000273854
3 15 100 19 3.75236e-06
4 15 100 19 0.0209
5 15 100 19 0.0215865
6 15 100 19 8.35882e-07
7 15 100 19 0.00719094
8 15 100 19 0.0143768
9 15 100 19 0.0143905
10 15 100 19 0.0145043
11 15 100 19 0.0216559
12 15 100 19 0.0220804
13 15 100 19 0.0234359
14 15 100 19 0.166179
15 15 100 19 0.12022
16 15 100 19 0.192587
17 15 100 19 0.143892
18 15 100 19 0.122202
19 15 100 19 0.0934124
1 16 100 19 2.41603e-06
2 16 100 19 0.00845236
3 16 100 19 0.0281902
4 16 100 19 0.0239539
5 16 100 19 0.00850981
6 16 100 19 0.00169944
7 16 100 19 0.00844599
8 16 100 19 0.0084915
9 16 100 19 2.11867e-05
10 16 100 19 0.0077165
11 16 100 19 0.00846719
12 16 100 19 0.0168975
13 16 100 19 0.0431995
14 16 100 19 0.0602256
15 16 100 19 0.153249
16 16 100 19 0.134535
17 16 100 19 0.208848
18 16 100 19 0.135453
19 16 100 19 0.143642
1 17 100 19 0.0049488
2 17 100 19 1.87183e-07
3 17 100 19 2.50402e-07
4 17 100 19 0.00991103
5 17 100 19 0.00991115
6 17 100 19 3.20293e-06
7 17 100 19 4.37149e-07
8 17 100 19 0.0104147
9 17 100 19 0.00991115
10 17 100 19 6.60624e-06
11 17 100 19 0.00991243
12 17 100 19 0.0200822
13 17 100 19 0.0195494
14 17 100 19 0.0594922
15 17 100 19 0.111564
16 17 100 19 0.206831
17 17 100 19 0.0913741
18 17 100 19 0.218043
19 17 100 19 0.218045
5 18 100 19 0.0131754
6 18 100 19 7.60296e-07
11 18 100 19 0.0131783
12 18 100 19 0.0263503
13 18 100 19 0.0263535
14 18 100 19 0.0131755
15 18 100 19 0.0791683
16 18 100 19 0.0949747
17 18 100 19 0.246171
18 18 100 19 0.131722
19 18 100 19 0.35573
9 19 100 19 1.70088e-05
11 19 100 19 6.65087e-06
12 19 100 19 0.000283195
14 19 100 19 0.0616202
15 19 100 19 0.0211204
16 19 100 19 0.0669681
17 19 100 19 0.155225
18 19 100 19 0.427745
19 19 100 19 0.267015
10 20 100 19 3.1451e-07
15 20 100 19 0.0217069
16 20 100 19 0.0271261
17 20 100 19 0.168472
18 20 100 19 0.197607
19 20 100 19 0.585088
2 21 100 19 5.15522e-07
6 21 100 19 1.31567e-05
8 21 100 19 2.11433e-07
10 21 100 19 0.000251567
11 21 100 19 1.76443e-05
12 21 100 19 5.84533e-06
14 21 100 19 7.5915e-06
15 21 100 19 2.71188e-06
16 21 100 19 0.000849446
17 21 100 19 0.000654368
18 21 100 19 0.474355
19 21 100 19 0.523842
5 22 100 19 1.38133e-06
11 22 100 19 1.96609e-06
14 22 100 19 0.00015677
15 22 100 19 7.3545e-07
16 22 100 19 0.0833492
17 22 100 19 3.34889e-05
18 22 100 19 0.0823982
19 22 100 19 0.834058
12 23 100 19 0.000182558
18 23 100 19 9.79723e-07
19 23 100 19 0.999816
1 0 100 20 0.00839888
2 0 100 20 0.0318761
3 0 100 20 0.0694007
4 0 100 20 0.100915
5 0 100 20 0.0627752
6 0 100 20 0.0398639
7 0 100 20 0.0503551
8 0 100 20 0.0703526
9 0 100 20 0.0753322
10 0 100 20 0.0671654
11 0 100 20 0.0674545
12 0 100 20 0.0450983
13 0 100 20 0.077149
14 0 100 20 0.0610146
15 0 100 20 0.0601083
16 0 100 20 0.0456991
17 0 100 20 0.0370177
18 0 100 20 0.0296898
19 0 100 20 0.000332349
20 0 100 20 1.03928e-06
1 1 100 20 0.845588
2 1 100 20 0.0796442
3 1 100 20 0.0106596
4 1 100 20 0.0209541
5 1 100 20 0.0181799
6 1 100 20 0.0106274
7 1 100 20 5.86506e-07
8 1 100 20 8.24985e-07
10 1 100 20 1.81973e-06
11 1 100 20 0.00370784
12 1 100 20 0.0106273
13 1 100 20 9.32353e-07
14 1 100 20 6.98806e-07
16 1 100 20 2.10149e-06
17 1 100 20 4.32776e-06
1 2 100 20 0.120087
2 2 100 20 0.588645
3 2 100 20 0.193261
4 2 100 20 0.0402612
5 2 100 20 0.0100369
6 2 100 20 0.0075606
7 2 100 20 0.0100362
10 2 100 20 3.27929e-07
12 2 100 20 3.93519e-07
13 2 100 20 0.0100365
14 2 100 20 6.56275e-06
15 2 100 20 2.08034e-05
17 2 100 20 1.29778e-06
18 2 100 20 0.0100103
19 2 100 20 0.0100355
1 3 100 20 0.0441412
2 3 100 20 0.177042
3 3 100 20 0.380687
4 3 100 20 0.145871
5 3 100 20 0.099796
6 3 100 20 0.0622412
7 3 100 20 0.000233351
8 3 100 20 0.00200554
9 3 100 20 2.28312e-06
10 3 100 20 3.47357e-05
11 3 100 20 0.0110182
12 3 100 20 0.0110191
13 3 100 20 0.0113495
14 3 100 20 0.0100948
15 3 100 20 9.33264e-05
16 3 100 20 0.0110487
17 3 100 20 0.000192455
18 3 100 20 0.0110428
19 3 100 20 0.0220859
1 4 100 20 3.45115e-05
2 4 100 20 0.0580722
3 4 100 20 0.122055
4 4 100 20 0.280025
5 4 100 20 0.29512
6 4 100 20 0.12211
7 4 100 20 0.0244017
8 4 100 20 0.0262941
9 4 100 20 0.0365646
10 4 100 20 0.0243986
11 4 100 20 3.90331e-06
12 4 100 20 1.13178e-05
13 4 100 20 2.07219e-06
14 4 100 20 2.37178e-05
15 4 100 20 0.00117497
17 4 100 20 0.0097085
18 4 100 20 1.34065e-07
1 5 100 20 2.17358e-07
2 5 100 20 0.000243136
3 5 100 20 0.102577
4 5 100 20 0.128397
5 5 100 20 0.153323
6 5 100 20 0.258294
7 5 100 20 0.178426
8 5 100 20 0.0509738
9 5 100 20 0.029034
10 5 100 20 0.0382659
11 5 100 20 0.0254915
12 5 100 20 0.0127411
13 5 100 20 0.012742
14 5 100 20 7.82988e-06
15 5 100 20 5.23297e-05
16 5 100 20 0.00940549
17 5 100 20 2.62275e-05
2 6 100 20 7.7665e-06
3 6 100 20 0.0200789
4 6 100 20 0.0996856
5 6 100 20 0.158557
6 6 100 20 0.198177
7 6 100 20 0.261596
8 6 100 20 0.0907934
9 6 100 20 0.0418096
10 6 100 20 0.0487146
11 6 100 20 0.0201046
12 6 100 20 0.0301111
13 6 100 20 0.0100397
14 6 100 20 0.000123226
15 6 100 20 0.0101596
16 6 100 20 3.12631e-06
17 6 100 20 1.88226e-07
18 6 100 20 0.0100395
1 7 100 20 4.79829e-06
2 7 100 20 0.00342295
3 7 100 20 2.30624e-05
4 7 100 20 0.000269453
5 7 100 20 0.0922669
6 7 100 20 0.200931
7 7 100 20 0.127367
8 7 100 20 0.201337
9 7 100 20 0.217334
10 7 100 20 0.0600609
11 7 100 20 0.0367639
12 7 100 20 0.0117121
13 7 100 20 0.00129281
14 7 100 20 2.72974e-07
15 7 100 20 0.0120338
16 7 100 20 0.0345228
17 7 100 20 2.31473e-05
18 7 100 20 1.84528e-07
19 7 100 20 0.000634643
2 8 100 20 0.0108847
3 8 100 20 0.0103869
4 8 100 20 0.0218762
5 8 100 20 0.00146304
6 8 100 20 0.0761979
7 8 100 20 0.162008
8 8 100 20 0.187358
9 8 100 20 0.0946548
10 8 100 20 0.168381
11 8 100 20 0.115117
12 8 100 20 0.0541114
13 8 100 20 0.0218428
14 8 100 20 0.0542315
15 8 100 20 0.0105727
16 8 100 20 6.73943e-06
17 8 100 20 0.0108859
18 8 100 20 1.79121e-05
19 8 100 20 6.30591e-07
20 8 100 20 3.08862e-06
1 9 100 20 0.00910878
2 9 100 20 0.0090267
3 9 100 20 0.00911968
4 9 100 20 7.92479e-05
5 9 100 20 0.018218
6 9 100 20 0.0364766
7 9 100 20 0.0983662
8 9 100 20 0.121079
9 9 100 20 0.148559
10 9 100 20 0.108324
11 9 100 20 0.127365
12 9 100 20 0.106362
13 9 100 20 0.0522323
14 9 100 20 1.65298e-05
15 9 100 20 0.0554266
16 9 100 20 0.0455764
17 9 100 20 0.0364291
18 9 100 20 0.0182278
19 9 100 20 7.62578e-06
2 10 100 20 2.73757e-05
3 10 100 20 0.000184255
4 10 100 20 0.00915779
5 10 100 20 0.0211754
6 10 100 20 0.0105715
7 10 100 20 0.0442539
8 10 100 20 0.0684923
9 10 100 20 0.128876
10 10 100 20 0.0976044
11 10 100 20 0.18572
12 10 100 20 0.150041
13 10 100 20 0.0952428
14 10 100 20 0.0426218
15 10 100 20 0.0514259
16 10 100 20 0.042161
17 10 100 20 0.0105678
18 10 100 20 0.0313023
19 10 100 20 0.0105715
20 10 100 20 3.89235e-06
2 11 100 20 6.23606e-07
3 11 100 20 0.0233728
4 11 100 20 0.000167055
5 11 100 20 0.0224052
6 11 100 20 0.0116907
7 11 100 20 3.38878e-07
8 11 100 20 0.0701285
9 11 100 20 0.0350602
10 11 100 20 0.160928
11 11 100 20 0.105742
12 11 100 20 0.171472
13 11 100 20 0.151396
14 11 100 20 0.128838
15 11 100 20 0.0234223
16 11 100 20 0.0501349
17 11 100 20 0.00937166
18 11 100 20 0.000802408
19 11 100 20 0.0350658
20 11 100 20 1.3547e-06
3 12 100 20 8.50415e-05
4 12 100 20 0.0210712
5 12 100 20 0.0217458
6 12 100 20 0.0105309
7 12 100 20 0.00934628
8 12 100 20 0.0100229
9 12 100 20 0.0632254
10 12 100 20 0.0838117
11 12 100 20 0.0690539
12 12 100 20 0.129279
13 12 100 20 0.123177
14 12 100 20 0.115376
15 12 100 20 0.167927
16 12 100 20 0.0622492
17 12 100 20 0.0753478
18 12 100 20 0.020624
19 12 100 20 0.00996059
20 12 100 20 0.00716625
1 13 100 20 0.0101764
2 13 100 20 0.010546
3 13 100 20 4.2498e-05
4 13 100 20 0.0111782
5 13 100 20 1.24353e-05
6 13 100 20 0.012924
7 13 100 20 0.0105416
8 13 100 20 0.0106025
9 13 100 20 0.0292737
10 13 100 20 0.0319605
11 13 100 20 0.0848371
12 13 100 20 0.089305
13 13 100 20 0.122206
14 13 100 20 0.144095
15 13 100 20 0.125697
16 13 100 20 0.10439
17 13 100 20 0.0757052
18 13 100 20 0.0527132
19 13 100 20 0.0632522
20 13 100 20 0.010542
1 14 100 20 0.0098145
2 14 100 20 0.0104938
3 14 100 20 6.49875e-07
4 14 100 20 1.20062e-06
5 14 100 20 5.63967e-05
7 14 100 20 3.61755e-06
8 14 100 20 0.0205363
9 14 100 20 0.0104946
10 14 100 20 0.0329023
11 14 100 20 0.0623876
12 14 100 20 0.0867947
13 14 100 20 0.111417
14 14 100 20 0.127809
15 14 100 20 0.112829
16 14 100 20 0.0947319
17 14 100 20 0.120333
18 14 100 20 0.104508
19 14 100 20 0.0424221
20 14 100 20 0.0524655
2 15 100 20 3.1631e-05
4 15 100 20 0.024711
5 15 100 20 0.0250186
6 15 100 20 2.63611e-07
7 15 100 20 0.0112186
8 15 100 20 0.000156206
9 15 100 20 3.41768e-05
10 15 100 20 0.0125108
11 15 100 20 0.00223881
12 15 100 20 0.025271
13 15 100 20 0.0557422
14 15 100 20 0.131245
15 15 100 20 0.120552
16 15 100 20 0.175544
17 15 100 20 0.15929
18 15 100 20 0.0948668
19 15 100 20 0.124046
20 15 100 20 0.0375233
2 16 100 20 3.08026e-06
3 16 100 20 0.0116298
5 16 100 20 6.33145e-07
6 16 100 20 3.171e-06
7 16 100 20 2.25036e-05
8 16 100 20 0.000191515
9 16 100 20 4.75337e-05
10 16 100 20 0.0116482
11 16 100 20 0.0116325
12 16 100 20 0.0234015
13 16 100 20 0.0374154
14 16 100 20 0.094679
15 16 100 20 0.092995
16 16 100 20 0.115997
17 16 100 20 0.183239
18 16 100 20 0.150282
19 16 100 20 0.150514
20 16 100 20 0.116298
2 17 100 20 4.7222e-06
3 17 100 20 3.21883e-07
4 17 100 20 0.0139712
5 17 100 20 4.98791e-06
7 17 100 20 2.93136e-07
8 17 100 20 5.08593e-06
11 17 100 20 3.32444e-05
12 17 100 20 0.0137888
13 17 100 20 0.0139905
14 17 100 20 0.0151203
15 17 100 20 0.0763923
16 17 100 20 0.125827
17 17 100 20 0.12432
18 17 100 20 0.280916
19 17 100 20 0.16775
20 17 100 20 0.167875
1 18 100 20 0.0155646
2 18 100 20 0.0155603
3 18 100 20 0.0154504
4 18 100 20 4.33985e-06
5 18 100 20 0.0155649
8 18 100 20 0.0155646
9 18 100 20 0.0155646
10 18 100 20 2.52637e-07
12 18 100 20 0.0261562
13 18 100 20 0.0155649
14 18 100 20 0.0444531
15 18 100 20 0.0133695
16 18 100 20 0.0506025
17 18 100 20 0.167894
18 18 100 20 0.116775
19 18 100 20 0.217904
20 18 100 20 0.254006
5 19 100 20 4.95471e-07
10 19 100 20 2.67125e-07
13 19 100 20 1.94298e-06
14 19 100 20 0.0242719
15 19 100 20 0.0242005
16 19 100 20 0.0254443
17 19 100 20 0.0522081
18 19 100 20 0.218403
19 19 100 20 0.291397
20 19 100 20 0.364073
5 20 100 20 1.18463e-06
13 20 100 20 0.0268682
14 20 100 20 0.0538675
15 20 100 20 0.107062
16 20 100 20 0.0790666
17 20 100 20 0.0537567
18 20 100 20 0.141812
19 20 100 20 0.295661
20 20 100 20 0.241905
3 21 100 20 2.45723e-06
4 21 100 20 1.5547e-06
8 21 100 20 1.35582e-05
12 21 100 20 7.76788e-06
14 21 100 20 1.10933e-06
16 21 100 20 0.116433
17 21 100 20 0.0781073
18 21 100 20 0.0241685
19 21 100 20 0.195311
20 21 100 20 0.585954
1 22 100 20 7.94104e-07
2 22 100 20 1.19896e-05
4 22 100 20 2.4665e-07
5 22 100 20 0.0491366
8 22 100 20 3.00166e-05
9 22 100 20 1.29217e-06
10 22 100 20 2.07439e-05
11 22 100 20 1.2352e-06
13 22 100 20 3.47211e-06
14 22 100 20 3.9634e-05
15 22 100 20 1.38152e-07
16 22 100 20 0.166447
17 22 100 20 0.0821528
18 22 100 20 0.000939505
19 22 100 20 0.209885
20 22 100 20 0.491329
4 23 100 20 7.86182e-07
7 23 100 20 7.67005e-07
9 23 100 20 1.23667e-06
12 23 100 20 2.26671e-06
13 23 100 20 3.60643e-06
14 23 100 20 3.11156e-06
16 23 100 20 6.01372e-06
17 23 100 20 0.285104
18 23 100 20 0.499963
19 23 100 20 0.0485059
20 23 100 20 0.166409
5 24 100 20 0.000439167
6 24 100 20 6.76008e-07
8 24 100 20 1.07102e-06
10 24 100 20 4.72241e-05
16 24 100 20 2.2935e-05
17 24 100 20 0.000284123
18 24 100 20 0.243052
19 24 100 20 0.434213
20 24 100 20 0.321939
4 25 100 20 4.59299e-07
8 25 100 20 4.6626e-07
9 25 100 20 8.32892e-06
13 25 100 20 1.75657e-06
17 25 100 20 1.61909e-05
18 25 100 20 5.19866e-06
19 25 100 20 0.121711
20 25 100 20 0.878257
4 26 100 20 5.62778e-07
10 26 100 20 7.23485e-07
15 26 100 20 5.12346e-07
19 26 100 20 0.497628
20 26 100 20 0.50237
19 27 100 20 5.6617e-07
20 27 100 20 0.999999
1 0 100 21 0.00773018
2 0 100 21 0.0326834
3 0 100 21 0.0641532
4 0 100 21 0.0760985
5 0 100 21 0.0532146
6 0 100 21 0.0537682
7 0 100 21 0.0494106
8 0 100 21 0.058783
9 0 100 21 0.0696543
10 0 100 21 0.0785182
11 0 100 21 0.0416471
12 0 100 21 0.0396514
13 0 100 21 0.0411268
14 0 100 21 0.0369789
15 0 100 21 0.0687568
16 0 100 21 0.0779962
17 0 100 21 0.0600446
18 0 100 21 0.064028
19 0 100 21 0.0257434
20 0 100 21 1.16604e-05
21 0 100 21 1.14463e-06
1 1 100 21 0.888753
2 1 100 21 0.0599799
3 1 100 21 0.0207807
4 1 100 21 0.0304345
9 1 100 21 6.75842e-07
10 1 100 21 3.15638e-07
11 1 100 21 4.81677e-07
12 1 100 21 4.63881e-05
13 1 100 21 2.0912e-06
15 1 100 21 1.62493e-06
17 1 100 21 4.55198e-07
1 2 100 21 0.0817547
2 2 100 21 0.59345
3 2 100 21 0.149733
4 2 100 21 0.0373684
5 2 100 21 0.0125032
6 2 100 21 0.012518
7 2 100 21 0.0125018
8 2 100 21 0.0125011
10 2 100 21 0.0125122
11 2 100 21 0.000256335
12 2 100 21 0.0125026
14 2 100 21 0.0250052
15 2 100 21 1.73766e-07
16 2 100 21 0.0249893
18 2 100 21 2.18661e-06
19 2 100 21 0.012402
21 2 100 21 3.495e-07
1 3 100 21 0.0311545
2 3 100 21 0.109536
3 3 100 21 0.463373
4 3 100 21 0.231453
5 3 100 21 0.109051
6 3 100 21 1.61097e-05
7 3 100 21 0.00818749
8 3 100 21 0.0312027
9 3 100 21 7.96476e-05
10 3 100 21 0.0158068
11 3 100 21 4.27966e-05
12 3 100 21 3.41918e-05
14 3 100 21 7.89332e-07
15 3 100 21 2.76789e-06
17 3 100 21 5.45218e-06
18 3 100 21 5.358e-05
21 3 100 21 4.25021e-07
1 4 100 21 0.0332185
2 4 100 21 0.0498433
3 4 100 21 0.133663
4 4 100 21 0.325264
5 4 100 21 0.201044
6 4 100 21 0.141305
7 4 100 21 0.033397
8 4 100 21 0.0323014
9 4 100 21 0.0332839
10 4 100 21 0.000661949
11 4 100 21 1.86319e-07
15 4 100 21 4.07876e-07
16 4 100 21 0.0159644
21 4 100 21 5.20022e-05
1 5 100 21 2.55854e-06
2 5 100 21 0.0221282
3 5 100 21 0.04356
4 5 100 21 0.104478
5 5 100 21 0.260342
6 5 100 21 0.239353
7 5 100 21 0.165843
8 5 100 21 0.0523206
9 5 100 21 0.0832741
10 5 100 21 6.45156e-06
11 5 100 21 0.0278055
12 5 100 21 2.88455e-05
13 5 100 21 4.10388e-06
14 5 100 21 0.000158504
15 5 100 21 3.95903e-05
16 5 100 21 0.000395779
17 5 100 21 2.68333e-07
18 5 100 21 0.000221261
19 5 100 21 3.89703e-05
1 6 100 21 4.73447e-05
3 6 100 21 0.0155047
4 6 100 21 0.0619806
5 6 100 21 0.20228
6 6 100 21 0.217549
7 6 100 21 0.211063
8 6 100 21 0.106867
9 6 100 21 0.0460888
10 6 100 21 0.0456132
11 6 100 21 0.0309869
12 6 100 21 0.0465118
13 6 100 21 0.0155046
15 6 100 21 8.50213e-07
18 6 100 21 1.19279e-06
19 6 100 21 6.63516e-07
1 7 100 21 9.22957e-07
3 7 100 21 3.24397e-05
4 7 100 21 0.035148
5 7 100 21 0.0350639
6 7 100 21 0.207906
7 7 100 21 0.180781
8 7 100 21 0.25289
9 7 100 21 0.105294
10 7 100 21 0.0341974
11 7 100 21 0.0770199
12 7 100 21 0.0325883
13 7 100 21 0.0176563
14 7 100 21 0.0175267
15 7 100 21 0.00387075
16 7 100 21 2.33911e-06
17 7 100 21 9.66435e-07
18 7 100 21 2.11572e-05
19 7 100 21 3.82038e-07
3 8 100 21 0.0142051
4 8 100 21 0.0138
5 8 100 21 0.0709231
6 8 100 21 0.0776612
7 8 100 21 0.198573
8 8 100 21 0.173007
9 8 100 21 0.132863
10 8 100 21 0.10034
11 8 100 21 0.0627957
12 8 100 21 0.0565049
13 8 100 21 0.0425596
14 8 100 21 0.0283613
15 8 100 21 0.0283647
16 8 100 21 1.73529e-05
17 8 100 21 1.80054e-05
18 8 100 21 5.90545e-07
19 8 100 21 4.76965e-06
20 8 100 21 3.17456e-07
1 9 100 21 6.56474e-07
3 9 100 21 2.19717e-05
4 9 100 21 1.53801e-06
5 9 100 21 0.0455095
6 9 100 21 0.0161709
7 9 100 21 0.0640406
8 9 100 21 0.117268
9 9 100 21 0.178835
10 9 100 21 0.192121
11 9 100 21 0.125896
12 9 100 21 0.0863303
13 9 100 21 0.0633663
14 9 100 21 0.047328
15 9 100 21 0.0315758
16 9 100 21 0.0157744
17 9 100 21 0.0157261
18 9 100 21 8.71931e-06
19 9 100 21 2.0407e-05
20 9 100 21 4.48951e-06
2 10 100 21 1.02846e-06
3 10 100 21 2.9499e-06
4 10 100 21 2.02292e-06
5 10 100 21 0.0163028
6 10 100 21 0.0489108
7 10 100 21 0.0323685
8 10 100 21 0.081518
9 10 100 21 0.116961
10 10 100 21 0.156729
11 10 100 21 0.163288
12 10 100 21 0.121915
13 10 100 21 0.0976814
14 10 100 21 0.0814794
15 10 100 21 0.0499416
16 10 100 21 0.0163139
17 10 100 21 0.000255008
18 10 100 21 0.0163148
19 10 100 21 1.49317e-05
1 11 100 21 0.00168569
3 11 100 21 1.91781e-06
6 11 100 21 0.0169648
7 11 100 21 0.0168795
8 11 100 21 0.033944
9 11 100 21 0.0509105
10 11 100 21 0.135698
11 11 100 21 0.218649
12 11 100 21 0.152681
13 11 100 21 0.133764
14 11 100 21 0.083968
15 11 100 21 0.0523521
16 11 100 21 0.0339361
17 11 100 21 0.0176723
18 11 100 21 0.0169646
19 11 100 21 0.0339279
21 11 100 21 2.62018e-07
2 12 100 21 1.5195e-05
3 12 100 21 3.02197e-05
5 12 100 21 3.193e-06
6 12 100 21 5.63678e-06
7 12 100 21 0.0133872
8 12 100 21 5.65773e-06
9 12 100 21 0.0661168
10 12 100 21 0.0401611
11 12 100 21 0.0936809
12 12 100 21 0.187046
13 12 100 21 0.133771
14 12 100 21 0.127775
15 12 100 21 0.0804092
16 12 100 21 0.106952
17 12 100 21 0.0569791
18 12 100 21 0.0401123
19 12 100 21 0.0133876
20 12 100 21 0.0401615
7 13 100 21 1.90687e-06
8 13 100 21 0.0169749
9 13 100 21 0.0183148
10 13 100 21 0.0339333
11 13 100 21 0.0542514
12 13 100 21 0.11273
13 13 100 21 0.134139
14 13 100 21 0.152619
15 13 100 21 0.153601
16 13 100 21 0.117854
17 13 100 21 0.0685226
18 13 100 21 0.0521755
19 13 100 21 0.0339667
20 13 100 21 0.0169716
21 13 100 21 0.0339432
2 14 100 21 5.32421e-07
3 14 100 21 1.87538e-06
4 14 100 21 9.61903e-07
7 14 100 21 3.69073e-07
9 14 100 21 0.0338462
10 14 100 21 0.0177263
11 14 100 21 0.0359906
12 14 100 21 0.0349709
13 14 100 21 0.157034
14 14 100 21 0.0703832
15 14 100 21 0.141668
16 14 100 21 0.105439
17 14 100 21 0.194028
18 14 100 21 0.12086
19 14 100 21 0.0527892
20 14 100 21 0.0352605
4 15 100 21 8.31275e-07
5 15 100 21 1.26053e-06
6 15 100 21 2.19564e-07
7 15 100 21 9.44198e-07
8 15 100 21 3.0472e-06
9 15 100 21 0.000800281
10 15 100 21 0.0165559
11 15 100 21 0.0154894
12 15 100 21 0.0243837
13 15 100 21 0.0658276
14 15 100 21 0.180698
15 15 100 21 0.0991915
16 15 100 21 0.100945
17 15 100 21 0.0805358
18 15 100 21 0.18312
19 15 100 21 0.166221
20 15 100 21 0.0496684
21 15 100 21 0.0165561
4 16 100 21 7.92065e-05
6 16 100 21 4.34375e-07
9 16 100 21 0.000443991
10 16 100 21 0.00177879
11 16 100 21 0.0197872
12 16 100 21 4.69145e-05
13 16 100 21 4.58392e-07
14 16 100 21 0.0400741
15 16 100 21 0.115101
16 16 100 21 0.100082
17 16 100 21 0.118999
18 16 100 21 0.094125
19 16 100 21 0.290794
20 16 100 21 0.178918
21 16 100 21 0.0397714
2 17 100 21 4.06974e-06
3 17 100 21 5.60065e-07
5 17 100 21 4.28935e-06
9 17 100 21 5.47424e-06
10 17 100 21 7.63119e-07
11 17 100 21 5.62189e-05
13 17 100 21 0.0411938
14 17 100 21 0.000183482
15 17 100 21 0.0400518
16 17 100 21 0.0617784
17 17 100 21 0.167269
18 17 100 21 0.163417
19 17 100 21 0.0526432
20 17 100 21 0.349851
21 17 100 21 0.123541
3 18 100 21 2.75001e-06
10 18 100 21 0.0203731
11 18 100 21 3.37102e-06
12 18 100 21 0.0408088
13 18 100 21 0.0183098
14 18 100 21 0.0408156
15 18 100 21 0.0203748
16 18 100 21 0.0203429
17 18 100 21 0.119142
18 18 100 21 0.10857
19 18 100 21 0.203796
20 18 100 21 0.0814925
21 18 100 21 0.325969
10 19 100 21 3.09632e-06
11 19 100 21 0.0500084
12 19 100 21 0.0247168
13 19 100 21 0.0485832
14 19 100 21 0.0250557
15 19 100 21 0.0493175
16 19 100 21 0.0564852
17 19 100 21 0.0751057
18 19 100 21 0.119193
19 19 100 21 0.100007
20 19 100 21 0.275927
21 19 100 21 0.175598
2 20 100 21 0.000320539
3 20 100 21 1.60541e-06
4 20 100 21 4.67872e-06
6 20 100 21 2.59283e-06
11 20 100 21 0.0392599
12 20 100 21 0.000100689
13 20 100 21 0.0343016
14 20 100 21 0.0703379
15 20 100 21 0.0683696
16 20 100 21 0.102266
17 20 100 21 0.0680196
18 20 100 21 0.0760993
19 20 100 21 0.0637006
20 20 100 21 0.170421
21 20 100 21 0.306794
2 21 100 21 4.11723e-05
6 21 100 21 2.26119e-06
10 21 100 21 2.10163e-06
11 21 100 21 6.99979e-06
12 21 100 21 0.0454536
13 21 100 21 0.0454537
14 21 100 21 0.0450486
15 21 100 21 0.0906577
16 21 100 21 0.0341879
17 21 100 21 0.0454537
18 21 100 21 0.102341
19 21 100 21 0.136548
20 21 100 21 0.136774
21 21 100 21 0.31803
1 22 100 21 3.45304e-06
3 22 100 21 1.70395e-06
4 22 100 21 0.062216
15 22 100 21 2.44107e-06
16 22 100 21 1.20905e-06
17 22 100 21 0.0625234
18 22 100 21 0.0624527
19 22 100 21 0.125048
20 22 100 21 0.250096
21 22 100 21 0.437656
3 23 100 21 5.43848e-07
4 23 100 21 8.88798e-07
5 23 100 21 0.0936358
6 23 100 21 1.48355e-07
7 23 100 21 2.11646e-07
9 23 100 21 9.09087e-07
10 23 100 21 2.10891e-07
11 23 100 21 4.02117e-06
12 23 100 21 1.22747e-06
13 23 100 21 2.82181e-06
14 23 100 21 2.32012e-05
15 23 100 21 8.94752e-05
16 23 100 21 0.101444
17 23 100 21 0.10369
18 23 100 21 0.0333952
19 23 100 21 0.202719
20 23 100 21 0.0595537
21 23 100 21 0.405439
4 24 100 21 0.000859814
7 24 100 21 0.0589291
8 24 100 21 3.07181e-05
9 24 100 21 2.62103e-06
12 24 100 21 0.0588495
13 24 100 21 3.5114e-06
14 24 100 21 0.117726
16 24 100 21 0.117727
17 24 100 21 0.0589037
18 24 100 21 0.000153299
19 24 100 21 0.233657
20 24 100 21 0.235439
21 24 100 21 0.117719
4 25 100 21 4.05116e-06
6 25 100 21 1.60899e-06
7 25 100 21 1.67498e-06
8 25 100 21 0.0761401
9 25 100 21 2.43446e-05
11 25 100 21 0.000566071
12 25 100 21 2.8498e-06
13 25 100 21 0.0736654
14 25 100 21 2.56842e-06
15 25 100 21 8.87459e-06
16 25 100 21 8.81708e-07
17 25 100 21 0.128588
18 25 100 21 0.0731134
19 25 100 21 0.00345337
20 25 100 21 0.128886
21 25 100 21 0.515541
11 26 100 21 4.57803e-07
18 26 100 21 0.333335
20 26 100 21 0.33333
21 26 100 21 0.333334
4 27 100 21 2.27649e-05
7 27 100 21 5.98724e-05
11 27 100 21 0.000500403
15 27 100 21 0.000173713
19 27 100 21 0.536408
21 27 100 21 0.462835
7 28 100 21 0.00114126
11 28 100 21 0.00110271
15 28 100 21 0.000763192
17 28 100 21 0.000512705
19 28 100 21 0.99648
20 29 100 21 1
4 30 100 21 3.7177e-05
21 30 100 21 0.999963
1 0 100 22 0.00908229
2 0 100 22 0.0284605
3 0 100 22 0.0710141
4 0 100 22 0.053356
5 0 100 22 0.0679166
6 0 100 22 0.0580793
7 0 100 22 0.0375843
8 0 100 22 0.042294
9 0 100 22 0.0576119
10 0 100 22 0.0604432
11 0 100 22 0.0434201
12 0 100 22 0.037019
13 0 100 22 0.0680486
14 0 100 22 0.0354808
15 0 100 22 0.0816675
16 0 100 22 0.0593786
17 0 100 22 0.0547568
18 0 100 22 0.0507073
19 0 100 22 0.0460075
20 0 100 22 0.0254101
21 0 100 22 0.00475249
22 0 100 22 0.00750882
1 1 100 22 0.832264
2 1 100 22 0.167227
4 1 100 22 2.77161e-06
5 1 100 22 1.75066e-06
10 1 100 22 3.94252e-07
11 1 100 22 1.87059e-05
13 1 100 22 3.24675e-06
14 1 100 22 1.666e-05
15 1 100 22 9.93355e-06
17 1 100 22 0.000455098
1 2 100 22 0.0866957
2 2 100 22 0.691904
3 2 100 22 0.134182
4 2 100 22 0.0576715
6 2 100 22 6.21685e-06
7 2 100 22 0.0295223
8 2 100 22 2.41513e-06
9 2 100 22 1.38679e-06
12 2 100 22 1.25484e-06
16 2 100 22 1.11907e-06
18 2 100 22 1.20778e-05
20 2 100 22 4.43727e-07
1 3 100 22 0.0333848
2 3 100 22 0.0667704
3 3 100 22 0.46635
4 3 100 22 0.300075
5 3 100 22 0.0667633
8 3 100 22 0.0332678
9 3 100 22 0.0333137
10 3 100 22 3.446e-07
14 3 100 22 3.06325e-06
16 3 100 22 4.97243e-07
19 3 100 22 6.94555e-05
21 3 100 22 1.47563e-06
1 4 100 22 0.0301241
2 4 100 22 4.64124e-06
3 4 100 22 0.118482
4 4 100 22 0.208501
5 4 100 22 0.326361
6 4 100 22 0.150787
7 4 100 22 0.0513903
8 4 100 22 0.0532237
9 4 100 22 1.36559e-06
10 4 100 22 0.0307954
11 4 100 22 0.0301461
12 4 100 22 4.32487e-07
13 4 100 22 1.04241e-05
15 4 100 22 6.20061e-05
16 4 100 22 2.93177e-06
