1 0.117916 0.821461 0.0332151 0.00281895 0.0241962 0.000206326 0.000135348 4.15571e-05 8.805e-06 0 
2 0.0648187 0.916623 0.0159441 0.00157756 0.000737205 0.000156278 6.97081e-05 4.58583e-05 1.83386e-05 9.14641e-06 
3 0.0503172 0.936018 0.0112791 0.00152447 0.000563459 0.000212524 5.60972e-05 1.39173e-05 0 1.48869e-05 
4 0.716741 0.281929 0.000775311 0.000408312 0.000105072 4.12703e-05 0 0 0 0 
5 0.278486 0.680569 0.0296851 0.00583737 0.0044145 0.000523178 0.000220842 0 0.000132026 0.000132095 
6 0.278486 0.665185 0.0296849 0.00585862 0.0197779 0.000523178 0.000220842 0 0.000132026 0.000132095 
7 0.0642265 0.916359 0.01668 0.00165037 0.000771229 0.000163491 7.29254e-05 4.79749e-05 1.9185e-05 9.56855e-06 
8 0.0503172 0.931686 0.0156113 0.00152447 0.000563459 0.000212524 5.60972e-05 1.39173e-05 0 1.48869e-05 
9 0.293292 0.659935 0.0417658 0.00372452 0.000873818 0.000281286 9.00771e-05 2.46194e-05 9.71157e-06 3.1288e-06 
10 0.335399 0.633718 0.0255136 0.00357023 0.00133161 0.000338495 8.43089e-05 2.19759e-05 1.95961e-05 2.73436e-06 
11 0.0503172 0.936018 0.0112791 0.00152447 0.000563459 0.000212524 5.60972e-05 1.39173e-05 0 1.48869e-05 
12 0.0394075 0.949891 0.00883301 0.00119386 0.000441263 0.000166435 4.39315e-05 1.08991e-05 0 1.16584e-05 
13 0.0732865 0.887231 0.027355 0.00575074 0.00547236 0.000669061 0.000155494 4.67087e-05 3.32197e-05 0 
14 0.0503172 0.936018 0.0112791 0.00152447 0.000563459 0.000212524 5.60972e-05 1.39173e-05 0 1.48869e-05 
15 0.335399 0.618334 0.0408972 0.00357043 0.00133161 0.000338495 8.43089e-05 2.19759e-05 1.95961e-05 2.73436e-06 
16 0.0503172 0.920634 0.0124757 0.0157124 0.000563459 0.000212524 5.60972e-05 1.39173e-05 0 1.48869e-05 
17 0.156002 0.780749 0.0423718 0.0191103 0.00124735 0.000272985 0.000179076 5.49833e-05 1.16497e-05 0 
18 0.0642265 0.900974 0.01668 0.00168543 0.0161208 0.000163491 7.29254e-05 4.79749e-05 1.9185e-05 9.56855e-06 
19 0.288848 0.649935 0.0259844 0.00366784 0.0311612 0.000277031 8.87123e-05 2.42464e-05 9.56443e-06 3.0814e-06 
20 0.262731 0.692041 0.0262532 0.0178192 0.000792699 0.000249427 7.27393e-05 3.02129e-05 5.32557e-06 4.78575e-06 
21 0.294608 0.638973 0.0617025 0.00313658 0.00116965 0.000297327 7.40551e-05 1.93032e-05 1.72128e-05 2.40181e-06 
22 0.262731 0.707426 0.0249372 0.00375057 0.000792699 0.000249427 7.27393e-05 3.02129e-05 5.32557e-06 4.78575e-06 
23 0.0503172 0.920634 0.0112791 0.00152452 0.015948 0.000212524 5.60972e-05 1.39173e-05 0 1.48869e-05 
24 0.0642265 0.900974 0.0316938 0.00202092 0.000771229 0.000163491 7.29254e-05 4.79749e-05 1.9185e-05 9.56855e-06 
25 0.0503172 0.920637 0.0266604 0.00152447 0.000563459 0.000212524 5.60972e-05 1.39173e-05 0 1.48869e-05 
26 0.156002 0.780749 0.0423709 0.00375009 0.0166085 0.000272987 0.000179076 5.49833e-05 1.16497e-05 0 
27 0.335399 0.633718 0.0255136 0.00357023 0.00133161 0.000338495 8.43089e-05 2.19759e-05 1.95961e-05 2.73436e-06 
28 0.243965 0.728324 0.023156 0.00348268 0.000736078 0.000231611 6.75437e-05 2.80549e-05 4.94517e-06 4.44391e-06 
29 0.0580312 0.833023 0.0803017 0.00485695 0.0232293 0.000448986 9.32339e-05 0 1.51811e-05 0 
30 0.118304 0.814003 0.0564195 0.00831899 0.00200537 0.000640705 0.000202121 7.06872e-05 2.40587e-05 1.17801e-05 
31 0.262731 0.702739 0.0296241 0.00375057 0.000792699 0.000249427 7.27393e-05 3.02129e-05 5.32557e-06 4.78575e-06 
32 0.0474003 0.939727 0.0106252 0.0014361 0.000530795 0.000200204 5.28452e-05 1.31105e-05 0 1.40239e-05 
33 0.061393 0.905343 0.0159485 0.0132582 0.00375816 0.000156278 6.97081e-05 4.58584e-05 1.83386e-05 9.14641e-06 
34 0.156002 0.78468 0.0538249 0.00372664 0.0012473 0.000272985 0.000179076 5.49833e-05 1.16497e-05 0 
35 0.262731 0.692055 0.0403081 0.00375057 0.000792699 0.000249427 7.27393e-05 3.02129e-05 5.32557e-06 4.78575e-06 
36 0.156002 0.796134 0.0423709 0.00372664 0.0012473 0.000272985 0.000179076 5.49833e-05 1.16497e-05 0 
37 0.293292 0.675319 0.0263841 0.00372188 0.000873818 0.000281286 9.00771e-05 2.46194e-05 9.71157e-06 3.1288e-06 
38 0.156002 0.78243 0.0560731 0.00372894 0.0012473 0.000272985 0.000179076 5.49833e-05 1.16497e-05 0 
40 0.0821358 0.779051 0.12904 0.00676147 0.0022221 0.000635488 0.000131962 0 2.1487e-05 0 
41 0.0821358 0.779054 0.129038 0.00676146 0.00222211 0.000635488 0.000131962 0 2.1487e-05 0 
42 0.0921256 0.843331 0.0561363 0.00564194 0.00207393 0.000465858 0.000143541 5.38221e-05 2.33869e-05 4.60773e-06 
43 0.293292 0.675319 0.0263841 0.00372188 0.000873818 0.000281286 9.00771e-05 2.46194e-05 9.71157e-06 3.1288e-06 
44 0.156002 0.780749 0.0577555 0.00372664 0.0012473 0.000272985 0.000179076 5.49833e-05 1.16497e-05 0 
45 0.156002 0.796134 0.0423709 0.00372664 0.0012473 0.000272985 0.000179076 5.49833e-05 1.16497e-05 0 
46 0.0503172 0.920634 0.0112819 0.0169062 0.000563461 0.000212524 5.60972e-05 1.39173e-05 0 1.48869e-05 
47 0.153639 0.774879 0.0597594 0.00998335 0.00122841 0.000268849 0.000176363 5.41502e-05 1.14732e-05 0 
48 0.0732865 0.887231 0.0273547 0.00575074 0.00547236 0.000669061 0.000155494 4.67087e-05 3.32197e-05 0 
49 0.153639 0.799223 0.0417289 0.00367018 0.00122841 0.000268849 0.000176363 5.41502e-05 1.14732e-05 0 
50 0.156002 0.796134 0.0423709 0.00372664 0.0012473 0.000272985 0.000179076 5.49833e-05 1.16497e-05 0 
51 0.0495548 0.921836 0.0111088 0.0166523 0.000554922 0.000209304 5.52472e-05 1.37065e-05 0 1.46614e-05 
52 0.149171 0.804471 0.0411077 0.00356223 0.00119228 0.000260942 0.000171176 5.25576e-05 1.11357e-05 0 
53 0.156002 0.780749 0.0577555 0.00372664 0.0012473 0.000272985 0.000179076 5.49833e-05 1.16497e-05 0 
54 0.0949495 0.823198 0.0578022 0.00581554 0.0046772 0.0133253 0.000147958 5.54781e-05 2.41065e-05 4.7495e-06 
55 0.288848 0.680239 0.0259844 0.00366549 0.000860578 0.000277024 8.87123e-05 2.42464e-05 9.56443e-06 3.0814e-06 
56 0.137029 0.820926 0.0372202 0.0032734 0.0010956 0.000239784 0.000157297 4.82961e-05 1.02328e-05 0 
57 0.2475 0.710106 0.037772 0.00353315 0.000746746 0.000234967 6.85225e-05 2.84615e-05 5.01684e-06 4.50831e-06 
58 0.293292 0.675319 0.0263841 0.00372188 0.000873818 0.000281286 9.00771e-05 2.46194e-05 9.71157e-06 3.1288e-06 
59 0.0503172 0.920634 0.0112791 0.00152447 0.000563459 0.000212524 5.76153e-05 0.0153917 5.26517e-06 1.48869e-05 
60 0.156002 0.785375 0.0492468 0.00760963 0.0012473 0.000272985 0.000179076 5.49833e-05 1.16497e-05 0 
61 0.0642265 0.916359 0.01668 0.00165037 0.000771229 0.000163491 7.29254e-05 4.79749e-05 1.9185e-05 9.56855e-06 
62 0.0503172 0.936018 0.0112791 0.00152447 0.000563459 0.000212524 5.60972e-05 1.39173e-05 0 1.48869e-05 
63 0.156002 0.78075 0.0577554 0.00372669 0.0012473 0.000272985 0.000179076 5.49833e-05 1.16497e-05 0 
64 0.293292 0.659934 0.0305988 0.0148743 0.000891325 0.000281286 9.00771e-05 2.46194e-05 9.71157e-06 3.1288e-06 
66 0.0935109 0.841028 0.0569264 0.00572743 0.00210536 0.000472917 0.000145716 5.46376e-05 2.37413e-05 4.67754e-06 
67 0.113184 0.822247 0.0609265 0.00247175 0.000827293 0.000181061 0.000118775 3.64685e-05 7.72684e-06 0 
68 0.153639 0.769233 0.0717182 0.00367045 0.00122841 0.000268849 0.000176363 5.41502e-05 1.14732e-05 0 
69 0.038881 0.883335 0.0739076 0.00277391 0.000827104 0.000185789 5.72456e-05 2.14648e-05 9.32692e-06 1.8376e-06 
70 0.335399 0.63336 0.0258719 0.00357023 0.00133161 0.000338495 8.43089e-05 2.19759e-05 1.95961e-05 2.73436e-06 
71 0.0522638 0.919555 0.0258673 0.00147897 0.00054664 0.00020618 5.44226e-05 1.35019e-05 0 1.44425e-05 
72 0.230687 0.722432 0.0429616 0.00291475 0.000684315 0.000220284 7.05423e-05 1.92803e-05 7.60545e-06 2.45027e-06 
73 0.278486 0.680569 0.0296849 0.00583737 0.0044145 0.000523178 0.000220842 0 0.000132026 0.000132095 
74 0.0503172 0.920634 0.0112791 0.00152447 0.00056346 0.000212524 5.60972e-05 1.39173e-05 0 0.0153992 
75 0.156002 0.782441 0.0549305 0.00485966 0.0012473 0.000272985 0.000179076 5.49833e-05 1.16497e-05 0 
76 0.0430345 0.945105 0.0098199 0.00130383 0.000481906 0.000181764 4.79778e-05 1.1903e-05 0 1.27322e-05 
77 0.153639 0.76892 0.0418115 0.0330952 0.00202385 0.000268849 0.000176363 5.41502e-05 1.14732e-05 0 
78 0.0743201 0.866328 0.0282822 0.0300912 0.000696249 0.000147596 6.58355e-05 4.33107e-05 1.73198e-05 8.63828e-06 
79 0.0632534 0.917605 0.0164478 0.00162537 0.000759544 0.000161014 7.18205e-05 4.7248e-05 1.88943e-05 9.42357e-06 
80 0.0625231 0.884095 0.0512838 0.00127865 0.000582906 0.000123569 5.51181e-05 3.62601e-05 1.45003e-05 7.23204e-06 
81 0.288848 0.680239 0.0259844 0.00366549 0.000860578 0.000277024 8.87123e-05 2.42464e-05 9.56443e-06 3.0814e-06 
82 0.0642265 0.900974 0.01668 0.0016504 0.0161558 0.000163491 7.29254e-05 4.79749e-05 1.9185e-05 9.56855e-06 
83 0.288848 0.659575 0.031496 0.00366549 0.000879006 0.0154098 8.9058e-05 2.42464e-05 9.56443e-06 3.0814e-06 
84 0.156002 0.780749 0.0423709 0.00372978 0.0165498 0.000351959 0.000179076 5.49833e-05 1.16497e-05 0 
85 0.293292 0.659934 0.0263841 0.00372189 0.0162584 0.000281286 9.00771e-05 2.46194e-05 9.71157e-06 3.1288e-06 
86 0.156002 0.780749 0.0423735 0.0123988 0.0079572 0.000272985 0.000179076 5.49833e-05 1.16497e-05 0 
87 0.156002 0.796134 0.0423709 0.00372664 0.0012473 0.000272985 0.000179076 5.49833e-05 1.16497e-05 0 
88 0.118304 0.798618 0.0564195 0.00854954 0.010192 0.00760809 0.000202121 7.06872e-05 2.40587e-05 1.17801e-05 
89 0.0949495 0.838583 0.0578022 0.00581554 0.00213775 0.000480192 0.000147958 5.54781e-05 2.41065e-05 4.7495e-06 
90 0.0503172 0.936018 0.0112791 0.00152447 0.000563459 0.000212524 5.60972e-05 1.39173e-05 0 1.48869e-05 
91 0.153639 0.777711 0.0632406 0.00367018 0.00122841 0.000268849 0.000176363 5.41502e-05 1.14732e-05 0 
92 0.146959 0.778967 0.0544073 0.00404467 0.0151337 0.00025716 0.000168695 5.17959e-05 1.09743e-05 0 
93 0.288848 0.680239 0.0259844 0.00366549 0.000860578 0.000277024 8.87123e-05 2.42464e-05 9.56443e-06 3.0814e-06 
94 0.0921152 0.825917 0.0725495 0.00665326 0.00207393 0.000465858 0.000143541 5.38221e-05 2.33869e-05 4.60773e-06 
95 0.288848 0.649936 0.0259844 0.00370484 0.0311242 0.00027711 8.87123e-05 2.42464e-05 9.56443e-06 3.0814e-06 
96 0.293292 0.675319 0.0263841 0.00372188 0.000873818 0.000281286 9.00771e-05 2.46194e-05 9.71157e-06 3.1288e-06 
97 0.156002 0.780749 0.0423709 0.00372664 0.0012473 0.000272985 0.000275637 0.015343 1.16497e-05 0 
98 0.293292 0.675319 0.0263841 0.00372188 0.000873818 0.000281286 9.00771e-05 2.46194e-05 9.71157e-06 3.1288e-06 
99 0.0642265 0.900974 0.0166801 0.0170349 0.00077123 0.000163491 7.29254e-05 4.79749e-05 1.9185e-05 9.56855e-06 
100 0.0869256 0.838144 0.0669973 0.00532411 0.00195709 0.000439613 0.000135454 5.07899e-05 2.20693e-05 4.34814e-06 
101 0.0503172 0.920634 0.0112804 0.0169078 0.00056346 0.000212524 5.60972e-05 1.39173e-05 0 1.48869e-05 
102 0.151346 0.757663 0.0560898 0.0304577 0.00394038 0.000264836 0.000173731 5.3342e-05 1.13019e-05 0 
103 0.156002 0.796134 0.0423709 0.00372664 0.0012473 0.000272985 0.000179076 5.49833e-05 1.16497e-05 0 
104 0.0488152 0.893152 0.0109424 0.00258015 0.0442216 0.00020618 5.44226e-05 1.35019e-05 0 1.44425e-05 
105 0.293292 0.675319 0.0263841 0.00372188 0.000873818 0.000281286 9.00771e-05 2.46194e-05 9.71157e-06 3.1288e-06 
106 0.0605034 0.863236 0.0196123 0.0411337 0.000734055 0.0146393 6.87114e-05 4.51937e-05 1.80729e-05 9.01385e-06 
107 0.0930293 0.855039 0.0394818 0.00229841 0.00984201 0.000162789 0.000106789 3.27882e-05 6.94707e-06 0 
108 0.0632534 0.887371 0.0315045 0.00168487 0.0158782 0.000161014 7.18205e-05 4.7248e-05 1.88944e-05 9.42357e-06 
109 0.0949495 0.823341 0.0658989 0.0129608 0.00213775 0.000480192 0.000147958 5.54781e-05 2.41065e-05 4.7495e-06 
110 0.25114 0.705589 0.0238762 0.00840682 0.0106415 0.000238803 6.95302e-05 2.888e-05 5.09062e-06 4.57461e-06 
111 0.0739245 0.908047 0.0154886 0.00153249 0.000716142 0.000151813 6.77165e-05 4.45481e-05 1.78147e-05 8.88508e-06 
113 0.0935109 0.825877 0.0720778 0.00572743 0.00210536 0.000472917 0.000145716 5.46376e-05 2.37413e-05 4.67754e-06 
114 0.0503172 0.920634 0.0119796 0.0162085 0.000563466 0.000212524 5.60972e-05 1.39173e-05 0 1.48869e-05 
115 0.262731 0.692041 0.0249372 0.00375057 0.000969895 0.0154568 7.27393e-05 3.02129e-05 5.32557e-06 4.78575e-06 
116 0.0488152 0.937928 0.0109425 0.00147897 0.00054664 0.00020618 5.44226e-05 1.35019e-05 0 1.44425e-05 
117 0.118304 0.798944 0.071479 0.00831899 0.00200537 0.000640705 0.000202121 7.06872e-05 2.40587e-05 1.17801e-05 
118 0.116511 0.816821 0.0555647 0.00819295 0.00197499 0.000630998 0.000199058 6.96162e-05 2.36942e-05 1.16016e-05 
119 0.0642265 0.900974 0.0167777 0.0169374 0.00077123 0.000163491 7.29254e-05 4.79749e-05 1.9185e-05 9.56855e-06 
120 0.0642265 0.916359 0.01668 0.00165037 0.000771229 0.000163491 7.29254e-05 4.79749e-05 1.9185e-05 9.56855e-06 
121 0.118304 0.811471 0.0589514 0.00831899 0.00200537 0.000640705 0.000202121 7.06872e-05 2.40587e-05 1.17801e-05 
122 0.156002 0.780749 0.0423709 0.00372664 0.0012473 0.000487024 0.0153489 5.57173e-05 1.16497e-05 0 
123 0.0935109 0.825877 0.0720778 0.00572743 0.00210536 0.000472917 0.000145716 5.46376e-05 2.37413e-05 4.67754e-06 
124 0.156002 0.796134 0.0423709 0.00372664 0.0012473 0.000272985 0.000179076 5.49833e-05 1.16497e-05 0 
126 0.262731 0.707355 0.0250084 0.00375057 0.000792699 0.000249427 7.27393e-05 3.02129e-05 5.32557e-06 4.78575e-06 
127 0.0935109 0.810725 0.0570321 0.0359247 0.00210536 0.000472917 0.000145716 5.46376e-05 2.37413e-05 4.67754e-06 
128 0.0495548 0.907062 0.0410256 0.00150958 0.000554922 0.000209304 5.52472e-05 1.37065e-05 0 1.46614e-05 
129 0.293292 0.675319 0.0263841 0.00372188 0.000873818 0.000281286 9.00771e-05 2.46194e-05 9.71157e-06 3.1288e-06 
130 0.274266 0.685409 0.0292351 0.00574893 0.00434761 0.000515251 0.000217496 0 0.000130025 0.000130094 
131 0.153639 0.793107 0.0478452 0.00367018 0.00122841 0.000268849 0.000176363 5.41502e-05 1.14732e-05 0 
132 0.156002 0.796134 0.0423709 0.00372664 0.0012473 0.000272985 0.000179076 5.49833e-05 1.16497e-05 0 
133 0.15601 0.796127 0.0423709 0.00372664 0.0012473 0.000272985 0.000179076 5.49833e-05 1.16497e-05 0 
134 0.293292 0.663094 0.0386097 0.00372188 0.000873818 0.000281286 9.00771e-05 2.46194e-05 9.71157e-06 3.1288e-06 
135 0.118304 0.814003 0.0564195 0.00831899 0.00200537 0.000640705 0.000202121 7.06872e-05 2.40587e-05 1.17801e-05 
137 0.0857183 0.760326 0.0727206 0.0634669 0.0171248 0.000433517 0.000133573 5.00844e-05 2.17628e-05 4.28775e-06 
138 0.0503172 0.921601 0.0253762 0.00184465 0.000563459 0.000212524 5.60972e-05 1.39173e-05 0 1.48869e-05 
139 0.237188 0.735871 0.0225127 0.00338593 0.000715631 0.000225177 6.56674e-05 2.72756e-05 4.8078e-06 4.32046e-06 
140 0.156002 0.780749 0.0424034 0.0190788 0.0012473 0.000272985 0.000179076 5.49833e-05 1.16497e-05 0 
141 0.0623093 0.918855 0.0161821 0.00160111 0.000748208 0.000158611 7.07486e-05 4.65428e-05 1.86123e-05 9.28292e-06 
142 0.160515 0.798671 0.0361773 0.00314587 0.00105292 0.000230442 0.000151168 4.64145e-05 9.83416e-06 0 
143 0.14912 0.789932 0.0409923 0.00356726 0.0158931 0.000260944 0.000171176 5.25576e-05 1.11357e-05 0 
144 0.118304 0.805922 0.0645002 0.00831899 0.00200537 0.000640705 0.000202121 7.06872e-05 2.40587e-05 1.17801e-05 
145 0.335028 0.619731 0.025403 0.00341272 0.00130338 0.0149989 8.05894e-05 2.10064e-05 1.87316e-05 2.61373e-06 
146 0.290782 0.649271 0.0407392 0.0036903 0.0151317 0.000264985 8.48552e-05 2.31922e-05 9.14858e-06 2.94742e-06 
147 0.0949495 0.838582 0.0578026 0.00581554 0.00213775 0.000480192 0.000147958 5.54781e-05 2.41065e-05 4.7495e-06 
148 0.262731 0.692041 0.0255895 0.0184828 0.000792699 0.000249427 7.27393e-05 3.02129e-05 5.32557e-06 4.78575e-06 
149 0.0935109 0.810728 0.0720421 0.00576042 0.0172565 0.000472952 0.000145716 5.46376e-05 2.37413e-05 4.67754e-06 
150 0.0503172 0.931502 0.0157952 0.00152447 0.000563459 0.000212524 5.60972e-05 1.39173e-05 0 1.48869e-05 
151 0.156924 0.786244 0.0518738 0.00336433 0.00112604 0.000246445 0.000161666 4.96377e-05 1.05171e-05 0 
152 0.153639 0.768923 0.0569988 0.0186976 0.00123174 0.000268849 0.000176363 5.41502e-05 1.14732e-05 0 
153 0.293292 0.659934 0.0263841 0.00372188 0.000873818 0.000319064 0.0154369 2.46194e-05 9.71157e-06 3.1288e-06 
154 0.262731 0.692041 0.0249428 0.0177584 0.0021639 0.000249427 7.27393e-05 3.02129e-05 5.32557e-06 4.78575e-06 
155 0.14912 0.798898 0.0467321 0.00356223 0.00119228 0.000260942 0.000171176 5.25576e-05 1.11357e-05 0 
156 0.262731 0.692041 0.0249616 0.0191108 0.000792699 0.000249427 7.27393e-05 3.02129e-05 5.32557e-06 4.78575e-06 
157 0.293292 0.659934 0.030263 0.0152276 0.000873818 0.000281286 9.00771e-05 2.46194e-05 9.71157e-06 3.1288e-06 
158 0.0949495 0.83857 0.0578152 0.00581554 0.00213775 0.000480192 0.000147958 5.54781e-05 2.41065e-05 4.7495e-06 
159 0.119296 0.844102 0.0324013 0.00284978 0.000953821 0.000208753 0.000136941 4.20461e-05 8.90859e-06 0 
160 0.156002 0.780749 0.0423709 0.00438969 0.0159688 0.00027302 0.000179076 5.49833e-05 1.16497e-05 0 
161 0.0642265 0.900975 0.0320632 0.00165037 0.000771229 0.000163491 7.29254e-05 4.79749e-05 1.9185e-05 9.56855e-06 
162 0.293618 0.675469 0.0259844 0.00366549 0.000860578 0.000277024 8.87123e-05 2.42464e-05 9.56443e-06 3.0814e-06 
163 0.0503172 0.936018 0.0112791 0.00152447 0.000563459 0.000212524 5.60972e-05 1.39173e-05 0 1.48869e-05 
164 0.293292 0.675278 0.0264253 0.00372188 0.000873818 0.000281286 9.00771e-05 2.46194e-05 9.71157e-06 3.1288e-06 
165 0.293292 0.675229 0.026474 0.00372188 0.000873818 0.000281286 9.00771e-05 2.46194e-05 9.71157e-06 3.1288e-06 
166 0.284537 0.685008 0.0255995 0.00361078 0.000847734 0.000272889 8.73882e-05 2.38845e-05 9.42168e-06 3.03541e-06 
167 0.0503172 0.920634 0.0112791 0.00156019 0.0159124 0.00021253 5.60972e-05 1.39173e-05 0 1.48869e-05 
168 0.0348204 0.863039 0.0969838 0.0045619 0.000389626 0.000146958 3.87906e-05 9.62368e-06 0 1.02942e-05 
169 0.257622 0.714803 0.0231798 0.00326922 0.000767543 0.000247076 7.91217e-05 2.16252e-05 8.53044e-06 2.74827e-06 
170 0.0564152 0.926531 0.0146514 0.00144965 0.000677431 0.000143607 6.40561e-05 4.21401e-05 1.68517e-05 8.40481e-06 
171 0.204446 0.748652 0.043106 0.00290223 0.000613398 0.000193009 5.62864e-05 2.33791e-05 4.12097e-06 3.70326e-06 
172 0.135202 0.823316 0.0367215 0.00322976 0.001081 0.000236587 0.000155199 4.76522e-05 1.00964e-05 0 
173 0.0869256 0.838772 0.066367 0.0053264 0.00195709 0.000439613 0.000135454 5.07899e-05 2.20693e-05 4.34814e-06 
174 0.153639 0.782373 0.0434274 0.00367018 0.00129417 0.0153546 0.000176364 5.41502e-05 1.14732e-05 0 
175 0.268865 0.702397 0.0241565 0.00340736 0.000799974 0.000257515 8.24649e-05 2.25389e-05 8.89088e-06 2.8644e-06 
176 0.200913 0.766247 0.0290884 0.00286809 0.000606182 0.000190738 5.56242e-05 2.3104e-05 4.07249e-06 3.65969e-06 
177 0.0562073 0.918948 0.0122038 0.0118869 0.00049956 0.000181764 4.79778e-05 1.1903e-05 0 1.27322e-05 
178 0.288848 0.665087 0.0259844 0.0108681 0.00880948 0.000277026 8.87123e-05 2.42464e-05 9.56443e-06 3.0814e-06 
179 0.284537 0.65516 0.0255965 0.00425397 0.0300549 0.00027324 8.73882e-05 2.38845e-05 9.42167e-06 3.03541e-06 
180 0.0367486 0.895986 0.0420464 0.0245903 0.000411515 0.000155214 4.09698e-05 1.01643e-05 0 1.08725e-05 
181 0.143496 0.816673 0.0353682 0.0030279 0.00101343 0.0002218 0.000145499 4.46739e-05 9.46538e-06 0 
182 0.276299 0.679954 0.0390333 0.00350612 0.000823162 0.00026498 8.48552e-05 2.31922e-05 9.14858e-06 2.94742e-06 
183 0.153639 0.784071 0.0417289 0.00368278 0.0163673 0.00026885 0.000176363 5.41502e-05 1.14732e-05 0 
184 0.0503172 0.920634 0.0112791 0.00152447 0.000598616 0.015562 5.60972e-05 1.39173e-05 0 1.48869e-05 
185 0.0460708 0.927335 0.0103259 0.00202857 0.0139674 0.000194584 5.13566e-05 1.27412e-05 0 1.36289e-05 
186 0.0845441 0.801332 0.0927094 0.00517882 0.0156015 0.000427575 0.000131743 4.93984e-05 2.14647e-05 4.22901e-06 
187 0.0894452 0.775477 0.126905 0.00548786 0.00201382 0.000452355 0.00013938 5.2262e-05 2.2709e-05 4.47417e-06 
188 0.293292 0.675319 0.0263841 0.00372188 0.000873818 0.000281286 9.00771e-05 2.46194e-05 9.71157e-06 3.1288e-06 
189 0.278486 0.665185 0.0365384 0.0143671 0.00441579 0.000523178 0.000220842 0 0.000132026 0.000132095 
190 0.0623093 0.874079 0.0311075 0.00160221 0.0305978 0.000158611 7.07486e-05 4.65428e-05 1.86123e-05 9.28292e-06 
191 0.0495548 0.906685 0.041411 0.00150137 0.000554922 0.000209304 5.52472e-05 1.37065e-05 0 1.46614e-05 
192 0.0632534 0.908077 0.0259766 0.00162537 0.000759544 0.000161014 7.18205e-05 4.7248e-05 1.88943e-05 9.42357e-06 
193 0.23877 0.576625 0.175457 0.00474286 0.00358678 0.000425082 0.000179434 0 0.000107271 0.000107327 
194 0.0496991 0.74448 0.203705 0.00127708 0.000596785 0.000126511 5.64304e-05 3.71234e-05 1.48456e-05 7.40424e-06 
195 0.0503172 0.920634 0.0112791 0.0169091 0.000563459 0.000212524 5.60972e-05 1.39173e-05 0 1.48869e-05 
196 0.2662 0.635838 0.0430814 0.0204117 0.0335052 0.000500097 0.000211099 0 0.000126201 0.000126267 
197 0.0642265 0.900974 0.0320646 0.00165037 0.00077123 0.000163491 7.29254e-05 4.79749e-05 1.9185e-05 9.56855e-06 
198 0.0503172 0.920634 0.0266636 0.00152447 0.000563459 0.000212524 5.60972e-05 1.39173e-05 0 1.48869e-05 
199 0.0642265 0.916359 0.01668 0.00165037 0.000771229 0.000163491 7.29254e-05 4.79749e-05 1.9185e-05 9.56855e-06 
200 0.278486 0.680569 0.0296849 0.00583737 0.0044145 0.000523178 0.000220842 0 0.000132026 0.000132095 
201 0.0632534 0.917626 0.0164273 0.00162537 0.000759544 0.000161014 7.18205e-05 4.7248e-05 1.88943e-05 9.42357e-06 
202 0.0510635 0.935272 0.0112791 0.00152447 0.000563459 0.000212524 5.60972e-05 1.39173e-05 0 1.48869e-05 
203 0.278486 0.680569 0.0296849 0.00583737 0.0044145 0.000523178 0.000220842 0 0.000132026 0.000132095 
204 0.0642265 0.916359 0.01668 0.00165037 0.000771229 0.000163491 7.29254e-05 4.79749e-05 1.9185e-05 9.56855e-06 
205 0.738794 0.258589 0.00204525 0.000420876 0.000108304 4.25402e-05 0 0 0 0 
206 0.230245 0.766169 0.00352602 4.38983e-05 1.05821e-05 3.38092e-06 1.06657e-06 3.73007e-07 1.26955e-07 0 
207 0.266061 0.682863 0.0371654 0.0023962 0.000977586 0.0104508 5.6549e-05 1.47261e-05 1.31314e-05 1.83231e-06 
208 0.138904 0.789422 0.0706158 0.000638537 0.000298392 6.32555e-05 2.82152e-05 1.85617e-05 7.42278e-06 3.70212e-06 
209 0.335399 0.633718 0.0255136 0.00357023 0.00133161 0.000338495 8.43089e-05 2.19759e-05 1.95961e-05 2.73436e-06 
210 0.738794 0.244451 0.0161833 0.000420876 0.000108304 4.25402e-05 0 0 0 0 
211 0.278486 0.665185 0.0296864 0.0212201 0.00441486 0.000523178 0.000220842 0 0.000132026 0.000132095 
212 0.0495548 0.921836 0.0111082 0.00150137 0.0157064 0.000209304 5.52472e-05 1.37065e-05 0 1.46614e-05 
213 0.0474003 0.91074 0.0395846 0.00146414 0.000530795 0.000200204 5.28452e-05 1.31105e-05 0 1.40239e-05 
214 0.0921152 0.824575 0.0749025 0.00564194 0.00207393 0.000465858 0.000143541 5.38221e-05 2.33869e-05 4.60773e-06 
215 0.0503172 0.920634 0.0112791 0.00154085 0.0159317 0.000212524 5.60972e-05 1.39173e-05 0 1.48869e-05 
216 0.0503172 0.920634 0.0112909 0.0168973 0.000563459 0.000212524 5.60972e-05 1.39173e-05 0 1.48869e-05 
217 0.0503172 0.920634 0.0112791 0.00152614 0.0159464 0.000212524 5.60972e-05 1.39173e-05 0 1.48869e-05 
218 0.0495548 0.921836 0.0112751 0.016486 0.000554922 0.000209304 5.52472e-05 1.37065e-05 0 1.46614e-05 
219 0.0503176 0.936018 0.0112791 0.00152447 0.000563459 0.000212524 5.60972e-05 1.39173e-05 0 1.48869e-05 
220 0.0495548 0.906834 0.0263176 0.0164366 0.000563944 0.000209304 5.52472e-05 1.37065e-05 0 1.46614e-05 
221 0.000958857 0.998989 3.23989e-06 4.57633e-05 3.37497e-06 0 0 0 0 0 
222 0.00932441 0.877523 0.11046 0.000341029 8.15698e-05 0.000106866 0.00215919 2.01482e-06 0 2.15512e-06 
223 0.0495975 0.936945 0.0111082 0.00150137 0.000554922 0.000209304 5.52472e-05 1.37065e-05 0 1.46614e-05 
224 0.278486 0.665185 0.0296849 0.00813191 0.0175046 0.000523187 0.000220842 0 0.000132026 0.000132095 
225 0.754178 0.244451 0.000799167 0.000420876 0.000108304 4.25402e-05 0 0 0 0 
226 0.278486 0.680569 0.0296849 0.00583737 0.0044145 0.000523178 0.000220842 0 0.000132026 0.000132095 
227 0.0632534 0.917626 0.0164273 0.00162537 0.000759544 0.000161014 7.18205e-05 4.7248e-05 1.88943e-05 9.42357e-06 
228 0.278486 0.665185 0.0296849 0.021222 0.0044145 0.000523178 0.000220842 0 0.000132026 0.000132095 
229 0.278486 0.680569 0.0296849 0.00583737 0.0044145 0.000523178 0.000220842 0 0.000132026 0.000132095 
230 0.0642265 0.900974 0.0320646 0.00165037 0.000771229 0.000163491 7.29254e-05 4.79749e-05 1.9185e-05 9.56855e-06 
231 0.274266 0.670258 0.0292355 0.0208943 0.00435335 0.000515251 0.000217496 0 0.000130025 0.000130094 
232 0.0642265 0.916359 0.01668 0.00165037 0.000771229 0.000163491 7.29254e-05 4.79749e-05 1.9185e-05 9.56855e-06 
233 0.0822168 0.898948 0.0161821 0.00160111 0.000748208 0.000158611 7.07486e-05 4.65428e-05 1.86123e-05 9.28292e-06 
234 0.278486 0.680569 0.0296849 0.00583737 0.0044145 0.000523178 0.000220842 0 0.000132026 0.000132095 
235 0.278486 0.680569 0.0296849 0.00583737 0.0044145 0.000523178 0.000220842 0 0.000132026 0.000132095 
236 0.0632534 0.887391 0.0466627 0.00162537 0.000759544 0.000161014 7.18205e-05 4.7248e-05 1.88943e-05 9.42357e-06 
237 0.274269 0.685406 0.0292351 0.00574893 0.00434761 0.000515251 0.000217496 0 0.000130025 0.000130094 
238 0.278486 0.665271 0.0449834 0.00583754 0.0044145 0.000523178 0.000220842 0 0.000132026 0.000132095 
239 0.0503172 0.936018 0.0112791 0.00152447 0.000563459 0.000212524 5.60972e-05 1.39173e-05 0 1.48869e-05 
240 0.384487 0.532529 0.0767287 0.00324298 0.0024525 0.000290654 0.00012269 0 7.33477e-05 7.33862e-05 
241 0.274685 0.684759 0.0294665 0.00574893 0.00434761 0.000515251 0.000217496 0 0.000130025 0.000130094 
242 0.278486 0.665185 0.0296849 0.00583737 0.0044145 0.00556358 0.0105651 0 0.000132026 0.000132095 
243 0.278486 0.66542 0.0448345 0.00583737 0.0044145 0.000523178 0.000220842 0 0.000132026 0.000132095 
244 0.266201 0.694661 0.0283752 0.00557984 0.00421974 0.000500097 0.000211099 0 0.000126201 0.000126267 
245 0.342542 0.614846 0.0224858 0.016028 0.00333654 0.000395425 0.000166916 0 9.97869e-05 9.98394e-05 
246 0.0488152 0.908078 0.0109424 0.00170353 0.0152474 0.000206497 0.0149795 1.35019e-05 0 1.44425e-05 
247 0.302229 0.65435 0.0354267 0.00416326 0.00311894 0.000369637 0.00015603 0 9.32791e-05 9.33281e-05 
248 0.136104 0.828205 0.0253985 0.00809042 0.0017934 0.000212541 8.97172e-05 0 5.36355e-05 5.36637e-05 
249 0.2662 0.651028 0.0591808 0.018408 0.00421974 0.000500097 0.000211099 0 0.000126201 0.000126267 
250 0.448802 0.550365 0.000485505 0.000255672 6.57924e-05 2.58422e-05 0 0 0 0 
251 0.676361 0.237877 0.000834097 0.0847898 9.92381e-05 3.89452e-05 0 0 0 0 
252 0.274266 0.673672 0.0409722 0.00574893 0.00434761 0.000515251 0.000217496 0 0.000130025 0.000130094 
253 0.0632534 0.887323 0.0312351 0.00196868 0.00336042 0.0127117 7.18205e-05 4.7248e-05 1.88943e-05 9.42357e-06 
254 0.0632534 0.902474 0.0164273 0.00162537 0.000802405 0.0152697 7.18205e-05 4.7248e-05 1.88943e-05 9.42357e-06 
255 0.0495548 0.92189 0.0262057 0.00150137 0.000554922 0.000209304 5.52472e-05 1.37065e-05 0 1.46614e-05 
256 0.0503172 0.920634 0.0112791 0.00152447 0.0159481 0.000212524 5.60972e-05 1.39173e-05 0 1.48869e-05 
257 0.272347 0.683973 0.0390328 0.00345604 0.000811403 0.000261194 8.3643e-05 2.28609e-05 9.01789e-06 2.90532e-06 
258 0.0564152 0.913482 0.0277003 0.00144965 0.000677431 0.000143607 6.40561e-05 4.21401e-05 1.68517e-05 8.40481e-06 
259 0.0632534 0.902474 0.0165347 0.0166695 0.000759544 0.000161014 7.18205e-05 4.7248e-05 1.88943e-05 9.42357e-06 
260 0.0474003 0.939727 0.0106252 0.0014361 0.000530795 0.000200204 5.28452e-05 1.31105e-05 0 1.40239e-05 
261 0.0503172 0.936018 0.0112791 0.00152447 0.000563459 0.000212524 5.60972e-05 1.39173e-05 0 1.48869e-05 
262 0.225275 0.72755 0.0381393 0.00468431 0.0035425 0.000419834 0.000177219 0 0.000105947 0.000106002 
263 0.0623093 0.90393 0.0195829 0.0131258 0.000748208 0.000158611 7.07486e-05 4.65428e-05 1.86123e-05 9.28292e-06 
264 0.0632534 0.902475 0.0164675 0.0167366 0.000759588 0.000161014 7.18205e-05 4.7248e-05 1.88944e-05 9.42357e-06 
265 0.0503634 0.935972 0.0112791 0.00152447 0.000563459 0.000212524 5.60972e-05 1.39173e-05 0 1.48869e-05 
266 0.278486 0.665185 0.0296849 0.00585004 0.0197864 0.000523179 0.000220842 0 0.000132026 0.000132095 
267 0.0642265 0.900974 0.0320646 0.00165037 0.00077123 0.000163491 7.29254e-05 4.79749e-05 1.9185e-05 9.56855e-06 
268 0.0623093 0.90393 0.0161822 0.0165264 0.000748221 0.000158611 7.07486e-05 4.65428e-05 1.86123e-05 9.28292e-06 
269 0.0491144 0.900706 0.0460003 0.00334983 0.000589764 0.000125023 5.57665e-05 3.66867e-05 1.46709e-05 7.31713e-06 
270 0.0605032 0.886844 0.0241375 0.0274941 0.00072652 0.000154013 6.86979e-05 4.51937e-05 1.80729e-05 9.01385e-06 
271 0.0467231 0.863738 0.0873237 0.00141558 0.000523212 0.000197344 5.20902e-05 1.29232e-05 0 1.38236e-05 
272 0.0503172 0.920634 0.0112791 0.00161612 0.0158564 0.000212524 5.60972e-05 1.39173e-05 0 1.48869e-05 
273 0.270173 0.675179 0.0437241 0.00566312 0.00428272 0.000507561 0.00021425 0 0.000128085 0.000128152 
274 0.079684 0.772359 0.123514 0.0215223 0.00215577 0.000616518 0.000128023 0 2.08456e-05 0 
275 0.0642265 0.900974 0.0168176 0.0168974 0.000771232 0.000163491 7.29254e-05 4.79749e-05 1.9185e-05 9.56855e-06 
276 0.061393 0.861225 0.0747676 0.00157756 0.000737205 0.000156278 6.97081e-05 4.58583e-05 1.83386e-05 9.14641e-06 
277 0.0503174 0.934369 0.0129281 0.00152447 0.000563459 0.000212524 5.60972e-05 1.39173e-05 0 1.48869e-05 
278 0.223622 0.709953 0.0573886 0.00468431 0.0035425 0.000419834 0.000177219 0 0.000105947 0.000106002 
279 0.0642265 0.900974 0.0166841 0.0170308 0.000771259 0.000163491 7.29254e-05 4.79749e-05 1.9185e-05 9.56855e-06 
280 0.0503172 0.936018 0.0112791 0.00152447 0.000563459 0.000212524 5.60972e-05 1.39173e-05 0 1.48869e-05 
281 0.0474003 0.925235 0.0106252 0.0014411 0.0150185 0.000200207 5.28452e-05 1.31105e-05 0 1.40239e-05 
282 0.278486 0.67143 0.0388243 0.00583737 0.0044145 0.000523178 0.000220842 0 0.000132026 0.000132095 
284 0.0893319 0.808813 0.0672607 0.0195906 0.00178904 0.0130232 0.000121737 4.56466e-05 1.98345e-05 3.90782e-06 
285 0.0632534 0.917626 0.0164273 0.00162537 0.000759544 0.000161014 7.18205e-05 4.7248e-05 1.88943e-05 9.42357e-06 
286 0.0623093 0.874079 0.0609582 0.00160111 0.000748208 0.000158611 7.07486e-05 4.65428e-05 1.86123e-05 9.28292e-06 
287 0.0495548 0.906685 0.0111082 0.00157934 0.03078 0.000209304 5.52472e-05 1.37065e-05 0 1.46614e-05 
288 0.274266 0.655106 0.0595381 0.00574893 0.00434761 0.000515251 0.000217496 0 0.000130025 0.000130094 
289 0.0642265 0.900975 0.0320639 0.00165038 0.000771229 0.000163491 7.29254e-05 4.79749e-05 1.9185e-05 9.56855e-06 
290 0.0503172 0.920634 0.0112791 0.00152447 0.000563459 0.0155971 5.60972e-05 1.39173e-05 0 1.48869e-05 
291 0.0503172 0.935732 0.0115656 0.00152447 0.000563459 0.000212524 5.60972e-05 1.39173e-05 0 1.48869e-05 
292 0.0503172 0.920634 0.0266637 0.00152447 0.000563459 0.000212524 5.60972e-05 1.39173e-05 0 1.48869e-05 
293 0.0503172 0.936018 0.0112791 0.00152447 0.000563459 0.000212524 5.60972e-05 1.39173e-05 0 1.48869e-05 
294 0.060757 0.8854 0.0346963 0.0181399 0.000716142 0.000151813 6.77165e-05 4.45481e-05 1.78147e-05 8.88508e-06 
295 0.0503172 0.920634 0.0112791 0.001526 0.0159465 0.000212524 5.60972e-05 1.39173e-05 0 1.48869e-05 
296 0.0503172 0.936018 0.0112791 0.00152447 0.000563459 0.000212524 5.60972e-05 1.39173e-05 0 1.48869e-05 
297 0.0503172 0.920634 0.0112791 0.0169091 0.000563459 0.000212524 5.60972e-05 1.39173e-05 0 1.48869e-05 
298 0.278486 0.665185 0.0450695 0.00583737 0.0044145 0.000523178 0.000220842 0 0.000132026 0.000132095 
299 0.0642265 0.900974 0.01668 0.00180786 0.0159984 0.000163491 7.29254e-05 4.79749e-05 1.9185e-05 9.56855e-06 
300 0.0495548 0.906685 0.0262602 0.0166523 0.000554924 0.000209304 5.52472e-05 1.37065e-05 0 1.46614e-05 
301 0.156002 0.780749 0.0423709 0.00372666 0.0166319 0.000272991 0.000179076 5.49833e-05 1.16497e-05 0 
302 0.0503172 0.920634 0.0266636 0.00152447 0.000563459 0.000212524 5.60972e-05 1.39173e-05 0 1.48869e-05 
303 0.151346 0.802218 0.0411078 0.0036154 0.00121007 0.000264836 0.000173731 5.3342e-05 1.13019e-05 0 
304 0.0508407 0.87938 0.044129 0.0130799 0.000477045 0.0120282 4.34085e-05 1.07694e-05 0 1.15197e-05 
305 0.0503172 0.936017 0.0112802 0.00152447 0.000563459 0.000212524 5.60972e-05 1.39173e-05 0 1.48869e-05 
306 0.0474003 0.896249 0.0118558 0.0258672 0.0183473 0.000200204 5.28452e-05 1.31105e-05 0 1.40239e-05 
307 0.0503172 0.920634 0.0112793 0.0169089 0.000563459 0.000212524 5.60972e-05 1.39173e-05 0 1.48869e-05 
308 0.278486 0.665186 0.0442499 0.00665558 0.0044145 0.000523178 0.000220842 0 0.000132026 0.000132095 
309 0.0632534 0.887323 0.0467303 0.00162537 0.000759544 0.000161014 7.18205e-05 4.7248e-05 1.88943e-05 9.42357e-06 
311 0.0503172 0.936018 0.0112791 0.00152447 0.000563459 0.000212524 5.60972e-05 1.39173e-05 0 1.48869e-05 
312 0.0503172 0.920634 0.026663 0.00152447 0.000563459 0.000212524 5.60972e-05 1.39173e-05 0 1.48869e-05 
313 0.0503172 0.920634 0.0112791 0.00152447 0.000563459 0.0155971 5.60972e-05 1.39173e-05 0 1.48869e-05 
314 0.0495548 0.906685 0.0125131 0.0176915 0.0132629 0.000209305 5.52472e-05 1.37065e-05 0 1.46614e-05 
315 0.0503172 0.920634 0.0266634 0.00152447 0.000563459 0.000212524 5.60972e-05 1.39173e-05 0 1.48869e-05 
316 0.0503172 0.920634 0.0266637 0.00152447 0.000563459 0.000212524 5.60972e-05 1.39173e-05 0 1.48869e-05 
317 0.0503172 0.920634 0.0112793 0.0169088 0.000563545 0.000212524 5.60972e-05 1.39173e-05 0 1.48869e-05 
318 0.0503172 0.920634 0.0266636 0.00152447 0.000563459 0.000212524 5.60972e-05 1.39173e-05 0 1.48869e-05 
319 0.0488152 0.893152 0.0557183 0.00147897 0.00054664 0.00020618 5.44226e-05 1.35019e-05 0 1.44425e-05 
320 0.0503172 0.936018 0.0112791 0.00152447 0.000563459 0.000212524 5.60972e-05 1.39173e-05 0 1.48869e-05 
321 0.0495548 0.921836 0.0111082 0.00150138 0.0155411 0.000374649 5.52472e-05 1.37065e-05 0 1.46614e-05 
322 0.0503172 0.920634 0.0266636 0.00152447 0.000563459 0.000212524 5.60972e-05 1.39173e-05 0 1.48869e-05 
323 0.0495548 0.906685 0.0262904 0.0166221 0.000554924 0.000209304 5.52472e-05 1.37065e-05 0 1.46614e-05 
324 0.0503172 0.920634 0.0266636 0.00152447 0.000563459 0.000212524 5.60972e-05 1.39173e-05 0 1.48869e-05 
325 0.0642265 0.916359 0.01668 0.00165037 0.000771229 0.000163491 7.29254e-05 4.79749e-05 1.9185e-05 9.56855e-06 
326 0.0503172 0.936018 0.0112791 0.00152447 0.000563459 0.000212524 5.60972e-05 1.39173e-05 0 1.48869e-05 
327 0.0503172 0.920634 0.0112791 0.00152447 0.000563459 0.000212524 5.64797e-05 0.0153981 0 1.48869e-05 
328 0.0488152 0.937928 0.0109424 0.00147897 0.00054664 0.00020618 5.44226e-05 1.35019e-05 0 1.44425e-05 
329 0.0454256 0.92833 0.0240906 0.00137626 0.000508679 0.000191862 5.06433e-05 1.25643e-05 0 1.34396e-05 
330 0.0503172 0.936018 0.0112791 0.00152447 0.000563459 0.000212524 5.60972e-05 1.39173e-05 0 1.48869e-05 
331 0.0495548 0.921836 0.0111082 0.00160562 0.0156022 0.000209321 5.52472e-05 1.37065e-05 0 1.46614e-05 
332 0.0488152 0.893152 0.0557184 0.00147897 0.00054664 0.00020618 5.44226e-05 1.35019e-05 0 1.44425e-05 
333 0.270173 0.645329 0.0588251 0.0204127 0.00428272 0.000507561 0.00021425 0 0.000128085 0.000128152 
334 0.0503172 0.920634 0.0266636 0.00152447 0.000563459 0.000212524 5.60972e-05 1.39173e-05 0 1.48869e-05 
335 0.0503172 0.920634 0.0112791 0.0169091 0.000563459 0.000212524 5.60972e-05 1.39173e-05 0 1.48869e-05 
336 0.0503172 0.920634 0.0112791 0.00152447 0.000563459 0.0155971 5.60972e-05 1.39173e-05 0 1.48869e-05 
337 0.0503172 0.920634 0.0266636 0.00152447 0.000563459 0.000212524 5.60972e-05 1.39173e-05 0 1.48869e-05 
338 0.0503172 0.920634 0.0117981 0.0163897 0.00056373 0.000212524 5.60972e-05 1.39173e-05 0 1.48869e-05 
339 0.0503172 0.920634 0.0266636 0.00152447 0.000563459 0.000212524 5.60972e-05 1.39173e-05 0 1.48869e-05 
340 0.0503172 0.920634 0.0112791 0.00152447 0.000577265 0.0155833 5.60972e-05 1.39173e-05 0 1.48869e-05 
341 0.0503172 0.920634 0.0112791 0.00152447 0.000563459 0.00282572 0.0128275 1.39173e-05 0 1.48869e-05 
342 0.0467232 0.897723 0.0533385 0.00141558 0.000523212 0.000197344 5.20902e-05 1.29232e-05 0 1.38236e-05 
343 0.0503172 0.920634 0.0112791 0.00152447 0.000565162 0.0155954 5.60972e-05 1.39173e-05 0 1.48869e-05 
344 0.264778 0.623552 0.0932634 0.00336003 0.000788864 0.0141428 8.13196e-05 2.22259e-05 8.76739e-06 2.82461e-06 
345 0.0503172 0.920634 0.0266626 0.00152477 0.000563459 0.000212524 5.60972e-05 1.39173e-05 0 1.48869e-05 
346 0.0503172 0.920634 0.0266634 0.00152448 0.000563459 0.000212524 5.60972e-05 1.39173e-05 0 1.48869e-05 
347 0.0503172 0.936018 0.0112791 0.00152447 0.000563459 0.000212524 5.60972e-05 1.39173e-05 0 1.48869e-05 
348 0.0488152 0.893165 0.0258543 0.00147926 0.0154736 0.0119247 0.00325939 1.35019e-05 0 1.44425e-05 
349 0.0503172 0.920634 0.0266633 0.00152455 0.000563459 0.000212524 5.60972e-05 1.39173e-05 0 1.48869e-05 
350 0.288848 0.665087 0.0259844 0.00366549 0.000860597 0.0154285 8.87123e-05 2.42464e-05 9.56443e-06 3.0814e-06 
351 0.144859 0.753553 0.0822015 0.00346046 0.0154439 0.000253486 0.000166285 5.10559e-05 1.08176e-05 0 
352 0.0488152 0.893152 0.0476141 0.00958315 0.000546642 0.00020618 5.44226e-05 1.35019e-05 0 1.44425e-05 
353 0.0503172 0.920634 0.0266636 0.00152447 0.000563459 0.000212524 5.60972e-05 1.39173e-05 0 1.48869e-05 
354 0.0460651 0.858637 0.0649455 0.00139566 0.0286848 0.000194565 5.13566e-05 1.27412e-05 0 1.36289e-05 
355 0.0503172 0.936018 0.0112791 0.00152447 0.000563459 0.000212524 5.60972e-05 1.39173e-05 0 1.48869e-05 
356 0.0488152 0.937928 0.0109424 0.00147897 0.00054664 0.00020618 5.44226e-05 1.35019e-05 0 1.44425e-05 
357 0.0495548 0.906685 0.0262593 0.00150278 0.015705 0.000209304 5.52472e-05 1.37065e-05 0 1.46614e-05 
358 0.0488152 0.893153 0.0557178 0.00147897 0.00054664 0.00020618 5.44226e-05 1.35019e-05 0 1.44425e-05 
359 0.288848 0.649935 0.0562874 0.00366549 0.000860578 0.000277024 8.87123e-05 2.42464e-05 9.56443e-06 3.0814e-06 
360 0.153639 0.784072 0.0568804 0.00367018 0.00122841 0.000268849 0.000176363 5.41502e-05 1.14732e-05 0 
361 0.0503172 0.936018 0.0112791 0.00152447 0.000563459 0.000212524 5.60972e-05 1.39173e-05 0 1.48869e-05 
362 0.0503172 0.920634 0.0112791 0.00152447 0.000563495 0.0155971 5.60972e-05 1.39173e-05 0 1.48869e-05 
363 0.0503172 0.920634 0.0112791 0.016909 0.000563459 0.000212524 5.60972e-05 1.39173e-05 0 1.48869e-05 
364 0.0454253 0.849983 0.0607719 0.029154 0.000508679 0.000191862 5.09552e-05 0.0139011 0 1.34396e-05 
365 0.0647051 0.921837 0.0111084 0.00150137 0.000554922 0.000209304 5.52472e-05 1.37065e-05 0 1.46614e-05 
366 0.0495548 0.921836 0.0262597 0.00150137 0.000554922 0.000209304 5.52472e-05 1.37065e-05 0 1.46614e-05 
367 0.0495548 0.936988 0.0111082 0.00150137 0.000554922 0.000209304 5.52472e-05 1.37065e-05 0 1.46614e-05 
368 0.0503172 0.920634 0.0266637 0.00152447 0.000563459 0.000212524 5.60972e-05 1.39173e-05 0 1.48869e-05 
369 0.293292 0.659934 0.0417687 0.00372188 0.000873818 0.000281286 9.00771e-05 2.46194e-05 9.71157e-06 3.1288e-06 
370 0.146959 0.735489 0.112378 0.0035106 0.001175 0.00025716 0.000168695 5.17959e-05 1.09743e-05 0 
371 0.0488152 0.923003 0.0258677 0.00147897 0.00054664 0.00020618 5.44226e-05 1.35019e-05 0 1.44425e-05 
372 0.0495548 0.936988 0.0111082 0.00150137 0.000554922 0.000209304 5.52472e-05 1.37065e-05 0 1.46614e-05 
373 0.0467231 0.855337 0.0814388 0.00141559 0.000523213 0.0144831 5.20902e-05 1.29232e-05 0 1.38236e-05 
374 0.0503172 0.920634 0.0266633 0.00152447 0.000563459 0.000212524 5.60972e-05 1.39173e-05 0 1.48869e-05 
375 0.0503172 0.920634 0.0266637 0.00152447 0.000563459 0.000212524 5.60972e-05 1.39173e-05 0 1.48869e-05 
376 0.153639 0.784073 0.0568794 0.00367018 0.00122841 0.000268849 0.000176363 5.41502e-05 1.14732e-05 0 
377 0.0495548 0.906686 0.0414103 0.00150137 0.000554922 0.000209304 5.52472e-05 1.37065e-05 0 1.46614e-05 
378 0.0495902 0.921801 0.0111082 0.00150137 0.000554922 0.0153608 5.52472e-05 1.37065e-05 0 1.46614e-05 
379 0.0503172 0.920634 0.0266635 0.00152447 0.000563459 0.000212524 5.60972e-05 1.39173e-05 0 1.48869e-05 
380 0.0495548 0.906685 0.041411 0.00150137 0.000554922 0.000209304 5.52472e-05 1.37065e-05 0 1.46614e-05 
381 0.0480973 0.909429 0.0254873 0.00145722 0.000538604 0.014909 5.36451e-05 1.33033e-05 0 1.42302e-05 
382 0.0503172 0.920634 0.0266636 0.00152447 0.000563459 0.000212524 5.60972e-05 1.39173e-05 0 1.48869e-05 
383 0.0480973 0.894723 0.0401932 0.00145722 0.000538601 0.014909 5.36223e-05 1.33033e-05 0 1.42302e-05 
384 0.0488152 0.893152 0.0258663 0.00148031 0.00552473 0.0250787 5.45514e-05 1.35019e-05 0 1.44425e-05 
385 0.0488152 0.908081 0.04079 0.00147897 0.00054664 0.00020618 5.44226e-05 1.35019e-05 0 1.44425e-05 
386 0.156002 0.78075 0.057755 0.00372664 0.0012473 0.000272985 0.000179076 5.49833e-05 1.16497e-05 0 
387 0.0495548 0.921836 0.0111088 0.00150137 0.000554922 0.000209383 0.0152067 1.37065e-05 0 1.46614e-05 
388 0.0495548 0.906685 0.0414104 0.00150137 0.000554922 0.000209304 5.52472e-05 1.37065e-05 0 1.46614e-05 
389 0.0495548 0.921838 0.0262585 0.00150137 0.000554922 0.000209304 5.52472e-05 1.37065e-05 0 1.46614e-05 
390 0.0495548 0.906685 0.0414105 0.00150137 0.000554922 0.000209304 5.52472e-05 1.37065e-05 0 1.46614e-05 
391 0.0488152 0.908078 0.040793 0.00147897 0.00054664 0.00020618 5.44226e-05 1.35019e-05 0 1.44425e-05 
392 0.0503172 0.920634 0.0112791 0.00152458 0.012504 0.00365648 5.60972e-05 1.39173e-05 0 1.48869e-05 
393 0.0495548 0.906685 0.0111082 0.00150137 0.000554925 0.0153609 0.0152066 1.37065e-05 0 1.46614e-05 
394 0.0467231 0.854882 0.0961802 0.00141558 0.000523212 0.000197344 5.20902e-05 1.29232e-05 0 1.38236e-05 
395 0.156002 0.780749 0.0577555 0.00372664 0.0012473 0.000272985 0.000179076 5.49833e-05 1.16497e-05 0 
396 0.0503172 0.920634 0.0266637 0.00152447 0.000563459 0.000212524 5.60972e-05 1.39173e-05 0 1.48869e-05 
397 0.0495548 0.906685 0.0414112 0.00150137 0.000554922 0.000209304 5.52472e-05 1.37065e-05 0 1.46614e-05 
398 0.0503172 0.920634 0.0112791 0.00152654 0.015946 0.000212524 5.60972e-05 1.39173e-05 0 1.48869e-05 
399 0.0503172 0.936018 0.0112791 0.00152447 0.000563459 0.000212524 5.60972e-05 1.39173e-05 0 1.48869e-05 
400 0.0587391 0.899403 0.0251178 0.0014361 0.000568953 0.0146548 5.28452e-05 1.31105e-05 0 1.40239e-05 
401 0.0237555 0.974194 0.0016991 0.000224695 8.30495e-05 3.13244e-05 8.26828e-06 2.05131e-06 0 2.19422e-06 
402 0.0503172 0.920634 0.0112791 0.00152447 0.000563459 0.000216891 0.0154363 1.39173e-05 0 1.48869e-05 
403 0.0316629 0.949557 0.017289 0.000952795 0.000352162 0.000132828 3.50607e-05 8.69833e-06 0 9.30433e-06 
404 0.0623093 0.897742 0.0223705 0.00227819 0.0149965 0.000158611 7.07486e-05 4.65428e-05 1.86123e-05 9.28292e-06 
405 0.597825 0.383947 0.00558009 0.000333718 0.0122809 3.37209e-05 0 0 0 0 
406 0.270173 0.645329 0.0592658 0.0199722 0.00428273 0.000507561 0.00021425 0 0.000128085 0.000128152 
407 0.220751 0.563868 0.14548 0.029018 0.040084 0.000414714 0.000175058 0 0.000104655 0.00010471 
408 0.0642265 0.900975 0.0320639 0.00165038 0.00077123 0.000163491 7.29254e-05 4.79749e-05 1.9185e-05 9.56855e-06 
409 0.0642265 0.900974 0.0320641 0.00165037 0.000771229 0.000163491 7.29254e-05 4.79749e-05 1.9185e-05 9.56855e-06 
410 0.0503172 0.920634 0.0113642 0.016824 0.000563459 0.000212524 5.60972e-05 1.39173e-05 0 1.48869e-05 
411 0.0488152 0.908078 0.0407929 0.00147897 0.00054664 0.00020618 5.44226e-05 1.35019e-05 0 1.44425e-05 
412 0.0488152 0.89323 0.0412893 0.0158302 0.00054664 0.00020618 5.44226e-05 1.35019e-05 0 1.44425e-05 
413 0.0503172 0.920634 0.0113084 0.0168798 0.000563459 0.000212524 5.60972e-05 1.39173e-05 0 1.48869e-05 
414 0.0460651 0.907634 0.0159478 0.00139779 0.0286827 0.000194565 5.13566e-05 1.27412e-05 0 1.36289e-05 
415 0.0503172 0.920634 0.0266636 0.00152447 0.000563459 0.000212524 5.60972e-05 1.39173e-05 0 1.48869e-05 
416 0.0503172 0.936018 0.0112791 0.00152447 0.000563459 0.000212524 5.60972e-05 1.39173e-05 0 1.48869e-05 
417 0.0257699 0.387162 0.33659 0.151275 0.0990778 6.55982e-05 2.92602e-05 1.92492e-05 7.6977e-06 3.83923e-06 
418 0.0503172 0.920634 0.0112791 0.00152447 0.000563969 0.0155966 5.60972e-05 1.39173e-05 0 1.48869e-05 
419 0.0503172 0.92077 0.0265272 0.00152448 0.000563459 0.000212524 5.60972e-05 1.39173e-05 0 1.48869e-05 
420 0.0503172 0.936018 0.0112791 0.00152447 0.000563459 0.000212524 5.60972e-05 1.39173e-05 0 1.48869e-05 
421 0.0377726 0.905992 0.00910904 0.0464792 0.000425051 0.000158783 4.19117e-05 1.0398e-05 0 1.11224e-05 
422 0.0488152 0.893166 0.0407891 0.0163883 0.000553234 0.00020618 5.44226e-05 1.35019e-05 0 1.44425e-05 
423 0.0503172 0.936018 0.0112791 0.00152447 0.000563459 0.000212524 5.60972e-05 1.39173e-05 0 1.48869e-05 
424 0.0495548 0.925906 0.02219 0.00150137 0.000554922 0.000209304 5.52472e-05 1.37065e-05 0 1.46614e-05 
425 0.0593171 0.868957 0.0555824 0.0153668 0.000508679 0.000191862 5.06433e-05 1.25643e-05 0 1.34396e-05 
426 0.278486 0.680569 0.0296849 0.00583737 0.0044145 0.000523178 0.000220842 0 0.000132026 0.000132095 
427 0.0605032 0.863239 0.0681178 0.00711829 0.00072652 0.000154013 6.86979e-05 4.51937e-05 1.80729e-05 9.01385e-06 
428 0.0495548 0.906685 0.0137561 0.0145477 0.0151637 0.000209304 5.52472e-05 1.37065e-05 0 1.46614e-05 
429 0.241792 0.667121 0.0816209 0.00500463 0.00363218 0.000430463 0.000181706 0 0.000108629 0.000108686 
430 0.258913 0.711696 0.0245593 0.00369375 0.000780689 0.000245648 7.16372e-05 2.97552e-05 5.24488e-06 4.71323e-06 
431 0.232572 0.666793 0.0656103 0.00486529 0.0199347 0.00981984 0.000184414 0 0.000110021 0.000110079 
432 0.0495548 0.921836 0.0136335 0.0141274 0.000555051 0.000209304 5.52472e-05 1.37065e-05 0 1.46614e-05 
434 0.0488493 0.936533 0.0123038 0.00147897 0.00054664 0.00020618 5.44226e-05 1.35019e-05 0 1.44425e-05 
435 0.251411 0.669929 0.0684952 0.00526985 0.00398531 0.000472313 0.000199371 0 0.00011919 0.000119253 
436 0.0632534 0.917626 0.0164273 0.00162537 0.000759544 0.000161014 7.18205e-05 4.7248e-05 1.88943e-05 9.42357e-06 
437 0.0632534 0.887323 0.0315787 0.00162538 0.015911 0.000161014 7.18205e-05 4.7248e-05 1.88943e-05 9.42357e-06 
438 0.0503172 0.934887 0.0124106 0.00152447 0.000563459 0.000212524 5.60972e-05 1.39173e-05 0 1.48869e-05 
439 0.270173 0.675179 0.0437241 0.00566312 0.00428272 0.000507561 0.00021425 0 0.000128085 0.000128152 
440 0.274266 0.685359 0.0292852 0.00574893 0.00434761 0.000515251 0.000217496 0 0.000130025 0.000130094 
442 0.0495549 0.936939 0.0111571 0.00150137 0.000554922 0.000209304 5.52472e-05 1.37065e-05 0 1.46614e-05 
443 0.275242 0.69705 0.0222041 0.00285285 0.00215746 0.000255689 0.00010793 0 6.45239e-05 6.45578e-05 
444 0.0495548 0.906685 0.0262595 0.00150138 0.0157064 0.000209304 5.52472e-05 1.37065e-05 0 1.46614e-05 
445 0.0488152 0.923003 0.0109424 0.00148498 0.015466 0.000206182 5.44226e-05 1.35019e-05 0 1.44425e-05 
446 0.0438811 0.932252 0.0159634 0.00743071 0.000336448 7.13216e-05 3.18131e-05 2.09286e-05 8.36931e-06 4.1742e-06 
447 0.727601 0.240746 0.000811861 0.0149098 0.0158896 4.18956e-05 0 0 0 0 
448 0.181016 0.761338 0.0303413 0.0237797 0.00286943 0.000340066 0.000143547 0 8.58168e-05 8.58619e-05 
449 0.118304 0.814003 0.0564195 0.00831899 0.00200537 0.000640705 0.000202121 7.06872e-05 2.40587e-05 1.17801e-05 
450 0.274266 0.670203 0.044144 0.00604633 0.00434761 0.000515251 0.000217496 0 0.000130025 0.000130094 
451 0.0623093 0.88966 0.0304517 0.00160111 0.000748208 0.000158611 7.07486e-05 4.65428e-05 5.74615e-05 0.0148958 
452 0.0632534 0.901527 0.0319532 0.00219791 0.000759544 0.000161014 7.18205e-05 4.7248e-05 1.88943e-05 9.42357e-06 
453 0.0642265 0.900974 0.0169145 0.0168006 0.00077123 0.000163491 7.29254e-05 4.79749e-05 1.9185e-05 9.56855e-06 
454 0.0632534 0.902418 0.0164838 0.00163805 0.0158984 0.000161014 7.18205e-05 4.7248e-05 1.88943e-05 9.42357e-06 
455 0.0495548 0.921836 0.0111082 0.00150137 0.000554922 0.0153608 5.52472e-05 1.37065e-05 0 1.46614e-05 
456 0.274266 0.670077 0.0445209 0.00579488 0.00434761 0.000515251 0.000217496 0 0.000130025 0.000130094 
457 0.325387 0.599876 0.0546443 0.0183474 0.00129187 0.000328391 8.17922e-05 2.13199e-05 1.90112e-05 2.65274e-06 
458 0.079684 0.770725 0.125183 0.0214867 0.00215577 0.000616518 0.000128023 0 2.08456e-05 0 
459 0.0632534 0.902474 0.0164273 0.00162537 0.000759544 0.000161014 7.83306e-05 0.0151922 1.88943e-05 9.42357e-06 
460 0.278486 0.665185 0.0296849 0.00586191 0.0197746 0.000523178 0.000220842 0 0.000132026 0.000132095 
461 0.266232 0.652337 0.0699776 0.00626927 0.00421974 0.000500097 0.000211099 0 0.000126201 0.000126267 
462 0.278486 0.665185 0.0450695 0.00583737 0.0044145 0.000523178 0.000220842 0 0.000132026 0.000132095 
463 0.0826939 0.877596 0.0375422 0.00130822 0.00061134 0.000129597 5.78067e-05 3.80289e-05 1.52076e-05 7.58483e-06 
464 0.0642265 0.900974 0.0320646 0.00165037 0.000771229 0.000163491 7.29254e-05 4.79749e-05 1.9185e-05 9.56855e-06 
465 0.223705 0.718747 0.0238212 0.00469401 0.0282241 0.000419834 0.000177219 0 0.000105947 0.000106002 
466 0.278486 0.665185 0.0296849 0.00583737 0.0197991 0.000523178 0.000220842 0 0.000132026 0.000132095 
467 0.727601 0.240746 0.000789705 0.0307149 0.000106666 4.18956e-05 0 0 0 0 
468 0.278486 0.680214 0.0300403 0.00583737 0.0044145 0.000523178 0.000220842 0 0.000132026 0.000132095 
469 0.274266 0.670259 0.0443849 0.00574893 0.00434761 0.000515251 0.000217496 0 0.000130025 0.000130094 
470 0.061393 0.890637 0.0453556 0.00157756 0.000737205 0.000156278 6.97081e-05 4.58583e-05 1.83386e-05 9.14641e-06 
471 0.0642265 0.900974 0.01668 0.00165497 0.0161512 0.000163493 7.29254e-05 4.79749e-05 1.9185e-05 9.56855e-06 
472 0.0710988 0.86023 0.0418651 0.00569447 0.00537961 0.0155039 0.000150852 4.53144e-05 3.2228e-05 0 
473 0.278486 0.665185 0.0296851 0.0212218 0.0044145 0.000523178 0.000220842 0 0.000132026 0.000132095 
474 0.274266 0.670258 0.0292351 0.00612212 0.0191249 0.000516304 0.000217496 0 0.000130025 0.000130094 
475 0.0921152 0.843 0.0564777 0.00564194 0.00207393 0.000465858 0.000143541 5.38221e-05 2.33869e-05 4.60773e-06 
476 0.0642265 0.916358 0.0166804 0.00165037 0.00077123 0.000163491 7.29254e-05 4.79749e-05 1.9185e-05 9.56855e-06 
477 0.0623093 0.889136 0.0459019 0.00160112 0.000748208 0.000158611 7.07486e-05 4.65428e-05 1.86123e-05 9.28292e-06 
478 0.168083 0.790279 0.0275574 0.00309214 0.0104556 0.000276476 0.000116705 0 6.97697e-05 6.98064e-05 
479 0.254952 0.679394 0.0551801 0.00550925 0.00404144 0.000478966 0.00020218 0 0.000120869 0.000120932 
480 0.0485433 0.901867 0.0475228 0.00124739 0.000582906 0.000123569 5.51181e-05 3.62601e-05 1.45003e-05 7.23204e-06 
481 0.046907 0.912889 0.0382067 0.00120533 0.000563257 0.000119404 5.32602e-05 3.50378e-05 1.40115e-05 6.98827e-06 
482 0.738794 0.24445 0.000799167 0.000420876 0.000327649 0.0152078 0 0 0 0 
483 0.2662 0.650544 0.0444464 0.0335969 0.00424912 0.000500097 0.000211099 0 0.000126201 0.000126267 
484 0.278486 0.680569 0.0296849 0.00583737 0.0044145 0.000523178 0.000220842 0 0.000132026 0.000132095 
485 0.0632534 0.887323 0.0467303 0.00162537 0.000759544 0.000161014 7.18205e-05 4.7248e-05 1.88943e-05 9.42357e-06 
486 0.0632534 0.917626 0.0164273 0.00162537 0.000759544 0.000161014 7.18205e-05 4.7248e-05 1.88943e-05 9.42357e-06 
487 0.260523 0.645255 0.0551951 0.00546715 0.0326231 0.000486552 0.000205068 0 0.000122595 0.00012266 
488 0.0440982 0.946883 0.00774933 0.000766245 0.000358071 7.59065e-05 3.38582e-05 2.22741e-05 8.90734e-06 4.44254e-06 
489 0.274267 0.670257 0.0292351 0.00574893 0.00434761 0.000515251 0.000217496 0 0.0152736 0.000138006 
490 0.262342 0.684594 0.0424568 0.00549897 0.00415858 0.000492849 0.00020804 0 0.000124372 0.000124437 
491 0.0632534 0.887323 0.0164324 0.0319233 0.000759544 0.000161014 7.18205e-05 4.7248e-05 1.88943e-05 9.42357e-06 
492 0.738805 0.259824 0.000799167 0.000420876 0.000108304 4.25402e-05 0 0 0 0 
493 0.278486 0.665185 0.0297459 0.0211609 0.0044145 0.000523178 0.000220842 0 0.000132026 0.000132095 
494 0.278486 0.665185 0.0450695 0.00583737 0.0044145 0.000523178 0.000220842 0 0.000132026 0.000132095 
495 0.0503172 0.920634 0.0112797 0.0169075 0.0005644 0.000212524 5.60972e-05 1.39173e-05 0 1.48869e-05 
496 0.0642265 0.916342 0.0166962 0.00165037 0.000771229 0.000163491 7.29254e-05 4.79749e-05 1.9185e-05 9.56855e-06 
497 0.238179 0.595229 0.090957 0.0449251 0.0298481 0.000447456 0.000188878 0 0.000112917 0.000112976 
498 0.0642265 0.900974 0.01668 0.00165037 0.00077123 0.000176036 0.015445 4.79749e-05 1.9185e-05 9.56855e-06 
499 0.0642265 0.916259 0.0167796 0.00165037 0.000771229 0.000163491 7.29254e-05 4.79749e-05 1.9185e-05 9.56855e-06 
500 0.0340704 0.953389 0.0109255 0.00103219 0.000381509 0.000143897 3.79825e-05 9.42319e-06 0 1.00797e-05 
501 0.278486 0.667308 0.0429462 0.00583737 0.0044145 0.000523178 0.000220842 0 0.000132026 0.000132095 
502 0.0549306 0.892256 0.0504744 0.0014115 0.000659604 0.000139828 6.23704e-05 4.10312e-05 1.64083e-05 8.18363e-06 
503 0.0623093 0.874079 0.016264 0.0095906 0.0374525 0.000159026 7.07486e-05 4.65428e-05 1.86123e-05 9.28292e-06 
504 0.738794 0.259835 0.000799167 0.000420876 0.000108304 4.25402e-05 0 0 0 0 
505 0.278486 0.680569 0.0296849 0.00583737 0.0044145 0.000523178 0.000220842 0 0.000132026 0.000132095 
506 0.262342 0.626623 0.027964 0.00549898 0.0621297 0.0149855 0.00020804 0 0.000124372 0.000124437 
507 0.0642265 0.916358 0.0166801 0.00165037 0.000771229 0.000163491 7.29254e-05 4.79749e-05 1.9185e-05 9.56855e-06 
508 0.0642265 0.900974 0.0320643 0.00165037 0.000771229 0.000163491 7.29254e-05 4.79749e-05 1.9185e-05 9.56855e-06 
509 0.0503172 0.936018 0.0112791 0.00152447 0.000563459 0.000212524 5.60972e-05 1.39173e-05 0 1.48869e-05 
510 0.0623093 0.918855 0.0161821 0.00160111 0.000748208 0.000158611 7.07486e-05 4.65428e-05 1.86123e-05 9.28292e-06 
511 0.18727 0.724708 0.0420876 0.0335302 0.0117618 0.000333398 0.000140733 0 8.41341e-05 8.41783e-05 
512 0.0596389 0.893762 0.0179877 0.0276048 0.000716142 0.000151813 6.77165e-05 4.45481e-05 1.78147e-05 8.88508e-06 
513 0.274266 0.67026 0.0385718 0.0115618 0.00434761 0.000515251 0.000217496 0 0.000130025 0.000130094 
514 0.061393 0.904609 0.0166777 0.00158073 0.0154399 0.000156278 6.97081e-05 4.58584e-05 1.83386e-05 9.14641e-06 
515 0.738794 0.259835 0.000799167 0.000420876 0.000108304 4.25402e-05 0 0 0 0 
516 0.278486 0.665185 0.0296869 0.0212199 0.0044145 0.000523178 0.000220842 0 0.000132026 0.000132095 
517 0.0642265 0.916359 0.0166801 0.00165037 0.000771229 0.000163491 7.29254e-05 4.79749e-05 1.9185e-05 9.56855e-06 
518 0.0642265 0.916358 0.0166805 0.00165037 0.00077123 0.000163491 7.29254e-05 4.79749e-05 1.9185e-05 9.56855e-06 
519 0.0642265 0.901004 0.032035 0.00165037 0.000771229 0.000163491 7.29254e-05 4.79749e-05 1.9185e-05 9.56855e-06 
520 0.278486 0.665185 0.0450691 0.00583737 0.0044145 0.000523178 0.000220842 0 0.000132026 0.000132095 
521 0.0785122 0.774099 0.138048 0.00646316 0.00212407 0.000607452 0.00012614 0 2.05391e-05 0 
522 0.278486 0.665185 0.0296849 0.0059158 0.0197207 0.000523178 0.000220842 0 0.000132026 0.000132095 
523 0.0632534 0.917626 0.0164274 0.00162537 0.000759544 0.000161014 7.18205e-05 4.7248e-05 1.88943e-05 9.42357e-06 
524 0.278486 0.665279 0.0449748 0.00583737 0.0044145 0.000523178 0.000220842 0 0.000132026 0.000132095 
525 0.220751 0.746721 0.0236027 0.00462718 0.0034993 0.000414714 0.000175058 0 0.000104655 0.00010471 
526 0.278486 0.665185 0.0296849 0.00583737 0.0044145 0.000523178 0.000220842 0 0.000136017 0.0155127 
527 0.0474003 0.902604 0.033262 0.0159231 0.000530795 0.000200204 5.28452e-05 1.31105e-05 0 1.40239e-05 
528 0.0642265 0.901044 0.0319949 0.00165054 0.00077123 0.000163491 7.29254e-05 4.79749e-05 1.9185e-05 9.56855e-06 
529 0.551973 0.302038 0.0654706 0.0804061 8.09325e-05 3.17829e-05 0 0 0 0 
530 0.284537 0.640235 0.030442 0.0142467 0.0152176 0.0151979 8.7401e-05 2.38845e-05 9.42167e-06 3.03541e-06 
531 0.278486 0.665185 0.0296849 0.0060389 0.0195976 0.000523178 0.000220842 0 0.000132026 0.000132095 
532 0.0642265 0.916359 0.01668 0.00165037 0.000771229 0.000163491 7.29254e-05 4.79749e-05 1.9185e-05 9.56855e-06 
533 0.0587989 0.824842 0.0368168 0.0692577 0.00999801 0.000149675 6.67627e-05 4.39207e-05 1.75638e-05 8.75994e-06 
534 0.278486 0.667332 0.0429227 0.00583737 0.0044145 0.000523178 0.000220842 0 0.000132026 0.000132095 
535 0.278486 0.680569 0.0296849 0.00583737 0.0044145 0.000523178 0.000220842 0 0.000132026 0.000132095 
536 0.0642265 0.916359 0.01668 0.00165037 0.000771229 0.000163491 7.29254e-05 4.79749e-05 1.9185e-05 9.56855e-06 
537 0.278487 0.680569 0.0296849 0.00583737 0.0044145 0.000523178 0.000220842 0 0.000132026 0.000132095 
538 0.0642265 0.90831 0.0247286 0.00165037 0.00077123 0.000163491 7.29254e-05 4.79749e-05 1.9185e-05 9.56855e-06 
539 0.361157 0.614834 0.0174147 0.00341828 0.00258507 0.000306365 0.000129322 0 7.73124e-05 7.7353e-05 
540 0.278486 0.665202 0.0450432 0.00584667 0.0044145 0.000523178 0.000220842 0 0.000132026 0.000132095 
541 0.061393 0.875931 0.0161347 0.0455046 0.000737205 0.000156278 6.97081e-05 4.58583e-05 1.83386e-05 9.14641e-06 
542 0.7276 0.246365 0.0103196 0.000414499 0.000106877 0.0151932 0 0 0 0 
543 0.214583 0.776562 0.00227603 0.00643323 0.000103792 2.20019e-05 9.81398e-06 6.45625e-06 2.58184e-06 1.28769e-06 
544 0.0642265 0.916359 0.01668 0.00165037 0.000771229 0.000163491 7.29254e-05 4.79749e-05 1.9185e-05 9.56855e-06 
545 0.0623093 0.903921 0.0161968 0.0165208 0.000748208 0.000158611 7.07486e-05 4.65428e-05 1.86123e-05 9.28292e-06 
546 0.061393 0.875931 0.0453559 0.0162834 0.000737205 0.000156278 6.97081e-05 4.58583e-05 1.83386e-05 9.14641e-06 
547 0.0614111 0.920031 0.0159442 0.00157756 0.000737205 0.000156278 6.97081e-05 4.58583e-05 1.83386e-05 9.14641e-06 
548 0.000114271 0.999858 2.34349e-05 2.31784e-06 1.08314e-06 2.29612e-07 1.02419e-07 0 0 0 
549 0.0152652 0.364334 0.619887 0.000310466 0.000144884 3.07136e-05 1.36999e-05 9.01262e-06 3.60412e-06 1.79756e-06 
550 0.0642265 0.900974 0.0166856 0.0170294 0.000771236 0.000163491 7.29254e-05 4.79749e-05 1.9185e-05 9.56855e-06 
551 0.977913 0.0220831 2.43458e-06 7.9803e-07 2.05358e-07 0 0 0 0 0 
552 0.686023 0.298418 0.000742084 0.000393767 0.0143833 3.95016e-05 0 0 0 0 
553 0.274266 0.670258 0.0443866 0.00574893 0.00434761 0.000515251 0.000217496 0 0.000130025 0.000130094 
554 0.274266 0.685409 0.0292351 0.00574893 0.00434761 0.000515251 0.000217496 0 0.000130025 0.000130094 
555 0.578582 0.360459 0.0279131 0.0329282 8.48168e-05 3.33146e-05 0 0 0 0 
556 0.0350818 0.880066 0.083358 0.000901467 0.00042126 8.93018e-05 3.98332e-05 2.62048e-05 1.04792e-05 5.22652e-06 
557 0.307056 0.664672 0.0233575 0.00326852 0.00121908 0.00030989 7.71842e-05 2.01188e-05 1.79401e-05 2.50329e-06 
558 0.153639 0.77254 0.0684061 0.00367593 0.00122841 0.000268849 0.000176363 5.41502e-05 1.14732e-05 0 
559 0.0894452 0.84794 0.0544513 0.00547841 0.00201382 0.000452355 0.00013938 5.2262e-05 2.2709e-05 4.47417e-06 
560 0.335399 0.633656 0.0255756 0.00357023 0.00133161 0.000338495 8.43089e-05 2.19759e-05 1.95961e-05 2.73436e-06 
561 0.272343 0.695759 0.0272513 0.00345603 0.000811403 0.000261194 8.3643e-05 2.28609e-05 9.01789e-06 2.90532e-06 
562 0.089215 0.798277 0.0414433 0.0548059 0.00409405 0.0119845 0.000120288 3.48973e-05 2.48193e-05 0 
563 0.0638309 0.930238 0.0054591 0.000361166 7.6334e-05 2.40189e-05 7.00452e-06 2.90939e-06 5.12832e-07 4.60849e-07 
564 0.146959 0.784608 0.0487648 0.00351257 0.00120739 0.0146929 0.000193294 5.17959e-05 1.09743e-05 0 
565 0.335399 0.633718 0.0255136 0.00357023 0.00133161 0.000338495 8.43089e-05 2.19759e-05 1.95961e-05 2.73436e-06 
566 0.0717641 0.630459 0.24669 0.0489324 0.00161574 0.000362936 0.000111829 4.19312e-05 1.822e-05 3.58974e-06 
567 0.0503172 0.936003 0.0112939 0.00152447 0.000563459 0.000212524 5.60972e-05 1.39173e-05 0 1.48869e-05 
568 0.233939 0.739489 0.0222043 0.00333955 0.000705828 0.000222093 6.47679e-05 2.69019e-05 4.74194e-06 4.26128e-06 
569 0.0821358 0.779051 0.113656 0.006781 0.0175872 0.000635488 0.000131962 0 2.1487e-05 0 
570 0.293292 0.675319 0.0263841 0.00372188 0.000873818 0.000281286 9.00771e-05 2.46194e-05 9.71157e-06 3.1288e-06 
571 0.14956 0.848292 0.0020483 6.8633e-05 2.31548e-05 5.20117e-06 1.60259e-06 6.00908e-07 2.61108e-07 0 
572 0.190017 0.793024 0.0142952 0.00177149 0.00066072 0.000167955 4.18326e-05 1.09041e-05 9.72326e-06 1.35675e-06 
573 0.25875 0.711859 0.0245593 0.00369375 0.000780689 0.000245648 7.16372e-05 2.97552e-05 5.24488e-06 4.71323e-06 
574 0.262872 0.706178 0.0260435 0.00375057 0.000792699 0.000249427 7.27393e-05 3.02129e-05 5.32557e-06 4.78575e-06 
575 0.153639 0.784348 0.0566035 0.00367018 0.00122841 0.000268849 0.000176363 5.41502e-05 1.14732e-05 0 
576 0.0556782 0.222483 0.709123 0.00381831 0.00875476 7.51934e-05 4.93219e-05 1.51437e-05 3.2086e-06 0 
577 0.0949495 0.823198 0.0578022 0.0058224 0.0175155 0.000480193 0.000147958 5.54781e-05 2.41065e-05 4.7495e-06 
578 0.0935109 0.830297 0.0676572 0.00572743 0.00210536 0.000472917 0.000145716 5.46376e-05 2.37412e-05 4.67754e-06 
579 0.25875 0.696742 0.0396759 0.00369375 0.000780689 0.000245648 7.16372e-05 2.97552e-05 5.24488e-06 4.71323e-06 
580 0.205902 0.740666 0.049934 0.00260133 0.000610733 0.000196598 6.29571e-05 1.72071e-05 6.78766e-06 2.1868e-06 
581 0.293292 0.675319 0.0263841 0.00372188 0.000873818 0.000281286 9.00771e-05 2.46194e-05 9.71157e-06 3.1288e-06 
582 0.130123 0.634842 0.232599 0.00196989 0.000320034 0.0001007 2.93668e-05 1.21978e-05 2.15007e-06 1.93213e-06 
583 0.272512 0.68086 0.0422663 0.00290081 0.00108193 0.000275027 6.8501e-05 1.78554e-05 1.59218e-05 2.22167e-06 
584 0.0949495 0.838583 0.0578022 0.00581554 0.00213775 0.000480192 0.000147958 5.54781e-05 2.41065e-05 4.7495e-06 
585 0.27085 0.699307 0.0249372 0.00375057 0.000792699 0.000249427 7.27393e-05 3.02129e-05 5.32557e-06 4.78575e-06 
586 0.288848 0.66527 0.0409532 0.00366549 0.000860578 0.000277024 8.87123e-05 2.42464e-05 9.56443e-06 3.0814e-06 
587 0.0218901 0.873857 0.0857604 0.0123954 0.00557321 0.000212424 0.000103753 9.03634e-05 0.000116846 0 
588 0.132907 0.851666 0.0136937 0.00132493 0.00028003 8.81128e-05 2.5696e-05 1.0673e-05 1.88131e-06 1.69062e-06 
589 0.25114 0.720334 0.023837 0.00358511 0.000757727 0.000238423 6.95302e-05 2.888e-05 5.09062e-06 4.57461e-06 
590 0.107598 0.860969 0.0153282 0.00214147 0.0139233 2.7161e-05 1.2877e-05 0 0 0 
591 0.262731 0.707083 0.0252798 0.00375057 0.000792699 0.000249427 7.27393e-05 3.02129e-05 5.32557e-06 4.78575e-06 
592 0.108306 0.829713 0.0516597 0.00761598 0.0018359 0.000586561 0.00018504 6.47137e-05 2.20256e-05 1.07846e-05 
593 0.280353 0.684623 0.0302401 0.00355768 0.000835267 0.000268876 8.61031e-05 2.35333e-05 9.28312e-06 2.99077e-06 
594 0.240529 0.689897 0.0373447 0.0171293 0.0147686 0.000228352 6.65923e-05 2.76597e-05 4.87552e-06 4.38132e-06 
595 0.246551 0.719938 0.0295905 0.00260747 0.000972521 0.000247215 6.15739e-05 1.60498e-05 1.43118e-05 1.99701e-06 
597 0.0935109 0.825877 0.0720777 0.00572743 0.00210536 0.000472917 0.000145716 5.46376e-05 2.37412e-05 4.67754e-06 
598 0.261993 0.680889 0.0261421 0.012075 0.0185592 0.000234967 6.85225e-05 2.84615e-05 5.01684e-06 4.50831e-06 
599 0.261151 0.697202 0.0234927 0.00331831 0.0144724 0.00025046 8.02056e-05 2.19214e-05 8.64729e-06 2.78592e-06 
600 0.262731 0.704201 0.0281618 0.00375057 0.000792699 0.000249427 7.27393e-05 3.02129e-05 5.32557e-06 4.78575e-06 
601 0.25114 0.706885 0.0372856 0.00358511 0.000757727 0.000238423 6.95302e-05 2.888e-05 5.09062e-06 4.57461e-06 
603 0.293292 0.675319 0.0263841 0.00372188 0.000873818 0.000281286 9.00771e-05 2.46194e-05 9.71157e-06 3.1288e-06 
604 0.27629 0.636204 0.0827918 0.00350614 0.000823162 0.00026498 8.48552e-05 2.31922e-05 9.14858e-06 2.94742e-06 
605 0.069866 0.86838 0.0562314 0.00370599 0.00136229 0.000306005 9.42868e-05 3.53537e-05 1.5362e-05 3.02664e-06 
606 0.0295508 0.935591 0.0226997 0.0112747 0.000663684 0.000148631 4.57964e-05 1.71718e-05 7.46154e-06 1.47008e-06 
607 0.205753 0.747021 0.0433834 0.0029372 0.000620789 0.000195334 5.69645e-05 2.36607e-05 4.17062e-06 3.74787e-06 
608 0.0549135 0.866206 0.0673652 0.0101372 0.00101716 0.000290892 6.04051e-05 0 9.83562e-06 0 
609 0.277281 0.674063 0.0440091 0.00345606 0.000811403 0.000261194 8.3643e-05 2.28609e-05 9.01789e-06 2.90532e-06 
610 0.284583 0.668233 0.0277572 0.0181825 0.000847739 0.000272889 8.73882e-05 2.38845e-05 9.42168e-06 3.03541e-06 
611 0.127374 0.690887 0.123229 0.0562057 0.00157073 0.000495784 0.000156403 5.46984e-05 1.86169e-05 9.11558e-06 
612 0.262731 0.692041 0.0403216 0.00375057 0.000792699 0.000249427 7.27393e-05 3.02129e-05 5.32557e-06 4.78575e-06 
613 0.335399 0.633718 0.0255136 0.00357023 0.00133161 0.000338495 8.43089e-05 2.19759e-05 1.95961e-05 2.73436e-06 
614 0.112647 0.646176 0.210612 0.017867 0.0125851 7.65012e-05 2.35717e-05 8.83843e-06 3.8405e-06 7.56661e-07 
615 0.293292 0.659934 0.0417687 0.00372188 0.000873818 0.000281286 9.00771e-05 2.46194e-05 9.71157e-06 3.1288e-06 
616 0.116511 0.816821 0.0555647 0.00819295 0.00197499 0.000630998 0.000199058 6.96162e-05 2.36942e-05 1.16016e-05 
617 0.227093 0.751997 0.0172748 0.00241734 0.000901608 0.000229189 5.70841e-05 1.48795e-05 1.32682e-05 1.85139e-06 
618 0.222994 0.742161 0.020545 0.0134174 0.000620656 0.000180142 5.2534e-05 2.18205e-05 3.84624e-06 3.45637e-06 
619 0.103915 0.836556 0.049626 0.00730722 0.00176147 0.000562782 0.000177539 6.20901e-05 2.11327e-05 1.03474e-05 
620 0.116511 0.80167 0.0707162 0.00819295 0.00197499 0.000630998 0.000199058 6.96162e-05 2.36942e-05 1.16016e-05 
621 0.0732865 0.871847 0.0273547 0.00575074 0.020857 0.000669061 0.000155494 4.67087e-05 3.32197e-05 0 
622 0.335399 0.618334 0.0408982 0.00357023 0.00133161 0.000338495 8.43089e-05 2.19759e-05 1.95961e-05 2.73436e-06 
623 0.0684465 0.828696 0.0947136 0.00563455 0.00185175 0.000529574 0.000109968 0 1.79059e-05 0 
624 0.0721761 0.88894 0.0269403 0.0056636 0.00538944 0.000658924 0.000153138 4.6001e-05 3.27163e-05 0 
625 0.0216146 0.87532 0.0873338 0.0097124 0.00550267 0.000209736 0.00010244 8.92196e-05 0.000115367 0 
626 0.115628 0.880491 0.00150011 0.00217869 0.000159569 2.91879e-05 1.3838e-05 0 0 0 
627 0.0821835 0.794388 0.113656 0.00676146 0.00222211 0.000635488 0.000131962 0 2.1487e-05 0 
628 0.0773744 0.777355 0.121572 0.0066695 0.0162861 0.000598648 0.000124312 0 2.02414e-05 0 
629 0.279534 0.680983 0.0350094 0.00297519 0.00110967 0.000282079 7.02574e-05 1.83133e-05 1.63301e-05 2.27864e-06 
630 0.114772 0.819555 0.0547355 0.00807067 0.00194551 0.00062158 0.000196087 6.85772e-05 2.33406e-05 1.14285e-05 
631 0.0522962 0.672235 0.270334 0.0035812 0.00114632 0.000327831 6.80756e-05 0 1.10846e-05 0 
632 0.113084 0.785459 0.0906495 0.00798307 0.0019169 0.000612439 0.000193204 6.75687e-05 2.29973e-05 1.12604e-05 
633 0.0797872 0.884451 0.0299655 0.00274852 0.00261547 0.000319772 7.4317e-05 2.2324e-05 1.5877e-05 0 
634 0.119185 0.876809 0.00155063 0.00224572 0.000164479 3.0086e-05 1.42638e-05 0 0 0 
635 0.315956 0.654952 0.0240345 0.00336326 0.00125441 0.000318872 7.94214e-05 2.0702e-05 1.84601e-05 2.57585e-06 
636 0.296562 0.626315 0.0595953 0.0160096 0.00112413 0.000285742 7.11698e-05 1.85511e-05 1.65422e-05 2.30823e-06 
637 0.0949495 0.838583 0.0578022 0.00581554 0.00213775 0.000480192 0.000147958 5.54781e-05 2.41065e-05 4.7495e-06 
638 0.0785122 0.789761 0.122386 0.00646316 0.00212407 0.000607452 0.00012614 0 2.05391e-05 0 
639 0.116511 0.816821 0.0555647 0.00819295 0.00197499 0.000630998 0.000199058 6.96162e-05 2.36942e-05 1.16016e-05 
640 0.203361 0.749089 0.0437537 0.00290223 0.000613398 0.000193009 5.62864e-05 2.33791e-05 4.12097e-06 3.70326e-06 
641 0.116511 0.816821 0.0555647 0.00819295 0.00197499 0.000630998 0.000199058 6.96162e-05 2.36942e-05 1.16016e-05 
642 0.0762702 0.780789 0.119752 0.02036 0.00209555 0.000590096 0.000122536 0 1.99523e-05 0 
643 0.243965 0.728324 0.0231559 0.00348268 0.000736078 0.000231611 6.75437e-05 2.80549e-05 4.94517e-06 4.44391e-06 
644 0.243965 0.72829 0.0231901 0.00348268 0.000736078 0.000231611 6.75437e-05 2.80549e-05 4.94517e-06 4.44391e-06 
645 0.0523023 0.656905 0.178019 0.111267 0.0011012 0.000273986 8.64333e-05 3.02281e-05 1.02883e-05 5.03756e-06 
646 0.0873839 0.811898 0.0631842 0.035313 0.00151946 0.000473248 0.000149294 5.22122e-05 1.77707e-05 8.70124e-06 
648 0.156263 0.610559 0.214725 0.0177701 0.000465559 0.000149866 4.79919e-05 1.31169e-05 5.1742e-06 1.66699e-06 
649 0.0907606 0.844077 0.0568789 0.00555897 0.00204343 0.000459007 0.00014143 5.30306e-05 2.3043e-05 4.53996e-06 
650 0.254888 0.716159 0.0241928 0.00363862 0.000769037 0.000241981 7.0568e-05 2.93111e-05 5.16659e-06 4.64289e-06 
651 0.253421 0.688829 0.0400606 0.00336332 0.0140129 0.000216197 6.30408e-05 2.61846e-05 4.61549e-06 4.14765e-06 
652 0.114772 0.805561 0.0686178 0.00818212 0.00194551 0.00062158 0.000196087 6.85772e-05 2.33406e-05 1.14285e-05 
653 0.0652831 0.887329 0.0447343 0.00160173 0.000748208 0.000158611 7.07486e-05 4.65428e-05 1.86123e-05 9.28292e-06 
654 0.0503172 0.936018 0.0112791 0.00152447 0.000563459 0.000212524 5.60972e-05 1.39173e-05 0 1.48869e-05 
655 0.042242 0.896837 0.020552 0.0140105 0.000519234 0.0257685 4.68149e-05 1.15978e-05 0 1.24058e-05 
656 0.104595 0.829363 0.0623606 0.00249723 0.000835822 0.000182928 0.00012 3.68445e-05 7.80649e-06 0 
657 0.146959 0.807952 0.0399146 0.0035106 0.001175 0.00025716 0.000168695 5.17959e-05 1.09743e-05 0 
658 0.118304 0.814003 0.0564195 0.00831899 0.00200537 0.000640705 0.000202121 7.06872e-05 2.40587e-05 1.17801e-05 
659 0.0949495 0.823198 0.0578022 0.00581568 0.0107628 0.00723962 0.000147958 5.54781e-05 2.41065e-05 4.7495e-06 
660 0.25875 0.697336 0.0390783 0.00369793 0.000780689 0.000245648 7.16372e-05 2.97552e-05 5.24488e-06 4.71323e-06 
661 0.0751948 0.765652 0.124368 0.0179442 0.00220121 0.0144994 0.000120814 0 1.96712e-05 0 
662 0.0732865 0.884243 0.0303434 0.00575074 0.00547236 0.000669061 0.000155494 4.67087e-05 3.32197e-05 0 
663 0.335399 0.626472 0.0327595 0.00357023 0.00133161 0.000338495 8.43089e-05 2.19759e-05 1.95961e-05 2.73436e-06 
664 0.268547 0.702617 0.0242544 0.00340736 0.000799974 0.000257515 8.24649e-05 2.25389e-05 8.89088e-06 2.8644e-06 
665 0.0467231 0.940588 0.0104734 0.00141558 0.000523212 0.000197344 5.20902e-05 1.29232e-05 0 1.38236e-05 
666 0.284537 0.670086 0.0289483 0.0151844 0.000847734 0.000272889 8.73882e-05 2.38845e-05 9.42168e-06 3.03541e-06 
667 0.156002 0.780749 0.0423709 0.0183722 0.00198637 0.000272985 0.000179076 5.49833e-05 1.16497e-05 0 
668 0.0808913 0.79755 0.111934 0.00665902 0.00218844 0.00062586 0.000129962 0 2.11615e-05 0 
669 0.0732865 0.887231 0.0273547 0.00575074 0.00547236 0.000669061 0.000155494 4.67087e-05 3.32197e-05 0 
670 0.0680517 0.895284 0.0254031 0.00533997 0.00508148 0.000621271 0.000144387 4.33724e-05 3.08468e-05 0 
671 0.0227658 0.82173 0.139231 0.0099326 0.00579614 0.000220921 0.000107903 9.3978e-05 0.00012152 0 
672 0.247501 0.716937 0.0309411 0.00353315 0.000746746 0.000234967 6.85225e-05 2.84615e-05 5.01684e-06 4.50831e-06 
673 0.218189 0.751736 0.0166215 0.0122848 0.000865554 0.000220022 5.48008e-05 1.42844e-05 1.27375e-05 1.77734e-06 
674 0.2475 0.724387 0.0234915 0.00353315 0.000746746 0.000234967 6.85225e-05 2.84615e-05 5.01684e-06 4.50831e-06 
675 0.0610958 0.880361 0.0227956 0.00480552 0.0289755 0.00177016 0.000129578 3.89239e-05 2.7683e-05 0 
676 0.0258702 0.83561 0.0897254 0.0113882 0.0367871 0.000251047 0.000122617 0.000106793 0.000138091 0 
677 0.118304 0.813996 0.0564268 0.00831899 0.00200537 0.000640705 0.000202121 7.06872e-05 2.40587e-05 1.17801e-05 
678 0.0935109 0.840798 0.0571568 0.00572743 0.00210536 0.000472917 0.000145716 5.46376e-05 2.37412e-05 4.67754e-06 
679 0.25875 0.711859 0.0245593 0.00369375 0.000780689 0.000245648 7.16372e-05 2.97552e-05 5.24488e-06 4.71323e-06 
680 0.25875 0.711859 0.0245593 0.00369375 0.000780689 0.000245648 7.16372e-05 2.97552e-05 5.24488e-06 4.71323e-06 
681 0.181765 0.733363 0.0671597 0.00179853 0.0153551 0.000515682 2.82478e-05 7.36307e-06 6.56571e-06 9.16153e-07 
682 0.330317 0.639266 0.0251295 0.00351613 0.00131143 0.000333366 8.30315e-05 2.1643e-05 1.92992e-05 2.69293e-06 
683 0.10627 0.729155 0.092125 0.0463428 0.0258781 0.000120708 7.91834e-05 2.43123e-05 5.15123e-06 0 
684 0.064842 0.719859 0.209817 0.00389819 0.00118764 0.000266773 8.21987e-05 3.08212e-05 1.33925e-05 2.63861e-06 
685 0.137083 0.315597 0.545326 0.00148608 0.00034633 0.000111485 3.57013e-05 9.7577e-06 3.8491e-06 1.24007e-06 
686 0.0949495 0.838583 0.0578022 0.00581554 0.00213775 0.000480192 0.000147958 5.54781e-05 2.41065e-05 4.7495e-06 
687 0.0475002 0.916398 0.0301103 0.00519033 0.000569658 0.00012076 5.38654e-05 3.5436e-05 1.41708e-05 7.06768e-06 
688 0.135889 0.813658 0.0339035 0.00295405 0.000988717 0.00027694 0.0122765 4.35843e-05 9.23451e-06 0 
689 0.207592 0.761385 0.0277036 0.0024686 0.000579573 0.000186567 5.9745e-05 1.63292e-05 6.44135e-06 2.07523e-06 
690 0.24406 0.699408 0.0234049 0.00348267 0.000737845 0.0288013 6.75436e-05 2.80549e-05 4.94517e-06 4.44391e-06 
691 0.278378 0.66831 0.035294 0.0168598 0.000788873 0.000253939 8.13196e-05 2.22259e-05 8.76739e-06 2.82461e-06 
692 0.0518632 0.894666 0.0487377 0.00317656 0.00116768 0.00026229 8.08173e-05 3.03032e-05 1.31674e-05 2.59427e-06 
693 0.293292 0.675206 0.0264973 0.00372188 0.000873818 0.000281286 9.00771e-05 2.46194e-05 9.71157e-06 3.1288e-06 
694 0.111446 0.824786 0.0531488 0.00783673 0.00188912 0.000603563 0.000190404 6.65894e-05 2.2664e-05 1.10972e-05 
695 0.185625 0.772544 0.0274949 0.00282736 0.0112521 0.000176226 5.13919e-05 2.13461e-05 3.76263e-06 3.38123e-06 
696 0.156002 0.796134 0.0423709 0.00372664 0.0012473 0.000272985 0.000179076 5.49833e-05 1.16497e-05 0 
697 0.0858667 0.686863 0.0957411 0.118106 0.0128721 0.000371577 0.000114491 4.29295e-05 1.86538e-05 3.67521e-06 
698 0.280353 0.677117 0.0377461 0.00355774 0.000835267 0.000268876 8.61031e-05 2.35333e-05 9.28312e-06 2.99077e-06 
699 0.0462817 0.65434 0.0563441 0.242211 0.000630958 0.000129512 3.99056e-05 1.4963e-05 6.50175e-06 1.28099e-06 
700 0.330317 0.624116 0.0257017 0.0180926 0.0013118 0.000333366 8.30315e-05 2.1643e-05 1.92992e-05 2.69293e-06 
701 0.0495549 0.936988 0.0111082 0.00150137 0.000554922 0.000209304 5.52472e-05 1.37065e-05 0 1.46614e-05 
702 0.293292 0.675319 0.0263841 0.00372188 0.000873818 0.000281286 9.00771e-05 2.46194e-05 9.71157e-06 3.1288e-06 
703 0.262731 0.707419 0.0249444 0.00375057 0.000792699 0.000249427 7.27393e-05 3.02129e-05 5.32557e-06 4.78575e-06 
704 0.079684 0.800571 0.110264 0.00655963 0.00215577 0.000616518 0.000128023 0 2.08456e-05 0 
705 0.146959 0.766258 0.0794798 0.0056395 0.001175 0.00025716 0.000168695 5.17959e-05 1.09743e-05 0 
706 0.278486 0.665185 0.0450695 0.00583737 0.0044145 0.000523178 0.000220842 0 0.000132026 0.000132095 
707 0.293292 0.675319 0.0263841 0.00372188 0.000873818 0.000281286 9.00771e-05 2.46194e-05 9.71157e-06 3.1288e-06 
708 0.144859 0.770905 0.0772079 0.00538753 0.00115821 0.000253486 0.000166285 5.10559e-05 1.08176e-05 0 
709 0.156002 0.796134 0.042371 0.00372664 0.0012473 0.000272985 0.000179076 5.49833e-05 1.16497e-05 0 
710 0.151025 0.833517 0.0131464 0.00153685 0.000573208 0.00014571 3.62919e-05 9.45983e-06 8.43541e-06 1.17704e-06 
711 0.0830588 0.87249 0.0370491 0.00546197 0.00131666 0.000420665 0.000132706 4.64108e-05 1.57961e-05 7.73443e-06 
712 0.0744296 0.873468 0.0453163 0.00455434 0.00167414 0.000376054 0.000115871 4.34467e-05 1.88786e-05 3.71949e-06 
713 0.233383 0.727131 0.0351764 0.00329442 0.00069629 0.000219091 6.38927e-05 2.65384e-05 4.67786e-06 4.20369e-06 
714 0.0623093 0.904492 0.030545 0.00160115 0.000748208 0.000158611 7.07486e-05 4.65428e-05 1.86123e-05 9.28292e-06 
715 0.156002 0.780749 0.0577555 0.00372664 0.0012473 0.000272985 0.000179076 5.49833e-05 1.16497e-05 0 
716 0.27629 0.683841 0.0351547 0.00350612 0.000823162 0.00026498 8.48552e-05 2.31922e-05 9.14858e-06 2.94742e-06 
717 0.236676 0.688515 0.0542648 0.0176458 0.00258851 0.000213326 6.22113e-05 2.584e-05 4.55476e-06 4.09307e-06 
718 0.315956 0.626923 0.0520632 0.00336326 0.00125441 0.000318872 7.94214e-05 2.0702e-05 1.84601e-05 2.57585e-06 
719 0.335399 0.618334 0.0255136 0.00357023 0.00142103 0.0136819 0.00203606 2.19759e-05 1.95961e-05 2.73436e-06 
720 0.0789934 0.912917 0.0068094 0.000952451 0.000223615 7.19826e-05 2.30512e-05 6.30025e-06 2.48525e-06 8.00678e-07 
721 0.21269 0.697383 0.0391891 0.0498538 0.000606182 0.000190738 5.56242e-05 2.3104e-05 4.07249e-06 3.65969e-06 
722 0.118304 0.798619 0.0717742 0.00834869 0.00200537 0.000640705 0.000202121 7.06872e-05 2.40587e-05 1.17801e-05 
723 0.325387 0.600424 0.0689789 0.00346483 0.00129186 0.000328391 8.17922e-05 2.13199e-05 1.90112e-05 2.65274e-06 
724 0.0949495 0.825888 0.0704963 0.00581554 0.00213775 0.000480192 0.000147958 5.54781e-05 2.41065e-05 4.7495e-06 
725 0.335399 0.633718 0.0255136 0.00357023 0.00133161 0.000338495 8.43089e-05 2.19759e-05 1.95961e-05 2.73436e-06 
726 0.335399 0.618334 0.0255136 0.00366822 0.0166182 0.000338498 8.43089e-05 2.19759e-05 1.95961e-05 2.73436e-06 
727 0.123214 0.805731 0.0601122 0.00819948 0.00186213 0.000594941 0.000187684 6.56381e-05 2.23403e-05 1.09387e-05 
728 0.0503172 0.920634 0.0112791 0.016907 0.00056547 0.000212524 5.60972e-05 1.39173e-05 0 1.48869e-05 
729 0.262731 0.692041 0.025013 0.0190593 0.000792699 0.000249427 7.27393e-05 3.02129e-05 5.32557e-06 4.78575e-06 
730 0.156002 0.781277 0.0572278 0.00372664 0.0012473 0.000272985 0.000179076 5.49833e-05 1.16497e-05 0 
731 0.254888 0.716159 0.0241928 0.00363862 0.000769037 0.000241981 7.0568e-05 2.93111e-05 5.16659e-06 4.64289e-06 
732 0.118304 0.798618 0.0564195 0.008329 0.01738 0.000640705 0.000202121 7.06872e-05 2.40587e-05 1.17801e-05 
733 0.293292 0.660266 0.0414375 0.00372188 0.000873818 0.000281286 9.00771e-05 2.46194e-05 9.71157e-06 3.1288e-06 
734 0.0907605 0.830998 0.0695702 0.00594643 0.00204343 0.000459007 0.00014143 5.30306e-05 2.3043e-05 4.53997e-06 
735 0.285012 0.652396 0.0207298 0.00292283 0.0385599 0.000275027 6.8501e-05 1.78554e-05 1.59218e-05 2.22167e-06 
736 0.280353 0.678711 0.0361527 0.0035577 0.000835267 0.000268876 8.61031e-05 2.35333e-05 9.28312e-06 2.99077e-06 
737 0.0935109 0.82013 0.0778246 0.00572743 0.00210536 0.000472917 0.000145716 5.46376e-05 2.37413e-05 4.67754e-06 
738 0.302791 0.641516 0.0230686 0.00347332 0.0287296 0.000305682 7.61122e-05 1.98394e-05 1.76909e-05 2.46852e-06 
739 0.288848 0.665087 0.026004 0.0187974 0.000860578 0.000277024 8.87123e-05 2.42464e-05 9.56443e-06 3.0814e-06 
740 0.262731 0.707426 0.0249372 0.00375057 0.000792699 0.000249427 7.27393e-05 3.02129e-05 5.32557e-06 4.78575e-06 
741 0.118304 0.798618 0.0718042 0.00831899 0.00200537 0.000640705 0.000202121 7.06872e-05 2.40587e-05 1.17801e-05 
742 0.119185 0.876814 0.00154626 0.00224572 0.000164479 3.0086e-05 1.42638e-05 0 0 0 
743 0.0704283 0.927208 0.000913723 0.00132702 9.71921e-05 1.77781e-05 8.42858e-06 0 0 0 
744 0.0181642 0.85572 0.112267 0.00879025 0.00462458 0.000176267 8.60928e-05 7.49824e-05 9.69575e-05 0 
745 0.302791 0.657468 0.0346344 0.00348236 0.00120214 0.000305586 7.61122e-05 1.98394e-05 1.76909e-05 2.46852e-06 
746 0.116511 0.80167 0.0556837 0.0213183 0.00388224 0.000630998 0.000199058 6.96162e-05 2.36942e-05 1.16016e-05 
747 0.280353 0.689643 0.0252201 0.00355768 0.000835267 0.000268876 8.61031e-05 2.35333e-05 9.28312e-06 2.99077e-06 
748 0.0921152 0.815203 0.0842742 0.00564194 0.00207393 0.000465858 0.000143541 5.38221e-05 2.33869e-05 4.60773e-06 
749 0.0791246 0.829766 0.071215 0.0175193 0.00178146 0.00040016 0.000123298 4.62318e-05 2.00888e-05 3.95792e-06 
750 0.0395643 0.913841 0.0373924 0.00801482 0.000890731 0.00020008 6.16491e-05 2.31159e-05 1.00444e-05 1.97896e-06 
751 0.25114 0.720334 0.023837 0.00358511 0.000757727 0.000238423 6.95302e-05 2.888e-05 5.09062e-06 4.57461e-06 
752 0.0651673 0.888833 0.0397892 0.00458259 0.00110465 0.000352931 0.000111338 3.89379e-05 1.32527e-05 6.48906e-06 
753 0.330317 0.624116 0.025127 0.00358296 0.0163961 0.000333366 8.30315e-05 2.1643e-05 1.92992e-05 2.69293e-06 
754 0.156002 0.796134 0.0423709 0.00372664 0.0012473 0.000272985 0.000179076 5.49833e-05 1.16497e-05 0 
755 0.288848 0.680239 0.0259844 0.00366549 0.000860578 0.000277024 8.87123e-05 2.42464e-05 9.56443e-06 3.0814e-06 
756 0.221786 0.727085 0.034057 0.0160963 0.000669162 0.000210555 6.14033e-05 2.55044e-05 4.49561e-06 4.03991e-06 
757 0.196703 0.769953 0.0238063 0.00857101 0.000715509 0.000181836 4.52899e-05 1.18052e-05 1.05268e-05 1.46887e-06 
758 0.118304 0.798618 0.0566507 0.0234724 0.00200537 0.000640705 0.000202121 7.06872e-05 2.40587e-05 1.17801e-05 
759 0.0751948 0.811807 0.104051 0.00619007 0.00203432 0.000581785 0.00012081 0 1.96712e-05 0 
760 0.140835 0.810627 0.0435793 0.00336433 0.00112604 0.000246445 0.000161666 4.96377e-05 1.05171e-05 0 
761 0.0857183 0.854276 0.0521825 0.00525014 0.00192991 0.000433507 0.000133573 5.00844e-05 2.17628e-05 4.28774e-06 
762 0.262731 0.692041 0.0249373 0.0191351 0.000792699 0.000249427 7.27393e-05 3.02129e-05 5.32557e-06 4.78575e-06 
763 0.18043 0.762846 0.0536861 0.00232185 0.000490719 0.000154407 4.50291e-05 1.87033e-05 3.29678e-06 2.9626e-06 
764 0.156002 0.780749 0.0430027 0.0184795 0.0012473 0.000272985 0.000179076 5.49833e-05 1.16497e-05 0 
765 0.213447 0.690339 0.0679504 0.0273766 0.000604242 0.000194506 6.22873e-05 1.70241e-05 6.71545e-06 2.16353e-06 
766 0.0425998 0.924086 0.0111561 0.0212875 0.000662644 0.000108438 4.83689e-05 3.18201e-05 1.27248e-05 6.34649e-06 
767 0.142819 0.799278 0.0528747 0.00341171 0.0011419 0.000249916 0.000163943 5.03368e-05 1.06652e-05 0 
768 0.25875 0.711859 0.0245594 0.00369375 0.000780689 0.000245648 7.16372e-05 2.97552e-05 5.24488e-06 4.71323e-06 
769 0.206775 0.718991 0.0702677 0.00320174 0.000521084 0.000167739 5.37157e-05 1.46813e-05 5.79131e-06 1.8658e-06 
770 0.0949495 0.823198 0.0578453 0.0211569 0.00213777 0.000480192 0.000147958 5.54781e-05 2.41065e-05 4.7495e-06 
771 0.2277 0.719578 0.0341019 0.00428901 0.0140167 0.000216197 6.30408e-05 2.61846e-05 4.61549e-06 4.14765e-06 
772 0.230777 0.743008 0.0219056 0.00329442 0.00069629 0.000219091 6.38927e-05 2.65384e-05 4.67786e-06 4.20369e-06 
773 0.315956 0.640459 0.024054 0.0178365 0.00125443 0.000318872 7.94214e-05 2.0702e-05 1.84601e-05 2.57585e-06 
774 0.0560426 0.913765 0.0209183 0.00439762 0.00418475 0.000511635 0.000118907 3.57184e-05 2.54033e-05 0 
775 0.116511 0.816821 0.0555647 0.00819295 0.00197499 0.000630998 0.000199058 6.96162e-05 2.36942e-05 1.16016e-05 
776 0.307056 0.608334 0.0233575 0.045522 0.00171898 0.0138945 7.71842e-05 2.01188e-05 1.79401e-05 2.50329e-06 
777 0.116511 0.81682 0.0555663 0.00819295 0.00197499 0.000630998 0.000199058 6.96162e-05 2.36942e-05 1.16016e-05 
778 0.0762691 0.767781 0.118304 0.00657448 0.0176279 0.0132896 0.000134072 0 1.99523e-05 0 
779 0.293292 0.675319 0.0263841 0.00372188 0.000873818 0.000281286 9.00771e-05 2.46194e-05 9.71157e-06 3.1288e-06 
780 0.309107 0.627106 0.0462675 0.00301389 0.014111 0.000285743 7.11698e-05 1.85511e-05 1.65422e-05 2.30823e-06 
781 0.030425 0.954906 0.0126359 0.00159855 0.000294907 9.42214e-05 2.97237e-05 1.03952e-05 3.53805e-06 1.73237e-06 
782 0.025484 0.854556 0.101745 0.0111174 0.00648822 0.0002473 0.000120787 0.000105199 0.00013603 0 
783 0.0662147 0.889004 0.022373 0.0137513 0.00863203 1.67152e-05 7.92431e-06 0 0 0 
784 0.0241577 0.93877 0.0341974 0.00198867 0.00065356 0.000186908 3.88123e-05 0 6.31972e-06 0 
785 0.284537 0.670086 0.0258465 0.0182863 0.000847734 0.000272889 8.73882e-05 2.38845e-05 9.42168e-06 3.03541e-06 
786 0.335399 0.633718 0.0255136 0.00357023 0.00133161 0.000338495 8.43089e-05 2.19759e-05 1.95961e-05 2.73436e-06 
787 0.288848 0.665087 0.0259844 0.00370376 0.0159738 0.000277032 8.87123e-05 2.42464e-05 9.56443e-06 3.0814e-06 
788 0.0949495 0.823198 0.0578022 0.00581554 0.00213775 0.000554356 0.0154584 5.54781e-05 2.41065e-05 4.7495e-06 
789 0.0942846 0.840227 0.0569543 0.00572743 0.00210536 0.000472917 0.000145716 5.46376e-05 2.37413e-05 4.67754e-06 
790 0.25875 0.685526 0.035741 0.00369387 0.0159321 0.000245659 7.16372e-05 2.97552e-05 5.24488e-06 4.71323e-06 
791 0.0949495 0.838583 0.0578022 0.00581554 0.00213775 0.000480192 0.000147958 5.54781e-05 2.41065e-05 4.7495e-06 
792 0.0834017 0.814373 0.0686054 0.024016 0.00897779 0.00042179 0.000129963 4.87308e-05 2.11746e-05 4.17186e-06 
793 0.219317 0.746143 0.0308442 0.00274912 0.000645434 0.000207768 6.65342e-05 1.81848e-05 7.17332e-06 2.31105e-06 
794 0.227701 0.670408 0.0976393 0.00325051 0.000687006 0.00021617 6.30407e-05 2.61846e-05 4.61549e-06 4.14765e-06 
795 0.0801522 0.811918 0.0874152 0.00515182 0.0125779 0.00258921 0.000124899 4.68322e-05 2.03496e-05 4.00932e-06 
796 0.268507 0.692228 0.0346835 0.00340736 0.000799974 0.000257515 8.24649e-05 2.25389e-05 8.89088e-06 2.8644e-06 
797 0.0894452 0.847939 0.0544521 0.00547841 0.00201382 0.000452355 0.00013938 5.2262e-05 2.2709e-05 4.47417e-06 
798 0.293292 0.659935 0.0275527 0.0179283 0.000883411 0.000281286 9.00771e-05 2.46194e-05 9.71157e-06 3.1288e-06 
799 0.230778 0.72949 0.0354129 0.00330404 0.00069629 0.000219091 6.38927e-05 2.65384e-05 4.67786e-06 4.20369e-06 
800 0.335432 0.632221 0.0269778 0.00357023 0.00133161 0.000338495 8.43089e-05 2.19759e-05 1.95961e-05 2.73436e-06 
801 0.0732865 0.887231 0.0273547 0.00575074 0.00547236 0.000669061 0.000155494 4.67087e-05 3.32197e-05 0 
802 0.118304 0.813604 0.0568189 0.00831899 0.00200537 0.000640705 0.000202121 7.06872e-05 2.40587e-05 1.17801e-05 
803 0.0536734 0.264078 0.671467 0.00996509 0.000612262 0.0001375 4.23668e-05 1.58858e-05 6.90274e-06 1.35999e-06 
804 0.0262682 0.848466 0.091271 0.0266789 0.00668786 0.000254909 0.000124503 0.000108436 0.000140215 0 
805 0.25114 0.720233 0.0239371 0.00358511 0.000757727 0.000238423 6.95302e-05 2.888e-05 5.09061e-06 4.57461e-06 
806 0.0240948 0.973792 0.00174568 0.000244279 9.11099e-05 2.31602e-05 5.7685e-06 1.50362e-06 1.34079e-06 1.87088e-07 
807 0.198583 0.760414 0.0343022 0.00583246 0.000591648 0.000190454 6.09897e-05 1.66694e-05 6.57554e-06 2.11846e-06 
808 0.113084 0.779438 0.0837156 0.0203197 0.00253531 0.000612439 0.000193204 6.75687e-05 2.29973e-05 1.12604e-05 
809 0.0821358 0.780527 0.127565 0.00676146 0.00222211 0.000635488 0.000131962 0 2.1487e-05 0 
810 0.293292 0.675319 0.0263841 0.00372188 0.000873818 0.000281286 9.00771e-05 2.46194e-05 9.71157e-06 3.1288e-06 
811 0.127802 0.794799 0.0044487 0.0728645 5.91189e-05 1.85809e-05 5.95021e-06 1.62628e-06 6.41516e-07 2.06679e-07 
812 0.0935109 0.810725 0.0569264 0.0360304 0.00210536 0.000472917 0.000145716 5.46376e-05 2.37413e-05 4.67754e-06 
813 0.0144217 0.565987 0.281593 0.0504163 0.0875818 0 0 0 0 0 
814 0.25875 0.681556 0.0245593 0.00369444 0.0159601 0.0153686 7.16372e-05 2.97552e-05 5.24488e-06 4.71323e-06 
815 0.153639 0.76892 0.0417289 0.0339732 0.00122841 0.000268849 0.000176363 5.41502e-05 1.14732e-05 0 
816 0.335399 0.618334 0.0255136 0.00357023 0.00141995 0.0156348 8.43089e-05 2.19759e-05 1.95961e-05 2.73436e-06 
817 0.27255 0.631195 0.0856915 0.00910201 0.00108193 0.000275027 6.8501e-05 1.78554e-05 1.59218e-05 2.22167e-06 
818 0.119187 0.732046 0.148335 0.000319708 7.60939e-05 2.43116e-05 7.6695e-06 2.68223e-06 9.12911e-07 4.46998e-07 
819 0.124449 0.838407 0.0349428 0.00162383 0.000391438 0.000125063 3.9453e-05 1.37978e-05 4.69615e-06 2.29942e-06 
820 0.335399 0.633718 0.0255136 0.00357023 0.00133161 0.000338495 8.43089e-05 2.19759e-05 1.95961e-05 2.73436e-06 
821 0.0854617 0.797282 0.0426131 0.00627397 0.0599613 0.00818003 0.000212248 1.06358e-05 3.61995e-06 1.77247e-06 
822 0.154593 0.783117 0.0426015 0.0179491 0.00122841 0.000268849 0.000176363 5.41502e-05 1.14732e-05 0 
823 0.0881674 0.848026 0.0557594 0.00540015 0.00198505 0.000445893 0.000137389 5.15154e-05 2.23846e-05 4.41025e-06 
824 0.293292 0.659934 0.0263841 0.00372188 0.0162584 0.000281286 9.00771e-05 2.46194e-05 9.71157e-06 3.1288e-06 
825 0.0535222 0.930298 0.0139005 0.00137531 0.000642691 0.000136243 6.07712e-05 3.99791e-05 1.59875e-05 7.97379e-06 
826 0.0559321 0.644644 0.288821 0.000914525 0.00034103 0.00929602 3.34524e-05 8.29932e-06 0 8.87753e-06 
827 0.288848 0.665087 0.0259847 0.00366549 0.00295093 0.0133382 8.87135e-05 2.42464e-05 9.56443e-06 3.0814e-06 
828 0.221675 0.754602 0.0199415 0.00281305 0.000660444 0.0002126 6.80815e-05 1.86077e-05 7.34014e-06 2.36479e-06 
829 0.156002 0.796111 0.0423941 0.00372664 0.0012473 0.000272985 0.000179076 5.49833e-05 1.16497e-05 0 
830 0.0495548 0.936988 0.0111082 0.00150137 0.000554922 0.000209304 5.52472e-05 1.37065e-05 0 1.46614e-05 
831 0.118304 0.798621 0.0718015 0.00831899 0.00200537 0.000640705 0.000202121 7.06872e-05 2.40587e-05 1.17801e-05 
832 0.118304 0.813392 0.0570307 0.00831899 0.00200537 0.000640705 0.000202121 7.06872e-05 2.40587e-05 1.17801e-05 
833 0.0721642 0.922651 0.0046161 0.000385719 0.0001291 2.82548e-05 1.85349e-05 5.69094e-06 1.20578e-06 0 
834 0.262731 0.692041 0.0403217 0.00375057 0.000792699 0.000249427 7.27393e-05 3.02129e-05 5.32557e-06 4.78575e-06 
835 0.335399 0.633718 0.0255136 0.00357023 0.00133161 0.000338495 8.43089e-05 2.19759e-05 1.95961e-05 2.73436e-06 
836 0.243965 0.728324 0.0231559 0.00348268 0.000736078 0.000231611 6.75437e-05 2.80549e-05 4.94517e-06 4.44391e-06 
837 0.0190941 0.975823 0.00340802 0.00156182 8.04657e-05 1.70576e-05 7.60859e-06 5.0054e-06 2.00165e-06 9.98323e-07 
838 0.2475 0.710108 0.032743 0.00856064 0.000746746 0.000234967 6.85226e-05 2.84615e-05 5.01684e-06 4.50831e-06 
839 0.335399 0.618334 0.0255139 0.0189545 0.00133162 0.000338495 8.43089e-05 2.19759e-05 1.95961e-05 2.73436e-06 
840 0.0442826 0.932339 0.0218198 0.00105778 0.000354038 7.74848e-05 5.08295e-05 1.56066e-05 3.30668e-06 0 
841 0.144859 0.781848 0.0398043 0.0318482 0.00115823 0.000253486 0.000166285 5.10559e-05 1.08176e-05 0 
842 0.253124 0.626858 0.106213 0.0126124 0.000883208 0.000224512 5.59191e-05 1.45759e-05 1.29974e-05 1.81361e-06 
843 0.220217 0.749406 0.0167542 0.0124423 0.000874287 0.000222244 5.53543e-05 1.44286e-05 1.28661e-05 1.79529e-06 
844 0.288848 0.680239 0.0259844 0.00366549 0.000860578 0.000277024 8.87123e-05 2.42464e-05 9.56443e-06 3.0814e-06 
845 0.2475 0.666416 0.0814624 0.00353315 0.000746746 0.000234967 6.85225e-05 2.84615e-05 5.01684e-06 4.50831e-06 
846 0.330317 0.623944 0.0256824 0.0182846 0.00131143 0.000333366 8.30315e-05 2.1643e-05 1.92992e-05 2.69293e-06 
847 0.288851 0.680236 0.0259848 0.00366549 0.000860578 0.000277024 8.87123e-05 2.42464e-05 9.56443e-06 3.0814e-06 
848 0.247171 0.704679 0.0248376 0.0166534 0.00647693 0.00013175 3.28148e-05 8.5535e-06 7.62723e-06 1.06427e-06 
849 0.0808913 0.79755 0.111934 0.00665902 0.00218844 0.00062586 0.000129962 0 2.11615e-05 0 
850 0.110592 0.778194 0.0721526 0.0150473 0.00172296 0.0221197 0.000110968 3.96272e-05 1.72189e-05 3.3925e-06 
851 0.278486 0.680569 0.0296849 0.00583737 0.0044145 0.000523178 0.000220842 0 0.000132026 0.000132095 
852 0.14912 0.775722 0.0552024 0.00356902 0.0158806 0.000271714 0.000171176 5.25576e-05 1.11357e-05 0 
853 0.274266 0.658368 0.0562768 0.00574893 0.00434761 0.000515251 0.000217496 0 0.000130025 0.000130094 
854 0.0521841 0.932041 0.0135526 0.00134093 0.000626624 0.000132836 5.92519e-05 3.89796e-05 1.55878e-05 7.77445e-06 
855 0.141891 0.81026 0.0436489 0.00284978 0.000953821 0.000208753 0.000136941 4.20461e-05 8.90859e-06 0 
856 0.0495548 0.921836 0.0111082 0.00277079 0.014437 0.000209304 5.52472e-05 1.37065e-05 0 1.46614e-05 
857 0.0503172 0.920634 0.0113262 0.0168619 0.000563459 0.000212524 5.60972e-05 1.39173e-05 0 1.48869e-05 
858 0.0642265 0.916355 0.0166841 0.00165037 0.00077123 0.000163491 7.29254e-05 4.79749e-05 1.9185e-05 9.56855e-06 
859 0.142026 0.76196 0.0767952 0.0176133 0.00113689 0.000246445 0.000161666 4.96377e-05 1.05171e-05 0 
860 0.293292 0.675319 0.0263841 0.00372188 0.000873818 0.000281286 9.00771e-05 2.46194e-05 9.71157e-06 3.1288e-06 
861 0.321395 0.629197 0.0357476 0.0131833 0.000353313 8.98048e-05 2.23677e-05 5.83035e-06 5.19897e-06 7.25443e-07 
862 0.0503172 0.921062 0.0262352 0.00152447 0.000563459 0.000212524 5.60972e-05 1.39173e-05 0 1.48869e-05 
863 0.156002 0.796134 0.0423709 0.00372664 0.0012473 0.000272985 0.000179076 5.49833e-05 1.16497e-05 0 
864 0.0503172 0.936018 0.0112791 0.00152447 0.000563459 0.000212524 5.60972e-05 1.39173e-05 0 1.48869e-05 
865 0.0642265 0.900974 0.0320646 0.00165037 0.00077123 0.000163491 7.29254e-05 4.79749e-05 1.9185e-05 9.56855e-06 
866 0.00616541 0.893419 0.0518879 0.0202338 0.0256935 0.00259987 0 0 0 0 
867 0.00626027 0.907164 0.0526862 0.0205253 0.010724 0.00263987 0 0 0 0 
868 0.259553 0.710949 0.0246671 0.00369375 0.000780689 0.000245648 7.16372e-05 2.97552e-05 5.24488e-06 4.71323e-06 
869 0.288848 0.666 0.0402229 0.00366549 0.000860578 0.000277024 8.87123e-05 2.42464e-05 9.56443e-06 3.0814e-06 
870 0.21169 0.764287 0.0200865 0.00300972 0.000636117 0.000200157 5.83711e-05 2.4245e-05 4.2736e-06 3.84041e-06 
871 0.0975015 0.863375 0.035691 0.00232915 0.000779565 0.000170616 0.000111923 3.43646e-05 7.28106e-06 0 
872 0.142819 0.785901 0.0662512 0.00341172 0.0011419 0.000249916 0.000163943 5.03368e-05 1.06652e-05 0 
873 0.0284425 0.897623 0.0713386 0.00174199 0.000640339 0.000143836 4.43191e-05 1.66179e-05 7.22084e-06 1.42266e-06 
874 0.0935109 0.830105 0.0678498 0.00572743 0.00210536 0.000472917 0.000145716 5.46376e-05 2.37412e-05 4.67754e-06 
875 0.262731 0.70602 0.0263426 0.00375057 0.000792699 0.000249427 7.27393e-05 3.02129e-05 5.32557e-06 4.78575e-06 
876 0.330317 0.610165 0.0542303 0.00351613 0.00131143 0.000333366 8.30315e-05 2.1643e-05 1.92992e-05 2.69293e-06 
877 0.0935109 0.810725 0.0579412 0.020039 0.017082 0.000472917 0.000145716 5.46376e-05 2.37413e-05 4.67754e-06 
878 0.25875 0.711859 0.0245593 0.00369375 0.000780689 0.000245648 7.16372e-05 2.97552e-05 5.24488e-06 4.71323e-06 
879 0.0503172 0.936018 0.0112791 0.00152447 0.000563459 0.000212524 5.60972e-05 1.39173e-05 0 1.48869e-05 
880 0.0935109 0.841028 0.0569264 0.00572743 0.00210536 0.000472917 0.000145716 5.46376e-05 2.37413e-05 4.67754e-06 
881 0.0821358 0.794436 0.113656 0.00676146 0.00222211 0.000635488 0.000131962 0 2.1487e-05 0 
882 0.262731 0.707426 0.0249372 0.00375057 0.000792699 0.000249427 7.27393e-05 3.02129e-05 5.32557e-06 4.78575e-06 
883 0.156295 0.795841 0.042372 0.00372664 0.0012473 0.000272985 0.000179076 5.49833e-05 1.16497e-05 0 
884 0.0503334 0.936002 0.0112791 0.00152447 0.000563459 0.000212524 5.60972e-05 1.39173e-05 0 1.48869e-05 
885 0.0935109 0.841028 0.0569264 0.00572743 0.00210536 0.000472917 0.000145716 5.46376e-05 2.37413e-05 4.67754e-06 
886 0.0609641 0.830357 0.0896345 0.0176722 0.00102928 0.000231204 7.12389e-05 2.67117e-05 1.16068e-05 2.2868e-06 
887 0.258594 0.6891 0.0275645 0.00664113 0.0171642 0.000485808 0.000205068 0 0.000122595 0.00012266 
888 0.262731 0.692041 0.0249383 0.0189093 0.00101754 0.000249427 7.27393e-05 3.02129e-05 5.32557e-06 4.78575e-06 
889 0.0935109 0.841005 0.0569499 0.00572743 0.00210536 0.000472917 0.000145716 5.46376e-05 2.37412e-05 4.67754e-06 
890 0.153639 0.799223 0.0417289 0.00367018 0.00122841 0.000268849 0.000176363 5.41502e-05 1.14732e-05 0 
891 0.0949495 0.838583 0.0578022 0.00581554 0.00213775 0.000480192 0.000147958 5.54781e-05 2.41065e-05 4.7495e-06 
892 0.192929 0.787453 0.0164901 0.00232618 0.000546136 0.000175804 5.62982e-05 1.53871e-05 6.06973e-06 1.9555e-06 
893 0.288848 0.680239 0.0259844 0.00366549 0.000860578 0.000277024 8.87123e-05 2.42464e-05 9.56443e-06 3.0814e-06 
894 0.0839249 0.871948 0.0383799 0.00385725 0.00141789 0.000318495 9.81352e-05 3.67967e-05 1.5989e-05 3.15018e-06 
895 0.262737 0.707419 0.0249377 0.00375057 0.000792699 0.000249427 7.27393e-05 3.02129e-05 5.32557e-06 4.78575e-06 
896 0.144526 0.806516 0.0371637 0.0104264 0.000965844 0.000211238 0.000138571 4.25466e-05 9.01464e-06 0 
897 0.288848 0.649936 0.0562873 0.00366549 0.000860578 0.000277024 8.87123e-05 2.42464e-05 9.56443e-06 3.0814e-06 
898 0.0949495 0.838583 0.0578022 0.00581554 0.00213775 0.000480192 0.000147958 5.54781e-05 2.41065e-05 4.7495e-06 
900 0.286855 0.673575 0.0219608 0.0160715 0.00113887 0.000289502 7.21063e-05 1.87952e-05 1.67598e-05 2.3386e-06 
901 0.118304 0.814003 0.0564195 0.00831899 0.00200537 0.000640705 0.000202121 7.06872e-05 2.40587e-05 1.17801e-05 
902 0.113084 0.807508 0.0686314 0.00795198 0.0019169 0.000612439 0.000193204 6.75687e-05 2.29973e-05 1.12604e-05 
903 0.0732865 0.886353 0.0282327 0.00575074 0.00547236 0.000669061 0.000155494 4.67087e-05 3.32197e-05 0 
904 0.156002 0.796134 0.0423709 0.00372664 0.0012473 0.000272985 0.000179076 5.49833e-05 1.16497e-05 0 
905 0.0935109 0.841028 0.0569264 0.00572743 0.00210536 0.000472917 0.000145716 5.46376e-05 2.37413e-05 4.67754e-06 
906 0.330317 0.624116 0.0253598 0.0184348 0.00131143 0.000333366 8.30315e-05 2.1643e-05 1.92992e-05 2.69293e-06 
907 0.116511 0.816821 0.0555647 0.00819295 0.00197499 0.000630998 0.000199058 6.96162e-05 2.36942e-05 1.16016e-05 
908 0.293292 0.675319 0.0263841 0.00372188 0.000873818 0.000281286 9.00771e-05 2.46194e-05 9.71157e-06 3.1288e-06 
909 0.0617173 0.893768 0.0388815 0.0037801 0.00138953 0.000312125 9.61725e-05 3.60608e-05 1.56692e-05 3.08718e-06 
910 0.0949495 0.823269 0.073116 0.00581554 0.00213775 0.000480192 0.000147958 5.54781e-05 2.41065e-05 4.7495e-06 
911 0.0483177 0.904189 0.0180282 0.0288059 0.00046852 9.9317e-05 4.43005e-05 2.91436e-05 1.16545e-05 5.81267e-06 
912 0.128356 0.817098 0.0500246 0.00306778 0.00102626 0.000224608 0.000147341 4.52394e-05 9.58519e-06 0 
913 0.112472 0.809368 0.0302812 0.0466174 0.000890942 0.000194989 0.000127912 3.92738e-05 8.32121e-06 0 
914 0.0803911 0.91266 0.00585748 0.00081182 0.000190598 6.13543e-05 1.96477e-05 5.37001e-06 2.1183e-06 6.82457e-07 
915 0.0896234 0.909687 0.000615145 5.02971e-05 1.68344e-05 3.68438e-06 2.41693e-06 7.42089e-07 1.57232e-07 0 
916 0.28885 0.665085 0.0272897 0.0175098 0.000862359 0.000277024 8.87123e-05 2.42464e-05 9.56443e-06 3.0814e-06 
917 0.156002 0.780749 0.0423709 0.00372664 0.00912948 0.0077098 0.000244696 5.49833e-05 1.16497e-05 0 
918 0.153639 0.797071 0.0438813 0.00367018 0.00122841 0.000268849 0.000176363 5.41502e-05 1.14732e-05 0 
919 0.0642265 0.916359 0.01668 0.00165037 0.000771229 0.000163491 7.29254e-05 4.79749e-05 1.9185e-05 9.56855e-06 
920 0.156002 0.796134 0.0423709 0.00372664 0.0012473 0.000272985 0.000179076 5.49833e-05 1.16497e-05 0 
921 0.0477776 0.428384 0.255417 0.266103 0.00190824 0.000330454 6.86202e-05 0 1.11733e-05 0 
922 0.101181 0.756003 0.056193 0.0840947 0.00171585 0.000547972 0.000172867 6.04562e-05 2.05766e-05 1.00751e-05 
923 0.335399 0.633718 0.0255136 0.00357023 0.00133161 0.000338495 8.43089e-05 2.19759e-05 1.95961e-05 2.73436e-06 
924 0.106802 0.831724 0.0512968 0.0075102 0.0018104 0.000578415 0.00018247 6.38148e-05 2.17197e-05 1.06348e-05 
925 0.254888 0.697463 0.0428893 0.00363862 0.000769037 0.000241981 7.0568e-05 2.93111e-05 5.16659e-06 4.64289e-06 
926 0.335399 0.633718 0.0255137 0.00357023 0.00133161 0.000338495 8.43089e-05 2.19759e-05 1.95961e-05 2.73436e-06 
927 0.0998695 0.809371 0.0812427 0.00702253 0.00169284 0.000540855 0.000170622 5.9671e-05 2.03093e-05 9.94427e-06 
928 0.151346 0.787615 0.0557105 0.0036154 0.00121007 0.000264836 0.000173731 5.3342e-05 1.13019e-05 0 
929 0.262731 0.692054 0.0403077 0.00375159 0.000792699 0.000249427 7.27393e-05 3.02129e-05 5.32557e-06 4.78575e-06 
930 0.293292 0.675319 0.0263841 0.00372188 0.000873818 0.000281286 9.00771e-05 2.46194e-05 9.71157e-06 3.1288e-06 
931 0.123321 0.860228 0.014959 0.00110974 0.000260542 8.38697e-05 2.68578e-05 7.34066e-06 2.89565e-06 9.329e-07 
932 0.329679 0.613073 0.0236912 0.00370928 0.0294132 0.000314928 7.82868e-05 2.04062e-05 1.81964e-05 2.53905e-06 
933 0.335399 0.618334 0.0408981 0.00357023 0.00133161 0.000338495 8.43089e-05 2.19759e-05 1.95961e-05 2.73436e-06 
934 0.0856148 0.879991 0.0287579 0.00104189 0.000222202 0.00434078 2.02054e-05 8.39249e-06 1.47932e-06 1.32937e-06 
