0 1 2 100 0.0385377
1 1 2 100 0.957054
2 1 2 100 0.00440825
0 2 2 100 0.102961
1 2 2 100 0.15108
2 2 2 100 0.745959
0 3 2 100 0.0992369
1 3 2 100 0.400135
2 3 2 100 0.500628
0 4 2 100 0.400258
1 4 2 100 0.00273651
2 4 2 100 0.597005
0 1 3 100 0.0116862
1 1 3 100 0.930123
2 1 3 100 0.0581172
3 1 3 100 7.36617e-05
0 2 3 100 0.0251034
1 2 3 100 0.0445941
2 2 3 100 0.862097
3 2 3 100 0.0682053
0 3 3 100 0.0153476
1 3 3 100 0.0111585
2 3 3 100 0.145853
3 3 3 100 0.827641
0 4 3 100 0.0221452
1 4 3 100 0.0134366
2 4 3 100 0.227664
3 4 3 100 0.736754
0 5 3 100 0.0223846
1 5 3 100 0.0256428
2 5 3 100 0.153741
3 5 3 100 0.798232
0 6 3 100 7.76947e-06
1 6 3 100 0.0277778
2 6 3 100 0.111103
3 6 3 100 0.861111
0 7 3 100 2.87498e-05
2 7 3 100 0.199974
3 7 3 100 0.799998
2 8 3 100 1
3 9 3 100 1
0 1 4 100 0.0152337
1 1 4 100 0.857434
2 1 4 100 0.0935371
3 1 4 100 0.0337807
4 1 4 100 1.48117e-05
0 2 4 100 0.0397565
1 2 4 100 0.0539851
2 2 4 100 0.548236
3 2 4 100 0.349275
4 2 4 100 0.00874735
0 3 4 100 0.0351925
1 3 4 100 0.0147105
2 3 4 100 0.19045
3 3 4 100 0.50531
4 3 4 100 0.254337
0 4 4 100 0.0146247
1 4 4 100 0.00872864
2 4 4 100 0.0472211
3 4 4 100 0.181335
4 4 4 100 0.748091
0 5 4 100 0.0122424
1 5 4 100 0.00286276
2 5 4 100 0.0245058
3 5 4 100 0.132401
4 5 4 100 0.827988
0 6 4 100 0.00677185
1 6 4 100 0.00516353
2 6 4 100 0.0657336
3 6 4 100 0.102037
4 6 4 100 0.820294
0 7 4 100 0.0144281
2 7 4 100 0.0215827
3 7 4 100 0.115106
4 7 4 100 0.848884
0 8 4 100 0.0766296
2 8 4 100 0.0185917
3 8 4 100 0.0952548
4 8 4 100 0.809524
3 9 4 100 0.250001
4 9 4 100 0.749999
0 10 4 100 1.33944e-05
4 10 4 100 0.999987
0 1 5 100 0.0235999
1 1 5 100 0.793479
2 1 5 100 0.141406
3 1 5 100 0.0153082
4 1 5 100 0.0261944
5 1 5 100 1.29866e-05
0 2 5 100 0.0499671
1 2 5 100 0.0597325
2 2 5 100 0.524121
3 2 5 100 0.213944
4 2 5 100 0.150509
5 2 5 100 0.00172544
0 3 5 100 0.0599068
1 3 5 100 0.0143875
2 3 5 100 0.157547
3 3 5 100 0.320014
4 3 5 100 0.37825
5 3 5 100 0.0698948
0 4 5 100 0.0423734
1 4 5 100 0.0060991
2 4 5 100 0.0575868
3 4 5 100 0.154908
4 4 5 100 0.343611
5 4 5 100 0.395422
0 5 5 100 0.0169342
1 5 5 100 0.00484034
2 5 5 100 0.0148843
3 5 5 100 0.0974315
4 5 5 100 0.159907
5 5 5 100 0.706002
0 6 5 100 0.0120986
1 6 5 100 0.00311819
2 6 5 100 0.0103501
3 6 5 100 0.0510089
4 6 5 100 0.18682
5 6 5 100 0.736604
0 7 5 100 0.0155745
1 7 5 100 0.000942141
2 7 5 100 0.00717532
3 7 5 100 0.0326901
4 7 5 100 0.117284
5 7 5 100 0.826334
0 8 5 100 0.0128954
2 8 5 100 0.00544859
3 8 5 100 0.0408862
4 8 5 100 0.146251
5 8 5 100 0.794519
0 9 5 100 0.0304631
2 9 5 100 0.0133322
3 9 5 100 0.0368451
4 9 5 100 0.07936
5 9 5 100 0.84
0 10 5 100 0.077724
2 10 5 100 9.73628e-07
3 10 5 100 0.338919
4 10 5 100 0.16669
5 10 5 100 0.416667
4 11 5 100 0.142857
5 11 5 100 0.857143
5 12 5 100 1
0 1 6 100 0.0264902
1 1 6 100 0.788108
2 1 6 100 0.139765
3 1 6 100 0.0169436
4 1 6 100 0.0113058
5 1 6 100 0.0173821
6 1 6 100 4.50376e-06
0 2 6 100 0.0574529
1 2 6 100 0.0556996
2 2 6 100 0.547845
3 2 6 100 0.205862
4 2 6 100 0.0651207
5 2 6 100 0.0678505
6 2 6 100 0.000169353
0 3 6 100 0.11546
1 3 6 100 0.0154729
2 3 6 100 0.126274
3 3 6 100 0.314646
4 3 6 100 0.234034
5 3 6 100 0.179103
6 3 6 100 0.0150098
0 4 6 100 0.0915013
1 4 6 100 0.00725648
2 4 6 100 0.0486132
3 4 6 100 0.143917
4 4 6 100 0.231275
5 4 6 100 0.343691
6 4 6 100 0.133747
0 5 6 100 0.0387001
1 5 6 100 0.00291851
2 5 6 100 0.0182567
3 5 6 100 0.0965956
4 5 6 100 0.137857
5 5 6 100 0.263798
6 5 6 100 0.441875
0 6 6 100 0.0215963
1 6 6 100 0.00340237
2 6 6 100 0.00743277
3 6 6 100 0.0369901
4 6 6 100 0.105052
5 6 6 100 0.231154
6 6 6 100 0.594372
0 7 6 100 0.014202
1 7 6 100 0.000585104
2 7 6 100 0.00397297
3 7 6 100 0.019699
4 7 6 100 0.0816832
5 7 6 100 0.208596
6 7 6 100 0.671262
0 8 6 100 0.0121295
1 8 6 100 0.000331707
2 8 6 100 0.00172566
3 8 6 100 0.00791573
4 8 6 100 0.0541282
5 8 6 100 0.168499
6 8 6 100 0.75527
0 9 6 100 0.00937279
1 9 6 100 0.00233564
2 9 6 100 0.0035027
3 9 6 100 0.00697355
4 9 6 100 0.0271893
5 9 6 100 0.108287
6 9 6 100 0.842339
0 10 6 100 0.0358804
2 10 6 100 0.00751801
3 10 6 100 0.0075188
4 10 6 100 0.0483253
5 10 6 100 0.114434
6 10 6 100 0.786324
0 11 6 100 2.06975e-05
4 11 6 100 0.153838
5 11 6 100 0.115372
6 11 6 100 0.730769
4 12 6 100 2.30584e-06
6 12 6 100 0.999998
0 1 7 100 0.024638
1 1 7 100 0.77262
2 1 7 100 0.148563
3 1 7 100 0.0198682
4 1 7 100 0.0119144
5 1 7 100 0.00953423
6 1 7 100 0.0128625
0 2 7 100 0.0681042
1 2 7 100 0.0474533
2 2 7 100 0.538251
3 2 7 100 0.224873
4 2 7 100 0.0515874
5 2 7 100 0.0275318
6 2 7 100 0.0421879
7 2 7 100 1.07442e-05
0 3 7 100 0.139954
1 3 7 100 0.0191899
2 3 7 100 0.110514
3 3 7 100 0.316996
4 3 7 100 0.231794
5 3 7 100 0.0886025
6 3 7 100 0.0897767
7 3 7 100 0.00317396
0 4 7 100 0.138045
1 4 7 100 0.00957358
2 4 7 100 0.0390156
3 4 7 100 0.125973
4 4 7 100 0.230503
5 4 7 100 0.202971
6 4 7 100 0.212967
7 4 7 100 0.0409522
0 5 7 100 0.0785521
1 5 7 100 0.00359174
2 5 7 100 0.0180568
3 5 7 100 0.0777853
4 5 7 100 0.15578
5 5 7 100 0.175235
6 5 7 100 0.275232
7 5 7 100 0.215767
0 6 7 100 0.0395391
1 6 7 100 0.00163499
2 6 7 100 0.00938735
3 6 7 100 0.0289678
4 6 7 100 0.109283
5 6 7 100 0.143673
6 6 7 100 0.24301
7 6 7 100 0.424505
0 7 7 100 0.0245672
1 7 7 100 0.0014245
2 7 7 100 0.00456406
3 7 7 100 0.0161528
4 7 7 100 0.0570131
5 7 7 100 0.130283
6 7 7 100 0.248427
7 7 7 100 0.517568
0 8 7 100 0.0186483
1 8 7 100 0.000418825
2 8 7 100 0.00351573
3 8 7 100 0.00623506
4 8 7 100 0.0278317
5 8 7 100 0.102481
6 8 7 100 0.205048
7 8 7 100 0.635822
0 9 7 100 0.0206345
1 9 7 100 0.00027629
2 9 7 100 0.00249037
3 9 7 100 0.00911913
4 9 7 100 0.0137492
5 9 7 100 0.0605107
6 9 7 100 0.157594
7 9 7 100 0.735626
0 10 7 100 0.0152466
1 10 7 100 5.42256e-06
2 10 7 100 0.00303564
3 10 7 100 0.0031393
4 10 7 100 0.00693525
5 10 7 100 0.0519879
6 10 7 100 0.163665
7 10 7 100 0.755985
0 11 7 100 0.0247795
2 11 7 100 4.77101e-06
3 11 7 100 0.00427391
4 11 7 100 6.4169e-06
5 11 7 100 0.0506705
6 11 7 100 0.142487
7 11 7 100 0.777778
0 12 7 100 0.0192312
5 12 7 100 0.0192308
6 12 7 100 0.0384615
7 12 7 100 0.923077
0 13 7 100 6.07683e-06
3 13 7 100 0.249992
7 13 7 100 0.750001
7 14 7 100 1
0 1 8 100 0.0257952
1 1 8 100 0.748021
2 1 8 100 0.158287
3 1 8 100 0.0254469
4 1 8 100 0.00916467
5 1 8 100 0.0153366
6 1 8 100 0.00874084
7 1 8 100 0.00920645
8 1 8 100 8.7578e-07
0 2 8 100 0.0743878
1 2 8 100 0.0453617
2 2 8 100 0.525137
3 2 8 100 0.223681
4 2 8 100 0.056403
5 2 8 100 0.0212142
6 2 8 100 0.0197086
7 2 8 100 0.0339997
8 2 8 100 0.000107171
0 3 8 100 0.147526
1 3 8 100 0.0204977
2 3 8 100 0.104883
3 3 8 100 0.300419
4 3 8 100 0.241511
5 3 8 100 0.0872924
6 3 8 100 0.0428689
7 3 8 100 0.0540099
8 3 8 100 0.000992059
0 4 8 100 0.169607
1 4 8 100 0.0138861
2 4 8 100 0.0372175
3 4 8 100 0.115341
4 4 8 100 0.217705
5 4 8 100 0.208775
6 4 8 100 0.105217
7 4 8 100 0.117263
8 4 8 100 0.0149881
0 5 8 100 0.111073
1 5 8 100 0.00484781
2 5 8 100 0.0180282
3 5 8 100 0.0692723
4 5 8 100 0.147263
5 5 8 100 0.178269
6 5 8 100 0.170492
7 5 8 100 0.206785
8 5 8 100 0.0939695
0 6 8 100 0.0601095
1 6 8 100 0.00180397
2 6 8 100 0.00814216
3 6 8 100 0.0225431
4 6 8 100 0.0911514
5 6 8 100 0.161824
6 6 8 100 0.152462
7 6 8 100 0.245624
8 6 8 100 0.256339
0 7 8 100 0.0444972
1 7 8 100 0.00142988
2 7 8 100 0.0044989
3 7 8 100 0.0118558
4 7 8 100 0.0379966
5 7 8 100 0.110512
6 7 8 100 0.149307
7 7 8 100 0.241691
8 7 8 100 0.398211
0 8 8 100 0.0331277
1 8 8 100 0.000739342
2 8 8 100 0.00210037
3 8 8 100 0.00685217
4 8 8 100 0.0216849
5 8 8 100 0.0662202
6 8 8 100 0.131632
7 8 8 100 0.241224
8 8 8 100 0.49642
0 9 8 100 0.0225761
1 9 8 100 0.000508869
2 9 8 100 0.00182999
3 9 8 100 0.00387068
4 9 8 100 0.0105339
5 9 8 100 0.0491241
6 9 8 100 0.0997733
7 9 8 100 0.20375
8 9 8 100 0.608033
0 10 8 100 0.0231267
1 10 8 100 0.000298033
2 10 8 100 0.00144876
3 10 8 100 0.00232335
4 10 8 100 0.00876878
5 10 8 100 0.0226597
6 10 8 100 0.0682645
7 10 8 100 0.180758
8 10 8 100 0.692352
0 11 8 100 0.0196789
2 11 8 100 0.00582388
3 11 8 100 0.00467724
4 11 8 100 0.00465331
5 11 8 100 0.0249995
6 11 8 100 0.0466105
7 11 8 100 0.177553
8 11 8 100 0.716003
0 12 8 100 0.00940107
1 12 8 100 0.000153911
2 12 8 100 0.00822507
3 12 8 100 0.0205643
4 12 8 100 0.00823619
5 12 8 100 0.0158782
6 12 8 100 0.0651305
7 12 8 100 0.12344
8 12 8 100 0.748971
0 13 8 100 0.0162289
1 13 8 100 0.0163904
3 13 8 100 0.0329566
4 13 8 100 4.12473e-06
5 13 8 100 0.0163915
6 13 8 100 0.0327926
7 13 8 100 0.163927
8 13 8 100 0.721309
5 14 8 100 0.0588236
7 14 8 100 0.235294
8 14 8 100 0.705882
0 15 8 100 4.71683e-06
8 15 8 100 0.999995
0 1 9 100 0.0256268
1 1 9 100 0.732159
2 1 9 100 0.165232
3 1 9 100 0.0270944
4 1 9 100 0.0103386
5 1 9 100 0.00877231
6 1 9 100 0.0155052
7 1 9 100 0.00702942
8 1 9 100 0.00824274
9 1 9 100 2.06628e-07
0 2 9 100 0.072526
1 2 9 100 0.0413278
2 2 9 100 0.5162
3 2 9 100 0.228953
4 2 9 100 0.0585198
5 2 9 100 0.0233941
6 2 9 100 0.012201
7 2 9 100 0.0189792
8 2 9 100 0.0278965
9 2 9 100 2.5812e-06
0 3 9 100 0.159768
1 3 9 100 0.0201868
2 3 9 100 0.102163
3 3 9 100 0.289886
4 3 9 100 0.234451
5 3 9 100 0.0935639
6 3 9 100 0.0396889
7 3 9 100 0.0235036
8 3 9 100 0.0363285
9 3 9 100 0.000461164
0 4 9 100 0.195245
1 4 9 100 0.0133696
2 4 9 100 0.031751
3 4 9 100 0.114027
4 4 9 100 0.207664
5 4 9 100 0.204606
6 4 9 100 0.108192
7 4 9 100 0.054589
8 4 9 100 0.065593
9 4 9 100 0.0049629
0 5 9 100 0.138332
1 5 9 100 0.00464153
2 5 9 100 0.015204
3 5 9 100 0.0638771
4 5 9 100 0.141173
5 5 9 100 0.185278
6 5 9 100 0.172136
7 5 9 100 0.115075
8 5 9 100 0.126167
9 5 9 100 0.0381167
0 6 9 100 0.0870808
1 6 9 100 0.00219647
2 6 9 100 0.00756064
3 6 9 100 0.0203104
4 6 9 100 0.0764088
5 6 9 100 0.155404
6 6 9 100 0.166611
7 6 9 100 0.147612
8 6 9 100 0.201511
9 6 9 100 0.135305
0 7 9 100 0.059539
1 7 9 100 0.00194888
2 7 9 100 0.00400661
3 7 9 100 0.00989896
4 7 9 100 0.0302977
5 7 9 100 0.0871841
6 7 9 100 0.159569
7 7 9 100 0.151553
8 7 9 100 0.232434
9 7 9 100 0.263569
0 8 9 100 0.0425492
1 8 9 100 0.000932325
2 8 9 100 0.0022893
3 8 9 100 0.00615611
4 8 9 100 0.0174904
5 8 9 100 0.043911
6 8 9 100 0.112288
7 8 9 100 0.157793
8 8 9 100 0.242128
9 8 9 100 0.374463
0 9 9 100 0.0342758
1 9 9 100 0.000130194
2 9 9 100 0.000917639
3 9 9 100 0.00479162
4 9 9 100 0.00719201
5 9 9 100 0.0268786
6 9 9 100 0.073226
7 9 9 100 0.132989
8 9 9 100 0.232969
9 9 9 100 0.48663
0 10 9 100 0.0217202
1 10 9 100 0.00023729
2 10 9 100 0.00120575
3 10 9 100 0.00165827
4 10 9 100 0.00464814
5 10 9 100 0.018516
6 10 9 100 0.0431467
7 10 9 100 0.0934197
8 10 9 100 0.214232
9 10 9 100 0.601216
0 11 9 100 0.0153483
1 11 9 100 1.15908e-06
2 11 9 100 0.00116377
3 11 9 100 0.00120932
4 11 9 100 0.00345131
5 11 9 100 0.0110142
6 11 9 100 0.036869
7 11 9 100 0.0771512
8 11 9 100 0.181751
9 11 9 100 0.67204
0 12 9 100 0.0107565
2 12 9 100 0.0017762
3 12 9 100 4.30588e-07
4 12 9 100 0.00356482
5 12 9 100 0.00177647
6 12 9 100 0.0159742
7 12 9 100 0.0420772
8 12 9 100 0.185177
9 12 9 100 0.738897
0 13 9 100 0.00685971
3 13 9 100 0.00680335
5 13 9 100 0.013606
6 13 9 100 0.00680271
7 13 9 100 0.0476166
8 13 9 100 0.142802
9 13 9 100 0.77551
0 14 9 100 0.0302699
2 14 9 100 3.47199e-05
8 14 9 100 0.121212
9 14 9 100 0.848483
8 15 9 100 0.2
9 15 9 100 0.8
9 16 9 100 1
0 1 10 100 0.0294947
1 1 10 100 0.713209
2 1 10 100 0.171776
3 1 10 100 0.0254224
4 1 10 100 0.0118125
5 1 10 100 0.00976783
6 1 10 100 0.0115252
7 1 10 100 0.0140763
8 1 10 100 0.006215
9 1 10 100 0.00670123
0 2 10 100 0.079646
1 2 10 100 0.0455631
2 2 10 100 0.507828
3 2 10 100 0.216752
4 2 10 100 0.0599992
5 2 10 100 0.0238505
6 2 10 100 0.0127461
7 2 10 100 0.0138467
8 2 10 100 0.0169063
9 2 10 100 0.022836
10 2 10 100 2.62797e-05
0 3 10 100 0.159749
1 3 10 100 0.0220408
2 3 10 100 0.100608
3 3 10 100 0.296804
4 3 10 100 0.226554
5 3 10 100 0.088043
6 3 10 100 0.0383984
7 3 10 100 0.0211048
8 3 10 100 0.0167622
9 3 10 100 0.0297799
10 3 10 100 0.000155618
0 4 10 100 0.195883
1 4 10 100 0.0142192
2 4 10 100 0.0338661
3 4 10 100 0.112256
4 4 10 100 0.212308
5 4 10 100 0.194788
6 4 10 100 0.122966
7 4 10 100 0.0463606
8 4 10 100 0.0250143
9 4 10 100 0.0400546
10 4 10 100 0.00228495
0 5 10 100 0.159616
1 5 10 100 0.00534297
2 5 10 100 0.0158602
3 5 10 100 0.057685
4 5 10 100 0.137637
5 5 10 100 0.18105
6 5 10 100 0.180782
7 5 10 100 0.12111
8 5 10 100 0.0568505
9 5 10 100 0.0680274
10 5 10 100 0.0160389
0 6 10 100 0.104817
1 6 10 100 0.00357907
2 6 10 100 0.00827773
3 6 10 100 0.0173391
4 6 10 100 0.0711424
5 6 10 100 0.156202
6 6 10 100 0.174439
7 6 10 100 0.152898
8 6 10 100 0.120667
9 6 10 100 0.127544
10 6 10 100 0.0630937
0 7 10 100 0.0837786
1 7 10 100 0.00164252
2 7 10 100 0.00546202
3 7 10 100 0.0080761
4 7 10 100 0.02912
5 7 10 100 0.0769301
6 7 10 100 0.140003
7 7 10 100 0.166015
8 7 10 100 0.139784
9 7 10 100 0.199779
10 7 10 100 0.149411
0 8 10 100 0.0663195
1 8 10 100 0.000768199
2 8 10 100 0.00431741
3 8 10 100 0.00474398
4 8 10 100 0.0125071
5 8 10 100 0.036748
6 8 10 100 0.087147
7 8 10 100 0.150871
8 8 10 100 0.147815
9 8 10 100 0.22641
10 8 10 100 0.262353
0 9 10 100 0.0499377
1 9 10 100 0.00115348
2 9 10 100 0.00219915
3 9 10 100 0.00677754
4 9 10 100 0.00566988
5 9 10 100 0.022039
6 9 10 100 0.0548713
7 9 10 100 0.109317
8 9 10 100 0.145229
9 9 10 100 0.232597
10 9 10 100 0.370209
0 10 10 100 0.0333267
1 10 10 100 0.000445388
2 10 10 100 0.00283822
3 10 10 100 0.00254518
4 10 10 100 0.00580672
5 10 10 100 0.0103412
6 10 10 100 0.0299813
7 10 10 100 0.0915053
8 10 10 100 0.114519
9 10 10 100 0.237752
10 10 10 100 0.470939
0 11 10 100 0.0214791
1 11 10 100 0.00118798
2 11 10 100 0.000416425
3 11 10 100 0.00358589
4 11 10 100 0.00316693
5 11 10 100 0.00831036
6 11 10 100 0.0155542
7 11 10 100 0.0535992
8 11 10 100 0.115002
9 11 10 100 0.199323
10 11 10 100 0.578374
0 12 10 100 0.0191578
2 12 10 100 0.000954162
3 12 10 100 0.0062718
4 12 10 100 0.00277079
5 12 10 100 0.00671561
6 12 10 100 0.0094002
7 12 10 100 0.0422391
8 12 10 100 0.0856293
9 12 10 100 0.197306
10 12 10 100 0.629555
0 13 10 100 0.0275331
1 13 10 100 2.24592e-06
2 13 10 100 0.00252557
3 13 10 100 0.00351786
4 13 10 100 0.00756419
5 13 10 100 0.00278741
6 13 10 100 0.0100958
7 13 10 100 0.0124399
8 13 10 100 0.0747682
9 13 10 100 0.139167
10 13 10 100 0.719598
0 14 10 100 0.0324169
2 14 10 100 0.0130407
5 14 10 100 0.00900901
6 14 10 100 0.00901162
7 14 10 100 0.0269694
8 14 10 100 0.0176692
9 14 10 100 0.153148
10 14 10 100 0.738735
0 15 10 100 0.129197
3 15 10 100 0.0346312
4 15 10 100 2.38608e-05
6 15 10 100 0.169318
7 15 10 100 4.00715e-07
8 15 10 100 0.00021826
9 15 10 100 0.0804052
10 15 10 100 0.586207
0 16 10 100 0.0640951
5 16 10 100 6.33497e-06
7 16 10 100 0.0917281
8 16 10 100 9.89414e-05
9 16 10 100 0.0940854
10 16 10 100 0.749986
7 17 10 100 0.333333
8 17 10 100 0.333334
9 17 10 100 0.333333
0 18 10 100 0.0270666
7 18 10 100 0.303898
8 18 10 100 0.002368
10 18 10 100 0.666668
10 19 10 100 1
0 1 11 100 0.0257567
1 1 11 100 0.717751
2 1 11 100 0.163442
3 1 11 100 0.0324255
4 1 11 100 0.0134324
5 1 11 100 0.011468
6 1 11 100 0.0071809
7 1 11 100 0.0123056
8 1 11 100 0.00941459
9 1 11 100 0.00314257
10 1 11 100 0.00368106
0 2 11 100 0.0799732
1 2 11 100 0.0451013
2 2 11 100 0.510764
3 2 11 100 0.211041
4 2 11 100 0.063095
5 2 11 100 0.0268691
6 2 11 100 0.0138269
7 2 11 100 0.0119742
8 2 11 100 0.00730233
9 2 11 100 0.0151126
10 2 11 100 0.0149387
11 2 11 100 2.41296e-06
0 3 11 100 0.153172
1 3 11 100 0.0195891
2 3 11 100 0.090537
3 3 11 100 0.292145
4 3 11 100 0.232114
5 3 11 100 0.0991481
6 3 11 100 0.0386627
7 3 11 100 0.020941
8 3 11 100 0.0141814
9 3 11 100 0.0134342
10 3 11 100 0.0260738
11 3 11 100 2.09923e-06
0 4 11 100 0.195969
1 4 11 100 0.0107114
2 4 11 100 0.0322096
3 4 11 100 0.103941
4 4 11 100 0.200611
5 4 11 100 0.207041
6 4 11 100 0.124013
7 4 11 100 0.0552289
8 4 11 100 0.0261287
9 4 11 100 0.0169219
10 4 11 100 0.0263026
11 4 11 100 0.000922681
0 5 11 100 0.168587
1 5 11 100 0.00822911
2 5 11 100 0.0117512
3 5 11 100 0.054973
4 5 11 100 0.131805
5 5 11 100 0.176525
6 5 11 100 0.177371
7 5 11 100 0.124044
8 5 11 100 0.0663146
9 5 11 100 0.031813
10 5 11 100 0.043186
11 5 11 100 0.00540173
0 6 11 100 0.12053
1 6 11 100 0.00291964
2 6 11 100 0.00802889
3 6 11 100 0.0191831
4 6 11 100 0.0599238
5 6 11 100 0.136736
6 6 11 100 0.171371
7 6 11 100 0.175102
8 6 11 100 0.113677
9 6 11 100 0.0682796
10 6 11 100 0.0911341
11 6 11 100 0.0331145
0 7 11 100 0.107766
1 7 11 100 0.00164662
2 7 11 100 0.00579824
3 7 11 100 0.0061421
4 7 11 100 0.0233886
5 7 11 100 0.0614796
6 7 11 100 0.127486
7 7 11 100 0.17089
8 7 11 100 0.152283
9 7 11 100 0.113834
10 7 11 100 0.144506
11 7 11 100 0.0847802
0 8 11 100 0.0834354
1 8 11 100 0.00113339
2 8 11 100 0.0036838
3 8 11 100 0.005225
4 8 11 100 0.0094096
5 8 11 100 0.0291142
6 8 11 100 0.0749763
7 8 11 100 0.126781
8 8 11 100 0.166017
9 8 11 100 0.133555
10 8 11 100 0.193658
11 8 11 100 0.173011
0 9 11 100 0.0649829
1 9 11 100 0.000506584
2 9 11 100 0.00298197
3 9 11 100 0.0041871
4 9 11 100 0.00492975
5 9 11 100 0.0180707
6 9 11 100 0.0374863
7 9 11 100 0.0893265
8 9 11 100 0.137628
9 9 11 100 0.150418
10 9 11 100 0.219807
11 9 11 100 0.269675
0 10 11 100 0.0553628
1 10 11 100 0.000972933
2 10 11 100 0.000866593
3 10 11 100 0.002493
4 10 11 100 0.00799974
5 10 11 100 0.00816519
6 10 11 100 0.0194767
7 10 11 100 0.0544369
8 10 11 100 0.110749
9 10 11 100 0.149255
10 10 11 100 0.226369
11 10 11 100 0.363853
0 11 11 100 0.0378721
1 11 11 100 0.000774305
2 11 11 100 0.00104784
3 11 11 100 0.00116715
4 11 11 100 0.0019155
5 11 11 100 0.00622853
6 11 11 100 0.00822198
7 11 11 100 0.0317488
8 11 11 100 0.0904034
9 11 11 100 0.128525
10 11 11 100 0.226145
11 11 11 100 0.465951
0 12 11 100 0.0298037
1 12 11 100 3.17492e-05
2 12 11 100 0.00146164
3 12 11 100 0.000734724
4 12 11 100 0.00224023
5 12 11 100 0.00145248
6 12 11 100 0.00794137
7 12 11 100 0.0217424
8 12 11 100 0.0536093
9 12 11 100 0.11553
10 12 11 100 0.224716
11 12 11 100 0.540737
0 13 11 100 0.0205378
1 13 11 100 1.13655e-06
2 13 11 100 0.00162148
3 13 11 100 0.00277062
4 13 11 100 3.81028e-05
5 13 11 100 0.00183236
6 13 11 100 0.00511417
7 13 11 100 0.00952638
8 13 11 100 0.0438615
9 13 11 100 0.0806527
10 13 11 100 0.21045
11 13 11 100 0.623594
0 14 11 100 0.0236263
1 14 11 100 0.00419816
3 14 11 100 1.54758e-07
4 14 11 100 0.00418378
5 14 11 100 1.20311e-06
6 14 11 100 0.00419362
7 14 11 100 0.00854173
8 14 11 100 0.0386179
9 14 11 100 0.0500156
10 14 11 100 0.126036
11 14 11 100 0.740585
0 15 11 100 0.00152612
1 15 11 100 7.2281e-06
4 15 11 100 0.0277361
5 15 11 100 1.92143e-05
6 15 11 100 0.00390588
7 15 11 100 0.0158304
8 15 11 100 0.0272271
9 15 11 100 0.048481
10 15 11 100 0.117204
11 15 11 100 0.758063
0 16 11 100 1.41104e-06
9 16 11 100 0.0666667
10 16 11 100 0.2
11 16 11 100 0.733332
11 17 11 100 1
0 1 12 100 0.0314629
1 1 12 100 0.6962
2 1 12 100 0.163802
3 1 12 100 0.0391039
4 1 12 100 0.0149673
5 1 12 100 0.0106332
6 1 12 100 0.010368
7 1 12 100 0.00833264
8 1 12 100 0.00992253
9 1 12 100 0.00832387
10 1 12 100 0.00296899
11 1 12 100 0.00391501
0 2 12 100 0.0727827
1 2 12 100 0.0515171
2 2 12 100 0.508955
3 2 12 100 0.198457
4 2 12 100 0.0705607
5 2 12 100 0.0272242
6 2 12 100 0.0163968
7 2 12 100 0.00949643
8 2 12 100 0.00934467
9 2 12 100 0.0106851
10 2 12 100 0.0103919
11 2 12 100 0.0141666
12 2 12 100 2.23747e-05
0 3 12 100 0.137391
1 3 12 100 0.022943
2 3 12 100 0.0983712
3 3 12 100 0.29861
4 3 12 100 0.225019
5 3 12 100 0.106394
6 3 12 100 0.0413383
7 3 12 100 0.0192823
8 3 12 100 0.0133434
9 3 12 100 0.00928699
10 3 12 100 0.0112822
11 3 12 100 0.0167264
12 3 12 100 1.21185e-05
0 4 12 100 0.199311
1 4 12 100 0.0130228
2 4 12 100 0.0360395
3 4 12 100 0.100025
4 4 12 100 0.206159
5 4 12 100 0.20086
6 4 12 100 0.12277
7 4 12 100 0.0551458
8 4 12 100 0.0204607
9 4 12 100 0.0127319
10 4 12 100 0.0112364
11 4 12 100 0.0217632
12 4 12 100 0.000474895
0 5 12 100 0.181633
1 5 12 100 0.00781966
2 5 12 100 0.01821
3 5 12 100 0.0519391
4 5 12 100 0.116052
5 5 12 100 0.179477
6 5 12 100 0.183754
7 5 12 100 0.121035
8 5 12 100 0.0653318
9 5 12 100 0.0271094
10 5 12 100 0.0198806
11 5 12 100 0.0249848
12 5 12 100 0.00277449
0 6 12 100 0.140883
1 6 12 100 0.0039608
2 6 12 100 0.00879936
3 6 12 100 0.01906
4 6 12 100 0.0653066
5 6 12 100 0.132074
6 6 12 100 0.163056
7 6 12 100 0.173413
8 6 12 100 0.121822
9 6 12 100 0.0632228
10 6 12 100 0.0466444
11 6 12 100 0.0508917
12 6 12 100 0.0108667
0 7 12 100 0.114136
1 7 12 100 0.00361965
2 7 12 100 0.00465305
3 7 12 100 0.00786387
4 7 12 100 0.0244573
5 7 12 100 0.0705552
6 7 12 100 0.126816
7 7 12 100 0.157253
8 7 12 100 0.164496
9 7 12 100 0.118744
10 7 12 100 0.0708494
11 7 12 100 0.0954784
12 7 12 100 0.0410786
0 8 12 100 0.0907416
1 8 12 100 0.00173802
2 8 12 100 0.00422429
3 8 12 100 0.00561768
4 8 12 100 0.0116284
5 8 12 100 0.0272336
6 8 12 100 0.0691426
7 8 12 100 0.122483
8 8 12 100 0.153195
9 8 12 100 0.150028
10 8 12 100 0.114477
11 8 12 100 0.145973
12 8 12 100 0.103518
0 9 12 100 0.0776618
1 9 12 100 0.000300644
2 9 12 100 0.00223144
3 9 12 100 0.00339577
4 9 12 100 0.00742685
5 9 12 100 0.016173
6 9 12 100 0.0312384
7 9 12 100 0.0777715
8 9 12 100 0.128315
9 9 12 100 0.142942
10 9 12 100 0.139742
11 9 12 100 0.200339
12 9 12 100 0.172463
0 10 12 100 0.0659179
1 10 12 100 0.00099448
2 10 12 100 0.00201971
3 10 12 100 0.00136223
4 10 12 100 0.00465315
5 10 12 100 0.0076127
6 10 12 100 0.0163848
7 10 12 100 0.0397106
8 10 12 100 0.0865205
9 10 12 100 0.148527
10 10 12 100 0.138713
11 10 12 100 0.213426
12 10 12 100 0.274158
0 11 12 100 0.0557468
1 11 12 100 0.000455977
2 11 12 100 0.000507136
3 11 12 100 0.0023793
4 11 12 100 0.00383733
5 11 12 100 0.00460509
6 11 12 100 0.0135329
7 11 12 100 0.0303357
8 11 12 100 0.0575827
9 11 12 100 0.104944
10 11 12 100 0.138642
11 11 12 100 0.217307
12 11 12 100 0.370124
0 12 12 100 0.0514913
1 12 12 100 0.000660506
2 12 12 100 0.000729415
3 12 12 100 0.00468962
4 12 12 100 0.00221469
5 12 12 100 0.00352701
6 12 12 100 0.0116347
7 12 12 100 0.0220526
8 12 12 100 0.0356612
9 12 12 100 0.0908965
10 12 12 100 0.100616
11 12 12 100 0.233192
12 12 12 100 0.442635
0 13 12 100 0.044697
1 13 12 100 0.00228408
2 13 12 100 4.79015e-06
3 13 12 100 0.00402757
4 13 12 100 0.00263193
5 13 12 100 0.00127898
6 13 12 100 0.00206687
7 13 12 100 0.0156345
8 13 12 100 0.0283818
9 13 12 100 0.0667526
10 13 12 100 0.131688
11 13 12 100 0.193996
12 13 12 100 0.506556
0 14 12 100 0.0321669
1 14 12 100 0.00257502
2 14 12 100 0.0035669
3 14 12 100 1.15848e-05
4 14 12 100 0.0025373
5 14 12 100 0.00259531
6 14 12 100 0.00257183
7 14 12 100 0.0129389
8 14 12 100 0.0230392
9 14 12 100 0.046875
10 14 12 100 0.133844
11 14 12 100 0.19807
12 14 12 100 0.539208
0 15 12 100 0.0265998
1 15 12 100 0.00102165
2 15 12 100 1.70424e-07
3 15 12 100 0.00444274
4 15 12 100 4.65488e-06
5 15 12 100 5.46471e-07
6 15 12 100 0.00546611
7 15 12 100 0.010927
8 15 12 100 0.0219023
9 15 12 100 0.0479658
10 15 12 100 0.0981293
11 15 12 100 0.161091
12 15 12 100 0.622448
0 16 12 100 0.0573686
1 16 12 100 0.00110233
2 16 12 100 3.42812e-05
3 16 12 100 0.0136024
4 16 12 100 3.89172e-07
5 16 12 100 0.0147058
6 16 12 100 3.72058e-07
8 16 12 100 0.0147059
9 16 12 100 0.0297159
10 16 12 100 0.133684
11 16 12 100 0.160119
12 16 12 100 0.574961
0 17 12 100 0.0754307
2 17 12 100 9.80462e-05
4 17 12 100 0.00122291
6 17 12 100 5.48551e-05
7 17 12 100 7.06139e-06
9 17 12 100 0.0384587
10 17 12 100 0.0384615
11 17 12 100 0.230771
12 17 12 100 0.615495
0 18 12 100 1.83673e-05
5 18 12 100 0.111111
9 18 12 100 0.0172008
10 18 12 100 4.64355e-05
11 18 12 100 0.204956
12 18 12 100 0.666668
0 19 12 100 4.97839e-05
12 19 12 100 0.99995
0 1 13 100 0.0291022
1 1 13 100 0.723256
2 1 13 100 0.155858
3 1 13 100 0.0257723
4 1 13 100 0.0167436
5 1 13 100 0.00742521
6 1 13 100 0.00673655
7 1 13 100 0.0113903
8 1 13 100 0.00448315
9 1 13 100 0.0104006
10 1 13 100 0.00232058
11 1 13 100 0.00374439
12 1 13 100 0.00276713
0 2 13 100 0.0755857
1 2 13 100 0.0571344
2 2 13 100 0.526446
3 2 13 100 0.173917
4 2 13 100 0.0676576
5 2 13 100 0.0271712
6 2 13 100 0.0195089
7 2 13 100 0.0103528
8 2 13 100 0.00730535
9 2 13 100 0.0111313
10 2 13 100 0.00788488
11 2 13 100 0.00597003
12 2 13 100 0.00993435
0 3 13 100 0.14881
1 3 13 100 0.0158825
2 3 13 100 0.0984825
3 3 13 100 0.288677
4 3 13 100 0.224106
5 3 13 100 0.104327
6 3 13 100 0.047415
7 3 13 100 0.0216617
8 3 13 100 0.0105379
9 3 13 100 0.008402
10 3 13 100 0.00772653
11 3 13 100 0.00895945
12 3 13 100 0.0149981
13 3 13 100 1.32965e-05
0 4 13 100 0.169342
1 4 13 100 0.011301
2 4 13 100 0.0325597
3 4 13 100 0.115774
4 4 13 100 0.190745
5 4 13 100 0.207147
6 4 13 100 0.134353
7 4 13 100 0.0658196
8 4 13 100 0.027064
9 4 13 100 0.0106823
10 4 13 100 0.00718754
11 4 13 100 0.00932145
12 4 13 100 0.0186964
13 4 13 100 7.68691e-06
0 5 13 100 0.173029
1 5 13 100 0.00754486
2 5 13 100 0.0174432
3 5 13 100 0.052253
4 5 13 100 0.132842
5 5 13 100 0.172841
6 5 13 100 0.181056
7 5 13 100 0.120001
8 5 13 100 0.0620685
9 5 13 100 0.032307
10 5 13 100 0.0173299
11 5 13 100 0.0114719
12 5 13 100 0.0193661
13 5 13 100 0.000446721
0 6 13 100 0.137252
1 6 13 100 0.00235564
2 6 13 100 0.0079229
3 6 13 100 0.019749
4 6 13 100 0.0686648
5 6 13 100 0.13051
6 6 13 100 0.158426
7 6 13 100 0.172553
8 6 13 100 0.123528
9 6 13 100 0.0741209
10 6 13 100 0.0453333
11 6 13 100 0.0207773
12 6 13 100 0.0342376
13 6 13 100 0.00456935
0 7 13 100 0.133183
1 7 13 100 0.00266446
2 7 13 100 0.00776911
3 7 13 100 0.00733403
4 7 13 100 0.018281
5 7 13 100 0.0588015
6 7 13 100 0.123063
7 7 13 100 0.161095
8 7 13 100 0.160216
9 7 13 100 0.132193
10 7 13 100 0.0751408
11 7 13 100 0.0482384
12 7 13 100 0.0552174
13 7 13 100 0.0168042
0 8 13 100 0.105085
1 8 13 100 0.00236302
2 8 13 100 0.00613813
3 8 13 100 0.00563355
4 8 13 100 0.00721172
5 8 13 100 0.0254728
6 8 13 100 0.0551835
7 8 13 100 0.123835
8 8 13 100 0.14947
9 8 13 100 0.149814
10 8 13 100 0.11918
11 8 13 100 0.0837885
12 8 13 100 0.111733
13 8 13 100 0.0550925
0 9 13 100 0.0935867
1 9 13 100 0.00122802
2 9 13 100 0.00241014
3 9 13 100 0.00401436
4 9 13 100 0.00720939
5 9 13 100 0.012081
6 9 13 100 0.0287651
7 9 13 100 0.0576039
8 9 13 100 0.118832
9 9 13 100 0.15108
10 9 13 100 0.137018
11 9 13 100 0.113486
12 9 13 100 0.15432
13 9 13 100 0.118365
0 10 13 100 0.0820027
1 10 13 100 0.00141603
2 10 13 100 0.00189075
3 10 13 100 0.00213102
4 10 13 100 0.004642
5 10 13 100 0.00819679
6 10 13 100 0.0134985
7 10 13 100 0.032764
8 10 13 100 0.0710968
9 10 13 100 0.11969
10 10 13 100 0.150898
11 10 13 100 0.125219
12 10 13 100 0.182117
13 10 13 100 0.204437
0 11 13 100 0.0695714
1 11 13 100 0.000730505
2 11 13 100 0.000586789
3 11 13 100 0.00232207
4 11 13 100 0.00233972
5 11 13 100 0.00536707
6 11 13 100 0.00620582
7 11 13 100 0.0192607
8 11 13 100 0.0517497
9 11 13 100 0.0966648
10 11 13 100 0.130521
11 11 13 100 0.146909
12 11 13 100 0.207207
13 11 13 100 0.260565
0 12 13 100 0.0554541
1 12 13 100 5.54009e-07
2 12 13 100 0.00158583
3 12 13 100 0.00204938
4 12 13 100 0.00395598
5 12 13 100 0.00404584
6 12 13 100 0.00429066
7 12 13 100 0.006013
8 12 13 100 0.0347807
9 12 13 100 0.061478
10 12 13 100 0.130151
11 12 13 100 0.131079
12 12 13 100 0.220977
13 12 13 100 0.344139
0 13 13 100 0.0419352
2 13 13 100 7.76364e-05
3 13 13 100 0.00371991
4 13 13 100 0.00241542
5 13 13 100 0.00462285
6 13 13 100 0.00363807
7 13 13 100 0.00126008
8 13 13 100 0.0156097
9 13 13 100 0.0393796
10 13 13 100 0.0875434
11 13 13 100 0.130895
12 13 13 100 0.234624
13 13 13 100 0.434279
0 14 13 100 0.0349999
1 14 13 100 0.00213728
2 14 13 100 0.00213917
3 14 13 100 0.00436521
4 14 13 100 0.00427456
5 14 13 100 0.00641692
6 14 13 100 0.000155995
7 14 13 100 0.00238641
8 14 13 100 0.010561
9 14 13 100 0.0170921
10 14 13 100 0.0686586
11 14 13 100 0.127965
12 14 13 100 0.206034
13 14 13 100 0.512815
0 15 13 100 0.078033
1 15 13 100 2.17195e-07
2 15 13 100 5.31408e-06
3 15 13 100 0.000610251
4 15 13 100 0.00881157
5 15 13 100 0.00438657
6 15 13 100 0.00703221
7 15 13 100 0.00440996
8 15 13 100 0.0131569
9 15 13 100 0.0307792
10 15 13 100 0.0530419
11 15 13 100 0.0765159
12 15 13 100 0.19693
13 15 13 100 0.526287
0 16 13 100 0.0563545
1 16 13 100 0.00925987
3 16 13 100 9.93229e-07
4 16 13 100 4.42621e-06
5 16 13 100 0.00925927
6 16 13 100 2.29786e-07
7 16 13 100 2.74251e-07
8 16 13 100 0.00923042
9 16 13 100 0.0169537
10 16 13 100 0.0752688
11 16 13 100 0.120111
12 16 13 100 0.157322
13 16 13 100 0.546235
0 17 13 100 0.00457371
4 17 13 100 8.57755e-06
9 17 13 100 0.0438893
10 17 13 100 0.0127987
11 17 13 100 0.15766
12 17 13 100 0.209645
13 17 13 100 0.571425
0 18 13 100 0.00034325
7 18 13 100 1.89526e-06
10 18 13 100 0.0476186
11 18 13 100 0.047619
12 18 13 100 0.33299
13 18 13 100 0.571427
7 19 13 100 0.00602169
11 19 13 100 0.111111
12 19 13 100 0.2162
13 19 13 100 0.666667
12 20 13 100 0.666667
13 20 13 100 0.333333
13 21 13 100 1
0 1 14 100 0.0255721
1 1 14 100 0.716906
2 1 14 100 0.158862
3 1 14 100 0.0392545
4 1 14 100 0.0212552
5 1 14 100 0.00714928
6 1 14 100 0.00745028
7 1 14 100 0.00649191
8 1 14 100 0.0032312
9 1 14 100 0.00410974
10 1 14 100 0.00360642
11 1 14 100 0.00179589
12 1 14 100 0.0024234
13 1 14 100 0.00189168
0 2 14 100 0.0810566
1 2 14 100 0.0643787
2 2 14 100 0.491976
3 2 14 100 0.182249
4 2 14 100 0.0748949
5 2 14 100 0.0400306
6 2 14 100 0.0199633
7 2 14 100 0.0104516
8 2 14 100 0.010771
9 2 14 100 0.00518476
10 2 14 100 0.00401088
11 2 14 100 0.00375837
12 2 14 100 0.00282431
13 2 14 100 0.00844931
14 2 14 100 7.50404e-07
0 3 14 100 0.1394
1 3 14 100 0.0130493
2 3 14 100 0.12037
3 3 14 100 0.281175
4 3 14 100 0.193925
5 3 14 100 0.125276
6 3 14 100 0.0547698
7 3 14 100 0.0231252
8 3 14 100 0.0112539
9 3 14 100 0.00879704
10 3 14 100 0.00881244
11 3 14 100 0.0077754
12 3 14 100 0.00322066
13 3 14 100 0.00904529
14 3 14 100 4.93985e-06
0 4 14 100 0.1738
1 4 14 100 0.0104652
2 4 14 100 0.0296685
3 4 14 100 0.121299
4 4 14 100 0.187377
5 4 14 100 0.180937
6 4 14 100 0.140945
7 4 14 100 0.0738376
8 4 14 100 0.0319749
9 4 14 100 0.0207575
10 4 14 100 0.00876486
11 4 14 100 0.00736292
12 4 14 100 0.00460144
13 4 14 100 0.00817668
14 4 14 100 3.24425e-05
0 5 14 100 0.155766
1 5 14 100 0.00607715
2 5 14 100 0.0160102
3 5 14 100 0.0544997
4 5 14 100 0.11748
5 5 14 100 0.1696
6 5 14 100 0.171296
7 5 14 100 0.132412
8 5 14 100 0.0806829
9 5 14 100 0.0378366
10 5 14 100 0.0197477
11 5 14 100 0.0077937
12 5 14 100 0.0120512
13 5 14 100 0.0180631
14 5 14 100 0.000684004
0 6 14 100 0.143277
1 6 14 100 0.00482783
2 6 14 100 0.00698621
3 6 14 100 0.0173915
4 6 14 100 0.0569108
5 6 14 100 0.11837
6 6 14 100 0.175869
7 6 14 100 0.169403
8 6 14 100 0.119702
9 6 14 100 0.0813781
10 6 14 100 0.0413691
11 6 14 100 0.0258498
12 6 14 100 0.0123301
13 6 14 100 0.0208693
14 6 14 100 0.00546647
0 7 14 100 0.154035
1 7 14 100 0.00364143
2 7 14 100 0.00620356
3 7 14 100 0.0058551
4 7 14 100 0.0163344
5 7 14 100 0.0579607
6 7 14 100 0.10697
7 7 14 100 0.168669
8 7 14 100 0.138683
9 7 14 100 0.139613
10 7 14 100 0.0758559
11 7 14 100 0.0492839
12 7 14 100 0.0270519
13 7 14 100 0.0381604
14 7 14 100 0.0116834
0 8 14 100 0.124093
1 8 14 100 0.00143603
2 8 14 100 0.005538
3 8 14 100 0.00487886
4 8 14 100 0.00696652
5 8 14 100 0.0234824
6 8 14 100 0.0527116
7 8 14 100 0.103243
8 8 14 100 0.161526
9 8 14 100 0.141321
10 8 14 100 0.126726
11 8 14 100 0.0901375
12 8 14 100 0.0579501
13 8 14 100 0.0665947
14 8 14 100 0.0333954
0 9 14 100 0.0994325
1 9 14 100 5.07081e-05
2 9 14 100 0.00216609
3 9 14 100 0.00576867
4 9 14 100 0.0105363
5 9 14 100 0.0111113
6 9 14 100 0.0225609
7 9 14 100 0.0553564
8 9 14 100 0.103114
9 9 14 100 0.142994
10 9 14 100 0.14102
11 9 14 100 0.131023
12 9 14 100 0.0872478
13 9 14 100 0.125798
14 9 14 100 0.0618202
0 10 14 100 0.0772334
1 10 14 100 0.00153573
2 10 14 100 0.000813617
3 10 14 100 0.00312785
4 10 14 100 0.00332303
5 10 14 100 0.0100608
6 10 14 100 0.0152289
7 10 14 100 0.0270274
8 10 14 100 0.0591987
9 10 14 100 0.111036
10 10 14 100 0.148959
11 10 14 100 0.143253
12 10 14 100 0.112608
13 10 14 100 0.139627
14 10 14 100 0.146967
0 11 14 100 0.0877528
1 11 14 100 9.94246e-06
2 11 14 100 0.00359821
3 11 14 100 0.00367042
4 11 14 100 0.00290631
5 11 14 100 0.00690385
6 11 14 100 0.00526082
7 11 14 100 0.00866878
8 11 14 100 0.0332783
9 11 14 100 0.069294
10 11 14 100 0.0999824
11 11 14 100 0.145591
12 11 14 100 0.117881
13 11 14 100 0.222371
14 11 14 100 0.192832
0 12 14 100 0.0708318
1 12 14 100 0.00111584
2 12 14 100 0.00333755
3 12 14 100 0.00541467
4 12 14 100 0.00545057
5 12 14 100 0.00442924
6 12 14 100 0.00237781
7 12 14 100 0.00652178
8 12 14 100 0.01691
9 12 14 100 0.0559613
10 12 14 100 0.0907752
11 12 14 100 0.117615
12 12 14 100 0.111617
13 12 14 100 0.216243
14 12 14 100 0.291399
0 13 14 100 0.0657838
1 13 14 100 3.04064e-05
2 13 14 100 0.003141
3 13 14 100 0.00478278
4 13 14 100 0.0035557
5 13 14 100 0.00485194
6 13 14 100 0.00152134
7 13 14 100 0.00527974
8 13 14 100 0.00587862
9 13 14 100 0.04317
10 13 14 100 0.0713841
11 13 14 100 0.115335
12 13 14 100 0.110468
13 13 14 100 0.185103
14 13 14 100 0.379715
0 14 14 100 0.0623436
1 14 14 100 1.8844e-06
2 14 14 100 6.65478e-07
3 14 14 100 0.00429193
4 14 14 100 0.00253943
5 14 14 100 0.00507606
6 14 14 100 5.05177e-06
7 14 14 100 6.20818e-05
8 14 14 100 0.0219068
9 14 14 100 0.0253872
10 14 14 100 0.0444261
11 14 14 100 0.106949
12 14 14 100 0.126326
13 14 14 100 0.245411
14 14 14 100 0.355274
0 15 14 100 0.0299745
2 15 14 100 2.35998e-06
3 15 14 100 0.00393697
4 15 14 100 0.00335916
5 15 14 100 8.33296e-07
6 15 14 100 2.74844e-06
7 15 14 100 0.000312518
8 15 14 100 0.00381745
9 15 14 100 0.0274111
10 15 14 100 0.0573818
11 15 14 100 0.0727448
12 15 14 100 0.11508
13 15 14 100 0.209599
14 15 14 100 0.476377
0 16 14 100 0.0338442
3 16 14 100 0.00751902
4 16 14 100 5.14056e-07
5 16 14 100 3.2629e-06
6 16 14 100 0.00751899
7 16 14 100 7.19515e-06
8 16 14 100 0.00769533
9 16 14 100 0.037684
10 16 14 100 0.0527561
11 16 14 100 0.0633613
12 16 14 100 0.0826894
13 16 14 100 0.173086
14 16 14 100 0.533834
0 17 14 100 0.0225465
2 17 14 100 8.48466e-05
3 17 14 100 1.62291e-05
4 17 14 100 0.0161291
6 17 14 100 6.40951e-06
7 17 14 100 4.38633e-07
8 17 14 100 0.000175543
9 17 14 100 0.032084
10 17 14 100 0.0322571
11 17 14 100 0.0484034
12 17 14 100 0.0782978
13 17 14 100 0.258061
14 17 14 100 0.511938
0 18 14 100 0.0994517
6 18 14 100 3.00537e-06
9 18 14 100 0.0333359
10 18 14 100 0.0333314
11 18 14 100 0.0677806
12 18 14 100 0.0333328
13 18 14 100 0.166104
14 18 14 100 0.566661
0 19 14 100 1.2107e-06
3 19 14 100 0.076923
9 19 14 100 1.70603e-05
10 19 14 100 0.0769231
11 19 14 100 0.153829
13 19 14 100 0.0769231
14 19 14 100 0.615384
0 20 14 100 1.09601e-05
8 20 14 100 5.6748e-05
14 20 14 100 0.999932
0 1 15 100 0.0374684
1 1 15 100 0.721167
2 1 15 100 0.152396
3 1 15 100 0.0189424
4 1 15 100 0.0165696
5 1 15 100 0.00954505
6 1 15 100 0.00841356
7 1 15 100 0.0032666
8 1 15 100 0.00351717
9 1 15 100 0.00913334
10 1 15 100 0.00924937
11 1 15 100 0.00560191
12 1 15 100 0.00132674
13 1 15 100 3.35324e-05
14 1 15 100 0.00336874
0 2 15 100 0.0779074
1 2 15 100 0.0693487
2 2 15 100 0.525368
3 2 15 100 0.181808
4 2 15 100 0.05815
5 2 15 100 0.0297198
6 2 15 100 0.0103764
7 2 15 100 0.0125834
8 2 15 100 0.00519087
9 2 15 100 0.00284522
10 2 15 100 0.00704287
11 2 15 100 0.00824995
12 2 15 100 0.00397728
13 2 15 100 0.00293636
14 2 15 100 0.00449598
15 2 15 100 1.69804e-07
0 3 15 100 0.153492
1 3 15 100 0.0191527
2 3 15 100 0.100876
3 3 15 100 0.289059
4 3 15 100 0.202994
5 3 15 100 0.099172
6 3 15 100 0.0585859
7 3 15 100 0.0320805
8 3 15 100 0.00717726
9 3 15 100 0.00587199
10 3 15 100 0.00331618
11 3 15 100 0.00267334
12 3 15 100 0.00909064
13 3 15 100 0.00783706
14 3 15 100 0.00862143
0 4 15 100 0.156707
1 4 15 100 0.010164
2 4 15 100 0.0316464
3 4 15 100 0.121338
4 4 15 100 0.190991
5 4 15 100 0.203168
6 4 15 100 0.127811
7 4 15 100 0.0632555
8 4 15 100 0.0461435
9 4 15 100 0.0134641
10 4 15 100 0.00599324
11 4 15 100 0.00653512
12 4 15 100 0.00113814
13 4 15 100 0.00458283
14 4 15 100 0.0168455
15 4 15 100 0.000216699
0 5 15 100 0.131452
1 5 15 100 0.00691351
2 5 15 100 0.0138924
3 5 15 100 0.0603075
4 5 15 100 0.118421
5 5 15 100 0.180308
6 5 15 100 0.211292
7 5 15 100 0.124326
8 5 15 100 0.0780966
9 5 15 100 0.0225879
10 5 15 100 0.0174333
11 5 15 100 0.0121153
12 5 15 100 0.00781571
13 5 15 100 0.00366295
14 5 15 100 0.0113685
15 5 15 100 7.37027e-06
0 6 15 100 0.140051
1 6 15 100 0.00230825
2 6 15 100 0.0091125
3 6 15 100 0.0202099
4 6 15 100 0.0667303
5 6 15 100 0.11297
6 6 15 100 0.151057
7 6 15 100 0.194723
8 6 15 100 0.144453
9 6 15 100 0.0661726
10 6 15 100 0.0334312
11 6 15 100 0.0246954
12 6 15 100 0.0185257
13 6 15 100 0.00991773
14 6 15 100 0.00563738
15 6 15 100 4.80039e-06
0 7 15 100 0.145879
1 7 15 100 0.00328428
2 7 15 100 0.00776529
3 7 15 100 0.00560625
4 7 15 100 0.0279371
5 7 15 100 0.0520396
6 7 15 100 0.0919817
7 7 15 100 0.172259
8 7 15 100 0.179777
9 7 15 100 0.128146
10 7 15 100 0.0724162
11 7 15 100 0.0355196
12 7 15 100 0.026912
13 7 15 100 0.0236376
14 7 15 100 0.02683
15 7 15 100 9.19598e-06
0 8 15 100 0.143976
1 8 15 100 1.531e-05
2 8 15 100 0.00402256
3 8 15 100 0.00477968
4 8 15 100 0.0122745
5 8 15 100 0.0307299
6 8 15 100 0.0571293
7 8 15 100 0.0825627
8 8 15 100 0.168314
9 8 15 100 0.151558
10 8 15 100 0.127143
11 8 15 100 0.0745413
12 8 15 100 0.0432831
13 8 15 100 0.0391357
14 8 15 100 0.0492984
15 8 15 100 0.0112372
0 9 15 100 0.125171
1 9 15 100 2.7921e-05
2 9 15 100 0.00226321
3 9 15 100 0.00434504
4 9 15 100 0.0094571
5 9 15 100 0.0120318
6 9 15 100 0.0371485
7 9 15 100 0.0510222
8 9 15 100 0.0926201
9 9 15 100 0.144451
10 9 15 100 0.157239
11 9 15 100 0.110631
12 9 15 100 0.0765319
13 9 15 100 0.0569762
14 9 15 100 0.0859833
15 9 15 100 0.0341004
0 10 15 100 0.110983
1 10 15 100 4.92744e-05
2 10 15 100 0.00137233
3 10 15 100 0.00362392
4 10 15 100 0.00579874
5 10 15 100 0.00915081
6 10 15 100 0.00980693
7 10 15 100 0.0345917
8 10 15 100 0.0576669
9 10 15 100 0.102528
10 10 15 100 0.128212
11 10 15 100 0.164725
12 10 15 100 0.105843
13 10 15 100 0.0784822
14 10 15 100 0.112073
15 10 15 100 0.0750929
0 11 15 100 0.0903716
1 11 15 100 0.00059265
2 11 15 100 0.00623444
3 11 15 100 0.00138111
4 11 15 100 0.00464714
5 11 15 100 0.00302839
6 11 15 100 0.00873545
7 11 15 100 0.0116673
8 11 15 100 0.0391525
9 11 15 100 0.0636262
10 11 15 100 0.119602
11 11 15 100 0.121925
12 11 15 100 0.140414
13 11 15 100 0.109475
14 11 15 100 0.159552
15 11 15 100 0.119596
0 12 15 100 0.0781609
1 12 15 100 2.39497e-05
2 12 15 100 0.00291961
3 12 15 100 0.00578905
4 12 15 100 0.00465088
5 12 15 100 1.73607e-05
6 12 15 100 0.00531016
7 12 15 100 0.00290589
8 12 15 100 0.0153617
9 12 15 100 0.0380671
10 12 15 100 0.0867956
11 12 15 100 0.131973
12 12 15 100 0.129608
13 12 15 100 0.105246
14 12 15 100 0.192305
15 12 15 100 0.200866
0 13 15 100 0.0784509
1 13 15 100 8.70794e-06
2 13 15 100 0.00183439
3 13 15 100 0.00345219
4 13 15 100 0.00182352
5 13 15 100 0.00180441
6 13 15 100 0.0037884
7 13 15 100 0.00514365
8 13 15 100 0.00937671
9 13 15 100 0.021073
10 13 15 100 0.0451479
11 13 15 100 0.105863
12 13 15 100 0.123799
13 13 15 100 0.124799
14 13 15 100 0.201275
15 13 15 100 0.272361
0 14 15 100 0.0676138
1 14 15 100 1.19847e-05
3 14 15 100 0.001816
4 14 15 100 0.00497619
5 14 15 100 9.37062e-06
6 14 15 100 0.00497639
7 14 15 100 1.85795e-05
8 14 15 100 0.00481127
9 14 15 100 0.0097664
10 14 15 100 0.0350074
11 14 15 100 0.078885
12 14 15 100 0.103876
13 14 15 100 0.140602
14 14 15 100 0.212107
15 14 15 100 0.335523
0 15 15 100 0.0484827
1 15 15 100 0.00373989
3 15 15 100 0.00376463
4 15 15 100 1.91083e-05
5 15 15 100 1.65226e-05
6 15 15 100 0.00374698
7 15 15 100 0.00374532
8 15 15 100 0.00374604
9 15 15 100 0.000324843
10 15 15 100 0.0187311
11 15 15 100 0.0395543
12 15 15 100 0.106946
13 15 15 100 0.137858
14 15 15 100 0.202663
15 15 15 100 0.426662
0 16 15 100 0.0432966
1 16 15 100 3.45853e-07
3 16 15 100 0.019582
5 16 15 100 2.35512e-05
6 16 15 100 1.35904e-06
7 16 15 100 0.0130726
8 16 15 100 7.3882e-06
9 16 15 100 0.00653615
10 16 15 100 0.0199562
11 16 15 100 0.0407037
12 16 15 100 0.0531488
13 16 15 100 0.12419
14 16 15 100 0.215431
15 16 15 100 0.464051
0 17 15 100 0.023833
1 17 15 100 0.0121951
3 17 15 100 2.41692e-07
5 17 15 100 6.63042e-07
6 17 15 100 2.28647e-07
7 17 15 100 1.91274e-06
8 17 15 100 0.0121957
10 17 15 100 0.0243902
11 17 15 100 0.0486931
12 17 15 100 0.0486605
13 17 15 100 0.0878362
14 17 15 100 0.181218
15 17 15 100 0.560975
0 18 15 100 0.00164166
1 18 15 100 0.0277778
2 18 15 100 0.0277044
5 18 15 100 7.43437e-07
8 18 15 100 4.82961e-07
12 18 15 100 0.138767
13 18 15 100 0.0556232
14 18 15 100 0.220711
15 18 15 100 0.527774
0 19 15 100 3.13039e-06
2 19 15 100 0.0588194
7 19 15 100 0.000364463
11 19 15 100 1.38259e-06
13 19 15 100 0.117647
14 19 15 100 0.0588264
15 19 15 100 0.764338
10 20 15 100 9.20484e-05
14 20 15 100 0.25
15 20 15 100 0.749908
15 21 15 100 1
0 1 16 100 0.0261471
1 1 16 100 0.727624
2 1 16 100 0.1634
3 1 16 100 0.035127
4 1 16 100 0.00971597
5 1 16 100 0.00667759
6 1 16 100 0.0115507
7 1 16 100 0.00165482
8 1 16 100 0.00158656
9 1 16 100 0.00328882
10 1 16 100 0.00333232
11 1 16 100 0.00184376
12 1 16 100 0.00166471
13 1 16 100 0.00455783
14 1 16 100 7.01941e-06
15 1 16 100 0.00182219
0 2 16 100 0.0756712
1 2 16 100 0.0709179
2 2 16 100 0.52218
3 2 16 100 0.188465
4 2 16 100 0.0621523
5 2 16 100 0.027683
6 2 16 100 0.0162039
7 2 16 100 0.0119187
8 2 16 100 0.00504422
9 2 16 100 0.00151636
10 2 16 100 0.00446808
11 2 16 100 5.34737e-05
12 2 16 100 0.00361085
13 2 16 100 0.000152326
14 2 16 100 0.00331202
15 2 16 100 0.00665074
0 3 16 100 0.150227
1 3 16 100 0.0294742
2 3 16 100 0.138638
3 3 16 100 0.253848
4 3 16 100 0.215759
5 3 16 100 0.0845121
6 3 16 100 0.0522786
7 3 16 100 0.0206127
8 3 16 100 0.018424
9 3 16 100 0.00690533
10 3 16 100 0.00805012
11 3 16 100 8.83022e-06
12 3 16 100 0.00165272
13 3 16 100 0.00983599
14 3 16 100 0.00164488
15 3 16 100 0.00812886
0 4 16 100 0.177669
1 4 16 100 0.0106138
2 4 16 100 0.0536429
3 4 16 100 0.128961
4 4 16 100 0.198811
5 4 16 100 0.196145
6 4 16 100 0.115112
7 4 16 100 0.0494586
8 4 16 100 0.0199547
9 4 16 100 0.0121924
10 4 16 100 0.00878088
11 4 16 100 0.0060028
12 4 16 100 0.00465012
13 4 16 100 0.0099171
14 4 16 100 0.00189617
15 4 16 100 0.00619197
16 4 16 100 4.42291e-07
0 5 16 100 0.145509
1 5 16 100 0.00337725
2 5 16 100 0.0190261
3 5 16 100 0.0542549
4 5 16 100 0.131508
5 5 16 100 0.168747
6 5 16 100 0.183022
7 5 16 100 0.137714
8 5 16 100 0.0800892
9 5 16 100 0.0268569
10 5 16 100 0.0105774
11 5 16 100 0.00665821
12 5 16 100 0.00596062
13 5 16 100 0.0134308
14 5 16 100 0.00333485
15 5 16 100 0.00993406
0 6 16 100 0.153269
1 6 16 100 0.00190336
2 6 16 100 0.0065469
3 6 16 100 0.00933993
4 6 16 100 0.0724805
5 6 16 100 0.117236
6 6 16 100 0.163055
7 6 16 100 0.179638
8 6 16 100 0.135564
9 6 16 100 0.0756113
10 6 16 100 0.0358551
11 6 16 100 0.00969113
12 6 16 100 0.0135063
13 6 16 100 0.00802637
14 6 16 100 0.00174061
15 6 16 100 0.016536
0 7 16 100 0.128815
1 7 16 100 1.10224e-07
2 7 16 100 0.00331757
3 7 16 100 0.0051702
4 7 16 100 0.0173686
5 7 16 100 0.0679475
6 7 16 100 0.105396
7 7 16 100 0.165682
8 7 16 100 0.165688
9 7 16 100 0.153119
10 7 16 100 0.0730348
11 7 16 100 0.0442033
12 7 16 100 0.022914
13 7 16 100 0.0134093
14 7 16 100 0.00789902
15 7 16 100 0.024382
16 7 16 100 0.0016534
0 8 16 100 0.125567
1 8 16 100 0.00166432
2 8 16 100 0.0033281
3 8 16 100 0.00817282
4 8 16 100 0.00692897
5 8 16 100 0.0154265
6 8 16 100 0.0827413
7 8 16 100 0.0891827
8 8 16 100 0.15709
9 8 16 100 0.141941
10 8 16 100 0.170698
11 8 16 100 0.0737865
12 8 16 100 0.0489472
13 8 16 100 0.0347217
14 8 16 100 0.0140557
15 8 16 100 0.0191251
16 8 16 100 0.00662261
0 9 16 100 0.109865
1 9 16 100 0.00333476
2 9 16 100 0.00306779
3 9 16 100 0.00335925
4 9 16 100 0.00927707
5 9 16 100 0.00615243
6 9 16 100 0.0172669
7 9 16 100 0.0638043
8 9 16 100 0.0816837
9 9 16 100 0.17404
10 9 16 100 0.137339
11 9 16 100 0.142887
12 9 16 100 0.101608
13 9 16 100 0.0583959
14 9 16 100 0.0250954
15 9 16 100 0.0544891
16 9 16 100 0.00833371
0 10 16 100 0.118357
1 10 16 100 0.0050399
2 10 16 100 0.00311807
3 10 16 100 0.0050671
4 10 16 100 0.00142114
5 10 16 100 0.00341288
6 10 16 100 0.0118982
7 10 16 100 0.0269308
8 10 16 100 0.0556112
9 10 16 100 0.0963102
10 10 16 100 0.135921
11 10 16 100 0.134541
12 10 16 100 0.103913
13 10 16 100 0.103523
14 10 16 100 0.0685148
15 10 16 100 0.0844038
16 10 16 100 0.0420168
0 11 16 100 0.118119
1 11 16 100 1.10692e-05
2 11 16 100 0.00351954
3 11 16 100 0.00106221
4 11 16 100 0.00176382
5 11 16 100 0.000398212
6 11 16 100 0.00714361
7 11 16 100 0.014677
8 11 16 100 0.0276345
9 11 16 100 0.059946
10 11 16 100 0.106241
11 11 16 100 0.114066
12 11 16 100 0.1252
13 11 16 100 0.116934
14 11 16 100 0.104316
15 11 16 100 0.12002
16 11 16 100 0.0789469
0 12 16 100 0.0858152
1 12 16 100 0.0019059
2 12 16 100 0.00191991
3 12 16 100 0.0018578
4 12 16 100 0.00571663
5 12 16 100 0.002215
6 12 16 100 0.00414679
7 12 16 100 0.0110407
8 12 16 100 0.0154079
9 12 16 100 0.0271813
10 12 16 100 0.0534403
11 12 16 100 0.117609
12 12 16 100 0.12975
13 12 16 100 0.120048
14 12 16 100 0.105443
15 12 16 100 0.192693
16 12 16 100 0.123809
0 13 16 100 0.0669752
1 13 16 100 0.0043485
2 13 16 100 0.00433208
3 13 16 100 9.10039e-06
4 13 16 100 0.00221607
5 13 16 100 0.000126109
6 13 16 100 0.00433504
7 13 16 100 0.00437987
8 13 16 100 0.0108829
9 13 16 100 0.0273925
10 13 16 100 0.0273977
11 13 16 100 0.0732153
12 13 16 100 0.124965
13 13 16 100 0.119893
14 13 16 100 0.118137
15 13 16 100 0.178787
16 13 16 100 0.232607
0 14 16 100 0.0871608
2 14 16 100 1.58178e-06
3 14 16 100 0.00259061
4 14 16 100 1.70413e-05
5 14 16 100 0.00566594
6 14 16 100 6.24421e-07
7 14 16 100 0.00291507
8 14 16 100 0.00277906
9 14 16 100 0.0140412
10 14 16 100 0.0199154
11 14 16 100 0.0648237
12 14 16 100 0.0784365
13 14 16 100 0.106216
14 14 16 100 0.119694
15 14 16 100 0.195602
16 14 16 100 0.300141
0 15 16 100 0.0711356
1 15 16 100 1.43682e-06
2 15 16 100 2.39157e-06
3 15 16 100 3.26331e-05
4 15 16 100 0.000307875
5 15 16 100 0.00403357
6 15 16 100 1.58635e-05
7 15 16 100 4.07813e-05
8 15 16 100 5.74641e-06
9 15 16 100 0.00504665
10 15 16 100 0.0319694
11 15 16 100 0.00846227
12 15 16 100 0.0837552
13 15 16 100 0.112223
14 15 16 100 0.169085
15 15 16 100 0.195225
16 15 16 100 0.318658
0 16 16 100 0.0480121
1 16 16 100 1.9274e-07
2 16 16 100 2.29359e-07
3 16 16 100 7.42193e-07
5 16 16 100 0.00436734
6 16 16 100 2.64221e-06
7 16 16 100 0.00591712
8 16 16 100 2.08079e-06
9 16 16 100 0.0059189
10 16 16 100 0.0177519
11 16 16 100 0.0531802
12 16 16 100 0.0236847
13 16 16 100 0.07557
14 16 16 100 0.124984
15 16 16 100 0.220522
16 16 16 100 0.420087
0 17 16 100 0.0717283
1 17 16 100 0.000172302
2 17 16 100 7.79699e-07
3 17 16 100 0.000177835
4 17 16 100 0.00812404
5 17 16 100 1.92577e-05
6 17 16 100 8.22472e-06
7 17 16 100 1.58054e-05
8 17 16 100 0.0102044
9 17 16 100 0.010646
10 17 16 100 0.00975123
11 17 16 100 0.0306633
12 17 16 100 0.0906008
13 17 16 100 0.0426115
14 17 16 100 0.0620502
15 17 16 100 0.285682
16 17 16 100 0.377543
0 18 16 100 0.0483813
6 18 16 100 0.0163934
8 18 16 100 7.43696e-07
11 18 16 100 0.0163934
12 18 16 100 0.0817887
13 18 16 100 0.0988774
14 18 16 100 0.180229
15 18 16 100 0.0989264
16 18 16 100 0.459009
0 19 16 100 0.00256724
12 19 16 100 0.0300293
13 19 16 100 0.0830751
14 19 16 100 0.0909254
15 19 16 100 0.278253
16 19 16 100 0.515149
0 20 16 100 0.1878
2 20 16 100 9.60599e-07
6 20 16 100 6.28223e-07
8 20 16 100 1.03244e-06
10 20 16 100 1.85975e-05
11 20 16 100 9.63202e-07
12 20 16 100 1.68852e-05
13 20 16 100 0.0619968
14 20 16 100 0.000157083
15 20 16 100 0.125008
16 20 16 100 0.624999
0 21 16 100 0.000919168
5 21 16 100 0.166594
14 21 16 100 0.165819
15 21 16 100 0.333334
16 21 16 100 0.333334
0 22 16 100 0.000223225
6 22 16 100 0.0593328
14 22 16 100 0.249997
15 22 16 100 0.190456
16 22 16 100 0.499992
0 23 16 100 6.67495e-05
16 23 16 100 0.999933
0 1 17 100 0.0262727
1 1 17 100 0.742909
2 1 17 100 0.130701
3 1 17 100 0.0407263
4 1 17 100 0.0195037
5 1 17 100 0.00515602
6 1 17 100 0.0066695
7 1 17 100 0.00648705
8 1 17 100 0.0087914
9 1 17 100 6.50432e-07
10 1 17 100 0.00219659
11 1 17 100 0.00392047
12 1 17 100 3.38682e-05
13 1 17 100 1.0238e-06
14 1 17 100 0.00220203
15 1 17 100 0.004428
16 1 17 100 1.13353e-07
0 2 17 100 0.0799736
1 2 17 100 0.0584613
2 2 17 100 0.537994
3 2 17 100 0.169126
4 2 17 100 0.0576333
5 2 17 100 0.0473028
6 2 17 100 0.00848367
7 2 17 100 0.0100969
8 2 17 100 0.00878674
9 2 17 100 0.00439646
10 2 17 100 0.00222145
11 2 17 100 0.00221734
12 2 17 100 7.06238e-07
13 2 17 100 0.0043978
14 2 17 100 9.67579e-05
15 2 17 100 0.00441561
16 2 17 100 0.00439558
0 3 17 100 0.132667
1 3 17 100 0.0216679
2 3 17 100 0.127484
3 3 17 100 0.286011
4 3 17 100 0.209747
5 3 17 100 0.106238
6 3 17 100 0.0374544
7 3 17 100 0.0367624
8 3 17 100 0.00226212
9 3 17 100 0.00664238
10 3 17 100 0.0110234
11 3 17 100 0.00220078
12 3 17 100 0.00441306
13 3 17 100 0.00220073
14 3 17 100 4.33917e-05
15 3 17 100 0.00439106
16 3 17 100 0.00879126
0 4 17 100 0.18492
1 4 17 100 0.00440967
2 4 17 100 0.0409779
3 4 17 100 0.133842
4 4 17 100 0.182874
5 4 17 100 0.198717
6 4 17 100 0.136641
7 4 17 100 0.0723357
8 4 17 100 0.0142669
9 4 17 100 0.0110395
10 4 17 100 0.00273854
11 4 17 100 0.00220212
12 4 17 100 0.00440132
13 4 17 100 0.00219809
14 4 17 100 0.00589444
15 4 17 100 0.00033462
16 4 17 100 0.00220661
17 4 17 100 2.99716e-07
0 5 17 100 0.154473
1 5 17 100 0.00660191
2 5 17 100 0.015379
3 5 17 100 0.0696996
4 5 17 100 0.135216
5 5 17 100 0.188249
6 5 17 100 0.15575
7 5 17 100 0.127256
8 5 17 100 0.0748587
9 5 17 100 0.0377328
10 5 17 100 0.00877664
11 5 17 100 0.00232033
12 5 17 100 0.0145338
13 5 17 100 5.96877e-05
14 5 17 100 0.00231071
15 5 17 100 0.000178191
16 5 17 100 0.00660442
0 6 17 100 0.102629
1 6 17 100 5.67744e-05
2 6 17 100 0.00874738
3 6 17 100 0.0226985
4 6 17 100 0.0681852
5 6 17 100 0.100375
6 6 17 100 0.199271
7 6 17 100 0.182192
8 6 17 100 0.135118
9 6 17 100 0.082366
10 6 17 100 0.0458427
11 6 17 100 0.00885115
12 6 17 100 0.0105812
13 6 17 100 0.00878101
14 6 17 100 0.00879691
15 6 17 100 0.00452392
16 6 17 100 0.0109849
0 7 17 100 0.115977
1 7 17 100 0.00199227
2 7 17 100 0.00439527
3 7 17 100 0.00432382
4 7 17 100 0.0329181
5 7 17 100 0.0684357
6 7 17 100 0.0904653
7 7 17 100 0.155252
8 7 17 100 0.176412
9 7 17 100 0.138116
10 7 17 100 0.0926161
11 7 17 100 0.0658958
12 7 17 100 0.01137
13 7 17 100 0.0105402
14 7 17 100 0.00665113
15 7 17 100 0.0181521
16 7 17 100 0.00648797
0 8 17 100 0.138019
1 8 17 100 1.60006e-05
2 8 17 100 0.00430467
3 8 17 100 0.00220196
4 8 17 100 0.00941676
5 8 17 100 0.0276874
6 8 17 100 0.0525903
7 8 17 100 0.0985573
8 8 17 100 0.158667
9 8 17 100 0.162526
10 8 17 100 0.106548
11 8 17 100 0.110555
12 8 17 100 0.0460007
13 8 17 100 0.0286733
14 8 17 100 0.0167759
15 8 17 100 0.00671633
16 8 17 100 0.0307451
0 9 17 100 0.124229
1 9 17 100 0.00219895
2 9 17 100 7.83196e-06
3 9 17 100 0.000347328
4 9 17 100 0.00659932
5 9 17 100 0.0133993
6 9 17 100 0.043016
7 9 17 100 0.0528239
8 9 17 100 0.107676
9 9 17 100 0.124958
10 9 17 100 0.159849
11 9 17 100 0.113708
12 9 17 100 0.0980379
13 9 17 100 0.0560757
14 9 17 100 0.0297932
15 9 17 100 0.0131856
16 9 17 100 0.0459154
17 9 17 100 0.00818046
0 10 17 100 0.160397
1 10 17 100 3.31092e-06
2 10 17 100 0.00223725
3 10 17 100 0.00709721
4 10 17 100 0.00842222
5 10 17 100 7.62791e-06
6 10 17 100 0.0177695
7 10 17 100 0.0325873
8 10 17 100 0.0448527
9 10 17 100 0.0756225
10 10 17 100 0.118874
11 10 17 100 0.167665
12 10 17 100 0.11429
13 10 17 100 0.089531
14 10 17 100 0.0607319
15 10 17 100 0.033396
16 10 17 100 0.0399086
17 10 17 100 0.0266076
0 11 17 100 0.152067
1 11 17 100 0.000815241
2 11 17 100 1.49344e-05
3 11 17 100 0.00462519
4 11 17 100 0.00227804
5 11 17 100 0.00228835
6 11 17 100 4.70336e-06
7 11 17 100 0.0201818
8 11 17 100 0.0377265
9 11 17 100 0.0685065
10 11 17 100 0.0984917
11 11 17 100 0.0988947
12 11 17 100 0.157955
13 11 17 100 0.0832617
14 11 17 100 0.0946899
15 11 17 100 0.0616219
16 11 17 100 0.0778529
17 11 17 100 0.0387243
0 12 17 100 0.109767
1 12 17 100 8.8481e-06
2 12 17 100 0.00236988
3 12 17 100 6.98327e-05
4 12 17 100 0.00467389
5 12 17 100 0.00241367
6 12 17 100 5.66658e-06
7 12 17 100 0.00710384
8 12 17 100 0.0233834
9 12 17 100 0.0569933
10 12 17 100 0.0512554
11 12 17 100 0.0906301
12 12 17 100 0.112036
13 12 17 100 0.13122
14 12 17 100 0.0994802
15 12 17 100 0.0969283
16 12 17 100 0.128723
17 12 17 100 0.0829376
0 13 17 100 0.0955738
1 13 17 100 0.00264059
2 13 17 100 1.63709e-06
3 13 17 100 0.00519344
4 13 17 100 0.00516858
5 13 17 100 0.00527709
6 13 17 100 0.00157643
7 13 17 100 0.000223229
8 13 17 100 0.00777068
9 13 17 100 0.0204998
10 13 17 100 0.0496551
11 13 17 100 0.043192
12 13 17 100 0.11684
13 13 17 100 0.129674
14 13 17 100 0.13387
15 13 17 100 0.123479
16 13 17 100 0.127581
17 13 17 100 0.131783
0 14 17 100 0.0640936
1 14 17 100 0.00297617
2 14 17 100 1.26489e-07
3 14 17 100 0.00297933
4 14 17 100 0.00595466
5 14 17 100 0.00297655
6 14 17 100 0.00298396
7 14 17 100 1.41225e-05
8 14 17 100 1.79817e-06
9 14 17 100 0.0209101
10 14 17 100 0.030105
11 14 17 100 0.0450631
12 14 17 100 0.0836535
13 14 17 100 0.134984
14 14 17 100 0.122718
15 14 17 100 0.132369
16 14 17 100 0.20223
17 14 17 100 0.145987
0 15 17 100 0.0859212
1 15 17 100 0.0034855
2 15 17 100 0.00349252
3 15 17 100 5.19096e-07
4 15 17 100 1.13427e-06
5 15 17 100 2.83611e-06
6 15 17 100 3.11887e-07
7 15 17 100 1.69415e-06
8 15 17 100 3.61797e-07
9 15 17 100 0.0126125
10 15 17 100 0.026579
11 15 17 100 0.0106588
12 15 17 100 0.0593321
13 15 17 100 0.0719061
14 15 17 100 0.127933
15 15 17 100 0.119587
16 15 17 100 0.196282
17 15 17 100 0.282204
0 16 17 100 0.0905117
1 16 17 100 0.000361036
2 16 17 100 0.00485469
3 16 17 100 8.1675e-07
4 16 17 100 2.24279e-06
5 16 17 100 0.000158041
6 16 17 100 1.59471e-05
7 16 17 100 0.00968648
8 16 17 100 4.96125e-06
9 16 17 100 5.40773e-05
10 16 17 100 0.0140779
11 16 17 100 0.00803077
12 16 17 100 0.0484038
13 16 17 100 0.0564575
14 16 17 100 0.0657447
15 16 17 100 0.160331
16 16 17 100 0.235482
17 16 17 100 0.305822
0 17 17 100 0.0365403
2 17 17 100 0.00699301
4 17 17 100 4.49664e-05
5 17 17 100 2.05886e-05
6 17 17 100 4.69583e-07
7 17 17 100 3.54266e-06
8 17 17 100 0.00699904
9 17 17 100 0.00695898
10 17 17 100 0.019891
11 17 17 100 0.00699688
12 17 17 100 0.0418473
13 17 17 100 0.0500665
14 17 17 100 0.0969795
15 17 17 100 0.132556
16 17 17 100 0.230466
17 17 17 100 0.363635
0 18 17 100 0.0471924
5 18 17 100 0.000118985
8 18 17 100 3.99052e-05
9 18 17 100 0.0109762
10 18 17 100 0.0105662
11 18 17 100 0.0327652
12 18 17 100 0.0404368
13 18 17 100 0.0769058
14 18 17 100 0.054651
15 18 17 100 0.0989669
16 18 17 100 0.19881
17 18 17 100 0.428571
0 19 17 100 0.0199786
7 19 17 100 3.51191e-06
9 19 17 100 2.37082e-05
10 19 17 100 0.00689149
11 19 17 100 0.0192501
12 19 17 100 0.0860742
13 19 17 100 5.7036e-07
14 19 17 100 0.0969011
15 19 17 100 0.115372
16 19 17 100 0.232428
17 19 17 100 0.423076
0 20 17 100 0.0694955
4 20 17 100 1.23689e-05
6 20 17 100 0.000651014
8 20 17 100 4.76007e-07
9 20 17 100 9.488e-06
11 20 17 100 0.00335622
12 20 17 100 0.061501
13 20 17 100 0.133318
14 20 17 100 0.0333319
15 20 17 100 0.131691
16 20 17 100 0.166633
17 20 17 100 0.4
0 21 17 100 0.125837
10 21 17 100 0.0558155
11 21 17 100 0.000137373
12 21 17 100 0.0558374
13 21 17 100 1.00607e-05
14 21 17 100 0.211616
15 21 17 100 0.0562503
16 21 17 100 0.161162
17 21 17 100 0.333334
0 22 17 100 0.0834997
4 22 17 100 6.70015e-06
6 22 17 100 2.48155e-05
11 22 17 100 0.0833334
14 22 17 100 0.0833334
15 22 17 100 0.249831
16 22 17 100 0.166645
17 22 17 100 0.333326
0 23 17 100 0.00328989
6 23 17 100 2.27286e-06
15 23 17 100 0.255713
16 23 17 100 0.490999
17 23 17 100 0.249996
0 24 17 100 2.09399e-06
17 24 17 100 0.999998
0 1 18 100 0.055153
1 1 18 100 0.727352
2 1 18 100 0.09162
3 1 18 100 0.0448636
4 1 18 100 0.00724238
5 1 18 100 0.00725304
6 1 18 100 0.00716586
7 1 18 100 0.0156943
8 1 18 100 0.0148024
9 1 18 100 0.00330874
10 1 18 100 0.00358069
11 1 18 100 9.70706e-05
12 1 18 100 3.03684e-06
13 1 18 100 0.00830778
14 1 18 100 0.00724053
15 1 18 100 0.000883812
16 1 18 100 6.27572e-07
17 1 18 100 0.00543131
0 2 18 100 0.0605782
1 2 18 100 0.0758059
2 2 18 100 0.534008
3 2 18 100 0.15326
4 2 18 100 0.0680505
5 2 18 100 0.0126145
6 2 18 100 0.00904428
7 2 18 100 0.0181169
8 2 18 100 0.0178459
9 2 18 100 0.00725723
11 2 18 100 0.00361047
12 2 18 100 0.00722745
13 2 18 100 0.00720522
14 2 18 100 0.0071934
15 2 18 100 0.00735113
16 2 18 100 0.00361203
17 2 18 100 0.00360889
18 2 18 100 0.00361005
0 3 18 100 0.158755
1 3 18 100 0.0275388
2 3 18 100 0.104204
3 3 18 100 0.309507
4 3 18 100 0.153075
5 3 18 100 0.113881
6 3 18 100 0.0288146
7 3 18 100 0.0332146
8 3 18 100 0.0170371
9 3 18 100 0.00808029
10 3 18 100 0.00608299
11 3 18 100 0.00474664
12 3 18 100 1.08859e-05
13 3 18 100 1.03854e-06
14 3 18 100 0.00513967
15 3 18 100 0.00361265
16 3 18 100 0.019143
17 3 18 100 0.00354498
18 3 18 100 0.00361011
0 4 18 100 0.17998
1 4 18 100 0.0216442
2 4 18 100 0.0254331
3 4 18 100 0.094985
4 4 18 100 0.20047
5 4 18 100 0.191807
6 4 18 100 0.101123
7 4 18 100 0.0623999
8 4 18 100 0.0253297
9 4 18 100 0.0255221
10 4 18 100 4.01753e-06
11 4 18 100 0.0072576
12 4 18 100 0.00721661
13 4 18 100 0.0109175
14 4 18 100 4.84673e-07
15 4 18 100 0.0140123
16 4 18 100 0.0138472
17 4 18 100 0.01444
18 4 18 100 0.00361005
0 5 18 100 0.141
1 5 18 100 0.00778982
2 5 18 100 0.0219283
3 5 18 100 0.0521959
4 5 18 100 0.150543
5 5 18 100 0.146669
6 5 18 100 0.178745
7 5 18 100 0.110195
8 5 18 100 0.0531588
9 5 18 100 0.04573
10 5 18 100 0.0259744
11 5 18 100 0.00830884
12 5 18 100 0.0108433
13 5 18 100 0.00720188
14 5 18 100 2.82758e-07
15 5 18 100 0.0216611
16 5 18 100 0.00361261
17 5 18 100 0.014442
0 6 18 100 0.123719
1 6 18 100 0.00415487
2 6 18 100 0.00914825
3 6 18 100 0.0215212
4 6 18 100 0.057365
5 6 18 100 0.162712
6 6 18 100 0.169664
7 6 18 100 0.153604
8 6 18 100 0.121733
9 6 18 100 0.0565438
10 6 18 100 0.0414845
11 6 18 100 0.0249619
12 6 18 100 0.0235016
13 6 18 100 0.0172208
14 6 18 100 0.00443307
15 6 18 100 0.00098892
16 6 18 100 2.39423e-05
17 6 18 100 0.00722003
18 6 18 100 2.65425e-07
0 7 18 100 0.162108
2 7 18 100 0.00720761
3 7 18 100 0.00749905
4 7 18 100 0.0214166
5 7 18 100 0.0491666
6 7 18 100 0.134695
7 7 18 100 0.146722
8 7 18 100 0.165941
9 7 18 100 0.0940305
10 7 18 100 0.0779748
11 7 18 100 0.0474012
12 7 18 100 0.0258431
13 7 18 100 0.02081
14 7 18 100 0.0144268
15 7 18 100 0.00849978
16 7 18 100 0.0036189
17 7 18 100 0.0126368
18 7 18 100 2.00409e-06
0 8 18 100 0.170259
2 8 18 100 0.00360933
3 8 18 100 0.00725867
4 8 18 100 0.00542271
5 8 18 100 0.0220377
6 8 18 100 0.0616515
7 8 18 100 0.127161
8 8 18 100 0.146703
9 8 18 100 0.130066
10 8 18 100 0.125715
11 8 18 100 0.0763757
12 8 18 100 0.026008
13 8 18 100 0.0288871
14 8 18 100 0.0254168
15 8 18 100 0.0108447
16 8 18 100 0.0111045
17 8 18 100 0.021469
18 8 18 100 9.99862e-06
0 9 18 100 0.156905
1 9 18 100 0.00343718
2 9 18 100 0.00122201
3 9 18 100 0.00723623
4 9 18 100 0.0107258
5 9 18 100 0.00388542
6 9 18 100 0.0258231
7 9 18 100 0.0694175
8 9 18 100 0.12615
9 9 18 100 0.108269
10 9 18 100 0.124955
11 9 18 100 0.111169
12 9 18 100 0.0847862
13 9 18 100 0.0518026
14 9 18 100 0.0252659
15 9 18 100 0.0278644
16 9 18 100 0.0212848
17 9 18 100 0.0289618
18 9 18 100 0.0108381
0 10 18 100 0.140587
1 10 18 100 5.9049e-07
2 10 18 100 0.00462117
3 10 18 100 0.0035279
4 10 18 100 0.00685275
5 10 18 100 0.0106533
6 10 18 100 0.0104038
7 10 18 100 0.020787
8 10 18 100 0.0655217
9 10 18 100 0.138496
10 10 18 100 0.121058
11 10 18 100 0.110822
12 10 18 100 0.143328
13 10 18 100 0.0660704
14 10 18 100 0.0584158
15 10 18 100 0.0401142
16 10 18 100 0.0149397
17 10 18 100 0.0292022
18 10 18 100 0.0145987
0 11 18 100 0.123983
1 11 18 100 4.8347e-05
2 11 18 100 7.63189e-05
3 11 18 100 0.00376427
4 11 18 100 0.0118907
5 11 18 100 0.00737612
6 11 18 100 0.00739886
7 11 18 100 0.0262633
8 11 18 100 0.0280984
9 11 18 100 0.0713716
10 11 18 100 0.109395
11 11 18 100 0.155522
12 11 18 100 0.119731
13 11 18 100 0.118405
14 11 18 100 0.0772231
15 11 18 100 0.0270382
16 11 18 100 0.0411053
17 11 18 100 0.052919
18 11 18 100 0.0183901
0 12 18 100 0.150246
1 12 18 100 0.000698405
2 12 18 100 0.01058
3 12 18 100 5.87443e-05
4 12 18 100 4.46806e-07
5 12 18 100 0.0112755
6 12 18 100 0.00754441
7 12 18 100 0.0068791
8 12 18 100 0.0230583
9 12 18 100 0.0307858
10 12 18 100 0.0802317
11 12 18 100 0.103693
12 12 18 100 0.130098
13 12 18 100 0.104831
14 12 18 100 0.0756897
15 12 18 100 0.108041
16 12 18 100 0.0475156
17 12 18 100 0.0686213
18 12 18 100 0.0401519
0 13 18 100 0.0970418
1 13 18 100 0.000180677
2 13 18 100 7.38005e-06
3 13 18 100 0.00400518
4 13 18 100 0.00390198
5 13 18 100 0.00390935
6 13 18 100 0.00783493
7 13 18 100 0.00484906
8 13 18 100 0.00790172
9 13 18 100 0.0230724
10 13 18 100 0.0351514
11 13 18 100 0.0707974
12 13 18 100 0.124924
13 13 18 100 0.1316
14 13 18 100 0.103441
15 13 18 100 0.0815593
16 13 18 100 0.0998273
17 13 18 100 0.133589
18 13 18 100 0.066406
0 14 18 100 0.0945374
2 14 18 100 0.0126506
3 14 18 100 6.45486e-05
4 14 18 100 0.00425027
5 14 18 100 1.33814e-06
6 14 18 100 0.00684062
7 14 18 100 0.00458908
8 14 18 100 0.0125475
9 14 18 100 0.0134345
10 14 18 100 0.0125942
11 14 18 100 0.0661873
12 14 18 100 0.0659456
13 14 18 100 0.118224
14 14 18 100 0.12405
15 14 18 100 0.0862142
16 14 18 100 0.109155
17 14 18 100 0.12227
18 14 18 100 0.146444
0 15 18 100 0.085667
1 15 18 100 8.10626e-07
2 15 18 100 8.01079e-06
3 15 18 100 0.00435606
4 15 18 100 0.000899972
5 15 18 100 6.48398e-05
6 15 18 100 0.00980818
7 15 18 100 0.00503798
8 15 18 100 0.00495063
9 15 18 100 0.00986023
10 15 18 100 0.0146994
11 15 18 100 0.0288361
12 15 18 100 0.0562658
13 15 18 100 0.0692629
14 15 18 100 0.139453
15 15 18 100 0.137037
16 15 18 100 0.100217
17 15 18 100 0.162411
18 15 18 100 0.171163
0 16 18 100 0.0651191
1 16 18 100 1.65428e-06
2 16 18 100 0.0118267
3 16 18 100 0.00591717
4 16 18 100 0.0059177
5 16 18 100 0.00591753
6 16 18 100 0.0117398
7 16 18 100 0.011703
8 16 18 100 2.56317e-06
9 16 18 100 1.08617e-06
10 16 18 100 0.0177733
11 16 18 100 0.00622746
12 16 18 100 0.0138493
13 16 18 100 0.0689764
14 16 18 100 0.083285
15 16 18 100 0.15375
16 16 18 100 0.135734
17 16 18 100 0.159668
18 16 18 100 0.24259
0 17 18 100 0.0974539
1 17 18 100 2.10794e-06
3 17 18 100 2.73125e-06
4 17 18 100 1.31536e-07
5 17 18 100 1.10299e-06
6 17 18 100 0.00781389
7 17 18 100 5.12886e-07
8 17 18 100 0.00781521
9 17 18 100 3.35939e-05
10 17 18 100 1.39074e-06
11 17 18 100 0.0159524
12 17 18 100 0.0170365
13 17 18 100 0.0156054
14 17 18 100 0.125743
15 17 18 100 0.0719867
16 17 18 100 0.186598
17 17 18 100 0.227392
18 17 18 100 0.226561
0 18 18 100 0.0795177
2 18 18 100 3.8196e-07
3 18 18 100 0.0100014
5 18 18 100 4.79358e-07
7 18 18 100 3.47259e-06
8 18 18 100 3.36703e-07
9 18 18 100 0.00999998
11 18 18 100 0.00112962
12 18 18 100 0.0296577
13 18 18 100 0.0122634
14 18 18 100 0.0497102
15 18 18 100 0.126551
16 18 18 100 0.138908
17 18 18 100 0.192257
18 18 18 100 0.35
0 19 18 100 0.0389885
3 19 18 100 0.0153981
8 19 18 100 6.46891e-06
9 19 18 100 2.16727e-06
11 19 18 100 0.015443
13 19 18 100 0.0442413
14 19 18 100 0.0308756
15 19 18 100 0.0776467
16 19 18 100 0.165538
17 19 18 100 0.196485
18 19 18 100 0.415375
0 20 18 100 0.00628139
12 20 18 100 0.0179079
14 20 18 100 2.46406e-06
15 20 18 100 0.0788997
16 20 18 100 0.131034
17 20 18 100 0.336414
18 20 18 100 0.429461
0 21 18 100 1.18649e-05
11 21 18 100 7.35483e-07
16 21 18 100 0.0952381
17 21 18 100 0.142845
18 21 18 100 0.761904
0 22 18 100 0.0497544
11 22 18 100 3.05005e-05
13 22 18 100 1.11241e-05
14 22 18 100 0.15019
17 22 18 100 0.200014
18 22 18 100 0.6
15 23 18 100 0.5
18 23 18 100 0.5
18 24 18 100 1
0 1 19 100 0.0242735
1 1 19 100 0.749471
2 1 19 100 0.0946434
3 1 19 100 0.0510516
4 1 19 100 0.0126543
5 1 19 100 7.60796e-06
6 1 19 100 0.0120769
7 1 19 100 0.00633694
8 1 19 100 0.00625344
9 1 19 100 0.00632227
10 1 19 100 0.00633912
11 1 19 100 0.00696142
12 1 19 100 1.81485e-06
13 1 19 100 0.00502633
14 1 19 100 0.00592031
17 1 19 100 1.99421e-06
18 1 19 100 0.0126582
0 2 19 100 0.082119
1 2 19 100 0.0988885
2 2 19 100 0.562945
3 2 19 100 0.108278
4 2 19 100 0.0380044
5 2 19 100 0.0410836
6 2 19 100 0.0126563
7 2 19 100 0.0253419
8 2 19 100 0.00654941
9 2 19 100 1.51149e-05
10 2 19 100 6.14749e-07
11 2 19 100 3.22474e-05
12 2 19 100 2.14715e-06
13 2 19 100 0.00507143
14 2 19 100 0.00632994
15 2 19 100 1.02686e-06
16 2 19 100 2.34058e-05
17 2 19 100 1.10958e-07
18 2 19 100 0.0126576
0 3 19 100 0.175634
1 3 19 100 0.0191281
2 3 19 100 0.151382
3 3 19 100 0.320885
4 3 19 100 0.168969
5 3 19 100 0.0505622
6 3 19 100 0.0354737
7 3 19 100 0.0189539
8 3 19 100 0.0217071
9 3 19 100 9.20633e-06
10 3 19 100 0.00633745
11 3 19 100 0.00190056
12 3 19 100 9.34274e-06
13 3 19 100 0.00356383
14 3 19 100 1.1358e-06
15 3 19 100 8.01124e-07
16 3 19 100 0.00653531
17 3 19 100 0.00632935
18 3 19 100 0.0126191
0 4 19 100 0.201993
2 4 19 100 0.0189933
3 4 19 100 0.152227
4 4 19 100 0.181362
5 4 19 100 0.216673
6 4 19 100 0.101316
7 4 19 100 0.0567
8 4 19 100 0.0126527
9 4 19 100 0.0175483
10 4 19 100 0.00633425
11 4 19 100 2.70823e-05
12 4 19 100 0.0021672
13 4 19 100 9.73569e-06
14 4 19 100 0.00665784
15 4 19 100 4.47756e-07
16 4 19 100 2.48014e-06
17 4 19 100 0.0126502
18 4 19 100 0.0126863
0 5 19 100 0.076478
1 5 19 100 0.0186351
2 5 19 100 0.0202167
3 5 19 100 0.0768123
4 5 19 100 0.215075
5 5 19 100 0.113248
6 5 19 100 0.245036
7 5 19 100 0.0909635
8 5 19 100 0.0801049
9 5 19 100 0.0127541
10 5 19 100 0.0126344
11 5 19 100 2.56388e-07
13 5 19 100 2.828e-05
14 5 19 100 0.0126596
15 5 19 100 0.00636123
16 5 19 100 1.8954e-06
17 5 19 100 2.3263e-06
18 5 19 100 0.0189881
0 6 19 100 0.138965
1 6 19 100 0.00633272
2 6 19 100 0.0126966
3 6 19 100 0.0252091
4 6 19 100 0.0374814
5 6 19 100 0.186103
6 6 19 100 0.124764
7 6 19 100 0.178882
8 6 19 100 0.120986
9 6 19 100 0.0776587
10 6 19 100 0.0162655
11 6 19 100 0.0190574
12 6 19 100 0.0133907
13 6 19 100 0.0127192
14 6 19 100 0.00633845
15 6 19 100 0.0104528
16 6 19 100 3.17601e-05
17 6 19 100 0.00633611
18 6 19 100 0.00632912
19 6 19 100 1.19858e-07
0 7 19 100 0.108414
1 7 19 100 0.012578
2 7 19 100 0.0127999
3 7 19 100 0.00238194
4 7 19 100 0.0327701
5 7 19 100 0.09571
6 7 19 100 0.130977
7 7 19 100 0.127625
8 7 19 100 0.159705
9 7 19 100 0.110935
10 7 19 100 0.114917
11 7 19 100 0.0379898
12 7 19 100 0.0190644
13 7 19 100 0.0214629
14 7 19 100 0.00633605
15 7 19 100 0.00633191
18 7 19 100 5.09527e-07
0 8 19 100 0.147196
1 8 19 100 1.03539e-05
2 8 19 100 0.00632875
3 8 19 100 0.00746416
4 8 19 100 0.0126832
5 8 19 100 0.0182607
6 8 19 100 0.0503166
7 8 19 100 0.138654
8 8 19 100 0.170583
9 8 19 100 0.115281
10 8 19 100 0.119027
11 8 19 100 0.0944524
12 8 19 100 0.0484863
13 8 19 100 0.0207988
14 8 19 100 0.0189874
15 8 19 100 0.00640844
16 8 19 100 1.67014e-06
17 8 19 100 0.0187303
18 8 19 100 0.0063293
0 9 19 100 0.162207
1 9 19 100 6.38307e-07
2 9 19 100 9.17031e-07
3 9 19 100 5.78201e-07
4 9 19 100 0.00633305
5 9 19 100 0.0124519
6 9 19 100 0.0189741
7 9 19 100 0.0525816
8 9 19 100 0.109048
9 9 19 100 0.161248
10 9 19 100 0.180423
11 9 19 100 0.0768195
12 9 19 100 0.100066
13 9 19 100 0.0565857
14 9 19 100 0.014658
15 9 19 100 0.0303632
16 9 19 100 0.00541107
17 9 19 100 0.000192943
18 9 19 100 0.0126283
19 9 19 100 5.24101e-06
0 10 19 100 0.099407
2 10 19 100 2.9085e-06
3 10 19 100 0.000389953
4 10 19 100 0.00634853
5 10 19 100 2.37435e-06
6 10 19 100 0.00022533
7 10 19 100 0.0319877
8 10 19 100 0.0679284
9 10 19 100 0.136834
10 10 19 100 0.15184
11 10 19 100 0.119894
12 10 19 100 0.11717
13 10 19 100 0.0921412
14 10 19 100 0.0629311
15 10 19 100 0.0501809
16 10 19 100 0.0438136
17 10 19 100 0.0125723
18 10 19 100 0.00632931
0 11 19 100 0.150811
1 11 19 100 1.0443e-07
2 11 19 100 0.000395179
3 11 19 100 0.0126571
4 11 19 100 0.00535525
5 11 19 100 0.0063301
6 11 19 100 0.00352172
7 11 19 100 3.56438e-05
8 11 19 100 0.0372982
9 11 19 100 0.0568569
10 11 19 100 0.113234
11 11 19 100 0.13058
12 11 19 100 0.154447
13 11 19 100 0.0776109
14 11 19 100 0.0739799
15 11 19 100 0.0786389
16 11 19 100 0.0182727
17 11 19 100 0.0483233
18 11 19 100 0.0316511
19 11 19 100 1.53842e-06
0 12 19 100 0.119125
1 12 19 100 1.72428e-07
2 12 19 100 7.76926e-07
3 12 19 100 0.00621463
4 12 19 100 0.00633737
5 12 19 100 0.0250637
6 12 19 100 1.77053e-06
7 12 19 100 0.000474756
8 12 19 100 5.01226e-05
9 12 19 100 0.0319361
10 12 19 100 0.0789953
11 12 19 100 0.086962
12 12 19 100 0.157272
13 12 19 100 0.143527
14 12 19 100 0.0871426
15 12 19 100 0.0843725
16 12 19 100 0.0243132
17 12 19 100 0.0572136
18 12 19 100 0.07201
19 12 19 100 0.0189872
0 13 19 100 0.137619
1 13 19 100 2.03566e-07
2 13 19 100 2.83116e-07
4 13 19 100 0.00015868
5 13 19 100 0.00645207
6 13 19 100 0.00504074
7 13 19 100 2.10043e-05
8 13 19 100 0.000126634
9 13 19 100 0.00442629
10 13 19 100 0.0196982
11 13 19 100 0.0648175
12 13 19 100 0.091965
13 13 19 100 0.177959
14 13 19 100 0.140929
15 13 19 100 0.0968934
16 13 19 100 0.0438315
17 13 19 100 0.0873379
18 13 19 100 0.0775635
19 13 19 100 0.0451603
0 14 19 100 0.0673107
1 14 19 100 3.06685e-07
2 14 19 100 3.88616e-06
4 14 19 100 1.80106e-05
5 14 19 100 0.00676467
6 14 19 100 7.73952e-05
7 14 19 100 0.00682945
8 14 19 100 0.0134223
9 14 19 100 5.32373e-05
10 14 19 100 0.0256597
11 14 19 100 0.0215362
12 14 19 100 0.0405234
13 14 19 100 0.115638
14 14 19 100 0.148129
15 14 19 100 0.203687
16 14 19 100 0.0829244
17 14 19 100 0.0394229
18 14 19 100 0.118742
19 14 19 100 0.109258
0 15 19 100 0.176044
3 15 19 100 1.28623e-06
4 15 19 100 0.000189752
5 15 19 100 0.0075763
6 15 19 100 4.46254e-05
7 15 19 100 0.00759116
8 15 19 100 0.00760811
9 15 19 100 0.0227454
10 15 19 100 0.0150079
11 15 19 100 0.00757643
12 15 19 100 0.0227249
13 15 19 100 0.0678159
14 15 19 100 0.102482
15 15 19 100 0.140925
16 15 19 100 0.0856991
17 15 19 100 0.079667
18 15 19 100 0.0972791
19 15 19 100 0.159022
0 16 19 100 0.11978
2 16 19 100 2.44859e-07
3 16 19 100 1.76362e-07
4 16 19 100 0.00865451
5 16 19 100 1.0524e-06
6 16 19 100 1.48787e-07
7 16 19 100 0.0090117
8 16 19 100 0.00896921
9 16 19 100 4.69388e-06
10 16 19 100 0.0360158
11 16 19 100 0.00900708
12 16 19 100 7.60983e-07
13 16 19 100 0.0358093
14 16 19 100 0.0656237
15 16 19 100 0.0789426
16 16 19 100 0.176451
17 16 19 100 0.0915646
18 16 19 100 0.161942
19 16 19 100 0.198222
0 17 19 100 0.10823
1 17 19 100 4.57559e-06
2 17 19 100 0.000461012
3 17 19 100 3.59496e-05
4 17 19 100 8.80381e-05
5 17 19 100 2.7759e-05
6 17 19 100 1.62109e-07
7 17 19 100 4.14105e-06
8 17 19 100 0.000197116
9 17 19 100 9.81338e-06
10 17 19 100 0.022475
11 17 19 100 0.00226798
12 17 19 100 0.00143665
13 17 19 100 0.0138268
14 17 19 100 0.0337191
15 17 19 100 0.0878329
16 17 19 100 0.154974
17 17 19 100 0.112935
18 17 19 100 0.191811
19 17 19 100 0.269663
0 18 19 100 0.0813705
2 18 19 100 2.10297e-06
3 18 19 100 0.0153304
4 18 19 100 2.38108e-06
7 18 19 100 2.09151e-06
8 18 19 100 1.15636e-06
9 18 19 100 0.000333563
11 18 19 100 0.0129045
12 18 19 100 5.56991e-06
13 18 19 100 0.0155857
14 18 19 100 0.0605454
15 18 19 100 0.0481849
16 18 19 100 0.0574246
17 18 19 100 0.213232
18 18 19 100 0.205496
19 18 19 100 0.289579
0 19 19 100 0.139935
2 19 19 100 0.0215638
3 19 19 100 2.46205e-05
4 19 19 100 4.75105e-07
5 19 19 100 4.14578e-05
9 19 19 100 0.000164174
10 19 19 100 5.54559e-06
12 19 19 100 3.26315e-07
13 19 19 100 0.0217564
15 19 19 100 0.0434783
16 19 19 100 0.129107
17 19 19 100 0.0568513
18 19 19 100 0.304468
19 19 19 100 0.282603
0 20 19 100 0.0713321
7 20 19 100 3.18515e-07
8 20 19 100 6.7818e-07
9 20 19 100 1.26116e-05
12 20 19 100 3.24163e-06
14 20 19 100 7.99107e-07
16 20 19 100 0.0908601
17 20 19 100 0.181597
18 20 19 100 0.201652
19 20 19 100 0.454541
0 21 19 100 0.197562
1 21 19 100 2.75063e-05
3 21 19 100 2.45559e-06
6 21 19 100 8.43518e-07
8 21 19 100 0.000212695
10 21 19 100 9.29297e-07
12 21 19 100 4.97522e-06
14 21 19 100 0.0555589
15 21 19 100 0.0427979
16 21 19 100 0.0555023
17 21 19 100 0.0722485
18 21 19 100 0.187192
19 21 19 100 0.388889
0 22 19 100 1.1736e-05
12 22 19 100 0.0908977
14 22 19 100 0.0909082
18 22 19 100 0.454546
19 22 19 100 0.363636
0 23 19 100 0.0172
11 23 19 100 0.126106
13 23 19 100 0.142408
19 23 19 100 0.714286
0 24 19 100 0.000203299
10 24 19 100 0.00132954
13 24 19 100 0.499797
19 24 19 100 0.49867
17 25 19 100 0.999969
18 25 19 100 3.07444e-05
19 26 19 100 1
0 1 20 100 0.0115994
1 1 20 100 0.794896
2 1 20 100 0.120715
3 1 20 100 0.0169612
4 1 20 100 0.0243806
5 1 20 100 0.00812977
6 1 20 100 1.00757e-06
7 1 20 100 0.0151931
8 1 20 100 0.00808768
9 1 20 100 7.52966e-07
10 1 20 100 7.4073e-07
11 1 20 100 1.44895e-05
12 1 20 100 6.18588e-07
13 1 20 100 1.01741e-05
15 1 20 100 5.69837e-07
16 1 20 100 7.80108e-06
17 1 20 100 3.17102e-07
18 1 20 100 3.19307e-07
0 2 20 100 0.0500467
1 2 20 100 0.0836137
2 2 20 100 0.577265
3 2 20 100 0.159706
4 2 20 100 0.0387488
5 2 20 100 0.0324437
6 2 20 100 0.00813118
7 2 20 100 0.00813158
8 2 20 100 1.0476e-06
9 2 20 100 0.00814111
10 2 20 100 0.0163465
11 2 20 100 6.26445e-07
12 2 20 100 0.0081265
13 2 20 100 6.006e-06
14 2 20 100 0.00130192
15 2 20 100 1.40851e-05
16 2 20 100 5.83174e-05
17 2 20 100 5.45954e-07
18 2 20 100 0.00791696
19 2 20 100 1.01752e-07
0 3 20 100 0.213131
1 3 20 100 0.011414
2 3 20 100 0.183537
3 3 20 100 0.319253
4 3 20 100 0.136905
5 3 20 100 0.0541954
6 3 20 100 0.0325301
7 3 20 100 0.0081332
8 3 20 100 4.51138e-06
9 3 20 100 0.00813797
10 3 20 100 0.000219852
11 3 20 100 0.00818641
12 3 20 100 0.0162546
14 3 20 100 1.21847e-05
15 3 20 100 1.42704e-06
16 3 20 100 5.88939e-06
17 3 20 100 4.75205e-07
18 3 20 100 3.5441e-06
19 3 20 100 0.00807549
0 4 20 100 0.193437
1 4 20 100 0.0403199
2 4 20 100 0.0401694
3 4 20 100 0.162627
4 4 20 100 0.189163
5 4 20 100 0.18355
6 4 20 100 0.0736042
7 4 20 100 0.0569242
8 4 20 100 0.0322691
9 4 20 100 2.74818e-05
10 4 20 100 0.0115524
12 4 20 100 0.0081985
13 4 20 100 3.21389e-06
14 4 20 100 1.13009e-07
15 4 20 100 0.00815348
16 4 20 100 6.05961e-07
17 4 20 100 7.36145e-07
0 5 20 100 0.126803
1 5 20 100 0.0081301
2 5 20 100 0.00815739
3 5 20 100 0.0782209
4 5 20 100 0.146041
5 5 20 100 0.212429
6 5 20 100 0.15498
7 5 20 100 0.116249
8 5 20 100 0.0489601
9 5 20 100 0.0433451
10 5 20 100 0.00818217
11 5 20 100 0.0154891
12 5 20 100 0.024675
13 5 20 100 8.17991e-05
14 5 20 100 5.43125e-06
15 5 20 100 5.40557e-07
16 5 20 100 4.14851e-05
18 5 20 100 0.00820689
19 5 20 100 1.18084e-07
0 6 20 100 0.124968
2 6 20 100 0.0081301
3 6 20 100 0.0325197
4 6 20 100 0.0819799
5 6 20 100 0.128937
6 6 20 100 0.217164
7 6 20 100 0.183597
8 6 20 100 0.0651726
9 6 20 100 0.0433319
10 6 20 100 0.0506504
11 6 20 100 0.0164773
12 6 20 100 0.016268
14 6 20 100 0.00640836
15 6 20 100 2.03528e-06
16 6 20 100 2.50366e-06
17 6 20 100 0.00813038
18 6 20 100 0.0081301
19 6 20 100 0.00813149
20 6 20 100 2.5714e-07
0 7 20 100 0.112687
3 7 20 100 0.0162602
4 7 20 100 0.0310253
5 7 20 100 0.0722535
6 7 20 100 0.129482
7 7 20 100 0.161168
8 7 20 100 0.177321
9 7 20 100 0.0812092
10 7 20 100 0.0794069
11 7 20 100 0.0402807
12 7 20 100 0.0404964
13 7 20 100 0.000392433
14 7 20 100 1.00502e-05
15 7 20 100 0.00804929
16 7 20 100 0.0245199
17 7 20 100 0.00813321
18 7 20 100 0.00981364
19 7 20 100 0.00749051
20 7 20 100 2.61445e-07
0 8 20 100 0.145709
2 8 20 100 1.54504e-05
3 8 20 100 0.0162647
4 8 20 100 1.56767e-05
5 8 20 100 0.00865057
6 8 20 100 0.0405101
7 8 20 100 0.161048
8 8 20 100 0.13543
9 8 20 100 0.180507
10 8 20 100 0.109579
11 8 20 100 0.0480623
12 8 20 100 0.0728468
13 8 20 100 0.0244168
14 8 20 100 0.00780076
15 8 20 100 0.00819486
16 8 20 100 0.0161771
17 8 20 100 0.00850756
18 8 20 100 2.65095e-05
19 8 20 100 0.0162387
0 9 20 100 0.173831
1 9 20 100 0.00813019
4 9 20 100 0.0081351
5 9 20 100 0.00255008
6 9 20 100 0.0162597
7 9 20 100 0.0812866
8 9 20 100 0.116785
9 9 20 100 0.13804
10 9 20 100 0.147675
11 9 20 100 0.079632
12 9 20 100 0.0755286
13 9 20 100 0.0711693
14 9 20 100 0.0288111
15 9 20 100 0.0191831
16 9 20 100 0.0162624
17 9 20 100 2.20615e-06
18 9 20 100 0.00858858
19 9 20 100 0.0081301
0 10 20 100 0.0950425
1 10 20 100 9.95242e-07
3 10 20 100 7.3274e-06
4 10 20 100 0.00813024
5 10 20 100 0.00813208
6 10 20 100 0.0162603
7 10 20 100 0.0163325
8 10 20 100 0.0567538
9 10 20 100 0.138168
10 10 20 100 0.15389
11 10 20 100 0.129416
12 10 20 100 0.113713
13 10 20 100 0.0563371
14 10 20 100 0.0865261
15 10 20 100 0.0318465
16 10 20 100 0.0487873
17 10 20 100 0.00812932
18 10 20 100 5.46792e-06
19 10 20 100 0.0243915
20 10 20 100 0.00813009
0 11 20 100 0.197939
3 11 20 100 3.08044e-06
4 11 20 100 0.0165145
5 11 20 100 0.00738242
6 11 20 100 0.0075604
7 11 20 100 0.0164147
8 11 20 100 0.0236488
9 11 20 100 0.074683
10 11 20 100 0.123562
11 11 20 100 0.106115
12 11 20 100 0.152517
13 11 20 100 0.0821353
14 11 20 100 0.0257098
15 11 20 100 0.0616889
16 11 20 100 0.0331629
17 11 20 100 0.0376171
18 11 20 100 0.00185986
19 11 20 100 0.023289
20 11 20 100 0.00819673
0 12 20 100 0.140004
1 12 20 100 8.13837e-07
2 12 20 100 4.15388e-06
3 12 20 100 5.98517e-05
4 12 20 100 0.00826531
5 12 20 100 4.91051e-06
6 12 20 100 0.0173483
7 12 20 100 0.016405
8 12 20 100 0.0166373
9 12 20 100 0.0119473
10 12 20 100 0.0693625
11 12 20 100 0.141324
12 12 20 100 0.128653
13 12 20 100 0.158579
14 12 20 100 0.081413
15 12 20 100 0.0336525
16 12 20 100 0.0589932
17 12 20 100 0.049217
18 12 20 100 0.0275851
19 12 20 100 0.0322793
20 12 20 100 0.00826421
0 13 20 100 0.188366
1 13 20 100 2.35475e-06
2 13 20 100 8.84893e-06
3 13 20 100 9.60126e-05
4 13 20 100 7.80008e-05
6 13 20 100 0.00833407
7 13 20 100 0.0166667
8 13 20 100 4.46366e-06
9 13 20 100 0.00835199
10 13 20 100 0.00853262
11 13 20 100 0.0609621
12 13 20 100 0.0918661
13 13 20 100 0.117689
14 13 20 100 0.161434
15 13 20 100 0.0608979
16 13 20 100 0.0668121
17 13 20 100 0.0595187
18 13 20 100 0.0422118
19 13 20 100 0.0748334
20 13 20 100 0.0333333
0 14 20 100 0.0644056
1 14 20 100 8.31295e-06
2 14 20 100 4.15373e-06
3 14 20 100 5.48482e-07
4 14 20 100 1.19405e-07
5 14 20 100 6.70269e-05
6 14 20 100 7.0606e-07
7 14 20 100 0.0258627
9 14 20 100 0.00852664
10 14 20 100 0.00862106
11 14 20 100 0.034848
12 14 20 100 0.085289
13 14 20 100 0.0863413
14 14 20 100 0.162618
15 14 20 100 0.148105
16 14 20 100 0.0959154
17 14 20 100 0.0478537
18 14 20 100 0.102194
19 14 20 100 0.0604421
20 14 20 100 0.0688968
0 15 20 100 0.0915846
1 15 20 100 9.54432e-07
5 15 20 100 2.07027e-05
6 15 20 100 0.00925935
7 15 20 100 0.000130208
8 15 20 100 1.99323e-05
9 15 20 100 0.00925174
10 15 20 100 0.00925903
11 15 20 100 0.00926772
12 15 20 100 0.0557762
13 15 20 100 0.0652818
14 15 20 100 0.13865
15 15 20 100 0.112149
16 15 20 100 0.132743
17 15 20 100 0.095446
18 15 20 100 0.0804013
19 15 20 100 0.125944
20 15 20 100 0.0648149
0 16 20 100 0.171699
1 16 20 100 8.43401e-07
2 16 20 100 1.63098e-07
3 16 20 100 6.25905e-06
4 16 20 100 9.91068e-06
5 16 20 100 0.000191046
6 16 20 100 0.000177695
7 16 20 100 5.45754e-07
8 16 20 100 4.06526e-06
9 16 20 100 0.0198374
10 16 20 100 9.15645e-05
11 16 20 100 0.010051
12 16 20 100 0.0296826
13 16 20 100 0.059333
14 16 20 100 0.0694542
15 16 20 100 0.117542
16 16 20 100 0.0794178
17 16 20 100 0.169921
18 16 20 100 0.0314142
19 16 20 100 0.102552
20 16 20 100 0.138613
0 17 20 100 0.132214
1 17 20 100 1.23498e-06
2 17 20 100 1.02763e-06
4 17 20 100 4.84087e-05
5 17 20 100 8.24016e-05
7 17 20 100 0.0123686
8 17 20 100 0.000659817
9 17 20 100 0.0229909
10 17 20 100 0.0114971
12 17 20 100 0.0114942
13 17 20 100 0.0119481
14 17 20 100 0.056553
15 17 20 100 0.055416
16 17 20 100 0.114128
17 17 20 100 0.0808304
18 17 20 100 0.196161
19 17 20 100 0.121852
20 17 20 100 0.171754
0 18 20 100 0.0614195
2 18 20 100 5.81036e-06
6 18 20 100 1.06852e-06
7 18 20 100 0.0138888
10 18 20 100 0.0138889
11 18 20 100 0.0138893
12 18 20 100 0.0277781
14 18 20 100 0.0555876
15 18 20 100 0.0837239
16 18 20 100 0.0416336
17 18 20 100 0.165265
18 18 20 100 0.0646072
19 18 20 100 0.291644
20 18 20 100 0.166667
0 19 20 100 0.0499376
5 19 20 100 3.06708e-06
8 19 20 100 6.94332e-06
9 19 20 100 2.42143e-07
11 19 20 100 0.0166648
12 19 20 100 0.0166658
13 19 20 100 1.83835e-06
14 19 20 100 0.0335141
15 19 20 100 0.0500024
16 19 20 100 0.0526484
17 19 20 100 0.0805083
18 19 20 100 0.100231
19 19 20 100 0.149815
20 19 20 100 0.45
0 20 20 100 0.052317
7 20 20 100 0.0303031
9 20 20 100 2.35702e-06
11 20 20 100 0.0303031
12 20 20 100 0.030303
13 20 20 100 9.34419e-06
14 20 20 100 0.0302959
15 20 20 100 0.0303031
16 20 20 100 0.060601
17 20 20 100 0.0908602
18 20 20 100 0.0992574
19 20 20 100 0.272718
20 20 20 100 0.272727
0 21 20 100 0.0576184
11 21 20 100 8.70504e-06
13 21 20 100 0.00956867
14 21 20 100 0.0724599
15 21 20 100 0.0673916
16 21 20 100 0.0423677
17 21 20 100 0.0833843
18 21 20 100 0.0839309
19 21 20 100 0.208269
20 21 20 100 0.375001
0 22 20 100 0.0666546
3 22 20 100 1.20701e-05
11 22 20 100 0.0666667
16 22 20 100 0.133333
18 22 20 100 0.0666164
19 22 20 100 0.200051
20 22 20 100 0.466666
0 23 20 100 8.30838e-06
11 23 20 100 0.124744
15 23 20 100 0.000256383
18 23 20 100 0.374999
20 23 20 100 0.499992
19 24 20 100 0.25
20 24 20 100 0.75
20 25 20 100 1
0 1 21 100 0.046436
1 1 21 100 0.780347
2 1 21 100 0.109853
3 1 21 100 0.0522372
4 1 21 100 0.0111133
5 1 21 100 5.54473e-07
6 1 21 100 6.4487e-07
7 1 21 100 1.71898e-07
9 1 21 100 5.15592e-07
10 1 21 100 4.30655e-06
12 1 21 100 1.16716e-07
16 1 21 100 3.17705e-06
18 1 21 100 1.40577e-06
19 1 21 100 2.82712e-06
0 2 21 100 0.0288536
1 2 21 100 0.0749678
2 2 21 100 0.597134
3 2 21 100 0.147717
4 2 21 100 0.0778325
5 2 21 100 0.0300841
6 2 21 100 0.0111113
7 2 21 100 0.0100586
9 2 21 100 0.0109985
10 2 21 100 2.83196e-05
11 2 21 100 5.92754e-07
12 2 21 100 2.34303e-06
14 2 21 100 2.26573e-07
15 2 21 100 0.000103906
16 2 21 100 0.0111049
20 2 21 100 1.8086e-06
0 3 21 100 0.122897
2 3 21 100 0.132953
3 3 21 100 0.378027
4 3 21 100 0.176941
5 3 21 100 0.0911884
6 3 21 100 0.0333198
7 3 21 100 0.0532811
8 3 21 100 0.000209281
10 3 21 100 3.84369e-07
11 3 21 100 0.0111174
12 3 21 100 1.97674e-05
13 3 21 100 4.47921e-05
14 3 21 100 1.23361e-06
19 3 21 100 3.12145e-07
0 4 21 100 0.245917
1 4 21 100 1.26494e-07
2 4 21 100 0.0110413
3 4 21 100 0.112895
4 4 21 100 0.173323
5 4 21 100 0.201565
6 4 21 100 0.110271
7 4 21 100 0.0344789
8 4 21 100 0.0330759
9 4 21 100 0.0222238
10 4 21 100 4.2775e-06
11 4 21 100 3.26915e-05
12 4 21 100 0.0111204
14 4 21 100 6.5321e-07
15 4 21 100 0.0111272
16 4 21 100 0.0215083
17 4 21 100 0.0111281
18 4 21 100 1.97779e-05
19 4 21 100 1.12412e-06
20 4 21 100 0.000210586
21 4 21 100 5.6615e-05
0 5 21 100 0.215471
1 5 21 100 0.0194326
2 5 21 100 2.07106e-06
3 5 21 100 0.0576165
4 5 21 100 0.178601
5 5 21 100 0.090052
6 5 21 100 0.168671
7 5 21 100 0.100381
8 5 21 100 0.0681194
9 5 21 100 0.0224337
10 5 21 100 0.0324798
11 5 21 100 0.0111116
12 5 21 100 5.00743e-06
13 5 21 100 0.00228611
14 5 21 100 3.64013e-06
15 5 21 100 0.0110879
17 5 21 100 0.0111329
18 5 21 100 7.32167e-07
20 5 21 100 0.0111114
0 6 21 100 0.133842
1 6 21 100 5.06948e-06
2 6 21 100 0.0194785
3 6 21 100 0.0111117
4 6 21 100 0.0835912
5 6 21 100 0.116488
6 6 21 100 0.151265
7 6 21 100 0.185491
8 6 21 100 0.0948666
9 6 21 100 0.0537195
10 6 21 100 0.0920355
11 6 21 100 0.0333152
12 6 21 100 1.02127e-05
13 6 21 100 0.00252793
14 6 21 100 0.0111119
15 6 21 100 2.92047e-05
18 6 21 100 6.41172e-07
19 6 21 100 9.7698e-07
20 6 21 100 0.0111109
0 7 21 100 0.076597
1 7 21 100 6.13202e-07
3 7 21 100 0.0333413
4 7 21 100 0.0547889
5 7 21 100 0.0787737
6 7 21 100 0.109104
7 7 21 100 0.131804
8 7 21 100 0.198267
9 7 21 100 0.0891024
10 7 21 100 0.077242
11 7 21 100 0.066294
12 7 21 100 0.0232731
13 7 21 100 0.0333524
14 7 21 100 0.00700164
15 7 21 100 0.0210115
16 7 21 100 9.40976e-06
17 7 21 100 3.29915e-05
19 7 21 100 3.11664e-06
0 8 21 100 0.115515
4 8 21 100 0.0310778
5 8 21 100 0.0111183
6 8 21 100 0.0363476
7 8 21 100 0.0714741
8 8 21 100 0.180751
9 8 21 100 0.1511
10 8 21 100 0.124869
11 8 21 100 0.0771399
12 8 21 100 0.0887141
13 8 21 100 0.0451081
14 8 21 100 0.0111085
15 8 21 100 0.0111141
16 8 21 100 0.0222246
17 8 21 100 3.10916e-07
18 8 21 100 0.0111111
19 8 21 100 0.0112269
0 9 21 100 0.165207
3 9 21 100 3.85159e-06
4 9 21 100 9.11932e-05
5 9 21 100 0.0110931
6 9 21 100 0.0438694
7 9 21 100 0.0885669
8 9 21 100 0.0542893
9 9 21 100 0.124381
10 9 21 100 0.111773
11 9 21 100 0.122377
12 9 21 100 0.0677167
13 9 21 100 0.0672762
14 9 21 100 0.044109
15 9 21 100 0.0227383
16 9 21 100 0.0437203
17 9 21 100 0.0109017
18 9 21 100 0.0111113
19 9 21 100 0.0107746
0 10 21 100 0.085249
3 10 21 100 0.0111163
4 10 21 100 0.0111125
5 10 21 100 0.0333303
7 10 21 100 0.022155
8 10 21 100 0.0995072
9 10 21 100 0.0772398
10 10 21 100 0.132588
11 10 21 100 0.110886
12 10 21 100 0.120685
13 10 21 100 0.0775897
14 10 21 100 0.0471471
15 10 21 100 0.0753291
16 10 21 100 0.0440976
17 10 21 100 0.0288273
18 10 21 100 0.0113833
19 10 21 100 0.0117189
20 10 21 100 3.41073e-05
21 10 21 100 2.70947e-06
0 11 21 100 0.169442
3 11 21 100 5.70342e-07
4 11 21 100 5.86494e-05
5 11 21 100 0.0111143
6 11 21 100 0.0384573
7 11 21 100 7.95577e-06
8 11 21 100 0.0445954
9 11 21 100 0.0792402
10 11 21 100 0.0905696
11 11 21 100 0.132652
12 11 21 100 0.109221
13 11 21 100 0.0359386
14 11 21 100 0.0760532
15 11 21 100 0.0555695
16 11 21 100 0.0787168
17 11 21 100 0.0337353
18 11 21 100 0.0110737
19 11 21 100 0.0333357
20 11 21 100 0.000217945
0 12 21 100 0.101357
1 12 21 100 2.60348e-05
2 12 21 100 4.40673e-07
3 12 21 100 7.23857e-07
5 12 21 100 1.82118e-07
6 12 21 100 0.0111038
7 12 21 100 0.0337352
8 12 21 100 0.023158
9 12 21 100 0.0544485
10 12 21 100 0.0656073
11 12 21 100 0.0901624
12 12 21 100 0.129953
13 12 21 100 0.148639
14 12 21 100 0.0441166
15 12 21 100 0.0922509
16 12 21 100 0.0382526
17 12 21 100 0.076081
18 12 21 100 0.0556482
19 12 21 100 0.0112696
20 12 21 100 0.0241887
21 12 21 100 5.72294e-07
0 13 21 100 0.143785
1 13 21 100 6.16894e-06
3 13 21 100 3.04697e-07
4 13 21 100 1.07962e-05
5 13 21 100 0.011112
6 13 21 100 0.00264978
7 13 21 100 3.09524e-05
8 13 21 100 0.0552553
9 13 21 100 0.00158303
10 13 21 100 0.0665417
11 13 21 100 0.0460159
12 13 21 100 0.0783583
13 13 21 100 0.102526
14 13 21 100 0.112552
15 13 21 100 0.0762816
16 13 21 100 0.0657777
17 13 21 100 0.0540975
18 13 21 100 0.0666548
19 13 21 100 0.0729361
20 13 21 100 0.032713
21 13 21 100 0.0111113
0 14 21 100 0.106822
3 14 21 100 1.74571e-05
5 14 21 100 0.0112353
7 14 21 100 0.0112363
8 14 21 100 0.02247
9 14 21 100 0.0224549
10 14 21 100 0.0337057
11 14 21 100 0.0499487
12 14 21 100 0.0674128
13 14 21 100 0.0577546
14 14 21 100 0.0529619
15 14 21 100 0.125973
16 14 21 100 0.0671559
17 14 21 100 0.112397
18 14 21 100 0.0337693
19 14 21 100 0.0785707
20 14 21 100 0.101171
21 14 21 100 0.0449431
0 15 21 100 0.130726
2 15 21 100 1.23835e-07
3 15 21 100 4.9426e-07
4 15 21 100 1.75839e-06
5 15 21 100 0.0117647
6 15 21 100 9.35703e-05
7 15 21 100 3.443e-06
8 15 21 100 0.0117647
9 15 21 100 0.0120102
10 15 21 100 0.0320167
11 15 21 100 0.0207278
12 15 21 100 0.0465307
13 15 21 100 0.0824228
14 15 21 100 0.0910484
15 15 21 100 0.0378959
16 15 21 100 0.13513
17 15 21 100 0.0406602
18 15 21 100 0.0900492
19 15 21 100 0.0457355
20 15 21 100 0.105535
21 15 21 100 0.105882
0 16 21 100 0.0831835
3 16 21 100 0.0131498
4 16 21 100 8.35891e-06
5 16 21 100 0.0131579
6 16 21 100 2.82019e-05
8 16 21 100 1.60966e-05
9 16 21 100 0.0186843
10 16 21 100 0.0131648
11 16 21 100 2.02813e-05
12 16 21 100 0.0660819
13 16 21 100 0.0788208
14 16 21 100 0.0779866
15 16 21 100 0.066148
16 16 21 100 0.104981
17 16 21 100 0.144369
18 16 21 100 0.0809365
19 16 21 100 0.0657275
20 16 21 100 0.107746
21 16 21 100 0.0657892
0 17 21 100 0.128003
3 17 21 100 0.0140845
6 17 21 100 7.17656e-05
7 17 21 100 1.33528e-05
8 17 21 100 0.0140869
9 17 21 100 4.89408e-05
11 17 21 100 3.28585e-05
12 17 21 100 0.0140908
13 17 21 100 0.0684655
14 17 21 100 0.0295854
15 17 21 100 0.0699643
16 17 21 100 0.0977425
17 17 21 100 0.113056
18 17 21 100 0.141015
19 17 21 100 0.0566093
20 17 21 100 0.126449
21 17 21 100 0.12668
0 18 21 100 0.0696728
2 18 21 100 9.83585e-07
4 18 21 100 1.77528e-07
7 18 21 100 7.20979e-07
8 18 21 100 0.016129
9 18 21 100 2.72625e-05
10 18 21 100 7.27756e-06
11 18 21 100 0.0138595
12 18 21 100 3.43042e-05
13 18 21 100 0.048842
14 18 21 100 0.080643
15 18 21 100 0.048338
16 18 21 100 0.080051
17 18 21 100 0.161227
18 18 21 100 0.04571
19 18 21 100 0.158712
20 18 21 100 0.115454
21 18 21 100 0.161292
0 19 21 100 0.0434844
5 19 21 100 0.00512517
6 19 21 100 8.22997e-07
7 19 21 100 0.000203766
9 19 21 100 0.0168381
11 19 21 100 1.53075e-06
12 19 21 100 0.0192352
13 19 21 100 0.0191995
14 19 21 100 0.0600301
15 19 21 100 0.0525624
16 19 21 100 0.0807029
17 19 21 100 0.0745354
18 19 21 100 0.147803
19 19 21 100 0.114863
20 19 21 100 0.192342
21 19 21 100 0.173072
0 20 21 100 0.119773
2 20 21 100 1.3947e-06
5 20 21 100 2.60055e-07
10 20 21 100 0.0135115
11 20 21 100 1.85824e-06
12 20 21 100 0.00551034
13 20 21 100 0.0232532
14 20 21 100 0.0466851
15 20 21 100 0.0702561
16 20 21 100 0.0465994
17 20 21 100 0.0464988
18 20 21 100 0.0688307
19 20 21 100 0.0939979
20 20 21 100 0.116248
21 20 21 100 0.348833
0 21 21 100 0.078265
4 21 21 100 0.000122606
7 21 21 100 0.0218967
9 21 21 100 0.000175734
10 21 21 100 3.31065e-05
14 21 21 100 0.0222989
15 21 21 100 0.112933
16 21 21 100 0.0722576
17 21 21 100 0.0357143
18 21 21 100 0.142847
19 21 21 100 0.071262
20 21 21 100 0.192309
21 21 21 100 0.249886
0 22 21 100 0.0475899
8 22 21 100 1.05356e-06
10 22 21 100 2.34542e-06
15 22 21 100 0.0952382
16 22 21 100 0.0962492
17 22 21 100 0.0952198
18 22 21 100 0.141894
19 22 21 100 0.0952566
20 22 21 100 0.190455
21 22 21 100 0.238094
0 23 21 100 0.0560454
5 23 21 100 1.61026e-06
10 23 21 100 5.7398e-06
11 23 21 100 1.34361e-05
16 23 21 100 0.0601842
17 23 21 100 0.0625009
18 23 21 100 0.24998
19 23 21 100 0.192156
20 23 21 100 0.129112
21 23 21 100 0.25
0 24 21 100 0.00157338
16 24 21 100 0.166657
17 24 21 100 0.0829957
18 24 21 100 0.000842357
19 24 21 100 0.414598
20 24 21 100 0.166667
21 24 21 100 0.166666
0 25 21 100 0.125401
6 25 21 100 4.42878e-06
17 25 21 100 0.2
19 25 21 100 0.174594
20 25 21 100 0.4
21 25 21 100 0.1
16 26 21 100 0.00153556
19 26 21 100 0.000378838
20 26 21 100 0.331419
21 26 21 100 0.666666
21 27 21 100 1
0 1 22 100 0.0223196
1 1 22 100 0.840038
2 1 22 100 0.0458361
3 1 22 100 4.96748e-07
4 1 22 100 0.0226263
5 1 22 100 0.0454217
8 1 22 100 0.0227273
11 1 22 100 3.08504e-07
15 1 22 100 0.00102617
16 1 22 100 2.63514e-06
17 1 22 100 1.32672e-06
0 2 22 100 0.0751244
1 2 22 100 0.107596
2 2 22 100 0.579584
3 2 22 100 0.0921867
4 2 22 100 0.113108
5 2 22 100 0.022733
6 2 22 100 6.54763e-06
8 2 22 100 0.00946999
9 2 22 100 6.67751e-07
11 2 22 100 3.9295e-05
12 2 22 100 4.82156e-06
14 2 22 100 4.47836e-06
15 2 22 100 6.47207e-05
17 2 22 100 7.96724e-06
20 2 22 100 6.06667e-05
21 2 22 100 8.52814e-06
0 3 22 100 0.181664
2 3 22 100 0.136357
3 3 22 100 0.386251
4 3 22 100 0.113758
5 3 22 100 0.0908773
6 3 22 100 0.045203
7 3 22 100 9.23243e-07
8 3 22 100 0.000104724
9 3 22 100 5.76965e-05
10 3 22 100 0.0227273
11 3 22 100 1.10333e-06
12 3 22 100 0.0227273
13 3 22 100 9.34856e-07
15 3 22 100 7.31977e-07
16 3 22 100 0.0002667
17 3 22 100 9.59364e-07
20 3 22 100 1.07049e-06
22 3 22 100 6.19383e-07
0 4 22 100 0.262783
1 4 22 100 0.0451869
2 4 22 100 1.00907e-06
3 4 22 100 0.112807
4 4 22 100 0.227164
5 4 22 100 0.215474
6 4 22 100 0.045472
7 4 22 100 0.0227274
8 4 22 100 0.022726
11 4 22 100 0.0229031
12 4 22 100 0.022734
14 4 22 100 1.36615e-05
17 4 22 100 4.8035e-07
18 4 22 100 6.33702e-06
22 4 22 100 4.03574e-07
0 5 22 100 0.137128
2 5 22 100 0.0454546
3 5 22 100 0.0454551
4 5 22 100 0.0681767
5 5 22 100 0.204222
6 5 22 100 0.203607
7 5 22 100 0.176626
8 5 22 100 0.0510011
9 5 22 100 1.45127e-06
10 5 22 100 0.0454536
11 5 22 100 1.00207e-06
12 5 22 100 0.0227273
13 5 22 100 1.97372e-05
15 5 22 100 1.73039e-06
18 5 22 100 0.000116263
21 5 22 100 7.63154e-06
0 6 22 100 0.100433
1 6 22 100 3.74688e-06
3 6 22 100 0.0227505
4 6 22 100 0.113604
5 6 22 100 0.108411
6 6 22 100 0.174634
7 6 22 100 0.204944
8 6 22 100 0.113816
9 6 22 100 0.0623398
10 6 22 100 0.0436325
11 6 22 100 0.0227273
12 6 22 100 0.0281295
16 6 22 100 0.00457165
18 6 22 100 2.87026e-06
0 7 22 100 0.16142
1 7 22 100 3.20201e-07
2 7 22 100 0.0228447
4 7 22 100 0.0212328
5 7 22 100 0.137853
6 7 22 100 0.0909092
7 7 22 100 0.135625
8 7 22 100 0.191857
9 7 22 100 0.101739
10 7 22 100 0.0909175
11 7 22 100 5.75489e-05
12 7 22 100 2.84994e-06
13 7 22 100 0.0227282
14 7 22 100 0.022811
16 7 22 100 2.05581e-06
20 7 22 100 4.91719e-07
0 8 22 100 0.0241398
3 8 22 100 0.0454546
4 8 22 100 0.0227273
5 8 22 100 0.0227337
6 8 22 100 0.0909627
7 8 22 100 0.0909088
8 8 22 100 0.158934
9 8 22 100 0.186345
10 8 22 100 0.22708
11 8 22 100 0.0227331
12 8 22 100 0.0227279
13 8 22 100 0.022726
14 8 22 100 0.0227273
15 8 22 100 0.0170652
16 8 22 100 2.49743e-06
17 8 22 100 0.000146544
19 8 22 100 0.0225775
21 8 22 100 7.8881e-06
0 9 22 100 0.228854
3 9 22 100 6.48404e-06
4 9 22 100 5.90322e-06
5 9 22 100 0.0227199
6 9 22 100 0.0453258
7 9 22 100 0.0681872
8 9 22 100 0.0522849
9 9 22 100 0.094294
10 9 22 100 0.143219
11 9 22 100 0.204264
12 9 22 100 0.0696733
13 9 22 100 0.00188064
15 9 22 100 0.00110018
17 9 22 100 0.0227273
20 9 22 100 0.0227298
21 9 22 100 0.0227273
0 10 22 100 0.122363
3 10 22 100 0.0227242
5 10 22 100 0.0227273
7 10 22 100 0.0349177
8 10 22 100 0.132284
9 10 22 100 0.077046
10 10 22 100 0.112135
11 10 22 100 0.0909125
12 10 22 100 0.289289
13 10 22 100 0.00312161
14 10 22 100 0.0227607
15 10 22 100 7.08026e-06
16 10 22 100 0.00154976
18 10 22 100 5.10191e-06
20 10 22 100 2.62429e-06
21 10 22 100 0.0681546
0 11 22 100 0.0519127
5 11 22 100 0.0227833
7 11 22 100 9.89042e-05
8 11 22 100 0.0227305
9 11 22 100 0.113659
10 11 22 100 0.177731
11 11 22 100 0.112363
12 11 22 100 0.0511218
13 11 22 100 0.294418
14 11 22 100 0.0380949
15 11 22 100 0.0456477
16 11 22 100 5.2911e-05
17 11 22 100 4.97195e-05
18 11 22 100 5.77206e-06
19 11 22 100 0.022582
20 11 22 100 0.00120319
21 11 22 100 0.0227404
22 11 22 100 0.0228047
0 12 22 100 0.125678
1 12 22 100 3.19892e-05
4 12 22 100 0.0231168
7 12 22 100 0.0199773
8 12 22 100 6.90541e-05
9 12 22 100 0.0471075
10 12 22 100 0.139493
11 12 22 100 0.123674
12 12 22 100 0.069364
13 12 22 100 0.0937022
14 12 22 100 0.168953
15 12 22 100 0.0263272
16 12 22 100 0.0930105
17 12 22 100 1.25558e-06
19 12 22 100 0.0229141
20 12 22 100 6.81387e-05
21 12 22 100 0.0465119
0 13 22 100 0.2658
3 13 22 100 6.92919e-05
4 13 22 100 0.023288
5 13 22 100 0.000148689
6 13 22 100 4.70367e-07
7 13 22 100 0.0047853
8 13 22 100 9.86372e-06
9 13 22 100 4.76539e-05
10 13 22 100 0.0464832
11 13 22 100 0.0465206
12 13 22 100 0.138435
13 13 22 100 0.0825
14 13 22 100 0.12032
15 13 22 100 0.0799129
16 13 22 100 0.0288006
17 13 22 100 0.0698473
18 13 22 100 0.0232642
19 13 22 100 1.28357e-06
21 13 22 100 0.0697649
0 14 22 100 0.14713
2 14 22 100 4.58073e-07
4 14 22 100 0.0232558
6 14 22 100 4.09674e-06
9 14 22 100 0.0216644
10 14 22 100 2.01158e-05
11 14 22 100 7.48612e-05
12 14 22 100 0.13376
13 14 22 100 0.046762
14 14 22 100 0.0695581
15 14 22 100 0.181841
16 14 22 100 0.096407
17 14 22 100 0.0468707
18 14 22 100 0.0932317
19 14 22 100 0.0465763
20 14 22 100 2.73373e-05
21 14 22 100 0.0928162
22 14 22 100 3.22079e-07
0 15 22 100 0.0539347
1 15 22 100 1.89171e-06
2 15 22 100 7.65421e-06
5 15 22 100 0.0231992
6 15 22 100 5.94809e-07
7 15 22 100 0.00513319
8 15 22 100 3.13226e-06
10 15 22 100 0.0232546
11 15 22 100 7.6812e-06
12 15 22 100 0.0465043
13 15 22 100 0.0950267
14 15 22 100 0.0680604
15 15 22 100 0.06631
16 15 22 100 0.113876
17 15 22 100 0.161596
18 15 22 100 0.109793
19 15 22 100 0.0241853
20 15 22 100 0.115949
21 15 22 100 0.0699005
22 15 22 100 0.0232554
0 16 22 100 0.139444
3 16 22 100 6.4661e-06
4 16 22 100 5.85575e-06
5 16 22 100 1.01455e-06
6 16 22 100 5.09614e-07
9 16 22 100 5.43092e-05
10 16 22 100 0.0237923
11 16 22 100 1.49095e-05
12 16 22 100 0.0245353
14 16 22 100 0.144088
15 16 22 100 0.0225378
16 16 22 100 0.0703796
17 16 22 100 0.142944
18 16 22 100 0.0980815
19 16 22 100 0.124504
20 16 22 100 0.0952742
21 16 22 100 0.0892313
22 16 22 100 0.0251052
0 17 22 100 0.180479
3 17 22 100 2.06566e-05
5 17 22 100 0.0241809
6 17 22 100 4.37556e-07
7 17 22 100 1.31569e-05
9 17 22 100 2.6966e-07
10 17 22 100 3.37682e-06
11 17 22 100 2.90692e-07
13 17 22 100 0.0288628
14 17 22 100 0.0338934
15 17 22 100 0.0269592
16 17 22 100 0.0330503
17 17 22 100 0.121745
18 17 22 100 0.138795
19 17 22 100 0.100199
20 17 22 100 0.141064
21 17 22 100 0.0731715
22 17 22 100 0.0975608
0 18 22 100 0.0548749
8 18 22 100 1.6534e-06
9 18 22 100 1.43987e-06
10 18 22 100 0.027027
11 18 22 100 0.0540541
12 18 22 100 0.0270335
13 18 22 100 7.46528e-06
14 18 22 100 3.2241e-06
15 18 22 100 0.117283
16 18 22 100 0.0170293
17 18 22 100 0.0271549
18 18 22 100 0.108382
19 18 22 100 0.127519
20 18 22 100 0.161
21 18 22 100 0.197549
22 18 22 100 0.0810801
0 19 22 100 0.124358
5 19 22 100 4.47122e-06
7 19 22 100 6.40905e-07
8 19 22 100 2.17106e-06
9 19 22 100 1.95363e-05
10 19 22 100 2.86786e-05
11 19 22 100 2.79083e-06
13 19 22 100 0.023583
14 19 22 100 4.07335e-07
15 19 22 100 0.11747
16 19 22 100 6.10498e-05
17 19 22 100 0.0294203
18 19 22 100 0.0583241
19 19 22 100 0.117658
20 19 22 100 0.0294791
21 19 22 100 0.205471
22 19 22 100 0.294117
0 20 22 100 0.0064295
9 20 22 100 8.59051e-06
12 20 22 100 0.0416667
14 20 22 100 0.0416666
16 20 22 100 0.0418152
17 20 22 100 0.0894173
18 20 22 100 0.112527
19 20 22 100 0.124999
20 20 22 100 0.124427
21 20 22 100 0.167045
22 20 22 100 0.25
0 21 22 100 0.00137385
2 21 22 100 1.55298e-06
3 21 22 100 1.51405e-06
12 21 22 100 0.0555556
15 21 22 100 0.0555547
18 21 22 100 0.111048
19 21 22 100 0.16378
20 21 22 100 0.109808
21 21 22 100 0.113998
22 21 22 100 0.388878
0 22 22 100 0.0909019
8 22 22 100 6.05473e-05
9 22 22 100 5.91536e-05
13 22 22 100 0.0909555
14 22 22 100 2.25973e-06
16 22 22 100 0.0909092
18 22 22 100 5.09098e-05
19 22 22 100 0.181654
20 22 22 100 0.181829
21 22 22 100 0.0908499
22 22 22 100 0.272727
0 23 22 100 2.07175e-05
9 23 22 100 8.02764e-05
11 23 22 100 2.47129e-06
14 23 22 100 0.125
17 23 22 100 0.124855
18 23 22 100 0.000113354
19 23 22 100 8.88671e-06
21 23 22 100 0.624919
22 23 22 100 0.125
0 24 22 100 1.99646e-05
4 24 22 100 2.53675e-06
10 24 22 100 0.0004848
16 24 22 100 0.00777379
20 24 22 100 0.142857
22 24 22 100 0.848862
21 25 22 100 1
22 26 22 100 1
0 1 23 100 0.000817636
1 1 23 100 0.720078
2 1 23 100 0.116275
3 1 23 100 0.0930364
4 1 23 100 7.97751e-07
5 1 23 100 0.0232558
6 1 23 100 0.0232563
7 1 23 100 0.0232744
14 1 23 100 4.92004e-06
16 1 23 100 5.42224e-07
0 2 23 100 0.0989908
1 2 23 100 0.066962
2 2 23 100 0.578179
3 2 23 100 0.0933163
4 2 23 100 0.0232592
5 2 23 100 0.00402971
6 2 23 100 0.0456523
7 2 23 100 0.0430744
9 2 23 100 6.82647e-06
11 2 23 100 0.0232565
13 2 23 100 0.0232555
17 2 23 100 7.45353e-06
21 2 23 100 1.03483e-05
0 3 23 100 0.101784
1 3 23 100 0.0232269
2 3 23 100 0.139542
3 3 23 100 0.264375
4 3 23 100 0.269297
5 3 23 100 0.0938086
6 3 23 100 0.0184891
7 3 23 100 0.0241472
8 3 23 100 0.0187527
9 3 23 100 0.0232852
11 3 23 100 2.34473e-06
12 3 23 100 0.0232557
14 3 23 100 2.4738e-06
16 3 23 100 2.45687e-05
17 3 23 100 1.1262e-06
18 3 23 100 4.89094e-06
0 4 23 100 0.18765
1 4 23 100 6.61147e-07
2 4 23 100 0.0428286
3 4 23 100 0.124413
4 4 23 100 0.0848705
5 4 23 100 0.355647
6 4 23 100 0.0240183
7 4 23 100 0.0465087
8 4 23 100 0.0411241
10 4 23 100 0.0232478
11 4 23 100 0.0464314
14 4 23 100 0.0232559
15 4 23 100 1.16766e-06
17 4 23 100 2.41622e-06
19 4 23 100 1.07206e-06
0 5 23 100 0.231968
